1.139153282605395723e-02,-2.732506908684574631e-03,2.393236166079528576e-03,-1.934225535728636286e-02,-7.731468878219641128e-02,-1.406468112775869361e-01,-1.577597156721033400e-01,-1.040737877614665158e-01,5.179241250745859892e-02,7.798641697705670228e-02,1.296109840332609897e-02,3.080713256392201421e-03,-7.759202223666075010e-03,-2.487845359308574894e-02,-5.337692467502934413e-02,-8.282297909159500038e-02,-9.000210302792471806e-02,-5.754787011334104585e-02,2.813199763744801338e-02,4.661154312538520056e-02
-6.973430433859784117e-03,7.955791263807032027e-03,-1.189695965994730896e-02,2.788576670154956777e-03,4.982743746194665674e-02,1.036681510752677782e-01,1.296142843169092729e-01,9.366580264061473426e-02,-4.633376177929006412e-02,-6.885171812293770788e-02,1.849191992771287429e-02,1.609785862626778030e-03,-6.086638369003916083e-03,-4.143229766662563651e-02,-1.175123071717194961e-01,-1.869208034444767019e-01,-1.936228299744706116e-01,-1.113885276734195434e-01,6.025376819552605290e-02,6.046740969994773840e-02
1.557821892446070722e-02,-6.648037754557516166e-03,7.765395742151397218e-03,-1.287101994030776658e-02,-7.254764785440781516e-02,-1.455873299565544898e-01,-1.640012546856264020e-01,-1.025066278089293570e-01,4.501581846067785608e-02,1.165357588073333006e-01,2.212516306724782167e-03,5.692730476274110440e-05,-2.623611034987850810e-04,-1.595995534147316708e-02,-6.942415828902981367e-02,-1.181290664389177680e-01,-1.538967168801081975e-01,-7.206977611251866311e-02,3.939780180024547718e-02,2.381991731763469233e-02
5.056695333212693488e-03,7.358969758388036325e-04,-2.444749645514803470e-03,-4.320131869000461491e-03,-9.729416487501812635e-03,-2.684790083310339276e-02,-2.559703105492147981e-02,-8.558504902090213057e-03,-4.283560615430464028e-03,5.714889758910225714e-02,1.157384340650080556e-02,-3.661471019685308415e-03,4.106448142522763078e-03,-2.856203785309775756e-02,-1.318410723353029557e-01,-2.359295002152598797e-01,-2.635122237256646294e-01,-1.393015786938255618e-01,8.359110215721235471e-02,1.979104180195118134e-02
-3.916814813621105618e-03,6.661472865618470879e-03,-1.036065595041388981e-02,-2.053156896070253146e-04,3.753326753456803777e-02,8.139264159029313550e-02,1.016692675261863937e-01,7.178682678682325735e-02,-3.583508169969915752e-02,-5.121322372938805212e-02,1.674860608617664837e-02,2.667636997669316223e-03,-7.541680393873997912e-03,-3.809843313749088772e-02,-9.731636003738328156e-02,-1.505737130871444285e-01,-1.533017059394016224e-01,-8.771573881702104947e-02,4.634701570727729064e-02,5.396352816720192958e-02
-8.726717667069783246e-03,1.031886520665871443e-02,-1.553419887509087036e-02,5.001362807783328590e-03,7.679242836237788750e-02,1.604803350885732338e-01,1.897732362718906884e-01,1.369429662960667260e-01,-6.541712357624387963e-02,-1.133683132259518667e-01,1.759798637391668530e-02,4.119461625752114664e-03,-1.004494492512107359e-02,-4.263004859272950808e-02,-9.867250434836941086e-02,-1.428072790770623934e-01,-1.428845401987167973e-01,-7.901723253917085354e-02,4.515628232240233297e-02,3.114146583505650323e-02
1.159466740529968565e-03,3.384364382519497796e-03,-5.962056626122705198e-03,-3.825079905484370969e-03,6.947044600388386018e-03,1.564964099656620394e-02,2.356958967140277555e-02,2.044556496949561514e-02,-1.155922500677423505e-02,-5.705110419428177301e-03,1.808281869193251179e-02,-3.758476627523099634e-05,-3.396106652723253350e-03,-3.597286713196994751e-02,-1.119397731318703126e-01,-1.893704807373437493e-01,-2.030718071260679269e-01,-1.226704676959975981e-01,6.311169375895943345e-02,8.257371198175178506e-02
9.692001503245062377e-03,-1.729525808952157850e-03,9.506958488524203110e-04,-1.453118779150190144e-02,-5.384051629445927439e-02,-9.801515299995758324e-02,-1.113020872978019715e-01,-7.659632382294023767e-02,3.755857168041207284e-02,5.980663141018427442e-02,1.376591929549500493e-02,1.959541522273407221e-03,-6.004220073820940029e-03,-2.663595243905769391e-02,-6.689856872618707428e-02,-1.073811668566284627e-01,-1.180194007614724094e-01,-7.862717752423320494e-02,3.794551432184421758e-02,6.504089693323963917e-02
-7.435147055750213063e-03,1.494976137875897448e-02,-2.373408694324585788e-02,4.890888984882241219e-03,1.158559891295812688e-01,2.330905844133502047e-01,2.564111668049419146e-01,1.976784159288365039e-01,-9.547744574828495590e-02,-1.556102597248294195e-01,2.069718578291490640e-02,4.792540960925191496e-03,-1.172065498449676585e-02,-4.983107990560114997e-02,-1.120891122555949249e-01,-1.584357930944985671e-01,-1.638471167164066711e-01,-9.262910830453785493e-02,6.246560831493461197e-02,-2.034311223685236758e-02
8.150698726244270942e-03,-9.048223667135757431e-04,-9.977579923563240083e-05,-1.347024392577960035e-02,-4.684715248138670435e-02,-8.338740190292345811e-02,-9.546136504367613851e-02,-6.577157748880034516e-02,3.259182821847361744e-02,4.924292399266170378e-02,1.516136549181726356e-02,1.647663229923899963e-03,-5.770219945843708953e-03,-2.830812252487552999e-02,-7.259507758598655880e-02,-1.176782611670352252e-01,-1.275165949247965280e-01,-8.461598405697162706e-02,4.111382153353603658e-02,6.890575220592022598e-02
-9.446515713830427874e-03,1.018136047778091940e-02,-1.513979285124027879e-02,5.489878197072563248e-03,7.405296853929140000e-02,1.543451657846006964e-01,1.846775556559634435e-01,1.334688417930728344e-01,-6.428566223395720813e-02,-1.076434989302989254e-01,1.845649958744921548e-02,3.138680895625613199e-03,-8.585647614600185051e-03,-4.334459651591089646e-02,-1.095191803972657002e-01,-1.644719288174785743e-01,-1.670949768697199689e-01,-9.402183589139848086e-02,5.295367468165850661e-02,4.055978487622940998e-02
1.581342404250862810e-02,-6.932687768845785525e-03,8.177640598024202984e-03,-1.253866832803399167e-02,-7.280756128051996123e-02,-1.466770366698663675e-01,-1.647780605287086086e-01,-1.013965039447520117e-01,4.542051492002029123e-02,1.100854470959304054e-01,3.790989207793860061e-03,-9.377967343218024387e-04,1.008850941273738144e-03,-1.542805175779433935e-02,-7.126847587533406692e-02,-1.243893234453100349e-01,-1.594619997222410102e-01,-6.842170900385730059e-02,3.404056795632101617e-02,4.483842820824464337e-02
5.720455907784138816e-03,-2.418632218561683062e-03,2.713728594936444180e-03,-3.129905886911249838e-03,-2.584800866545607090e-02,-5.799859072799078141e-02,-6.858309690625452593e-02,-3.073363200838736056e-02,1.308788857156798109e-02,3.034577346455473792e-02,1.230868460554884747e-02,-4.729494302909836856e-03,5.535295120076340336e-03,-2.256228729946722217e-02,-1.119808012272819620e-01,-2.072313565185960882e-01,-2.332471056764320594e-01,-1.175207507536571022e-01,6.531254795630503374e-02,4.503646048826898118e-02
2.283891777570360229e-03,2.683507966134390278e-03,-5.013676714159915129e-03,-4.948611526717789505e-03,-1.284028380957097024e-04,2.329331739958183291e-03,6.918325345677387231e-03,7.538814216776282273e-03,-5.168950563144906855e-03,3.567017753014932978e-03,1.829644108938005553e-02,1.299538713135095502e-04,-3.741110370777289695e-03,-3.576776131001991460e-02,-1.089539937794382352e-01,-1.838185928421929849e-01,-1.970622563850945030e-01,-1.195763022457460162e-01,6.104700729191549907e-02,8.319593689875223741e-02
-2.938813285634500616e-03,5.926183739643604842e-03,-9.342764930112767985e-03,-8.133521839773991124e-04,3.064187802738765898e-02,6.591633924106815590e-02,8.395300170632473413e-02,6.064013145404113098e-02,-3.066885721252368691e-02,-4.061975638680028616e-02,1.740556258183872940e-02,1.844839468813821992e-03,-6.320411790508316530e-03,-3.814985936051485532e-02,-1.041756764087955894e-01,-1.661599786977716597e-01,-1.718724402993418721e-01,-9.957296890408176560e-02,5.233092512767519022e-02,6.229925644705069931e-02
-9.890998340798040633e-03,1.545673650347204053e-02,-2.409488478113228777e-02,7.942362352018061955e-03,1.151936542397647839e-01,2.326063803749992831e-01,2.625781847787286294e-01,2.033657414915135409e-01,-1.000405781706181635e-01,-1.438339136687438735e-01,2.537250111824163046e-02,6.833006210646558332e-04,-5.821706803951477716e-03,-5.452258458414879772e-02,-1.618130586225038359e-01,-2.478351116517095720e-01,-2.614368138971321365e-01,-1.513290712943730354e-01,8.960493788795928505e-02,3.341768890630830713e-02
-8.080291945879447546e-03,1.481285330600798367e-02,-2.341197082219009795e-02,6.924754504342066352e-03,1.184036517070525679e-01,2.365424631475420980e-01,2.621882947255134710e-01,2.013987476978745805e-01,-9.924828916387727629e-02,-1.444307350889489361e-01,2.205949931890210935e-02,3.695705492583398200e-03,-1.015824419772320270e-02,-5.159679140631095312e-02,-1.271591759315809367e-01,-1.848561029986757753e-01,-1.922826348239108085e-01,-1.083869639463644757e-01,7.005724912480879030e-02,-8.927848282353767484e-03
-4.981769671327102023e-03,7.844668316519656792e-03,-1.211412734011906717e-02,3.917513240141758113e-04,4.918848429747002537e-02,1.075223067585057424e-01,1.303566281583018183e-01,9.047615790957537485e-02,-4.429348353327490495e-02,-6.980232036908078086e-02,1.523510289714818944e-02,4.472030527413725642e-03,-1.021163560051803129e-02,-3.768500573303291967e-02,-8.130829575623399474e-02,-1.155035640551838189e-01,-1.128377144480353367e-01,-6.224620861366689240e-02,3.366167845689413407e-02,3.501639275863910328e-02
1.214066355325099655e-02,-6.148631664426335020e-03,8.209211395806430278e-03,-2.541349521947671580e-02,-1.305989906950643376e-01,-2.403805256642221055e-01,-2.451478444634430098e-01,-1.809725296576294995e-01,1.046905951180517602e-01,4.950230365968083523e-02,1.513583929490813773e-02,2.347921786461822091e-03,-7.162248115047859659e-03,-2.279997610602126426e-02,-5.066006148738345233e-02,-9.239905462525652147e-02,-1.108537817830414218e-01,-4.055854644805478859e-02,2.165722995098604692e-02,3.372951868655336971e-02
3.879809859575606562e-03,1.530050998976776981e-03,-3.436976755229548611e-03,-5.785963543495342351e-03,-9.380991046774589392e-03,-1.756865046656932300e-02,-1.716449436310900356e-02,-9.458706740434046426e-03,2.785404399684440063e-03,1.896018030129385454e-02,1.798632038345088224e-02,-8.594289064378507481e-04,-2.043129664791774880e-03,-3.437293674579749297e-02,-1.133195987736707461e-01,-1.955098385006036055e-01,-2.128638997403913269e-01,-1.284802878998488607e-01,6.545490487258875945e-02,8.498938780716300267e-02
-9.332560720984317548e-03,1.156919735701769647e-02,-1.754614234340610285e-02,6.167238747178081792e-03,9.006113847889897495e-02,1.858126161613813110e-01,2.154964152063945926e-01,1.590235278243619932e-01,-7.703617968465951982e-02,-1.272949561606744329e-01,1.838162628747597171e-02,4.454542261012502113e-03,-1.073864324925684344e-02,-4.464688315604732616e-02,-1.012137515875175114e-01,-1.443744580483654893e-01,-1.450474313043542407e-01,-7.962509669014326830e-02,4.900552070985930014e-02,1.293299500275393865e-02
-8.335532958931718417e-04,4.828447335783705996e-03,-7.930099451140541073e-03,-3.025421740732428880e-03,1.903055228814294272e-02,4.391942890361362484e-02,5.693794908347255684e-02,4.124552935710640300e-02,-2.111706381024646209e-02,-2.606428623417295781e-02,1.667838404540653019e-02,2.135942219469617875e-03,-6.697244974235572190e-03,-3.612367886224816804e-02,-9.474855830036432724e-02,-1.502138304624556497e-01,-1.551787221274941175e-01,-9.054075753638840540e-02,4.682755794312284253e-02,6.067245644697950857e-02
2.406618024575687097e-03,2.529084490781284989e-03,-4.803816115945081476e-03,-4.470267146315050344e-03,4.451088592339415327e-05,6.710861958044684423e-04,5.453627955275219992e-03,7.574710483060935994e-03,-5.540788194972414565e-03,6.360424404217733876e-03,1.860964541486109791e-02,-5.208153432396112059e-04,-2.705681651162306078e-03,-3.633804642847550392e-02,-1.170172673132237884e-01,-2.000875224541903141e-01,-2.160421929726010770e-01,-1.308904735544279829e-01,6.770526921505164164e-02,8.420890503777289648e-02
2.482060388160500786e-02,-1.148397620595858343e-02,1.334438560952811402e-02,-4.005366052045600256e-03,-5.156357780234137322e-02,-1.301992947309071891e-01,-1.377349630690393456e-01,-2.378967513434687361e-02,-3.632853369315650754e-02,3.258715156102027222e-01,-2.242027142383135052e-02,-1.502662717043141971e-03,8.147788563688033309e-03,-4.904825416508093450e-03,-9.970998518358720197e-02,-1.779956345259048889e-01,-2.527366484417160608e-01,-1.269086406586428240e-01,1.316320286853844279e-01,-3.379635162763901524e-01
2.732578256116766947e-03,2.419910519792973363e-03,-4.650312188427884602e-03,-5.843248743946790995e-03,-4.074988393076094118e-03,-4.032458364892618774e-03,-1.165895146742066107e-03,9.988499954924447751e-04,-1.567310755815214595e-03,6.122653293359743218e-03,1.782652083080404903e-02,5.085747857643818648e-04,-4.294867831514261047e-03,-3.475831983585542240e-02,-1.021872309367654053e-01,-1.709951561973578893e-01,-1.829134482057568900e-01,-1.114759884016286728e-01,5.653529012279692734e-02,7.959160969736771285e-02
8.950807318668402290e-03,-1.013310141783983764e-03,-5.855951521023874951e-05,-1.503921516810811411e-02,-5.141529961962668094e-02,-9.114910179344994090e-02,-1.026332205849970480e-01,-6.879526042466689584e-02,3.473066027143013185e-02,4.798787110612890566e-02,1.302677689211687029e-02,2.942339950905002721e-03,-7.462856712143955268e-03,-2.702205687452120114e-02,-6.150703683223088941e-02,-9.456463737584203111e-02,-1.014644434578748922e-01,-6.628635427288855075e-02,3.273529851654610745e-02,5.128551698340497178e-02
7.842009250715320512e-03,-3.072769363671363357e-03,3.481735122995710530e-03,-8.459060924665254971e-03,-4.581178872366872823e-02,-8.907270208160809888e-02,-1.057799135780826821e-01,-6.477641778696513475e-02,2.950004122651405519e-02,5.905210024422496984e-02,1.402523467698713056e-02,-2.721830991040515013e-03,1.695750756386928126e-03,-2.202933818719302744e-02,-8.676000859913771124e-02,-1.567006491461755135e-01,-1.764264889462808517e-01,-9.328504704573777062e-02,4.635933277205592923e-02,6.273667071480927560e-02
-3.786057116738461570e-03,-5.616641608542881359e-03,1.073386804815621223e-02,-9.158977003250474980e-03,-9.735109404430879187e-02,-1.850239047290757055e-01,-1.804487727306040568e-01,-1.301156303039623929e-01,7.258426760161859614e-02,4.385276833735249347e-02,1.922752648695022493e-02,-7.105596323856308572e-03,7.452553585183853413e-03,-1.133957125742865793e-02,-6.634035690072068170e-02,-1.413123817877510735e-01,-1.630899606536714286e-01,-7.349377131079003200e-02,5.091029058019825443e-02,-3.040417289771071840e-02
1.585087372904353531e-02,-8.485714033590732730e-03,1.041701867621820828e-02,-1.388728976566572931e-03,-4.016007747082337570e-02,-1.005779234843228176e-01,-1.157689479719502534e-01,-4.045342887875380544e-02,8.884134926148142680e-03,9.974344015539943209e-02,5.417763538347331043e-04,-5.864492004397689473e-03,1.000037461682963189e-02,-1.068010517332300402e-02,-1.012612523498863659e-01,-1.948706097701849438e-01,-2.359549914131631732e-01,-9.343043537557164935e-02,6.795510901112408741e-02,-5.522803865454808947e-02
-6.139253856777826535e-04,-6.027419140900866501e-03,1.069736760093695574e-02,-1.102718753839781324e-02,-1.003594538737884595e-01,-1.924879452932498625e-01,-1.830678952024104855e-01,-1.328864929376093185e-01,6.974341448990192815e-02,7.710694149034900968e-02,1.585049361898960285e-02,-5.593569428359056184e-03,5.767318112551770432e-03,-1.248463928554271324e-02,-6.750412273878114711e-02,-1.389420715674585527e-01,-1.684766994255830763e-01,-7.654771233636578631e-02,5.507352163936281991e-02,-4.817388110562034753e-02
1.775356188093937804e-02,-9.256265499474669589e-03,1.135662419784128595e-02,-4.414837713546830578e-03,-5.316223513056108491e-02,-1.226143079633042754e-01,-1.379077809366094365e-01,-6.635166175941330235e-02,2.424061173407500783e-02,1.034156408652915360e-01,6.763058952518552491e-03,-6.185195004530560925e-03,8.980977243120916859e-03,-1.029614573072458461e-02,-8.529457058284176107e-02,-1.680574224800739647e-01,-2.035494147317085667e-01,-7.210883944839741044e-02,4.519085432207109454e-02,2.949460210275728356e-03
-9.415951907647712726e-03,1.218546043849503407e-02,-1.858621445596064098e-02,6.561797048070659721e-03,9.579767128260124887e-02,1.964632533009074145e-01,2.262081790100792800e-01,1.683149563016246852e-01,-8.287830121084760471e-02,-1.262748589130108789e-01,1.894153174542306806e-02,4.353407311347645692e-03,-1.066940335816739249e-02,-4.584220254223216745e-02,-1.055550102578531185e-01,-1.510936762199178163e-01,-1.529105437242922472e-01,-8.395127773267718752e-02,5.316019745498586774e-02,3.866213593985257102e-03
2.957662829942642180e-03,-6.538158263577481533e-03,1.072843072420627542e-02,-1.281309739773607570e-02,-1.030045732182365004e-01,-1.989315636613217531e-01,-1.851927055726199367e-01,-1.374967705463981671e-01,6.935604133198865207e-02,1.026270427404083335e-01,1.160279488340723586e-02,-3.891250283385619402e-03,3.976029984698651459e-03,-1.358278684118625207e-02,-6.927245989987490526e-02,-1.365727677877994206e-01,-1.731796367977641582e-01,-7.787464322095029312e-02,5.861749544538912005e-02,-6.863851810799034836e-02
6.314600131747949430e-03,-2.819413958861920200e-03,3.283587283700454759e-03,-4.153627861142181882e-03,-3.115269696015464385e-02,-6.646587632844115634e-02,-7.932068508686553054e-02,-3.981599371176607061e-02,1.700011074653351439e-02,4.028118996720281286e-02,1.283672395564450230e-02,-4.509105930487936065e-03,5.002585828512304267e-03,-2.165865239505592940e-02,-1.042745991292085006e-01,-1.932464574430297899e-01,-2.177191916516793280e-01,-1.085647603873229200e-01,5.870534880314674797e-02,4.983492447174911466e-02
5.187107703889859422e-03,-6.916300404729049112e-04,-2.674283087293442829e-05,-4.817444477207099944e-03,-2.043764212875938055e-02,-4.356046279870724736e-02,-4.967321233118252022e-02,-2.613451475203483476e-02,1.235904311754590715e-02,2.041250335359923868e-02,1.494551211572642258e-02,-3.112368330172046726e-03,2.316638044433487476e-03,-2.800485196336524596e-02,-1.142884486391564092e-01,-2.053707339301174550e-01,-2.284378245721075673e-01,-1.259090183356265102e-01,6.578663355603078799e-02,7.214291787602172823e-02
-1.156469880695437658e-02,1.183936518827836959e-02,-1.749986259742823333e-02,7.565344760997801121e-03,8.688186184589480332e-02,1.789328068212260314e-01,2.127564392580004182e-01,1.572277498895119918e-01,-7.952290718758878163e-02,-1.044874966600782551e-01,2.053130234834521506e-02,2.020181535642137649e-03,-7.103440944027768211e-03,-4.697988748431228267e-02,-1.305609007358414231e-01,-2.004745254528060849e-01,-2.078827773007609347e-01,-1.175735307679719732e-01,6.970405034562918156e-02,2.842099512791049221e-02
1.728765463069367736e-02,-9.639755805713724757e-03,1.197705809387402710e-02,-3.266648806581999576e-04,-4.136710714468175981e-02,-1.084051866695865673e-01,-1.278101519566179067e-01,-2.219539461076881076e-02,-1.513281997252225591e-02,1.858573380925247209e-01,-1.930279944664758940e-02,-2.882929879709880683e-03,9.758051833226352723e-03,-6.478237477276375944e-03,-1.107371604909709872e-01,-2.019751995406298684e-01,-2.697739761161030425e-01,-1.182572175616844051e-01,1.126200509914884740e-01,-2.424146543558855227e-01
6.789376723940074299e-03,-1.602342414873947352e-04,-1.099744994870619635e-03,-1.126888188067533617e-02,-3.569705874824157660e-02,-6.276793551099132951e-02,-7.173289315927966481e-02,-5.049202338585798838e-02,2.467540648405395012e-02,3.957768730254604406e-02,1.639120126186213722e-02,9.960719892167790857e-04,-4.918314485606745806e-03,-3.006380709515002470e-02,-8.217953451682045996e-02,-1.360204253298402111e-01,-1.473866805669482027e-01,-9.583772034084027391e-02,4.672564779891072440e-02,7.759393791951250952e-02
1.556795985936570981e-02,-4.831472933978911422e-03,4.957078474141299318e-03,-2.085407812301499908e-02,-9.070243425850381402e-02,-1.706166095041187214e-01,-1.869272083850151422e-01,-1.259775958074206004e-01,6.342381260661775211e-02,8.739991340704872380e-02,1.134847257581669822e-02,2.494354080875157975e-03,-6.428577951059163270e-03,-2.330553333123016810e-02,-5.734768606502821386e-02,-9.263649116709019027e-02,-1.103854993271533025e-01,-6.178597041703814963e-02,2.908385237133902582e-02,5.616151829113227162e-02
-1.153523142716036953e-02,9.273868705443971683e-03,-1.309377277518910393e-02,5.572076720048044218e-03,5.428712260566524034e-02,1.084637809329164343e-01,1.404316771518782925e-01,1.074553667938137197e-01,-5.409813887104220065e-02,-7.338764477041856416e-02,2.048918401263477573e-02,-7.285457563782626877e-04,-2.522928241232805235e-03,-4.538269874323130892e-02,-1.538150528422380370e-01,-2.540830617430068217e-01,-2.712138024126883873e-01,-1.578627237977771325e-01,9.197419986960904403e-02,4.869236326146722527e-02
8.418634327855722965e-03,-1.683013156734601556e-03,1.115389858710871124e-03,-1.246656941197910561e-02,-4.898949423299987782e-02,-8.969549719777934749e-02,-1.041687888638202081e-01,-7.138132517027505342e-02,3.522173278863011819e-02,5.213268258588663745e-02,1.591323904374963849e-02,1.826748486986121134e-04,-3.514140376957141515e-03,-2.745450074884604047e-02,-8.004323649305854216e-02,-1.355158162594456428e-01,-1.493194951408102211e-01,-9.589673307034306260e-02,4.715644171359077014e-02,7.002761796086023893e-02
1.140327300509430541e-02,-2.896079687211415565e-03,2.640012094468284498e-03,-1.859631365660358374e-02,-7.574714020535593118e-02,-1.386447964645031450e-01,-1.562922131423134520e-01,-1.037535326536551672e-01,5.167816553995219914e-02,7.678635255040865137e-02,1.368313738905779786e-02,2.420473054078872699e-03,-6.818057148138011170e-03,-2.511867962999512691e-02,-5.810649927642190515e-02,-9.258887935529463986e-02,-1.022067207961443180e-01,-6.635942672891995131e-02,3.287006952986883113e-02,5.026936332228259391e-02
6.697773393960201882e-03,-4.497758879442325525e-03,5.905228736099473255e-03,-3.942260164569999503e-04,-2.866111403225382603e-02,-7.059442094526602318e-02,-8.514527563247867303e-02,-2.850009144764685184e-02,1.135652384764219459e-02,3.285449892268082345e-02,8.963083539168248404e-03,-6.616912039020442227e-03,9.381998383492656801e-03,-1.699843975673687863e-02,-1.135876088095601893e-01,-2.172942610734670821e-01,-2.472544634782890827e-01,-1.132758568665162974e-01,7.200945446313417042e-02,-4.589705879990579884e-03
-9.277337988626926935e-03,7.743337589755081019e-03,-1.098942309743319336e-02,3.116125936939554558e-03,3.522187796189522185e-02,6.445820643142505246e-02,9.266555018932914889e-02,7.762887456257054619e-02,-4.215364432940459788e-02,-3.613108806725603972e-02,1.536245439831079862e-02,-2.522492868614445438e-03,1.622016851916131819e-03,-4.045143791920823018e-02,-1.650035302377406421e-01,-2.800903341145979386e-01,-3.073703189161730576e-01,-1.702920458172257623e-01,1.144665647001714692e-01,-3.786864387099564411e-02
-9.362447895618852822e-03,9.036331894372091889e-03,-1.319967103337239302e-02,4.775451481156507000e-03,5.903786118879666978e-02,1.216372209981498309e-01,1.513226966830970299e-01,1.106138316329749599e-01,-5.416936989042052397e-02,-8.423956195430767901e-02,1.946722365873698735e-02,1.222035713756508546e-03,-5.608743378824769532e-03,-4.354197930148082096e-02,-1.278894877494448079e-01,-2.041054254115047817e-01,-2.126245456588027050e-01,-1.225657171322398487e-01,6.741172134832607021e-02,6.033222095104842642e-02
3.374029845423094989e-03,1.839387941919350296e-03,-3.882215283712020949e-03,-4.464511582718174929e-03,-4.240568315532258423e-03,-1.084767793229772168e-02,-7.800487685404798935e-03,1.831959967868385455e-04,-4.963233186198380553e-03,2.736958805452575222e-02,1.691119813412750306e-02,-1.766978550351100408e-03,-2.418458394826475399e-04,-3.440382708839480330e-02,-1.251377663942441765e-01,-2.184823265118286117e-01,-2.394169361973623178e-01,-1.394478411673913121e-01,7.532019040234515239e-02,7.036694310469576719e-02
-1.007729670601531513e-03,4.416996615848602439e-03,-7.256729096657804114e-03,-1.383226161164192655e-03,1.790617847728867562e-02,3.432693434697313417e-02,4.814439681742464783e-02,4.026826874637569331e-02,-2.175092932968218304e-02,-1.769581108566606331e-02,1.903700349693432381e-02,-4.477069557383972498e-04,-2.832712447386510901e-03,-3.943837557519186410e-02,-1.288770791998126164e-01,-2.182870233128267889e-01,-2.340398142618990152e-01,-1.396205985709293718e-01,7.371290537355792982e-02,8.384671480062017013e-02
1.131305803625728967e-02,-4.080797397903887513e-03,4.539454278212073229e-03,-1.473174499935883328e-02,-7.022857008371446996e-02,-1.329852948911740551e-01,-1.532432862090478132e-01,-9.884943665073134267e-02,4.577823791933198494e-02,9.158477113737462094e-02,1.380729914066103348e-02,-3.933456554231079538e-04,-2.182580173593278577e-03,-2.237509938299549889e-02,-6.984064004313927931e-02,-1.206305292424836306e-01,-1.382620469783900907e-01,-8.061459989772920554e-02,4.010624592028290414e-02,5.320181848931997137e-02
4.163223953887615347e-03,1.616469695874190454e-03,-3.543804574210553462e-03,-8.637133340861866473e-03,-1.683866228864244058e-02,-2.566203768114476078e-02,-2.737983815082172673e-02,-1.836443554894771901e-02,8.931440283357027637e-03,1.485676258537302341e-02,1.601368875671929648e-02,1.689246547091571848e-03,-5.927099257488081113e-03,-3.187233273673089479e-02,-8.372792077502669295e-02,-1.354250510585162937e-01,-1.439290517122212842e-01,-8.929391504815978320e-02,4.477348647086594469e-02,6.621730607032219607e-02
-7.415384979672812182e-03,9.686101488946920191e-03,-1.473162226122240806e-02,3.399580686708633670e-03,6.993119058834730561e-02,1.479133916404516691e-01,1.752237240585812483e-01,1.247079517257594083e-01,-5.979054993736099971e-02,-1.023810692238231318e-01,1.632123997262890924e-02,4.760956064554899836e-03,-1.086901708888166410e-02,-4.070243127534298871e-02,-8.763299040258307193e-02,-1.230217693963147618e-01,-1.208340659303077519e-01,-6.573633946253565341e-02,3.735635985000761855e-02,2.748708065048399707e-02
-3.399382494658750864e-03,6.076115485869289234e-03,-9.502265488149199205e-03,-2.239895998048628545e-04,3.230776442711605356e-02,6.819548840113155708e-02,8.723188083634576817e-02,6.372229638280972608e-02,-3.225205820576804855e-02,-4.239714533337091140e-02,1.789066523322435653e-02,1.442609663992011626e-03,-5.739122443358828096e-03,-3.894280272822353561e-02,-1.103284791781826563e-01,-1.779279439110136585e-01,-1.851557548402258668e-01,-1.075284218460101776e-01,5.680009293969244533e-02,6.554006806857312628e-02
-8.723520536861706365e-03,1.145425517834324641e-02,-1.747608908567574101e-02,5.519641391906901506e-03,8.959550774553537433e-02,1.850460841994673866e-01,2.133995344116574322e-01,1.573979070806724168e-01,-7.469282141606681247e-02,-1.346681383562028100e-01,1.754359515065259667e-02,5.232643294404371037e-03,-1.186746500731794551e-02,-4.381931814067648034e-02,-9.207174335760441586e-02,-1.270669349611192045e-01,-1.259686496396660027e-01,-6.800643663042497955e-02,4.232853154804686741e-02,9.715529222984797819e-03
3.367473510854902818e-03,2.414648040766628929e-03,-4.691513529484046471e-03,-8.643458427057024857e-03,-1.106633704878700990e-02,-1.214649763920308198e-02,-1.052590370614565549e-02,-5.964047878204946362e-03,2.912513306819705314e-03,5.025390630342315909e-03,1.431193272680753026e-02,3.171247450312428273e-03,-8.017850117662820436e-03,-3.120764409558075825e-02,-7.125901551914790022e-02,-1.082355699973177598e-01,-1.114216018582508128e-01,-6.716789306282125449e-02,3.385862314921987692e-02,4.923750764123782653e-02
-9.744280763659574074e-03,1.172132024607291934e-02,-1.771640887749638404e-02,6.572301641516863080e-03,9.081672356298545190e-02,1.871384510514894073e-01,2.176731173660274854e-01,1.608430712794959305e-01,-7.900686563188172307e-02,-1.222484747711195946e-01,1.891634473045819553e-02,3.969016782804549170e-03,-1.003377992086835341e-02,-4.529422068733542084e-02,-1.074335061952572251e-01,-1.559654757184762708e-01,-1.579511771300592671e-01,-8.737064293591736974e-02,5.363395667355449342e-02,1.376607184612443913e-02
-5.660696449138330477e-03,6.879574254973014336e-03,-1.037535875201240493e-02,1.889715452010259228e-03,3.908909734701956212e-02,7.882597794881224251e-02,1.021869311489297938e-01,7.709661294499513262e-02,-3.876726119487225453e-02,-5.239536926000208650e-02,1.917301974881185922e-02,3.627187022334360522e-04,-4.154719721711642999e-03,-4.163902373234733278e-02,-1.296813352967621791e-01,-2.136074140434870150e-01,-2.254704854879558129e-01,-1.317460921870672319e-01,7.097755990759094247e-02,7.220453204593421659e-02
-3.814392067947813825e-03,6.815824055767718409e-03,-1.063189979319595357e-02,-5.915262104019616829e-04,3.863996560546726494e-02,8.514607637982464505e-02,1.053475298453706577e-01,7.341108769232973508e-02,-3.644590150436516351e-02,-5.373980413645736143e-02,1.588053062884894895e-02,3.456181613583651779e-03,-8.677798553679672011e-03,-3.729707325364134407e-02,-8.833088877495344493e-02,-1.322390080641827892e-01,-1.323880231590027490e-01,-7.493920734576346721e-02,3.960800185292682324e-02,4.640080235224444682e-02
8.893403232898472455e-03,-5.673209246371720138e-03,7.465723611366593265e-03,-3.578811437349355834e-03,-4.407739878042591514e-02,-9.543115815047652217e-02,-1.155692557107201868e-01,-5.523384005572664485e-02,2.200007256825046303e-02,6.965164785027108674e-02,1.196601501138894186e-02,-6.160781533143429300e-03,7.796901038880588164e-03,-1.492606627318116344e-02,-9.130878716000292994e-02,-1.773543104679183857e-01,-2.025219683966882900e-01,-8.590200143534325317e-02,4.908697635966345618e-02,2.711468241659997780e-02
-8.155105896438419322e-03,1.494168090758907219e-02,-2.361759428324449253e-02,7.036908852145327964e-03,1.186724360681208901e-01,2.372191143765859656e-01,2.632963264282858207e-01,2.024532431136390476e-01,-1.000854269688862264e-01,-1.439202988613852430e-01,2.253870050721151763e-02,3.293858707088592741e-03,-9.585853010127286244e-03,-5.208939598776755886e-02,-1.320331545987618038e-01,-1.935743156251825137e-01,-2.018433486699818813e-01,-1.142452184770222506e-01,7.293988840429485587e-02,-4.047577160010334962e-03
5.852986196656556617e-03,-1.134278761277553865e-03,4.798253860672594545e-04,-2.815312796855286986e-03,-1.646756935853132056e-02,-4.481575431316388303e-02,-4.841064436944760019e-02,-1.626200298597171509e-02,4.455180345644227206e-03,3.347547502127336261e-02,7.272358546394908085e-03,-5.277407936812791855e-03,7.711394490389954226e-03,-2.229949289470985890e-02,-1.307766936733615326e-01,-2.398226232945223080e-01,-2.714608621415951495e-01,-1.330842141396936795e-01,8.322827045482565633e-02,-3.136502999555590421e-04
6.565650323861110804e-03,-2.828261474579159274e-03,3.265423091351670956e-03,-5.084507161846272758e-03,-3.405915983904728161e-02,-7.051836511748593717e-02,-8.419514603437122657e-02,-4.521210606358432027e-02,1.964662566296503099e-02,4.452228931342954582e-02,1.331509383323636886e-02,-4.120023320505414310e-03,4.230915548036277840e-03,-2.181254818913097929e-02,-1.000858284633367595e-01,-1.846225530317527896e-01,-2.078943200835211835e-01,-1.047274058827410426e-01,5.522426558197494201e-02,5.519969135008648276e-02
-2.381536865332115060e-03,5.150904946666260559e-03,-8.189853399589205885e-03,-4.082117834156157032e-04,2.422390387242401993e-02,4.737874452772718181e-02,6.423394518071938453e-02,5.146059862757570297e-02,-2.694551718258229173e-02,-2.804377365476740103e-02,1.905274962171488173e-02,-2.123394061650657472e-04,-3.209383865051387841e-03,-4.012373837528968035e-02,-1.294210216564455895e-01,-2.175114838603420531e-01,-2.321120254535639360e-01,-1.374910798849301452e-01,7.306433862100590593e-02,8.025312464361059051e-02
6.920045824167511683e-03,-4.671006856495071163e-03,6.148059594405036465e-03,-5.042844419170869341e-04,-2.978099707078294550e-02,-7.260388834808244318e-02,-8.776026829303838761e-02,-3.028025113906655449e-02,1.196161782879442102e-02,3.590146621009117356e-02,9.152867690731258943e-03,-6.665494987515896419e-03,9.405126285716658430e-03,-1.664322042224374021e-02,-1.118150026550816106e-01,-2.144999284931862760e-01,-2.441659390665288365e-01,-1.107915392072251759e-01,7.030867922964369188e-02,-3.698153500741818700e-03
-6.737808398499300910e-03,8.374558633385334461e-03,-1.265065651660489919e-02,2.475449936206793738e-03,5.494601115408738468e-02,1.166407661004508212e-01,1.424864936823358186e-01,1.006652015300719544e-01,-4.938056580669326900e-02,-7.675171986683632097e-02,1.718436724373681446e-02,3.052056235443564858e-03,-8.224585265474398943e-03,-4.025426045000198710e-02,-1.010923424889118016e-01,-1.533187309833036749e-01,-1.550985648977605269e-01,-8.761611843916261577e-02,4.756743241752811602e-02,4.733510247866584697e-02
-1.190330249979276722e-03,4.423744807003237092e-03,-7.238545382520164724e-03,-1.017776998552259726e-03,1.731084898890520446e-02,3.030628602018187179e-02,4.510203419447597617e-02,4.046662137122378211e-02,-2.398706894448558030e-02,-6.291839878235349487e-03,1.793464010390588559e-02,-1.364448960737826844e-03,-1.023308778642151307e-03,-3.909236466672950244e-02,-1.396652276297918327e-01,-2.394272802375231324e-01,-2.595151402939041563e-01,-1.521696962054669422e-01,8.867914255764787479e-02,4.476463290604978940e-02
2.106157492046147744e-03,3.220487878900200624e-03,-5.798102825917661809e-03,-7.013627681350896419e-03,-1.180089678134448820e-03,6.848203513876156660e-03,1.209775368717967182e-02,9.511166477197552024e-03,-4.973249635691120302e-03,-5.217026664733362580e-03,1.476099868612701371e-02,3.118470428075795220e-03,-7.998161619914470610e-03,-3.243208464392262347e-02,-7.529357730347824296e-02,-1.147380079286889759e-01,-1.174160093892152312e-01,-6.961053855703056015e-02,3.524620286096422084e-02,5.054050281773635189e-02
1.527437938042119914e-02,-6.454810641705291396e-03,7.806356519059351462e-03,-2.153741077679194316e-02,-1.079128721015974179e-01,-2.055970983504029626e-01,-2.140176119655790576e-01,-1.480954873513483094e-01,7.640643547806658109e-02,9.764338087579041425e-02,1.344015958450128778e-02,1.152668977785563376e-03,-4.739425339315272295e-03,-2.195269948190253090e-02,-5.899409364630945479e-02,-1.031874056796222433e-01,-1.300172409548362162e-01,-6.347173923325326317e-02,3.429610870707783948e-02,3.066693048649420106e-02
-1.214188875775829013e-02,1.096377763903000346e-02,-1.585994750602387829e-02,7.247282012690134390e-03,7.604668116657357924e-02,1.566217658874153318e-01,1.905392481667228521e-01,1.406683066437097451e-01,-7.031992029080355588e-02,-9.882054613839505453e-02,2.065700406865378369e-02,1.205695286403352107e-03,-5.785145757123570653e-03,-4.635638352416100727e-02,-1.365355213234604181e-01,-2.150806032946732671e-01,-2.244837560908506946e-01,-1.287339319744514599e-01,7.402700020971417216e-02,4.454766871760715286e-02
-8.397085758538924694e-03,1.507307547402729486e-02,-2.378989905398724500e-02,7.268409813311442480e-03,1.184815255772222187e-01,2.372102930697333467e-01,2.641795154516241584e-01,2.034209996911164609e-01,-1.006178140690017764e-01,-1.432379502642487090e-01,2.321841362490301153e-02,2.682787912959602727e-03,-8.706381408678791345e-03,-5.273910981765606021e-02,-1.392323018710269755e-01,-2.065701394992482121e-01,-2.160856508992466118e-01,-1.229901768895454162e-01,7.693660270080435182e-02,4.154694080616250229e-03
-8.380208614633011255e-03,1.342555412398044323e-02,-2.094216434204565144e-02,6.170157505819458266e-03,1.080572188410496431e-01,2.181593633447840852e-01,2.440884498533398561e-01,1.850074495897885418e-01,-9.013116950202014477e-02,-1.427219231852892289e-01,1.915392852398595247e-02,5.367198548342701214e-03,-1.237557685944240884e-02,-4.753116238634358393e-02,-1.013164826526917334e-01,-1.401504106026319196e-01,-1.422707900126219949e-01,-7.737947918910192957e-02,5.290932032730628204e-02,-1.905389871701235194e-02
-3.496918031232476576e-03,6.483406296669068369e-03,-1.014624783629645456e-02,-6.959760722754573803e-04,3.557286139517597950e-02,7.796085493910857867e-02,9.737557268169075297e-02,6.848630855662726780e-02,-3.420978565028012786e-02,-4.879013751607322313e-02,1.642568558426418801e-02,2.877733513072133764e-03,-7.832435958633018891e-03,-3.755204860762936109e-02,-9.379482753752615976e-02,-1.440305930301070125e-01,-1.460557176688512260e-01,-8.347015402894295000e-02,4.395125794079813436e-02,5.225538366887519381e-02
2.792031220841845185e-02,-1.251323668472344164e-02,1.455013749874053963e-02,-1.067612314597855133e-02,-8.130729101111611179e-02,-1.738215176013826468e-01,-1.558809720419307709e-01,-5.386254930741436742e-02,-3.916746776496156379e-02,4.695201346967722289e-01,-1.810959105884579756e-02,-9.249137160754344889e-04,6.130600060837675114e-03,-6.477774553153674286e-03,-9.116488587253344933e-02,-1.604047541459656667e-01,-2.074130446271554851e-01,-1.063365442472335443e-01,1.123948908960436255e-01,-3.038752959947498278e-01
1.325551005844072261e-02,-8.922760619388722669e-03,1.205565529934646274e-02,-8.627908070611776947e-03,-7.825145204440567270e-02,-1.650100796989174001e-01,-1.658445342546722434e-01,-1.095916524409183412e-01,5.695442115450436577e-02,6.292143240997850884e-02,1.351945648453073412e-02,-6.507426821991534049e-03,7.835331202469444922e-03,-1.033665305958814812e-02,-7.072188052486644283e-02,-1.460713899443120134e-01,-1.716056981659716540e-01,-6.381454216158882753e-02,3.868278129382489439e-02,1.037389193362098228e-02
2.005563831375254367e-03,2.561377670367738415e-03,-4.834773402211558005e-03,-2.676617939364794342e-03,2.113953780128379444e-03,-5.105154093710548638e-03,3.647833947838646177e-03,1.494181988066901889e-02,-1.663926635097410026e-02,4.200515515644549780e-02,1.008766203622846191e-02,-3.397448871853545049e-03,4.102807695995011605e-03,-3.075949981936030447e-02,-1.440172864224750215e-01,-2.536799613058779435e-01,-2.833511622271686070e-01,-1.485556782396029174e-01,9.509606317903307460e-02,-1.301150482137286568e-02
2.239835410350060618e-02,-1.146197701083273568e-02,1.409539638683331500e-02,-9.095203553900775562e-03,-7.936090246524024616e-02,-1.699518951753642426e-01,-1.561201881764675281e-01,-7.906474776386235304e-02,6.803169662084669611e-03,2.683788588992642166e-01,-4.355123026889007321e-03,-3.898412773134282694e-03,7.775197491965746971e-03,-7.590514411423145147e-03,-8.449997425116267946e-02,-1.603976434475863355e-01,-1.939968515817176165e-01,-8.689936750879181937e-02,8.036581979157864097e-02,-1.686771258152687525e-01
-8.940522181226984166e-03,1.221746257823731058e-02,-1.874371725678822265e-02,6.121862660952770430e-03,9.681825541524695378e-02,1.983095382635951531e-01,2.267100668954967757e-01,1.690772343347826945e-01,-8.209494755851412529e-02,-1.338077055303863172e-01,1.838906998254241643e-02,5.031069424115533484e-03,-1.168700896798057290e-02,-4.539771075681660328e-02,-9.823898152807765405e-02,-1.370653858533519287e-01,-1.375475811311252516e-01,-7.464019767932139615e-02,4.837438277647686247e-02,-1.578105487984399202e-03
3.247472040082721723e-02,-1.501877399393310858e-02,1.761888646149980739e-02,-9.416443392991538652e-03,-8.545847245957736982e-02,-1.752031718839721086e-01,-1.380670811961332012e-01,-1.807443463763516028e-02,-7.749201148677442585e-02,5.465633001027677684e-01,-4.287591855792383111e-02,1.420966826875966205e-03,7.998255997969442449e-03,4.093290429020970955e-03,-9.182189022698299119e-02,-1.437144618368448035e-01,-2.133112469682448831e-01,-1.890779010814186423e-01,2.232747740479184007e-01,-6.819937421950170719e-01
-1.151638904866550406e-02,9.126443292306649080e-03,-1.284028323802287146e-02,5.310243724240448077e-03,5.133047319075427495e-02,1.015585453913751546e-01,1.333625139501542489e-01,1.032487324701800990e-01,-5.253513775261844931e-02,-6.762714074839243361e-02,2.017988080719684829e-02,-1.129727609964284452e-03,-1.779522907650842034e-03,-4.510714104655284828e-02,-1.577143398420132181e-01,-2.621525893565079812e-01,-2.812072573087521232e-01,-1.633041032472988818e-01,9.741503894040259848e-02,3.942990513593741531e-02
1.048100257727446749e-03,-7.386484282659366851e-03,1.247100472287191245e-02,-7.296828594165652437e-03,-9.380039030295685143e-02,-1.743799079265271612e-01,-1.671497653631243974e-01,-1.165917669188669542e-01,6.187054061365134666e-02,5.532073900204813321e-02,2.107811491125499703e-02,-9.409022944095860042e-03,1.084171307287067065e-02,-9.949321782691276927e-03,-7.560151120481446718e-02,-1.613765416668622721e-01,-1.601529748501992201e-01,-7.690065542638044316e-02,5.728131406806605264e-02,-4.844274676970797278e-02
-8.643911013755167794e-03,1.424021227559645053e-02,-2.230027044384461435e-02,7.096569689257217761e-03,1.135266148359185545e-01,2.282579797153631018e-01,2.558972663054768226e-01,1.951473814519757155e-01,-9.675752189383898805e-02,-1.362199625667618874e-01,2.136472900279973164e-02,3.715751277402382091e-03,-1.005693543002169482e-02,-5.037830382806965379e-02,-1.239453162167097056e-01,-1.803131621063930601e-01,-1.868766848851371454e-01,-1.043787426751290048e-01,6.723839174332424395e-02,-7.130263316640933491e-03
5.997277435798087364e-03,-8.418770560744720521e-03,1.325603130156785894e-02,-1.559916526801505970e-02,-1.275466832159951325e-01,-2.072685423074368538e-01,-1.778549259844210695e-01,-1.297992292304903650e-01,3.401383175472516562e-02,2.980823331366256879e-01,2.593641007106239904e-02,-8.557310633828238422e-03,8.380639939460754473e-03,-1.723020751283399835e-02,-8.992807154093547528e-02,-1.702014286637968943e-01,-1.862317289948573762e-01,-8.357143383756650279e-02,5.071796939463069087e-02,2.238815269727723045e-02
-9.050231181265133706e-04,5.025448993167785927e-03,-8.229648162119728230e-03,-3.392356496531046331e-03,1.996847137808128655e-02,4.747016660813344058e-02,6.085307668765854716e-02,4.308911785531912425e-02,-2.183344663799085053e-02,-2.881079447266004720e-02,1.577025658411401743e-02,2.927986006518903950e-03,-7.829270994686943208e-03,-3.532648102963819453e-02,-8.597367857335724839e-02,-1.321067927324987568e-01,-1.342948684785713054e-01,-7.766312051658777471e-02,4.006922747498465470e-02,5.287532443415944583e-02
1.321462180974875000e-02,-6.920921994532369670e-03,8.709644994792896389e-03,-9.592449225456187861e-03,-6.714496183433085741e-02,-1.372783790472391907e-01,-1.577514120188155122e-01,-9.467413051091159992e-02,4.307182824647515923e-02,9.468533841032553133e-02,1.105771345936290562e-02,-3.750981445089854316e-03,3.921794186980354091e-03,-1.424732735938145922e-02,-7.067000720177937789e-02,-1.335081224732802274e-01,-1.598943271752755191e-01,-6.891204403533349176e-02,3.621983938410126835e-02,3.611065008832492484e-02
7.392190137665066718e-03,-6.760580193900564416e-03,1.026282281470721619e-02,-2.024779056858759529e-02,-1.266574555129189039e-01,-2.366078465926480245e-01,-2.251792512109810906e-01,-1.764380024403429670e-01,9.520782044872379279e-02,9.353535359146483708e-02,5.395696585718506855e-03,1.977788231893373716e-03,-4.229470752620475421e-03,-1.958370736567061760e-02,-6.437228660017239867e-02,-1.158822414966514391e-01,-1.485596008594650685e-01,-6.816052678680264987e-02,4.708849960840372217e-02,-2.871628324632416462e-02
-5.370957711150009528e-03,7.499374710230707203e-03,-1.146071302959891618e-02,9.040716351728581013e-04,4.400192180053509594e-02,9.395058390224440836e-02,1.176127527267987055e-01,8.446263501740182422e-02,-4.167926535455285242e-02,-6.258369667385774160e-02,1.735050190993564501e-02,2.039096051392075282e-03,-6.597741288926824155e-03,-3.913039996529787262e-02,-1.062166568158962043e-01,-1.673614680846164382e-01,-1.723803224266287071e-01,-9.941198835861317362e-02,5.304093825141346918e-02,5.795232996661903169e-02
6.425312707316097049e-03,3.842760071377446240e-04,-1.876281175136605348e-03,-1.262032944746055430e-02,-3.589391128375253592e-02,-6.018601907876504342e-02,-6.695841848486719372e-02,-4.400085934516938246e-02,2.217574494134334079e-02,3.105351218138868025e-02,1.267550179846518854e-02,3.448837371672841545e-03,-8.200855073402617268e-03,-2.764647942200613301e-02,-5.937268622746515179e-02,-8.846353129359178780e-02,-9.229267366693449937e-02,-5.850885972686727110e-02,2.928599746702582191e-02,4.312195913194041136e-02
-1.277053754247692297e-02,1.163044169814715645e-02,-1.681468811702026972e-02,6.646750840631959756e-03,7.565047574109494410e-02,1.570133082042419193e-01,1.924837052865241427e-01,1.436145962879797344e-01,-7.233055176821850951e-02,-9.669632455799395676e-02,2.086774329394935901e-02,4.526396296593848678e-04,-4.567165734971970203e-03,-4.642604124115079500e-02,-1.439686148262325771e-01,-2.296938497415626501e-01,-2.421902081098278037e-01,-1.401826498901188045e-01,8.071252171920942353e-02,4.644248801588746201e-02
5.399069640777937051e-03,7.331704227925388284e-04,-2.297749462329771661e-03,-1.025117625895411236e-02,-2.714303216347351347e-02,-4.529410217509955566e-02,-5.078334487114197215e-02,-3.494091778290708133e-02,1.729988790639255120e-02,2.606978039184538673e-02,1.506790620442527429e-02,1.815708021799866678e-03,-5.977143829007606352e-03,-2.969287263049220221e-02,-7.614519808674329038e-02,-1.225866698677370026e-01,-1.311839062950888868e-01,-8.363207341695003127e-02,4.145316192405862354e-02,6.407913673114688791e-02
-8.242375495933290663e-03,7.696256521816696033e-03,-1.114756987123859469e-02,2.606863273915134560e-03,3.713922365212023874e-02,7.054160760291339205e-02,9.804392821508300937e-02,8.016959054080613489e-02,-4.225860649231296534e-02,-4.370848636667136466e-02,1.754794770430134765e-02,-1.990142477170997459e-03,2.005927992275793881e-04,-4.113478078000361304e-02,-1.563755202768911667e-01,-2.655570510654793326e-01,-2.888574996874223588e-01,-1.670895231598000796e-01,1.053938273800814618e-01,6.254398259530391524e-03
4.138580987735888950e-03,1.717862531706245560e-03,-3.687166205028904846e-03,-9.177861020804511591e-03,-1.745360680977254414e-02,-2.557700200378596606e-02,-2.695202496653381630e-02,-1.766405276802458790e-02,8.762692702967520009e-03,1.330805233878734617e-02,1.460510059514608106e-02,2.460211318604965669e-03,-6.921265016187928831e-03,-3.038894987306906686e-02,-7.389361559014591407e-02,-1.159154060562031519e-01,-1.218869167980951851e-01,-7.546319582667561365e-02,3.778647442952985658e-02,5.611740403980089442e-02
-1.219995230375892081e-02,1.658541139844317558e-02,-2.540433501634974806e-02,7.084682962278876506e-03,1.081796623119039430e-01,2.234714267607557647e-01,2.546999056271915807e-01,2.022912049570739779e-01,-9.920476780188436372e-02,-1.425417719002998740e-01,2.753862197078449370e-02,-1.867499426131388751e-03,-2.043568956210717324e-03,-5.530994892988564532e-02,-1.856886805167941856e-01,-2.926951863089605199e-01,-3.117479767627147069e-01,-1.862735091741721249e-01,1.096838836010283064e-01,4.763645435885122126e-02
7.566007232046312314e-03,-4.187659792962254712e-04,-7.590947974125059061e-04,-1.377958333412710595e-02,-4.463414552445683914e-02,-7.771035175159397845e-02,-8.768143003047595974e-02,-5.821294095045870948e-02,2.925114085893956023e-02,4.149892331839255544e-02,1.274482166522827864e-02,3.160058146699749881e-03,-7.758455546173725209e-03,-2.692211237921141032e-02,-5.934390303252497917e-02,-8.994185661959228084e-02,-9.516325348826412678e-02,-6.179659540657066186e-02,3.075993621565726449e-02,4.621766559164527249e-02
5.740920006660876762e-03,-8.652539787509475055e-03,1.365661501053170440e-02,-1.386966377901310138e-02,-1.227369942007686954e-01,-1.997578143533300099e-01,-1.770054511591320490e-01,-1.162195797002322784e-01,2.217884628764557609e-02,3.148577732860873279e-01,2.321356939891100479e-02,-8.663452037021956986e-03,9.181478385909651319e-03,-1.546596775154651660e-02,-9.004974433650717036e-02,-1.707712092344570720e-01,-1.799987393426213944e-01,-8.882356025073279149e-02,5.907253751939556957e-02,-1.467225223666734912e-02
-3.712721278544023340e-03,7.178164056838996082e-03,-1.124606358007605895e-02,-1.299061078123702612e-03,4.009063553669333507e-02,9.009925430204704377e-02,1.108709566104158079e-01,7.710913956190658392e-02,-3.783251971040740846e-02,-5.889824747693327145e-02,1.486557556751041953e-02,4.157197041690936790e-03,-9.637741794420093960e-03,-3.623957860970473260e-02,-7.945680643733568638e-02,-1.145460457648713459e-01,-1.126410992514349785e-01,-6.312311989578923976e-02,3.345520051655520577e-02,3.883742668172376900e-02
5.044363679990934712e-04,4.179013191402806450e-03,-7.099223051102544930e-03,-4.853362433386693674e-03,1.056546013908068148e-02,2.869743312320571088e-02,3.844348769541128252e-02,2.813330727780636795e-02,-1.438871102509475808e-02,-1.773580751088075363e-02,1.564143336457055056e-02,2.452974082698955449e-03,-7.045270485563769058e-03,-3.389833042975554100e-02,-8.502446207585312443e-02,-1.333001117958418913e-01,-1.375207073153145720e-01,-8.106091759098915661e-02,4.136725588013858562e-02,5.712253788191994086e-02
2.536754330360181057e-03,2.355945628076489603e-03,-4.554903323076338155e-03,-4.173830241597085988e-03,-3.686753458816959548e-04,-1.691851871889811076e-03,2.885918913038523596e-03,7.103247732579299339e-03,-5.695292862475425516e-03,8.605212400068942488e-03,1.769486072089093698e-02,-1.201418607794019211e-03,-1.370960702970311362e-03,-3.501848506234574165e-02,-1.203146316239539770e-01,-2.086018023444178582e-01,-2.274597249406690447e-01,-1.367014342148741846e-01,7.173771611311549612e-02,7.938139505279309671e-02
6.146443056012877845e-04,3.099511810875410327e-03,-5.424426729624203490e-03,-1.962881371088930505e-03,4.883051622245422954e-03,-1.017692690929659352e-03,9.877984370695350527e-03,2.214606313292607348e-02,-1.965017437383587487e-02,3.318407004084704404e-02,7.711909507654046703e-03,-3.899730183759816948e-03,5.486507025306022745e-03,-2.884819543064338215e-02,-1.473849812937841897e-01,-2.604994873871083749e-01,-2.932639130047669518e-01,-1.523563848531196974e-01,1.010170553197670684e-01,-3.373086564029553758e-02
4.656842853213605249e-03,-6.246868519428613875e-03,1.011863261509662187e-02,-2.137193722024770953e-02,-1.348110655670460845e-01,-2.462785307943304858e-01,-2.436712272880241503e-01,-1.848858287060233252e-01,1.037861374122534541e-01,7.423244374168594395e-02,1.506025962345933222e-02,8.917045769311904291e-04,-4.726009842291028357e-03,-2.198066946262236185e-02,-5.941457861657228195e-02,-1.148115838743581363e-01,-1.330102335666269731e-01,-6.122133338560037386e-02,4.351557674188141073e-02,-2.803591283434986314e-02
-9.409575500039596418e-03,9.396419279285569970e-03,-1.378449882139456094e-02,4.281965542491123627e-03,6.004872253553236727e-02,1.250592554500865872e-01,1.554153361691003044e-01,1.141476138972159216e-01,-5.536623966352477444e-02,-8.960476642816368742e-02,1.913144839067709713e-02,1.210848393001118239e-03,-5.526718011759343407e-03,-4.284365110926163789e-02,-1.257052144778845748e-01,-2.005143927426564221e-01,-2.091485475326929633e-01,-1.212404228681139562e-01,6.659819302997109502e-02,5.992637391283381354e-02
-9.052758956511586241e-03,1.134356419768046270e-02,-1.719136462797078713e-02,4.931081740055548446e-03,8.380683354773139915e-02,1.753255429353609562e-01,2.054899269416988195e-01,1.513721645538019245e-01,-7.215255254221900061e-02,-1.273064209909341438e-01,1.801992925173756532e-02,4.137950231430209680e-03,-1.015235420659140603e-02,-4.350231846017611065e-02,-1.006439271854503853e-01,-1.452552657636950184e-01,-1.462714601127549641e-01,-8.143566396906865013e-02,4.829739692431898879e-02,2.323930117925787631e-02
2.802256932258409723e-03,2.300387424285034281e-03,-4.491741474499372569e-03,-5.119396763959166777e-03,-2.910680515900912826e-03,-4.106110902090134851e-03,-8.412609351229683504e-04,2.358443021865027148e-03,-2.817348753599695568e-03,8.995883143573003837e-03,1.820982092104345140e-02,-4.658433943380557718e-04,-2.746059042227362579e-03,-3.482498676916154223e-02,-1.108629564637310244e-01,-1.899100555279061298e-01,-2.054708113475306741e-01,-1.260349690112485543e-01,6.412806661532971519e-02,8.767967634312932856e-02
-9.656915014668088215e-03,-4.766683721788442241e-03,1.098600617723326234e-02,-1.489035404487457775e-02,-1.358238837989656500e-01,-2.264992822042993237e-01,-1.907095810168334682e-01,-1.823136503475219217e-01,9.329234523254609224e-02,1.219048714485552604e-01,2.574134441528960759e-02,-5.786628920684461219e-03,3.807516129975770103e-03,-1.886376206873114150e-02,-7.494568238922044712e-02,-1.515957149636442958e-01,-1.587240717339120366e-01,-1.012671281736070711e-01,7.907191633228351224e-02,-9.119877738054804617e-02
1.346189635834937892e-03,3.613651246497292038e-03,-6.321842983398447136e-03,-5.756551681446290397e-03,4.496620684617589833e-03,1.674727244170659199e-02,2.394935793115775605e-02,1.804409691969643958e-02,-9.352360034128892954e-03,-1.051590987345993322e-02,1.552244039001021703e-02,2.374781656715521660e-03,-6.908695653181737284e-03,-3.318212821695887965e-02,-8.324402454597000511e-02,-1.310029178367596026e-01,-1.358322684427618610e-01,-8.079761530618476129e-02,4.101880349266771170e-02,5.789841118067637349e-02
-9.115739420660906589e-03,1.332480133609233175e-02,-2.057573458792834320e-02,5.766106749352371830e-03,1.010356245243384937e-01,2.076509501543901126e-01,2.375422871468113872e-01,1.794214257998243689e-01,-8.887140971479974560e-02,-1.290781134338429004e-01,1.978856669207462726e-02,3.812622794644560109e-03,-9.927740850752535262e-03,-4.717167679447231005e-02,-1.139985929400223752e-01,-1.657764039868496186e-01,-1.703267316762432093e-01,-9.508711505884018256e-02,6.062486258880749046e-02,-7.779223311870087088e-04
5.851247299443779193e-03,-7.161117820086264352e-04,-6.863401140334499106e-05,-7.080895722592876404e-03,-2.707632382439090213e-02,-5.230424065927771066e-02,-6.072213087487007832e-02,-3.953242735788639606e-02,1.980093364061844691e-02,2.611662412124900884e-02,1.578581860946542959e-02,-1.947067951944062014e-03,1.309645605185386086e-04,-2.776370877767754541e-02,-1.002041592953849813e-01,-1.775786603610119974e-01,-1.971649240202507092e-01,-1.152440174015141039e-01,5.871248312366416505e-02,7.340380161029810835e-02
1.476695797603561067e-02,-8.425845117407175511e-03,1.091140969968912994e-02,-1.076123471696810441e-02,-7.958637227730050445e-02,-1.651224777406520849e-01,-1.728243423184283589e-01,-1.107880326477352073e-01,5.025554996570356925e-02,1.161658958342457054e-01,1.100774183318858901e-03,-1.985884140542529264e-03,3.298070211018955950e-03,-1.070994708600417691e-02,-6.747721660033248470e-02,-1.225970363732894752e-01,-1.680949583578798812e-01,-7.004212124070002821e-02,4.824068782904287339e-02,-3.723745531866148872e-02
2.259033477298002905e-03,3.057899560377941306e-03,-5.562930331615896853e-03,-7.018310016427060927e-03,-2.419568924844925882e-03,3.901120285083542385e-03,8.482877087219946322e-03,7.135315728975450897e-03,-3.789385051823199527e-03,-3.438329247093781585e-03,1.491476445446657251e-02,2.675773042779543143e-03,-7.303065642569016302e-03,-3.203670816952950556e-02,-7.737172537653062843e-02,-1.202383508159550612e-01,-1.244695767112302121e-01,-7.461430303483568283e-02,3.766043953857332871e-02,5.451089061946952363e-02
-4.409582303218431698e-03,6.474740186419105509e-03,-9.957797898291839353e-03,6.023057862445078958e-04,3.438398980848558079e-02,7.024114927497326910e-02,9.167305180262336206e-02,6.976844506853566164e-02,-3.505969712559171836e-02,-4.721293246822414608e-02,1.854480065497499108e-02,3.069070152401931484e-04,-3.959238577476924259e-03,-3.988871332850657536e-02,-1.241925767050574975e-01,-2.056189255379962111e-01,-2.175806548018396624e-01,-1.280760562203143160e-01,6.832524193946942770e-02,7.359834771546236443e-02
7.211358715413396236e-03,-4.875003697771988775e-03,6.459345423220659924e-03,-1.538326096478755123e-03,-3.427400041984317997e-02,-7.856765566679130286e-02,-9.601400313579183665e-02,-4.067156910846815576e-02,1.695384139335523455e-02,4.474434081792501294e-02,1.043950900603440868e-02,-6.394169073720451513e-03,8.592473672473163737e-03,-1.555098982642864197e-02,-1.007433892529587260e-01,-1.949158125296255317e-01,-2.229378706318185799e-01,-1.006738012854967307e-01,6.149962980184337652e-02,9.208756623502206695e-03
-1.249307138661293060e-02,1.340186405273983278e-02,-1.991287332613633429e-02,7.153434395602148443e-03,9.136987783123276530e-02,1.894453504641536723e-01,2.254511506971695889e-01,1.696460288487141865e-01,-8.570510195605771098e-02,-1.090253951972193491e-01,2.198009563862718396e-02,6.233610998503114065e-04,-5.052173547547694765e-03,-4.888987063347522560e-02,-1.489398114520907312e-01,-2.333036610640475406e-01,-2.462061575424449034e-01,-1.412571768612074785e-01,8.253913435774914986e-02,3.769667093081752185e-02
-9.538269647878599988e-03,9.220072828601530435e-03,-1.345286322563850161e-02,4.293254885181053276e-03,5.744123056939549193e-02,1.188093129326336095e-01,1.491569957861847429e-01,1.105755386167197735e-01,-5.370645923097600027e-02,-8.626519201557246441e-02,1.943336449389482246e-02,7.252515215099286650e-04,-4.777359180454243681e-03,-4.310596816573876444e-02,-1.311694879756152288e-01,-2.117894353557029097e-01,-2.223153736012240256e-01,-1.295519297710970574e-01,7.111000490567050136e-02,6.403734882614539603e-02
-5.302677680667694515e-03,7.468697187965573497e-03,-1.142189256975549225e-02,8.567772517903624041e-04,4.372419414198955995e-02,9.339353844667797055e-02,1.169486532624775532e-01,8.398218304990373584e-02,-4.145451390157034455e-02,-6.215716906491393356e-02,1.733101374101231329e-02,2.040522387558238449e-03,-6.597631345442875328e-03,-3.908593088692328965e-02,-1.060569900459957388e-01,-1.671259342351146537e-01,-1.721362708446196044e-01,-9.928095800852712594e-02,5.294867857506826286e-02,5.799563735312432411e-02
-1.002717559559071492e-02,1.005680830390915520e-02,-1.476998225189900260e-02,4.973608043594660022e-03,6.712446471852422103e-02,1.402755962181321259e-01,1.717579190549135826e-01,1.258795846975727106e-01,-6.065615770529216022e-02,-1.010295047093324738e-01,1.915584493631511398e-02,1.699824553039713804e-03,-6.337535630273172238e-03,-4.338977992697241187e-02,-1.227331920902187123e-01,-1.926062983359919378e-01,-1.997305379840245976e-01,-1.151702329448054535e-01,6.386997067361721570e-02,5.392342707293298898e-02
-9.664862685073438708e-03,1.031320015938795576e-02,-1.529062620140246923e-02,4.903671541745667495e-03,7.113736889443540712e-02,1.492608269689372769e-01,1.804588759166390055e-01,1.316390471645224880e-01,-6.314299584757127048e-02,-1.072611594806677782e-01,1.868624630639947881e-02,2.445824017277900553e-03,-7.483590488491544124e-03,-4.312485515682453613e-02,-1.150195640521659013e-01,-1.765382105854347572e-01,-1.813367468709544128e-01,-1.036472944750952141e-01,5.785479054685407907e-02,4.689977756759608485e-02
1.046149100318960468e-02,-6.737586687994297219e-03,8.872792183569037580e-03,-3.321856354004875528e-03,-4.732681375438178850e-02,-1.041153902170590950e-01,-1.255399546407768019e-01,-6.089881562035856510e-02,2.493209630760075471e-02,7.488582875322463694e-02,1.078930822804446965e-02,-6.371351632663446729e-03,8.369074732926549964e-03,-1.252901906217896572e-02,-8.592432276747961895e-02,-1.695240800819299842e-01,-1.967561823683143252e-01,-8.021980709822064404e-02,4.797740957314081817e-02,1.385049224936546475e-02
5.859940128905158363e-03,9.226059816345999476e-05,-1.396182388987485604e-03,-8.462694387282861802e-03,-2.566175811643758853e-02,-4.676610821443522026e-02,-5.330340539392641741e-02,-3.775907435061076622e-02,1.787987015264405274e-02,3.320169690469618184e-02,1.713074648850410053e-02,-5.925009963721195039e-04,-2.405769174453502302e-03,-3.050505155889499803e-02,-9.629172871106603249e-02,-1.661073975418662640e-01,-1.821416813280229419e-01,-1.137690398188485191e-01,5.603553460205869252e-02,8.529871550594825269e-02
-3.544595755781837498e-03,5.537785571517307368e-03,-8.579976287791897527e-03,7.650052071909475837e-05,2.244702707437935818e-02,3.848676347285945321e-02,5.834158749643493513e-02,5.284219306910966502e-02,-3.070654332457304486e-02,-1.207339270933673048e-02,1.491128335767683000e-02,-2.341661788384519216e-03,1.328753518090225461e-03,-3.735975307361201481e-02,-1.503625978291348031e-01,-2.592809723411292344e-01,-2.848670736116641899e-01,-1.617202165567003247e-01,1.041777759911066692e-01,-1.169836561656434348e-02
-8.644713366828260526e-04,4.743496097209927431e-03,-7.799239060372617841e-03,-2.557253515404410774e-03,1.872403477417615425e-02,4.104975743218834683e-02,5.439028902065331378e-02,4.137572023960406353e-02,-2.136756252025576522e-02,-2.452686280917765888e-02,1.750174967572598606e-02,9.496047649301675442e-04,-4.888477981858617427e-03,-3.662699433114238734e-02,-1.063731685676393146e-01,-1.749225555699217283e-01,-1.843134615248877006e-01,-1.090749668503454561e-01,5.663184008995874458e-02,7.123824076142772077e-02
-6.406592359803564563e-03,8.411588437256450890e-03,-1.277115207473402889e-02,1.700594361969044732e-03,5.295497135799936278e-02,1.135509170217418040e-01,1.394334358463130696e-01,9.909891498694968492e-02,-4.835878399505276481e-02,-7.670192685884200112e-02,1.692455905416878625e-02,2.891360296566197752e-03,-7.911940742419784622e-03,-3.952148725742590102e-02,-1.001971708662128119e-01,-1.528051452948401279e-01,-1.551415905780805238e-01,-8.829550481282173735e-02,4.769371916811745299e-02,4.876507861486195639e-02
-7.316480878359121753e-03,1.503013608044832805e-02,-2.389692822145745091e-02,4.778195244587717105e-03,1.166882051460106512e-01,2.343345468642011598e-01,2.569159158861362147e-01,1.982791411613330501e-01,-9.535320135490966964e-02,-1.585143540784182958e-01,2.065390420850049535e-02,4.970840246523847150e-03,-1.200822287459163418e-02,-4.990450957893464295e-02,-1.106670027951007496e-01,-1.556610009206011169e-01,-1.609431691086576355e-01,-9.108567163275158030e-02,6.185586667333657640e-02,-2.224652769159382593e-02
1.651725377005464068e-02,-5.429390139311193741e-03,5.777664026312037682e-03,-2.207894509329903429e-02,-9.845929824390163565e-02,-1.859567557296433749e-01,-2.015426362276699912e-01,-1.368977343256419232e-01,6.886372125474433947e-02,9.741533356311941894e-02,1.135179229988464433e-02,2.944865683463138151e-03,-7.213455899352579082e-03,-2.266192692084021895e-02,-5.157572993220967128e-02,-8.372621214654561717e-02,-9.888587408300673898e-02,-5.223433834735226322e-02,2.627519892919179603e-02,3.953099006700604157e-02
-8.939623343734937055e-03,1.046742316634115266e-02,-1.571670940598418609e-02,4.468388240183619742e-03,7.424440567902899912e-02,1.563562871016851985e-01,1.866468252640601233e-01,1.356330296953405234e-01,-6.462979522910555774e-02,-1.128777780821801080e-01,1.791121864191552726e-02,3.425137903133215755e-03,-8.957310042270988371e-03,-4.252752370084000866e-02,-1.044010070554477893e-01,-1.550736528452987817e-01,-1.571007103242002267e-01,-8.853504578730747587e-02,4.993130783676704570e-02,3.784245343081507618e-02
-8.388603248848658378e-03,7.750419706705403977e-03,-1.120712038482701151e-02,2.667926625437268967e-03,3.740811992241439149e-02,7.110398123484816535e-02,9.878666843929959085e-02,8.072970348795235895e-02,-4.251175566187490040e-02,-4.427742309231239015e-02,1.754103048116578689e-02,-2.006035031517361400e-03,2.300143809738641743e-04,-4.116844769725541697e-02,-1.567077386362885905e-01,-2.660740041616265761e-01,-2.894577459292475008e-01,-1.673520816599056160e-01,1.057196281507046809e-01,5.356922612793246774e-03
6.840048782058724686e-03,1.699632192567190891e-05,-1.350415139547792368e-03,-1.285388034568004691e-02,-3.911611907355449363e-02,-6.700649966266723767e-02,-7.533434679942235812e-02,-5.017580991194522944e-02,2.523055769138202523e-02,3.561510791703362960e-02,1.306743199408719192e-02,3.044806179324510698e-03,-7.622289657107296501e-03,-2.755807957551374351e-02,-6.184161632787121138e-02,-9.426858902297938214e-02,-9.960334527142002126e-02,-6.414806800770643525e-02,3.196778545238849328e-02,4.788830150675747743e-02
6.498720843410854542e-04,4.190495579085158975e-03,-7.135384916945564440e-03,-5.339503144027606465e-03,9.686884353531632560e-03,2.805966482677573620e-02,3.764091648449628680e-02,2.720615870186196203e-02,-1.382082639996877645e-02,-1.779106285962077719e-02,1.497463240972413123e-02,2.997494475891281096e-03,-7.816172568145051541e-03,-3.326535434574556110e-02,-7.888494584422418854e-02,-1.207571448806224190e-01,-1.231621480247874073e-01,-7.223124931192609344e-02,3.676525721569245952e-02,5.157524029624492579e-02
-1.202010974706940738e-02,1.218589678486348138e-02,-1.794845996699320073e-02,6.737820038282785196e-03,8.366128050328514032e-02,1.738812957489976052e-01,2.089164790667039640e-01,1.556154203834712313e-01,-7.855086771308331106e-02,-1.030346581276828100e-01,2.070443697868928901e-02,1.230470075957987297e-03,-5.825068901702368240e-03,-4.672466371162783960e-02,-1.371641543621393566e-01,-2.143774459504125818e-01,-2.244785975288901003e-01,-1.286940849400975972e-01,7.534116945386459818e-02,3.514628437317124376e-02
-7.658818155752311618e-03,1.420382027866776142e-02,-2.239423788742243848e-02,4.594967093913236711e-03,1.102573532196143014e-01,2.231851475799171980e-01,2.470280012400437042e-01,1.892582107843445716e-01,-9.036740395141121263e-02,-1.552918873714386749e-01,1.924471835607535763e-02,5.632910170478067080e-03,-1.283590742090461034e-02,-4.785978411042161873e-02,-9.950261120213250987e-02,-1.365332537101929256e-01,-1.393391444041039706e-01,-7.715022422999111285e-02,5.353368371710234830e-02,-2.383802585021482789e-02
-8.299133735673869250e-03,8.469018663189983864e-03,-1.245826124968600103e-02,3.347101219936633038e-03,5.074132230959538248e-02,1.043770481563518759e-01,1.327295819324211534e-01,9.896341255212950938e-02,-4.843230361450846788e-02,-7.507668881461843080e-02,1.920768864272265342e-02,4.918385829170701662e-04,-4.354620818344520639e-03,-4.231861588295464383e-02,-1.309199628182277086e-01,-2.134465097642919418e-01,-2.247978418874004292e-01,-1.314088867835124241e-01,7.158195998439823016e-02,6.777821468573869135e-02
1.600765847751917104e-02,-6.602673036406200846e-03,7.857098721757910242e-03,-2.101106668851285969e-02,-1.051143459232539851e-01,-2.017613573002691174e-01,-2.113151413107607346e-01,-1.466414075942769624e-01,7.474730050710717832e-02,1.019057259764070966e-01,1.226511527227650000e-02,1.556413602969208831e-03,-5.138910950429016744e-03,-2.156787852142857259e-02,-5.697767532876535368e-02,-9.831887883202600209e-02,-1.244095125862626217e-01,-6.144642638633050075e-02,3.385085022716716185e-02,2.569916200822289221e-02
6.315853783689831524e-03,-3.423612266868769627e-05,-1.231542774780164037e-03,-1.019696606628617622e-02,-3.172462414647600482e-02,-5.610686948834364002e-02,-6.420633869132660876e-02,-4.572659794702321756e-02,2.191632489500562955e-02,3.834661125845684887e-02,1.661691464322800904e-02,5.466798888545953972e-04,-4.218624630880886406e-03,-2.994798329204708537e-02,-8.500801871999350001e-02,-1.426690909590388467e-01,-1.551929396842709752e-01,-1.006890737949072551e-01,4.881841016297459174e-02,8.282960827270247073e-02
-2.734962556915666865e-04,3.821756706117165545e-03,-6.434886371398295703e-03,-1.639534192636724064e-03,1.028530429652132171e-02,1.202995822528469400e-02,2.532153808002920656e-02,3.065141756495610645e-02,-2.215678823702664849e-02,1.776972933709192876e-02,1.133573561478534719e-02,-3.072483143315429821e-03,3.305894691232331983e-03,-3.270021781335494954e-02,-1.464812921922790390e-01,-2.564828000990001522e-01,-2.855888456910480322e-01,-1.553321951032000936e-01,1.011834690748270177e-01,-2.227028537173619815e-02
-8.082058269945929796e-03,9.044088644321587878e-03,-1.348027504558276836e-02,3.268940383299227120e-03,5.826447422219593192e-02,1.227853177683159575e-01,1.513701921032282183e-01,1.094007519951226276e-01,-5.319708614215690884e-02,-8.540462376458975158e-02,1.816176901166238755e-02,2.027026253251879018e-03,-6.703548421858926409e-03,-4.143809981840018003e-02,-1.138096030611872173e-01,-1.780428025390996261e-01,-1.835377564440063003e-01,-1.054602826443859914e-01,5.755497262870783171e-02,5.457923874193115754e-02
-1.067839778150109220e-02,1.389186887658752645e-02,-2.118664203498176607e-02,6.747435537801028949e-03,1.003467826468278090e-01,2.067132729337420871e-01,2.401168440419323147e-01,1.818619175550001410e-01,-9.143649418135815776e-02,-1.192927630102573189e-01,2.176739760636997589e-02,1.691637418806526960e-03,-6.783747752354060689e-03,-4.929296925634401444e-02,-1.395784281262754112e-01,-2.132134066353994217e-01,-2.234852392560461865e-01,-1.272386336977937293e-01,7.658047295445506719e-02,2.122816605800292855e-02
1.839793867576624414e-03,3.154849893844306231e-03,-5.669517186922926576e-03,-5.746530359134598490e-03,1.193813034046222604e-03,8.667984966227422830e-03,1.412298448023262092e-02,1.153360675941889242e-02,-6.293927966346123289e-03,-4.626297003183354323e-03,1.636633127088518713e-02,1.542403276935146172e-03,-5.707667830219351202e-03,-3.352988619314531404e-02,-9.059161883577650232e-02,-1.470459252168367092e-01,-1.549787821073409788e-01,-9.336091728534499923e-02,4.736482083139930549e-02,6.672817906633510265e-02
3.319318953363459279e-03,-7.828312729589892438e-03,1.278542756404839678e-02,-1.149062628915200474e-02,-1.113923514750678190e-01,-1.893711614567391011e-01,-1.775296788913375279e-01,-1.047750623194480812e-01,2.201761507338429597e-02,2.650888991451881838e-01,1.037226742020441739e-02,-6.492506343991344409e-03,8.609468199334786853e-03,-1.182077860230103250e-02,-8.924799466698569994e-02,-1.666664173819141781e-01,-1.764431680995668661e-01,-9.207933374516991121e-02,7.310573210200597971e-02,-9.510904775377529430e-02
9.029626856466022033e-03,-8.459813627404423608e-03,1.224804932467675120e-02,-6.196828995471248547e-03,-7.518741182698238101e-02,-1.585032878148787960e-01,-1.643783468368569256e-01,-1.042065596622407386e-01,5.515681524013428538e-02,5.057351514754060418e-02,1.818235131600279275e-02,-8.208170904849855509e-03,9.528876133532211690e-03,-9.652854835523066307e-03,-6.980217678523169267e-02,-1.514131345901302828e-01,-1.699175610923124580e-01,-6.665656513215598156e-02,4.397722061380177766e-02,-8.154085053466236799e-03
-2.891081294825653680e-03,6.423720598990871611e-03,-1.015864674675532459e-02,-1.800022987490074167e-03,3.300885820700202866e-02,7.451736938672830213e-02,9.320741559893801209e-02,6.541459793372943199e-02,-3.244429467053933092e-02,-4.784365145442788514e-02,1.553128189116109725e-02,3.277678072129718012e-03,-8.328403676059501631e-03,-3.611325522786044961e-02,-8.603192419921383560e-02,-1.297578558431886075e-01,-1.305241970753629466e-01,-7.461391599566533084e-02,3.903220831223831733e-02,4.812072606386909313e-02
-8.407884587544989241e-03,1.349181023829351678e-02,-2.101640342289935737e-02,5.158983415837252451e-03,1.037058680954409118e-01,2.122222163943752182e-01,2.396708447449863999e-01,1.818380333848665931e-01,-8.854709975034255609e-02,-1.403559908398657463e-01,1.919625645244912859e-02,4.808052080935015793e-03,-1.146426416573485818e-02,-4.691386320633600393e-02,-1.042551650528585616e-01,-1.468820707440474660e-01,-1.497257373624518162e-01,-8.276832516862075995e-02,5.489536681923955219e-02,-1.126993684048344102e-02
-4.355796121438743063e-03,7.180066531519650047e-03,-1.112987204249626418e-02,-2.295381178060579286e-04,4.088809057627440513e-02,8.938714702443552318e-02,1.111949101031655118e-01,7.860061710779221722e-02,-3.879097301436305878e-02,-5.847108725448636052e-02,1.632732892781679768e-02,2.866478530643014333e-03,-7.782098136419800249e-03,-3.769482404786048818e-02,-9.452522437829083413e-02,-1.448561929899081779e-01,-1.469812086052475764e-01,-8.408935322743674168e-02,4.453631357137190216e-02,5.114789065737904150e-02
-1.534848649698905554e-02,1.370245404942475875e-02,-1.971692346452586994e-02,7.393436420007885868e-03,8.301332408550933517e-02,1.730629010679672342e-01,2.114685434337835457e-01,1.600174374578867686e-01,-8.071903175855116297e-02,-1.032846786294208397e-01,2.311500698140228627e-02,-1.213942090894801207e-03,-2.220946984627943099e-03,-4.955796634954721946e-02,-1.683143325109123511e-01,-2.712015993856757290e-01,-2.899443816107119543e-01,-1.682682346391814465e-01,9.792645788549489416e-02,5.190393526343722863e-02
-1.109776091734362979e-03,4.683629915306426056e-03,-7.667148366648719564e-03,-1.785589385706080542e-03,1.914503984298488240e-02,3.895895879171482751e-02,5.304703350769060521e-02,4.262415220088514728e-02,-2.237217175163910832e-02,-2.272497348970564657e-02,1.833507749829399458e-02,-4.609255568935322067e-05,-3.379893553638456394e-03,-3.791052582515753305e-02,-1.197901748181593035e-01,-2.015657077294605026e-01,-2.151744968104520317e-01,-1.283301836687108233e-01,6.725466361990933839e-02,7.988865729511293590e-02
-5.465864002410253386e-03,7.229188639996702442e-03,-1.099101648509295641e-02,1.222023386775728665e-03,4.115827288368544695e-02,8.585844371342774006e-02,1.094966727321750460e-01,8.073922939321967474e-02,-4.006453775192078681e-02,-5.810775023995004562e-02,1.822333527472624892e-02,1.014058340538262493e-03,-5.063849901241618268e-03,-4.000085785587867426e-02,-1.181601426542897015e-01,-1.917782744826168617e-01,-2.007143431525101607e-01,-1.170378074155918741e-01,6.260139536781579583e-02,6.678684821528133031e-02
-7.924411318724622344e-03,1.382439550590554289e-02,-2.168666406080964337e-02,4.735634581570745405e-03,1.069515879252929680e-01,2.176446619174036146e-01,2.429337749060136997e-01,1.852865261177912282e-01,-8.899861178889656443e-02,-1.499493998410860729e-01,1.901115114659610028e-02,5.446006285705483341e-03,-1.248371137078103585e-02,-4.719560149708920682e-02,-9.935722476871104714e-02,-1.369840103857790092e-01,-1.393417192830978535e-01,-7.676632967248531170e-02,5.260076399049777585e-02,-1.935683680394803541e-02
8.949605083501094294e-03,-5.997148824218978547e-03,7.993767322153233490e-03,-3.315320932700451667e-03,-4.531573068214195255e-02,-9.839287812767827379e-02,-1.197586458598445813e-01,-5.853284833373752216e-02,2.437979244278005650e-02,6.816914751132027717e-02,1.162371687762758787e-02,-6.242497828085419309e-03,7.979673493930149880e-03,-1.363291178870162240e-02,-8.739533190047249489e-02,-1.713617733260936749e-01,-1.971884253614132887e-01,-8.340594265232557925e-02,4.876193275539934119e-02,2.013969951208413600e-02
-8.269550585428109279e-03,1.400799438728493607e-02,-2.193534432114524826e-02,5.309202331614519543e-03,1.078440464287861444e-01,2.196064500516163864e-01,2.465908259229131760e-01,1.880967307543655320e-01,-9.188475256267650271e-02,-1.417607942105998664e-01,1.991337815732208139e-02,4.507562440443965701e-03,-1.109962840031340769e-02,-4.810519739577884257e-02,-1.102132681690282529e-01,-1.569091513431334350e-01,-1.612212384843744739e-01,-8.989452640156803120e-02,5.942038182548021324e-02,-1.276007816522123361e-02
1.743923476428116404e-02,-6.993315206973077514e-03,8.120387992127220400e-03,-1.982921781676036388e-02,-9.956278447909561180e-02,-1.939181192794671160e-01,-2.024189317266844590e-01,-1.402113939835798462e-01,7.004195562531465025e-02,1.058956059250177467e-01,9.104784487751316213e-03,1.722528799441805369e-03,-4.655252998327450570e-03,-2.082194486869482636e-02,-6.029266288286400099e-02,-1.017151233588069470e-01,-1.340325749168403413e-01,-6.615086835487027361e-02,3.373297827861674453e-02,4.333688397767525291e-02
-1.330455730008742177e-02,1.012433407548751080e-02,-1.408732202913797783e-02,5.349999491960702458e-03,5.317757684467058765e-02,1.064500922751480672e-01,1.408426746473936675e-01,1.098333033195205699e-01,-5.535196894909100856e-02,-7.327766724136487719e-02,1.961761360792740883e-02,-1.885107531964108629e-03,-3.862027632322989623e-04,-4.438169293143849614e-02,-1.637234174375681861e-01,-2.736058555723764885e-01,-2.959373448425604569e-01,-1.717206976150472963e-01,1.067659832167936751e-01,1.771014500714090945e-02
-7.799402378143825698e-04,4.004468512012083516e-03,-6.627515819403250602e-03,-1.387099161807582234e-03,1.101293756786726405e-02,1.285011384223737688e-02,2.703106400978479498e-02,3.272889126768584872e-02,-2.329074649638466013e-02,1.665008049100125814e-02,1.041917726212643336e-02,-3.251244849617154764e-03,3.822294432480471960e-03,-3.222943376449029229e-02,-1.487986678651488093e-01,-2.604808010114681993e-01,-2.908032577824022358e-01,-1.563962792079563180e-01,1.032081342203832464e-01,-3.044175409600091697e-02
-2.845503741010196874e-03,6.161054526782505647e-03,-9.740553455517501208e-03,-1.412541324873398813e-03,3.121335646528058255e-02,6.893375151909553189e-02,8.731349145482128482e-02,6.249643044003026088e-02,-3.123643285778341522e-02,-4.402900562636789111e-02,1.653738294282641741e-02,2.298267889188319868e-03,-6.905955063947324946e-03,-3.690954889904025926e-02,-9.649030128475752366e-02,-1.515009065017658696e-01,-1.555744794600282810e-01,-9.008209852809624663e-02,4.713195685353357284e-02,5.754841179859888911e-02
6.363778950393583766e-03,-3.335721370153352239e-03,4.126870512359603893e-03,-3.510588944541278775e-03,-3.233919798710119947e-02,-6.989435403799859614e-02,-8.436471208630644258e-02,-4.184941202786400527e-02,1.827712677221787069e-02,4.032989272049854190e-02,1.206163704546708848e-02,-4.946662791546943549e-03,5.865506821664943915e-03,-1.942982954389623970e-02,-1.005331126322143165e-01,-1.888682985730059660e-01,-2.143323747785360334e-01,-1.052441926514305903e-01,5.876918710337204754e-02,3.800960313787737910e-02
5.517656092478090413e-03,-3.451355291922697521e-04,-6.337580071571567025e-04,-6.593783482555060776e-03,-2.321662776360856884e-02,-4.534693697064978019e-02,-5.202612199576222424e-02,-3.335897723755940764e-02,1.659144457775049361e-02,2.332727489994121384e-02,1.602538580021684034e-02,-1.990701113725124038e-03,1.750523522262778520e-04,-2.871264545085287778e-02,-1.041498864962827897e-01,-1.845113632916665081e-01,-2.044914805024816429e-01,-1.197333936570420393e-01,6.103390191988418423e-02,7.696720443751615959e-02
6.013485246586569577e-03,-6.351651418088105627e-03,9.974377882008014784e-03,-2.189793125811463625e-02,-1.342487434482775299e-01,-2.460003793280817752e-01,-2.449562622535414458e-01,-1.842874468043633196e-01,1.034210066949353413e-01,7.400986967164135955e-02,1.600433060453432255e-02,9.523285526377572863e-04,-5.052823505708476520e-03,-2.220891658135380753e-02,-5.763102227599185834e-02,-1.110183066119618533e-01,-1.315398404281364342e-01,-5.638839400597701196e-02,3.812887980732991566e-02,-1.098566261554506651e-02
-3.679776077343793750e-03,7.174095241473648493e-03,-1.124004721111898121e-02,-1.348212369749142436e-03,3.997566266072758584e-02,8.994182967541997087e-02,1.106547735740125993e-01,7.692695332651158791e-02,-3.773869086973623277e-02,-5.879063610665012651e-02,1.478537108189043048e-02,4.203705442404101489e-03,-9.698498725376248492e-03,-3.618137928169451456e-02,-7.893340724218356197e-02,-1.135101207511510224e-01,-1.114766498353640806e-01,-6.241665576513974467e-02,3.308369313979163395e-02,3.840966862240330348e-02
-7.858397496230851154e-03,1.486795659997312835e-02,-2.350628802110923260e-02,5.335903346310039153e-03,1.141817932000803310e-01,2.307863317713337026e-01,2.563769173313166783e-01,1.972641895593725547e-01,-9.657290013541099116e-02,-1.472331158500491122e-01,2.122098872578465079e-02,3.967476627971755487e-03,-1.045358983219821236e-02,-5.009268746343275430e-02,-1.202418759253751634e-01,-1.737209027254198734e-01,-1.803430891251182056e-01,-1.021849193931887584e-01,6.679292912930660797e-02,-1.147699102732441245e-02
5.013867102967646538e-03,2.865638794918353577e-04,-1.599532250560624196e-03,-6.043670878329252330e-03,-1.756439699552528669e-02,-3.487084408180859268e-02,-3.879854648220170538e-02,-2.402395184238612091e-02,1.128259196708256140e-02,2.201345319400981049e-02,1.646259050846282657e-02,-1.887088858165991700e-03,-5.541948221791936913e-05,-3.038409241630805890e-02,-1.094559970238013769e-01,-1.932031290813935320e-01,-2.134034910359594028e-01,-1.259030593297186529e-01,6.399547942112306098e-02,8.306677607229545623e-02
4.874920614789113316e-03,1.353810225705432205e-03,-3.204900564303076599e-03,-1.050733750466941591e-02,-2.344287598557320829e-02,-3.625509970647820129e-02,-3.915508003358129929e-02,-2.559360901214613460e-02,1.286775789891412072e-02,1.827161524536290160e-02,1.355215016198579869e-02,3.119114120682692226e-03,-7.809071315430370086e-03,-2.921110593909569814e-02,-6.589524990525331971e-02,-1.000933695010384761e-01,-1.042623112183575645e-01,-6.478012324765185237e-02,3.243699548080787587e-02,4.804936146807739505e-02
7.026348463936626931e-03,-6.277411117281944675e-03,9.545907535891601237e-03,-2.066939697122650854e-02,-1.250989551193246174e-01,-2.328589561464841085e-01,-2.298463018016995429e-01,-1.738987244511979446e-01,9.481512696546290364e-02,8.429563880047580282e-02,1.254615921783100441e-02,7.945818719172353939e-04,-3.966952656443908931e-03,-2.077718898087547311e-02,-6.057381066256461305e-02,-1.131225042532433833e-01,-1.382292599451455661e-01,-6.468060162217439957e-02,4.341338241485071664e-02,-1.824005864075342598e-02
3.087446466748178936e-03,2.413150308753805266e-03,-4.653303112102265097e-03,-7.769468650568385482e-03,-8.928184319712244993e-03,-9.383551448879349013e-03,-7.644639554277462418e-03,-4.167247185831282445e-03,1.872374796506110634e-03,4.542105596785372262e-03,1.514486199917342013e-02,2.284037915816029829e-03,-6.718080411628732374e-03,-3.156558387297372925e-02,-7.873596530592175124e-02,-1.244474433434299698e-01,-1.304460790059342734e-01,-7.949138921168499849e-02,3.997601577739956502e-02,5.850870136859979975e-02
-8.289344011028210168e-03,9.841598312699727236e-03,-1.479013201405584774e-02,3.648808328869872220e-03,6.753243306052286732e-02,1.430352107279067864e-01,1.723230762890895773e-01,1.240356830944631117e-01,-5.961121416394626893e-02,-1.007111327862392769e-01,1.753544352367264469e-02,3.251516486730048061e-03,-8.604062464531575527e-03,-4.152744383754405910e-02,-1.030981963129670165e-01,-1.543996439354704542e-01,-1.564036149791975805e-01,-8.833070076550791905e-02,4.907495018442047802e-02,4.166845092797993866e-02
1.366409369249095562e-03,3.076536426330502092e-03,-5.525290080978991283e-03,-3.035395231029683425e-03,6.154635528856531798e-03,9.609927949715279388e-03,1.782270123330222111e-02,1.969191988422539993e-02,-1.306539811386740746e-02,4.950755951736942120e-03,1.746833687659476997e-02,-1.466963698134177152e-03,-8.324881048381860271e-04,-3.604147000526546074e-02,-1.281757292216949562e-01,-2.223015572964414654e-01,-2.423978015987105217e-01,-1.441727609497586160e-01,7.936111169431916967e-02,6.604536531606050587e-02
9.756756363469842874e-04,3.880517758396567762e-03,-6.692729272462281595e-03,-5.429261029787910316e-03,7.167607912047792643e-03,2.221577637349915826e-02,3.058008729761381439e-02,2.259968842000896136e-02,-1.160954846859667614e-02,-1.389287195498852684e-02,1.545079358134524017e-02,2.517390762775024993e-03,-7.123126797741512195e-03,-3.339312283266939602e-02,-8.287356471545677394e-02,-1.296254407107429452e-01,-1.338070526253865855e-01,-7.917228953960277205e-02,4.026825026251706213e-02,5.645213148321437391e-02
2.614842999578065319e-02,-1.475465565999595913e-02,1.871083375059160239e-02,-8.249560703285162278e-03,-9.479014594421841799e-02,-1.764578374225287405e-01,-1.379260833178440615e-01,-1.039035070901044716e-02,-8.732194594165121337e-02,5.715295462720657582e-01,-3.406068085545380097e-02,-1.574923710609896221e-03,1.080706751046693267e-02,5.874257359194667849e-03,-8.641872189021947148e-02,-1.392058372524407894e-01,-1.799707792629886560e-01,-2.102186163068081870e-01,2.427684220554551242e-01,-7.169199584882889331e-01
-9.768525601954014537e-03,1.021613455738303033e-02,-1.510114717330808543e-02,4.912146707339061502e-03,6.970811058761644530e-02,1.461228470269234636e-01,1.774029143266837028e-01,1.295253151275250203e-01,-6.224399153906381293e-02,-1.049193308340964637e-01,1.882935426238319110e-02,2.200975552837172722e-03,-7.105709813255998986e-03,-4.318160640416747464e-02,-1.174466520566505578e-01,-1.816476848995763893e-01,-1.871664099767681444e-01,-1.073002437436920559e-01,5.972911762660230300e-02,4.930695329631321067e-02
-7.288222163986168844e-03,1.473388202095697597e-02,-2.338206909218378329e-02,4.354747617097656787e-03,1.145556700258009014e-01,2.302424634769548173e-01,2.519366251343218566e-01,1.940079928831159872e-01,-9.228682335407864534e-02,-1.625956611994908707e-01,1.964433413502494896e-02,5.806595726290671167e-03,-1.319871659217819460e-02,-4.879037557931018010e-02,-1.003820567163536126e-01,-1.372955793058492358e-01,-1.408292676606101024e-01,-7.875034921277657141e-02,5.543402941219910396e-02,-2.836901967950272718e-02
-5.578033889635403142e-03,8.509571413553775054e-03,-1.310424606440098276e-02,6.559716634112026934e-04,5.406008975763008928e-02,1.179913104576859884e-01,1.426884053036647781e-01,1.001725134678018853e-01,-4.851828398854278468e-02,-7.977701687727915825e-02,1.536539606141631986e-02,4.417239510434704808e-03,-1.013752687848884157e-02,-3.808376536289394265e-02,-8.291352483420033614e-02,-1.180046933449744595e-01,-1.158276322741175618e-01,-6.407523873123935343e-02,3.495902727723611270e-02,3.427617944509266101e-02
5.663464918212651744e-03,4.946655684412888665e-04,-1.960800369155087097e-03,-1.025711370045601437e-02,-2.871422889447667118e-02,-4.890596731727157864e-02,-5.527809491398007202e-02,-3.851227271836128729e-02,1.891930863440925703e-02,2.955093143595015348e-02,1.552056518837410803e-02,1.431022804960879746e-03,-5.440382656567703534e-03,-2.976033998082560153e-02,-7.885046803842632457e-02,-1.287059147674379511e-01,-1.385459726363230948e-01,-8.892611135965636238e-02,4.382250426377820585e-02,6.943993499378862955e-02
3.260515715522636221e-03,2.047203023975202943e-03,-4.130411821651870305e-03,-6.364575455425718759e-03,-7.781774146453248817e-03,-1.120137122700655408e-02,-1.002654684427530148e-02,-5.584557485155655643e-03,1.703085777400410554e-03,1.080242888019758429e-02,1.748331889998416822e-02,2.914726392190952753e-04,-3.885635182512753305e-03,-3.343574502031589069e-02,-9.946021345473550490e-02,-1.676497977521060334e-01,-1.804165083047923890e-01,-1.113185997241316616e-01,5.594561835093841973e-02,8.185437169257452072e-02
5.153274841109778404e-03,-6.834100215023300451e-03,1.100828768699724236e-02,-2.173862057168577527e-02,-1.404289075118412833e-01,-2.559814423694202201e-01,-2.447988572983016697e-01,-1.959583984374620169e-01,1.152503503046391209e-01,4.177622525998536673e-02,1.742709291654639947e-02,7.012741327104762834e-04,-4.973781518447319833e-03,-2.268675488167833446e-02,-5.887869755091079682e-02,-1.166638654660794305e-01,-1.350048404279275416e-01,-5.725441627539839401e-02,3.904751208391377126e-02,-1.070547995632534222e-02
-1.530395374539891828e-02,1.151325761470131659e-02,-1.597520898493075964e-02,6.229722944267327561e-03,6.141844130440690663e-02,1.255055294757842776e-01,1.627253968192924061e-01,1.244520681025368114e-01,-6.295966320339980993e-02,-8.088635894068887944e-02,2.064315387262871671e-02,-1.983192983352338734e-03,-4.255068785316770685e-04,-4.592564679114613524e-02,-1.683704766162437416e-01,-2.790273552968889348e-01,-3.013676235856483920e-01,-1.743220965639504794e-01,1.079182254608916786e-01,2.119536154802098560e-02
-1.779083546937731963e-02,1.282839679849710757e-02,-1.760023971678317117e-02,6.750218637133844485e-03,6.470384483876047421e-02,1.338210245967414447e-01,1.731048051640085572e-01,1.325318574677365191e-01,-6.599633816908870299e-02,-9.077850443187064633e-02,2.106517755087650157e-02,-2.901051818597011334e-03,1.034665232997625250e-03,-4.642949377370091113e-02,-1.785289766131988587e-01,-2.959294508014949088e-01,-3.212888019177100318e-01,-1.840271111807313675e-01,1.185809313982152668e-01,-3.017629157850532096e-03
9.463409095500807666e-03,-6.506907175227574780e-03,9.350877382021866024e-03,-2.144178174749183929e-02,-1.238609703202794982e-01,-2.316956064919480918e-01,-2.320920708020050294e-01,-1.716521009465303560e-01,9.258773398057335013e-02,8.964195935748556221e-02,1.272830169572150560e-02,1.086238252274204785e-03,-4.495627773705983266e-03,-2.098978158606342598e-02,-5.852304356362671850e-02,-1.084137406974189366e-01,-1.337562461174454931e-01,-6.094440943220029439e-02,4.059962329007420212e-02,-1.455487236848158894e-02
-2.526588166215440467e-04,4.215571747078677121e-03,-7.062829370679252552e-03,-2.539938538482193128e-03,1.485538421769961107e-02,3.080358126669470800e-02,4.266290423811158056e-02,3.479099687016511122e-02,-1.857027410698234779e-02,-1.659363371591652744e-02,1.821526482563146088e-02,-7.177911197336905857e-06,-3.439616504634410155e-03,-3.717755274871296228e-02,-1.165182034933668342e-01,-1.963251577370069278e-01,-2.097928581579496798e-01,-1.255740774870885701e-01,6.536522156743407308e-02,8.054384324219399094e-02
1.148554503445903263e-02,-8.059360519610404838e-03,1.106437938112589045e-02,-9.405734447622736416e-03,-7.917505429121264593e-02,-1.634086264681232636e-01,-1.718939426872628240e-01,-1.098586516657925199e-01,5.262297264619431730e-02,9.382498155793492223e-02,1.364941151389265084e-02,-5.378541345031767618e-03,5.929973739145773942e-03,-1.130447300027773161e-02,-6.551815492961694798e-02,-1.317731884638973783e-01,-1.611051155761770715e-01,-7.209698420546192810e-02,5.018313543940510629e-02,-3.774449455674021292e-02
1.580553574007159678e-02,-5.211023065649224295e-03,5.515898612203765095e-03,-2.007894933954214658e-02,-9.005424166469444547e-02,-1.711677994617849530e-01,-1.873155789246399028e-01,-1.269862493309633911e-01,6.321769639832987286e-02,9.235994591723729885e-02,1.054767096930367409e-02,2.464672895830313792e-03,-6.202147303549558621e-03,-2.258123359948021117e-02,-5.670824608718977311e-02,-9.184446383915963186e-02,-1.113695823070654095e-01,-6.164826339936735344e-02,2.936067969464154631e-02,5.353853167671206864e-02
-8.608012317532276469e-03,9.111499481167940895e-03,-1.347832226987151494e-02,3.678453891424179195e-03,5.813820486412443755e-02,1.216840495414604484e-01,1.509496250679120133e-01,1.100407126753585874e-01,-5.350985855279975778e-02,-8.574620619151242240e-02,1.866571964940233475e-02,1.531816679432293493e-03,-5.975760060570912968e-03,-4.207287529137147819e-02,-1.203152288018810023e-01,-1.907227335645825805e-01,-1.980360949958462902e-01,-1.144190216302883589e-01,6.255441140597843563e-02,5.833131707929756216e-02
-7.575758442671387538e-03,1.473891880471710214e-02,-2.333968922247541336e-02,4.895151158714451667e-03,1.141113654372701708e-01,2.301553046757597865e-01,2.540749629443226354e-01,1.954350081383623983e-01,-9.462960160242768481e-02,-1.531538033528841714e-01,2.038950794706445580e-02,4.867039661040059584e-03,-1.178521856813433827e-02,-4.933768066678303338e-02,-1.101644834670211098e-01,-1.553064123549446063e-01,-1.602291938689273665e-01,-9.012682859957751869e-02,6.096361371124769946e-02,-2.037805484461385763e-02
7.379076862018774108e-03,-4.339289127802702095e-03,5.597086562510324159e-03,-4.076614170811371229e-03,-3.954380071444520833e-02,-8.382235616556883706e-02,-1.016615964984291659e-01,-5.235839801378380787e-02,2.230827881220560222e-02,5.567566685472295773e-02,1.207129693030156714e-02,-5.167502162522381870e-03,6.164224732728311451e-03,-1.716564529207761577e-02,-9.231197046024941510e-02,-1.755204780128882258e-01,-2.002389496738475605e-01,-9.370921021680107821e-02,5.204319289700144041e-02,3.538492154377989585e-02
1.628184623340120374e-02,-9.577721033317332378e-03,1.210373924275191457e-02,2.175663032799972363e-04,-4.124897764124540317e-02,-1.085016348094303834e-01,-1.312542102466390526e-01,-1.817720758059447606e-02,-1.933236771640186105e-02,1.983443846318177495e-01,-2.447188809703343404e-02,-2.062746360403391876e-03,9.613791165342167044e-03,-5.038505689520376973e-03,-1.116097520273857946e-01,-2.014137340787860997e-01,-2.770883273294150184e-01,-1.242941199930102519e-01,1.203005579735799413e-01,-2.661237667315153876e-01
5.973878152233894068e-03,-1.263338679364026107e-03,8.153307599601238714e-04,-6.722717341326381671e-03,-2.964625059177931551e-02,-5.817098409414830223e-02,-6.831004663727636983e-02,-4.285346594182758151e-02,2.114556893711298444e-02,2.900977418305422315e-02,1.504353610995540214e-02,-2.444651802366901161e-03,1.101036798380312931e-03,-2.600660557589292571e-02,-9.897236348226143288e-02,-1.771844393443524623e-01,-1.977585592622299882e-01,-1.121488162144680945e-01,5.760960040537966426e-02,6.777912712365886938e-02
-8.302859274098434161e-03,1.002339946168268742e-02,-1.509747966246854922e-02,3.728602786551855897e-03,6.969074226897153945e-02,1.475630372898620035e-01,1.769157515655550850e-01,1.275013630060918834e-01,-6.106514716477408344e-02,-1.046291542066046520e-01,1.742308652428456450e-02,3.521557166167810227e-03,-9.028008874372418779e-03,-4.160428276141795584e-02,-1.009160469864265053e-01,-1.495328863300661448e-01,-1.509013793548647231e-01,-8.484331043168333308e-02,4.742620787224356010e-02,3.862348693020861701e-02
-3.267566948226552359e-03,6.250961630555690318e-03,-9.811658259321381220e-03,-7.795385622368818102e-04,3.244678120351868894e-02,6.999000866776138030e-02,8.922397333968078159e-02,6.484095388899220602e-02,-3.248239057102096650e-02,-4.503016735928502129e-02,1.721840315951861378e-02,1.691513829836233107e-03,-6.025800413952911438e-03,-3.779214741614780881e-02,-1.045173263223041910e-01,-1.673323420115271909e-01,-1.735923917760809898e-01,-1.010224959809252476e-01,5.311952614059377298e-02,6.284053617968994587e-02
-1.031340978700490130e-02,1.217816469950412650e-02,-1.833742411693563626e-02,6.096187962415344774e-03,8.895539991435126581e-02,1.848753447864538435e-01,2.173221454003496367e-01,1.617048405728294391e-01,-8.046497963179578827e-02,-1.156055280105212635e-01,1.959600647909665039e-02,2.866106969219392453e-03,-8.333253007490597219e-03,-4.571222051294780708e-02,-1.185827077712640065e-01,-1.779612545562196391e-01,-1.831491378853823404e-01,-1.034288438395280785e-01,6.243803445148656678e-02,1.968336112357976786e-02
-4.383401665505243239e-03,6.610847489378457453e-03,-1.018756134542080777e-02,4.432509854398782034e-04,3.575749625273071108e-02,7.439704811129357886e-02,9.587355223828310236e-02,7.146039849080043638e-02,-3.577131230789868527e-02,-4.944019150386660955e-02,1.818051398582526401e-02,8.099243624261620589e-04,-4.729478869879774616e-03,-3.941651439663597378e-02,-1.178988799959713035e-01,-1.929127377776604091e-01,-2.026659813881471761e-01,-1.186684930456050335e-01,6.311042339630731912e-02,6.953099155741540582e-02
-6.788936029422459884e-03,9.304333506506216878e-03,-1.419741622634215251e-02,2.058855187063036996e-03,6.253416273211603871e-02,1.343564454501324223e-01,1.612937330215606924e-01,1.145297851893931212e-01,-5.507560522845395684e-02,-9.308692762804497700e-02,1.611711266080789740e-02,4.245904243558744351e-03,-9.985984206305226207e-03,-3.962188831808857725e-02,-8.887083207421489495e-02,-1.277177040161980859e-01,-1.265213629862632083e-01,-7.012746722065112126e-02,3.887487535681532352e-02,3.409958034925787695e-02
4.849428778257391937e-03,-7.914419549250512054e-03,1.253154411324919337e-02,-1.070215923953747594e-02,-1.040645817168412285e-01,-1.899804343309417498e-01,-1.733977699751814150e-01,-1.204170495972421984e-01,4.136630402783181976e-02,2.115051934589327609e-01,1.354186815791036391e-02,-6.573436893337065989e-03,7.965089702516803261e-03,-1.165307507223541442e-02,-8.012194367384478655e-02,-1.577476647037222568e-01,-1.715506517097252770e-01,-8.188857948675332121e-02,6.559368196713052934e-02,-8.827665895113803729e-02
-1.010688823979721818e-02,1.262297685391013807e-02,-1.914852982799518030e-02,6.148850789483302492e-03,9.321907512526377004e-02,1.930897131252845844e-01,2.252589817261999861e-01,1.684444130931666839e-01,-8.412987759904114182e-02,-1.177809839676973724e-01,1.981209966217134522e-02,2.997123447179714240e-03,-8.586152639219184202e-03,-4.637869954784042820e-02,-1.192992285410926084e-01,-1.779944462746330947e-01,-1.834176805735190929e-01,-1.032528778967174432e-01,6.327849597579793262e-02,1.361852460431187128e-02
-1.593961395797469094e-03,5.305461743720926021e-03,-8.576059557689235530e-03,-2.271847387314665165e-03,2.339844123536684653e-02,5.202611724756103090e-02,6.729147591706702292e-02,4.935309972500649678e-02,-2.503781908345329571e-02,-3.230250669995839846e-02,1.692941762892147262e-02,1.668802097278460073e-03,-5.959556366356061341e-03,-3.648818139493877066e-02,-1.000576585881501890e-01,-1.608702144129452449e-01,-1.673749407509580456e-01,-9.805490211018341729e-02,5.096039028475311122e-02,6.410496045836228118e-02
7.553130229634774651e-03,-3.667436714900332989e-03,4.501689024985554982e-03,-6.624188854982226982e-03,-4.387816652590642574e-02,-8.804328462178026560e-02,-1.056933167210303559e-01,-6.171954128965764091e-02,2.760824182379085709e-02,5.876655745578959061e-02,1.307825981290744455e-02,-3.715539248452505439e-03,3.529633161098846839e-03,-1.941525836195679561e-02,-8.665809776613882243e-02,-1.603727281587032927e-01,-1.821567352259920447e-01,-9.169134366679367043e-02,4.756961241199175738e-02,5.115565659100834717e-02
-7.531284149741690470e-03,1.501325698652315743e-02,-2.382616899148733841e-02,5.081239582832380863e-03,1.159923270521459743e-01,2.335679353096956623e-01,2.575959465364965340e-01,1.986482731246894673e-01,-9.641560705950300014e-02,-1.530901928491494868e-01,2.108047421632275320e-02,4.393116203416785881e-03,-1.113268106155428094e-02,-5.018371130682512671e-02,-1.165845501046305493e-01,-1.666058567299366633e-01,-1.727510291298697542e-01,-9.797770471316785690e-02,6.506298781259878261e-02,-1.648220924411328281e-02
-1.095661799507896550e-02,1.382761129569086422e-02,-2.101021582377986252e-02,6.829751245973854357e-03,9.907923652493998146e-02,2.043467786914789086e-01,2.382280681440312742e-01,1.802340107421238624e-01,-9.072720108413964701e-02,-1.175885638294411062e-01,2.182129348389028056e-02,1.508985837665538510e-03,-6.491201890526973606e-03,-4.925276436895923565e-02,-1.412299615218553517e-01,-2.166465889641867038e-01,-2.273310315905987811e-01,-1.295768488869967205e-01,7.756864117264086755e-02,2.398683162355316756e-02
-3.894881245847747753e-03,6.788434950389807959e-03,-1.057266107567862365e-02,-4.953671195377443159e-04,3.724910756390394789e-02,8.119732280205516073e-02,1.019385765229205570e-01,7.265454216856435943e-02,-3.605957252736546187e-02,-5.274479475796263472e-02,1.665689149794025159e-02,2.411260184392131911e-03,-7.099927787417616154e-03,-3.766646654934727168e-02,-9.815979939883998084e-02,-1.531923585448848324e-01,-1.568381873300229712e-01,-9.037840366949795312e-02,4.766769120480621180e-02,5.579620686532711649e-02
-8.768170661497404206e-03,1.001536857627685628e-02,-1.498185330024861747e-02,4.106752225555176938e-03,6.897699555673658667e-02,1.455715740404538994e-01,1.755502396854541902e-01,1.269405741104249197e-01,-6.096499510112073777e-02,-1.032002850647101844e-01,1.794285539456264011e-02,2.974823616050809028e-03,-8.221625493563283760e-03,-4.209886386453404877e-02,-1.072352505075074153e-01,-1.620676271517150213e-01,-1.650215411242426933e-01,-9.360276073509020411e-02,5.209170852837417126e-02,4.350840853999521363e-02
-5.277214517086653567e-04,4.836965818499733630e-03,-7.992899237929538409e-03,-3.793198091231800989e-03,1.749629334502460221e-02,4.237280827126799904e-02,5.501691288820624581e-02,3.962893092429536912e-02,-2.007084396678144103e-02,-2.629827589335363008e-02,1.580465713323997434e-02,2.519436911563296966e-03,-7.168269704618979166e-03,-3.475557122206496263e-02,-8.739317032621823911e-02,-1.365143673027651161e-01,-1.401843310140185317e-01,-8.192292888607438650e-02,4.209859443641816856e-02,5.633650989119648456e-02
1.074946116278249764e-02,-3.332989264858407519e-03,3.430608168993657531e-03,-1.528615628714850155e-02,-6.769980709993402013e-02,-1.266918659184248508e-01,-1.453796682993420408e-01,-9.663987737939978839e-02,4.573603777832183082e-02,8.265940446182992729e-02,1.434947240221876030e-02,7.683310575744214943e-04,-4.215167982742646507e-03,-2.443251171282864037e-02,-6.727108588185662374e-02,-1.127811836025186115e-01,-1.275323574728128018e-01,-8.208555249110369156e-02,3.943983580224392355e-02,6.517290257057910263e-02
7.922401561006542359e-03,-4.905501910978826707e-03,6.423297338339463772e-03,-4.069093615858002805e-03,-4.248298893794434650e-02,-9.020382485803497830e-02,-1.095491026984774796e-01,-5.616562747177357429e-02,2.372891212001520395e-02,6.186893807821245567e-02,1.199843190369931367e-02,-5.442780143570739859e-03,6.608171829597251495e-03,-1.592049978562661006e-02,-8.943091606199192467e-02,-1.716207861579130134e-01,-1.963760529899368779e-01,-8.896259964145192267e-02,4.979546913115746876e-02,3.191460793415307196e-02
-3.787804828657703737e-04,4.919786168531614656e-03,-8.144606347445222314e-03,-4.454936208141364873e-03,1.695908357141951220e-02,4.308923372249894024e-02,5.565646575922354039e-02,3.932090130000401307e-02,-1.974782332088566295e-02,-2.727171277063753299e-02,1.475968233066038415e-02,3.406222291933130863e-03,-8.430912948082177477e-03,-3.381508926166586215e-02,-7.758433028084385508e-02,-1.163752786839694076e-01,-1.170842701563257621e-01,-6.772240188777001180e-02,3.468838004094343397e-02,4.749061858675047987e-02
