1.084721117566289639e-02,-1.627959857314655034e-03,5.228497933518934382e-04,-1.697122515080035088e-02,-6.120962525017751427e-02,-1.086314824364752185e-01,-1.208305966337591963e-01,-7.840267525393160297e-02,3.836350816069323405e-02,6.193525659770387354e-02,2.227269034093998235e-02,1.123691552969707796e-03,-6.303110938823186515e-03,-4.092152638392129727e-02,-1.125807444243406841e-01,-1.846276324307030425e-01,-1.988050950147864371e-01,-1.262314022639665079e-01,6.190769038846115346e-02,9.963107100453938436e-02
3.069639297661119585e-03,4.012011641390336031e-03,-7.187042010237878510e-03,-1.184203209125021458e-02,-7.941376332116166156e-03,1.377381797821424815e-03,8.620869293656525933e-03,7.796195543396022311e-03,-3.729338061384768373e-03,-5.599490455875806225e-03,2.070097752421135029e-02,2.214397751276575566e-03,-7.778598262309838196e-03,-3.986087470495814494e-02,-1.022178394201952861e-01,-1.631309195749299501e-01,-1.734461989510131530e-01,-1.092821270965732283e-01,5.344426959432425905e-02,8.701504113960602249e-02
8.133732976427124339e-03,2.221916767771621448e-04,-1.977477805520426457e-03,-1.490450423622883061e-02,-4.244158326901994321e-02,-7.045316279496753598e-02,-7.636921318482120524e-02,-4.878970257560454743e-02,2.375531061755706622e-02,3.932273730296058367e-02,1.546583401592019347e-02,5.751436237267863738e-03,-1.253445877356390223e-02,-3.621587228245596451e-02,-6.782741235609299202e-02,-9.273665045795739803e-02,-9.096876085715986660e-02,-5.463726198154977842e-02,2.676784945518103156e-02,4.420356477236796200e-02
1.934816050937822329e-03,4.845194404434070151e-03,-8.326615485523746960e-03,-1.119821187644479653e-02,-5.066755243152290880e-04,1.695967628729944457e-02,2.708610309299330429e-02,2.022838639852709772e-02,-9.823212619041798294e-03,-1.527015118726348687e-02,2.120065592399378307e-02,1.429106120616877029e-03,-6.593569205112892462e-03,-3.947420449768707096e-02,-1.064166594966284296e-01,-1.732448313080613977e-01,-1.860519738609146545e-01,-1.182699590685238888e-01,5.765381233049508836e-02,9.490941264070286432e-02
-2.044632378365357495e-03,7.898322979634338215e-03,-1.254216433547977218e-02,-8.903635914848429672e-03,2.692157984385414732e-02,7.404637359580983069e-02,9.434617723911997711e-02,6.534897721452255503e-02,-3.152709870079036664e-02,-5.257441031499106993e-02,1.549805211380761438e-02,5.708439497896372616e-03,-1.247150113869650509e-02,-3.617956174087293836e-02,-6.801695669174896708e-02,-9.312130953846539660e-02,-9.136818363982383839e-02,-5.493661295126190530e-02,2.686199497100018319e-02,4.466830336770538645e-02
8.787267385370556294e-03,-2.833858939835336155e-04,-1.276632492370161770e-03,-1.529492263675612772e-02,-4.704343553418046525e-02,-8.003499424452009681e-02,-8.769914570799131059e-02,-5.637622839481722103e-02,2.743622951572315463e-02,4.528031284891838315e-02,1.717715851531101401e-02,4.467979137926292310e-03,-1.077163415383412814e-02,-3.720775435684325200e-02,-7.935433269711764104e-02,-1.167884506955523677e-01,-1.194103759141547233e-01,-7.365231150215541256e-02,3.603005574381737408e-02,5.919233843091353808e-02
1.000060693192211803e-02,-9.874157631581045869e-04,-3.610782224122074946e-04,-1.640844093416568214e-02,-5.511740850782759910e-02,-9.604460167894290912e-02,-1.061125125596948798e-01,-6.848063392288267215e-02,3.352434955966576702e-02,5.391059425446970838e-02,2.056773533799916009e-02,2.334894122252170745e-03,-7.949020725055648551e-03,-3.982538884010067975e-02,-1.012668898422059843e-01,-1.611986093049568025e-01,-1.712388764573759270e-01,-1.078258888799675796e-01,5.288405794070684396e-02,8.527871727589164674e-02
-3.925037840210643392e-03,9.036940030318744294e-03,-1.403512787389367758e-02,-7.360528838642466098e-03,3.898292790117545425e-02,9.832733563001661015e-02,1.224695542578134178e-01,8.373967508991418673e-02,-4.071635750979600565e-02,-6.565428457278005281e-02,1.800773214660056354e-02,4.124916557302134301e-03,-1.037549402207496585e-02,-3.808278178129288066e-02,-8.418188736488826929e-02,-1.258195427540398370e-01,-1.294458654291049948e-01,-8.000668427805013305e-02,3.917463252117906608e-02,6.385385335681864616e-02
2.683291214672456002e-03,4.249052064762162337e-03,-7.497859184143531967e-03,-1.158442588504721669e-02,-5.697948134042387855e-03,6.037373195286318758e-03,1.419366645206041055e-02,1.144377739242473553e-02,-5.647559877353240318e-03,-7.807784724845523786e-03,2.301353709754738741e-02,5.629331370968909676e-04,-5.532470197735971096e-03,-4.132050679992404357e-02,-1.175562522322134706e-01,-1.948484231925928789e-01,-2.107517419511349410e-01,-1.341321376999729531e-01,6.559888640370097057e-02,1.065613943542790681e-01
6.499848117163017913e-03,1.528924098833019107e-03,-3.794259033218491672e-03,-1.409137170971985938e-02,-3.134737153972272372e-02,-4.694703406059128059e-02,-4.823065979856462626e-02,-3.006731693522186888e-02,1.468987689354879153e-02,2.431152564731588889e-02,2.223970995382940075e-02,1.127645273833480233e-03,-6.303179258760768788e-03,-4.086789007751667063e-02,-1.124337188725761938e-01,-1.842800182760383765e-01,-1.983827769770532545e-01,-1.258877735272377341e-01,6.165388428826526490e-02,9.967151737578237858e-02
7.271434505367449508e-03,1.007950811417787640e-03,-3.093882694051064072e-03,-1.462314306148534103e-02,-3.630380117205736501e-02,-5.719054954929152224e-02,-6.044984540967647535e-02,-3.799506660316429030e-02,1.859595023367794850e-02,3.031748644835358802e-02,1.728487501472542043e-02,4.675111009358010050e-03,-1.113163135960248962e-02,-3.771735080734890666e-02,-7.940921199494395399e-02,-1.159783419372688862e-01,-1.179899121827494846e-01,-7.237398418104057374e-02,3.546597222650481329e-02,5.802899290749043149e-02
4.199867657913719521e-04,5.921372443097271815e-03,-9.790901408613852247e-03,-1.015788048394244796e-02,9.844388613712198172e-03,3.810252261807243329e-02,5.169379354522821851e-02,3.658563466349076809e-02,-1.760633508753876517e-02,-2.950726626273655201e-02,1.680387254690318688e-02,5.006182912170711874e-03,-1.157921821122021022e-02,-3.737266779539631656e-02,-7.618507314500133631e-02,-1.093023032245963588e-01,-1.100793854037889902e-01,-6.714375949051100412e-02,3.281844910618778727e-02,5.445614687307802348e-02
2.133733090218237899e-03,4.678517399186446143e-03,-8.093072664722332499e-03,-1.123897284090092860e-02,-1.705292949635063907e-03,1.426564730238709042e-02,2.378119683641720383e-02,1.789246595595021111e-02,-8.669519822535300818e-03,-1.342744495931470078e-02,2.058826081282760789e-02,2.291824176710963168e-03,-7.883125650025940567e-03,-3.977983967858705894e-02,-1.014637819559603138e-01,-1.615682328727706674e-01,-1.715921979995460867e-01,-1.080498840335686050e-01,5.283729478297339438e-02,8.604889249302205556e-02
-2.661077037113379617e-03,8.140440871214585372e-03,-1.281755441677960572e-02,-8.177576500542470955e-03,3.060573591068622978e-02,8.095270898865040976e-02,1.020724451914984954e-01,7.013730079843032150e-02,-3.399435163119655934e-02,-5.569638344222425930e-02,1.617205491072382095e-02,5.449108671934849157e-03,-1.217996074883479982e-02,-3.694640234365210996e-02,-7.196879148942572635e-02,-1.005780248822420730e-01,-9.978767665605595139e-02,-6.028767469807315427e-02,2.953689395773236720e-02,4.858667973999618306e-02
-5.238809677225175765e-04,6.570810684617112846e-03,-1.066787582378972248e-02,-9.519786168307904639e-03,1.602097116263535154e-02,5.092281397844293511e-02,6.692661312490749692e-02,4.661298113444471702e-02,-2.281287129085034573e-02,-3.518596683609129944e-02,2.125735839906500724e-02,1.801704514829804982e-03,-7.213811788072219122e-03,-4.016684093965536967e-02,-1.058816737318895723e-01,-1.706963443809056957e-01,-1.822794871376736126e-01,-1.151640189901579348e-01,5.636528485541723171e-02,9.127098097424916900e-02
-3.580915389777283853e-03,8.794397412090128319e-03,-1.370817247435810945e-02,-7.518710439270014090e-03,3.692894238507154342e-02,9.418865831543105083e-02,1.177598140633402540e-01,8.053891420946317214e-02,-3.956031972792765916e-02,-6.123150782886388477e-02,2.210058613698645535e-02,1.183500623022540332e-03,-6.369800356910836070e-03,-4.064116131712982444e-02,-1.113941800222231077e-01,-1.820938913975232998e-01,-1.956050330773933810e-01,-1.240300021162663996e-01,6.081244722500876720e-02,9.790431351297569640e-02
9.483668165109038206e-03,-5.824366049047915994e-04,-9.242219631485845688e-04,-1.607015416410334865e-02,-5.129819938341345642e-02,-8.813990485526396190e-02,-9.690067157674797649e-02,-6.218885575210918865e-02,3.034045766776010539e-02,4.960757258209940596e-02,1.664875630849133037e-02,5.130761707866707266e-03,-1.175177209704240250e-02,-3.731717863251280548e-02,-7.518299601745716265e-02,-1.072405568851814983e-01,-1.077015110309568896e-01,-6.551333819361576660e-02,3.216249135391148484e-02,5.238060257319139545e-02
-3.697795275161563922e-03,8.885344865610874526e-03,-1.383342719824054261e-02,-7.477332710644785801e-03,3.766749277773791954e-02,9.565476681995191410e-02,1.194003652462106990e-01,8.164923251073213928e-02,-3.992471364885895324e-02,-6.266138933139087097e-02,1.994590175939306431e-02,2.728693867486892133e-03,-8.473056963564332134e-03,-3.929410506572218742e-02,-9.709746923058769352e-02,-1.525278086665412813e-01,-1.608480623747579885e-01,-1.008933262715736162e-01,4.946423670977623949e-02,7.971043613977894793e-02
-3.905392863181339491e-03,9.014089928330359935e-03,-1.400127799166524939e-02,-7.404427701728506783e-03,3.865622761504477339e-02,9.762793718697013179e-02,1.216017534098037256e-01,8.319146578017838634e-02,-4.040970777136591863e-02,-6.561591283580928136e-02,1.638157596646436232e-02,5.295023514976911205e-03,-1.196964263761209762e-02,-3.706141842715841850e-02,-7.333134152503678616e-02,-1.033964901560067151e-01,-1.030804467635110522e-01,-6.247130325468634032e-02,3.063569880233013576e-02,5.005904663783784792e-02
1.176235013107870819e-02,-1.983674007461612432e-03,9.043596215715411779e-04,-1.730335985318945391e-02,-6.331996809834805617e-02,-1.136360381319049540e-01,-1.245833349051626848e-01,-8.282309449211124053e-02,4.137577857185811836e-02,5.928994895185248776e-02,1.885267263362760959e-02,3.511141506554051051e-03,-9.531977861121330997e-03,-3.877209783738258531e-02,-9.055597997956779666e-02,-1.387148680771033427e-01,-1.466614897657466110e-01,-8.944899203574616098e-02,4.297848286696981379e-02,7.725561243787446020e-02
3.747329409732087432e-03,3.540486303906619295e-03,-6.548182360564315865e-03,-1.231499492071847293e-02,-1.252062934254737775e-02,-8.068209763806698243e-03,-2.655464207164573431e-03,4.838175668562907407e-04,-8.558788166281288551e-05,-5.756663808581391484e-04,1.601266074195317746e-02,5.584891188995265432e-03,-1.237008928140501118e-02,-3.689007312169929192e-02,-7.086458971469759838e-02,-9.831800444127516969e-02,-9.717379507395108862e-02,-5.857026154765754278e-02,2.868906642523948863e-02,4.747148155955437099e-02
4.242473733873257380e-03,3.165400029673120369e-03,-6.030838687279440127e-03,-1.260167596289645496e-02,-1.589699772219617391e-02,-1.505200733654631952e-02,-1.070471556203081084e-02,-5.068005706654188716e-03,2.560934992860805677e-03,4.309696108357560784e-03,2.123957953651650632e-02,1.837713270281052247e-03,-7.268337820508730118e-03,-4.021513116670367288e-02,-1.057681711988618933e-01,-1.704766617522448791e-01,-1.821039093404938913e-01,-1.150589848116044533e-01,5.626564697181382635e-02,9.168521675598487186e-02
-2.780216717753941635e-03,8.227628135998647091e-03,-1.293656797917948006e-02,-8.103541601167121855e-03,3.141005656509730792e-02,8.260886798641532691e-02,1.040146866819000454e-01,7.143327666780388552e-02,-3.462506706290591207e-02,-5.673450487851021407e-02,1.593113223171391257e-02,5.621637822118538685e-03,-1.241476915448124288e-02,-3.679347642855935324e-02,-7.036274718862525757e-02,-9.725900170316667537e-02,-9.588332350943895577e-02,-5.768969161323840578e-02,2.827738936577790796e-02,4.650237535377897691e-02
1.135866213921321588e-02,-1.739343588616930336e-03,5.932772973584292397e-04,-1.709491040612101317e-02,-6.129045556599579253e-02,-1.093658620804847381e-01,-1.197105499841304849e-01,-7.956904184509097644e-02,3.992448140961400715e-02,5.572414831715915423e-02,1.851602047357836511e-02,3.779810056265035800e-03,-9.907680884892910989e-03,-3.852757451325061061e-02,-8.791429144789966732e-02,-1.333214247886097270e-01,-1.399683293312614096e-01,-8.527186396650690559e-02,4.096498997873582876e-02,7.378127585559704493e-02
-4.084833867187914747e-03,9.147066696153876436e-03,-1.418332269874277886e-02,-7.298952258113465541e-03,3.986259888142054675e-02,1.000994438479816812e-01,1.244967595938587523e-01,8.511974742922266690e-02,-4.133456854485643983e-02,-6.731177691966998278e-02,1.559599764931543509e-02,5.858084877673905289e-03,-1.273596666396786120e-02,-3.656549579127713057e-02,-6.810077210500167788e-02,-9.258817055072271485e-02,-9.037007658234116891e-02,-5.401195451538383374e-02,2.652436710923800761e-02,4.336731561504847399e-02
4.123590939353619089e-03,3.254955105637766244e-03,-6.155192596281523591e-03,-1.252583948285988617e-02,-1.505554982143047886e-02,-1.331358835162048913e-02,-8.661871299940511471e-03,-3.713257278772487922e-03,1.885185078407052711e-03,3.408026471631863535e-03,2.107797307322706315e-02,1.948300600274621708e-03,-7.417286397081078453e-03,-4.010981274041464789e-02,-1.047271810730781849e-01,-1.683252158177244717e-01,-1.795743397657000584e-01,-1.133598133600177971e-01,5.545753047364278959e-02,9.012333719812744282e-02
9.516345421786559511e-03,-6.202877944783413700e-04,-8.680182022522651974e-04,-1.609374358886865586e-02,-5.166059298481631701e-02,-8.889600160506615223e-02,-9.774937871842340198e-02,-6.284728772488236415e-02,3.070721788751737402e-02,4.984291273014119367e-02,1.915099463927530388e-02,3.344637360768266954e-03,-9.322068192458319441e-03,-3.891822577335883604e-02,-9.184771007621374272e-02,-1.417053626215026285e-01,-1.482909290431894123e-01,-9.253231418116268647e-02,4.537148937198189069e-02,7.349274459659296821e-02
-5.715010728011282737e-04,6.620803385744751871e-03,-1.074044226729111741e-02,-9.538746678697538131e-03,1.631511860764007366e-02,5.147515417052971054e-02,6.736182768655853137e-02,4.707737509862990749e-02,-2.278440369181827796e-02,-3.746057496903553580e-02,1.581434707256698657e-02,5.716855391276143283e-03,-1.254739230564560701e-02,-3.673881138028452231e-02,-6.954821633982333218e-02,-9.558470514974851118e-02,-9.392989815062012526e-02,-5.641611096007746740e-02,2.765161412653798292e-02,4.564117162738957900e-02
8.432080820947124300e-03,1.235601379682635392e-04,-1.871799657634693609e-03,-1.537857818519125334e-02,-4.463447425446841893e-02,-7.439817750875334090e-02,-8.054978478678752329e-02,-5.158380424677573572e-02,2.519996090317880647e-02,4.115215873904696370e-02,2.238327721147920224e-02,1.033951134830499163e-03,-6.178148813433398390e-03,-4.097548823263061357e-02,-1.133626368709450410e-01,-1.862161149831136897e-01,-2.006796101602727755e-01,-1.274323262508389454e-01,6.244643745365793808e-02,1.007450976145657234e-01
2.610462149515574426e-04,6.035322488620962350e-03,-9.946582836285057516e-03,-1.005947650440841730e-02,1.089824375221040698e-02,4.027614397224048293e-02,5.423430471354966087e-02,3.829924808247492374e-02,-1.847257816437886807e-02,-3.071745758974084306e-02,1.627660715155906934e-02,5.386123474851539639e-03,-1.209713942691550970e-02,-3.703742750095120884e-02,-7.264597265697991801e-02,-1.019885011498082583e-01,-1.014714764284826154e-01,-6.142818168608038532e-02,3.006306003204569158e-02,4.979285507873229544e-02
1.002962498943640868e-02,-1.420155659733794706e-03,3.769433424425337742e-04,-1.689410237328931377e-02,-6.119459500381051187e-02,-1.080931946621436907e-01,-1.183205187377246032e-01,-7.927245559360283911e-02,4.016176168137203240e-02,5.289920942529103415e-02,1.566965148546686781e-02,6.042113673762408710e-03,-1.306548581427202649e-02,-3.647208570266036176e-02,-6.571199495200921725e-02,-8.800781936299542640e-02,-8.500844277689233175e-02,-5.017945059337225455e-02,2.453534545518510843e-02,4.130852049403423154e-02
7.063265911081736959e-03,1.146021775475340732e-03,-3.278318033753356564e-03,-1.448058387868120939e-02,-3.499566943139421210e-02,-5.448495841442764498e-02,-5.722766264358560007e-02,-3.590588573547440210e-02,1.758099293291900955e-02,2.864453451389988720e-02,1.932452509199150681e-02,3.214860251365352084e-03,-9.144008656814372332e-03,-3.901721435424979761e-02,-9.301580141795154355e-02,-1.441145980491017053e-01,-1.511148328990697398e-01,-9.441491571054463905e-02,4.623105141161953230e-02,7.524975614413076386e-02
-9.427322864723197693e-05,6.277676050331627150e-03,-1.027318324125815058e-02,-9.825825890193432693e-03,1.318482195495030221e-02,4.502026676454560367e-02,5.982758424310009177e-02,4.199644343110315453e-02,-2.026522328890583910e-02,-3.357205400276948304e-02,1.774550912625988408e-02,4.328516769391860253e-03,-1.065610472451778215e-02,-3.796340149158566879e-02,-8.246722508333573232e-02,-1.222849299023960890e-01,-1.253445788676508799e-01,-7.729636619177175649e-02,3.776763844955868810e-02,6.240080376994949773e-02
1.172663729127115806e-02,-2.255181249181108238e-03,1.376788705363236887e-03,-1.754612659026513061e-02,-6.711099278879692487e-02,-1.208160707667038092e-01,-1.352172445319385630e-01,-8.790795586752710167e-02,4.312740520838308222e-02,6.883567724085029593e-02,2.135458140727508614e-02,1.779891582540771289e-03,-7.195882662212348124e-03,-4.033729992253665131e-02,-1.064704583190469872e-01,-1.719903740907007261e-01,-1.839251622475892300e-01,-1.163222600554667252e-01,5.708075021312067343e-02,9.177600690412784923e-02
-5.998630961264767025e-03,1.058957198505149078e-02,-1.617358659741257101e-02,-5.966977272274326394e-03,5.373558204027917284e-02,1.288427852525658168e-01,1.584150667061695328e-01,1.076671161361333617e-01,-5.274164414266754863e-02,-8.296251571906103350e-02,2.019509943200517577e-02,2.540016278364948255e-03,-8.214534903840955971e-03,-3.940704212721603261e-02,-9.867335150179883108e-02,-1.557841803060760200e-01,-1.646214658921044682e-01,-1.033926313122371099e-01,5.076704561525188786e-02,8.157926680391466845e-02
-4.750370925059754779e-03,9.650627443999804100e-03,-1.487864309652476950e-02,-6.839082759185082655e-03,4.469832005550860438e-02,1.100913871063614879e-01,1.362741055717077154e-01,9.294396454791985229e-02,-4.524145256301279061e-02,-7.285381984013351853e-02,1.684959848878483935e-02,4.952150308910018006e-03,-1.150098944308469706e-02,-3.734217395431733283e-02,-7.645817377008691518e-02,-1.098590272250170585e-01,-1.106647738389550523e-01,-6.750601167547165549e-02,3.314029475087573035e-02,5.374278447765934441e-02
4.940814189942945023e-03,2.663611158849806329e-03,-5.347326652543832673e-03,-1.305437213359830761e-02,-2.061417475992488590e-02,-2.478739839851400173e-02,-2.213688114996934311e-02,-1.271205464869937761e-02,6.249357956909140990e-03,1.057977581038366949e-02,2.184651909884560705e-02,1.401238351794079073e-03,-6.673509646035365173e-03,-4.060457541619420102e-02,-1.098400995856393531e-01,-1.789048039531141443e-01,-1.920363147580816943e-01,-1.216553795468192783e-01,5.954419642067482199e-02,9.647828853961763762e-02
-5.839496386495696134e-03,1.047199759353622389e-02,-1.601164912296767356e-02,-6.078518447938822955e-03,5.259890465138340743e-02,1.264853325614977986e-01,1.556345331324918146e-01,1.058131992771851604e-01,-5.183015923554772086e-02,-8.155286443676780517e-02,1.988128380243614490e-02,2.766298955908380597e-03,-8.522785191605049271e-03,-3.921363592767357353e-02,-9.659022557978708123e-02,-1.514788515184504192e-01,-1.595638678127311028e-01,-1.000296830387490676e-01,4.912424033700261289e-02,7.894372802022937841e-02
1.073192911401198157e-03,5.454538696707239738e-03,-9.156559347175421970e-03,-1.056701022005361937e-02,5.526941061262325566e-03,2.918735562895474756e-02,4.125077959076626360e-02,2.958475307301176860e-02,-1.419426507344161668e-02,-2.383545029566592338e-02,1.797397911048656538e-02,4.164071069733335517e-03,-1.043170151040662130e-02,-3.811914094065309982e-02,-8.403713161928491604e-02,-1.255318731441183444e-01,-1.291845887070525722e-01,-7.983440594256849265e-02,3.898316109224732318e-02,6.449424857358601604e-02
1.067038580157508854e-02,-1.624696671008896143e-03,5.624814281202442090e-04,-1.704199259250591819e-02,-6.191349134571455526e-02,-1.100067415817181926e-01,-1.200897713426859054e-01,-8.052933660607193567e-02,4.052626095741053425e-02,5.547888208671845206e-02,1.705601377107951455e-02,5.108211603776488530e-03,-1.181415333165175205e-02,-3.730415995104496146e-02,-7.419621167843054588e-02,-1.055836797970881591e-01,-1.062146001454686017e-01,-6.367835819808098652e-02,3.084317052416550922e-02,5.390377951814322166e-02
6.145857174252977728e-03,1.822365590326448584e-03,-4.203496683545032350e-03,-1.388821277383409623e-02,-2.867886468978122355e-02,-4.144561302214223864e-02,-4.192365158339846076e-02,-2.564946896591183828e-02,1.260472815087747278e-02,2.039096713374032033e-02,1.552971795725185955e-02,5.931687047317578398e-03,-1.284214557441103882e-02,-3.659417187122626647e-02,-6.767948938994534924e-02,-9.172999663170836038e-02,-8.943522319495478268e-02,-5.339862516332423426e-02,2.620748866541403738e-02,4.313787169180578751e-02
2.827655638090344550e-03,4.205852997173065849e-03,-7.455767158051975450e-03,-1.170806222533675792e-02,-6.233299105789015006e-03,4.906244914191504325e-03,1.262521452027760491e-02,1.062057953762469975e-02,-4.987761841426171204e-03,-8.819724499076593560e-03,1.651445911349955220e-02,5.222059678216393885e-03,-1.187526964005037114e-02,-3.720471524579296169e-02,-7.422965521093854990e-02,-1.052705931611382373e-01,-1.053505130782106114e-01,-6.400890884133070280e-02,3.132409934896196457e-02,5.184622855426003485e-02
8.115762978766177804e-03,3.371672225684421709e-04,-2.158914759624569468e-03,-1.515946580114261102e-02,-4.260077361537466939e-02,-7.020024636777519311e-02,-7.553363305212207335e-02,-4.832595781269685697e-02,2.356761579151838218e-02,3.884740228455549338e-02,2.360595814495058953e-02,1.585309168098819610e-04,-4.986591784743032996e-03,-4.175255436681923893e-02,-1.215094259540987071e-01,-2.030726524947866207e-01,-2.205143381864890229e-01,-1.406464193920219929e-01,6.891827172641348809e-02,1.111442953026466618e-01
5.319557581692856141e-03,2.414002296318881052e-03,-5.011387146969871996e-03,-1.334397416815587961e-02,-2.310361753230704557e-02,-2.992969255100172421e-02,-2.837119415373239376e-02,-1.663366275282832790e-02,8.223189146640746960e-03,1.318499326130578506e-02,1.604107552304120943e-02,5.564999538572402982e-03,-1.234292091251740914e-02,-3.691646576534494961e-02,-7.108282280217552429e-02,-9.876676634165137969e-02,-9.771460239243486001e-02,-5.891209094254183654e-02,2.887376794059956508e-02,4.761992431183935393e-02
4.834450799716435987e-03,2.758099820830372390e-03,-5.481211972026263021e-03,-1.301730442956267747e-02,-1.983060789908083418e-02,-2.316778420036350039e-02,-2.039661207941120130e-02,-1.135386656492775453e-02,5.669512037041178967e-03,8.921907282346683982e-03,1.753828829520956423e-02,4.489754283649678712e-03,-1.087844942826760725e-02,-3.786773579389018929e-02,-8.109396561548964932e-02,-1.194607672387966030e-01,-1.220721601505961873e-01,-7.510759201762010062e-02,3.674282347917962044e-02,6.050855598407231528e-02
8.629349526732027487e-03,4.093873546496401561e-05,-1.777191164680082952e-03,-1.550770310875930133e-02,-4.541005230680845300e-02,-7.599352131211047079e-02,-8.258928536112124241e-02,-5.268253051068381293e-02,2.571727277999952960e-02,4.214673840498852492e-02,1.569805409271277097e-02,5.809917677643272604e-03,-1.267570097203996396e-02,-3.670840040670334675e-02,-6.884390970916939856e-02,-9.413319482309395747e-02,-9.226718243445501677e-02,-5.525283671899078319e-02,2.714086741717484236e-02,4.439860825076542838e-02
1.032842807057240964e-02,-1.238197220677937638e-03,-1.340171599954406711e-05,-1.662453680793721938e-02,-5.750364144451518278e-02,-1.009782375813162714e-01,-1.118550203058722992e-01,-7.239125519568426204e-02,3.540858313022453990e-02,5.723599532264408291e-02,2.180544418938673568e-02,1.454557848408796761e-03,-6.752392256514708202e-03,-4.061959407784757059e-02,-1.094860414130826992e-01,-1.782129233396470835e-01,-1.912615110575996979e-01,-1.211855763849410267e-01,5.942538893008405404e-02,9.572788924393783871e-02
-2.171408985950640247e-03,7.792811734715049399e-03,-1.234553412892797249e-02,-8.492651353661326286e-03,2.735847094723301010e-02,7.423392773760557894e-02,9.415130950708572311e-02,6.487880549277699749e-02,-3.140129113064758087e-02,-5.184222000534251945e-02,1.547048103022105603e-02,5.956158778322083458e-03,-1.287132092973151606e-02,-3.651003915174573511e-02,-6.728310704410792042e-02,-9.089580868641039535e-02,-8.840504800972234789e-02,-5.272488444206892277e-02,2.584775827384048694e-02,4.271660256707468517e-02
6.716961117857536689e-04,5.698750054871997393e-03,-9.474710484111385431e-03,-1.028285239148158357e-02,7.872469215529219466e-03,3.410593885066573461e-02,4.722679832943187800e-02,3.343405973724253993e-02,-1.653772166546876518e-02,-2.421593780157125370e-02,2.292521303561873003e-02,6.108582631789150064e-04,-5.593850794858412634e-03,-4.122868028096268733e-02,-1.169697553516421129e-01,-1.936381910656332361e-01,-2.092843547821011951e-01,-1.331383958084983443e-01,6.521531225135718257e-02,1.051884596230537594e-01
9.423782068598368644e-03,-5.469289223481513251e-04,-9.700311137658297611e-04,-1.603384952711849748e-02,-5.097274083351008983e-02,-8.747001223003791903e-02,-9.610382678242955501e-02,-6.168702256419930641e-02,3.012056581344521589e-02,4.902140762295295606e-02,1.772927774181695670e-02,4.359304546568631977e-03,-1.070221545507833716e-02,-3.800831216384611966e-02,-8.238061258883971893e-02,-1.221243653054861072e-01,-1.252321069225380834e-01,-7.717925516237841843e-02,3.786185285324723815e-02,6.151564282583177334e-02
5.946022800263649211e-03,1.959006462675728574e-03,-4.390724310003035757e-03,-1.374905687567404451e-02,-2.735143111031693164e-02,-3.870043359349167877e-02,-3.867370148277980008e-02,-2.352141936425113447e-02,1.157567665226704595e-02,1.868244770271962341e-02,1.764182479719980656e-02,4.417541284107644184e-03,-1.078051883372291991e-02,-3.793935596979762515e-02,-8.178865200373372502e-02,-1.208977184340150335e-01,-1.237735210939186759e-01,-7.623045505841827274e-02,3.731507679878796196e-02,6.124380280591724957e-02
-1.147551547934402838e-03,7.031981551484564261e-03,-1.130086313803294225e-02,-9.122691507801414246e-03,2.033252637898235599e-02,5.980073542874281278e-02,7.731750352352773081e-02,5.356277120413767412e-02,-2.605729826233722790e-02,-4.147974360490056661e-02,1.985271397696150575e-02,2.807819693893882917e-03,-8.583269455379925750e-03,-3.927861724894268075e-02,-9.653515008428471822e-02,-1.513630760422471910e-01,-1.595341043413575077e-01,-1.000273812000185142e-01,4.891399643169341838e-02,7.972782735188901904e-02
8.626398728370704427e-03,3.633349635025207025e-06,-1.713878361338294631e-03,-1.550906110693092005e-02,-4.576784431977504175e-02,-7.673443839462962268e-02,-8.337382277597386870e-02,-5.337619983766253573e-02,2.609966593767199319e-02,4.238248843927033133e-02,2.091549263308978279e-02,2.083114767430553627e-03,-7.605614333061470889e-03,-4.004043385782207753e-02,-1.035914654996690359e-01,-1.659982414098804537e-01,-1.768853083131781967e-01,-1.115793291000262144e-01,5.468114080996237109e-02,8.838846718694223781e-02
3.918298153631892544e-03,3.411487175480772214e-03,-6.370761445568461426e-03,-1.239696966944755195e-02,-1.360429707492341600e-02,-1.031802991836971821e-02,-5.190675350252803820e-03,-1.345303153056052158e-03,7.911020575647863956e-04,1.143186001350788433e-03,1.987101942525365539e-02,2.812957861126681725e-03,-8.594234039010280324e-03,-3.934410766301731088e-02,-9.668468971960755831e-02,-1.516915093299335271e-01,-1.599975054371438887e-01,-1.003336020347174312e-01,4.905173717118736093e-02,8.020257443953963949e-02
8.883017551379435162e-03,-1.426324742741166829e-04,-1.526781924241164129e-03,-1.567365274443108941e-02,-4.713946363672188999e-02,-7.956118459048291958e-02,-8.679181739118733974e-02,-5.547125805370766577e-02,2.706723061909837441e-02,4.439043056207824661e-02,1.577064629011701302e-02,5.758062866323784834e-03,-1.260516090040009543e-02,-3.675508021671036740e-02,-6.932871069107611472e-02,-9.513562028900010570e-02,-9.344653663774198094e-02,-5.603561405406126683e-02,2.752712310616966737e-02,4.498961221502283114e-02
-1.844572878249600700e-03,7.553573498823989985e-03,-1.201790010570264085e-02,-8.698341876119928401e-03,2.513522344125917324e-02,6.965660203048003318e-02,8.878238358801854302e-02,6.129417884643394154e-02,-2.966797733236932466e-02,-4.889349316245530930e-02,1.617703462996666897e-02,5.449568455573629289e-03,-1.218156239843027136e-02,-3.695802727683698136e-02,-7.199704859596604833e-02,-1.006383377365427101e-01,-9.986581304320180097e-02,-6.034896254386021286e-02,2.955213443545002400e-02,4.877859544418750026e-02
3.700355428793473608e-03,3.551820760813264189e-03,-6.557965094571299378e-03,-1.224831551497303737e-02,-1.225248071533622737e-02,-7.524602766769937501e-03,-1.815729771528583726e-03,8.115692562453984300e-04,-3.625627348155342419e-04,1.114028650250897812e-04,2.161875368892596239e-02,1.559597880524177249e-03,-6.887936997570238973e-03,-4.044791414072924918e-02,-1.083257775383586752e-01,-1.757655536511603667e-01,-1.883225799691802815e-01,-1.191832401439714972e-01,5.830964711742001039e-02,9.463674858336704188e-02
2.333888996794219323e-03,4.556912860731821523e-03,-7.933531759168381547e-03,-1.138093316031242065e-02,-2.899125879563543319e-03,1.178536451320801037e-02,2.075797445698692942e-02,1.597878800062659324e-02,-7.576247692293903990e-03,-1.310664580328232791e-02,1.764478433697924675e-02,4.406464082446215347e-03,-1.076328546557331692e-02,-3.792011653620278033e-02,-8.181627282576336979e-02,-1.209473762795515300e-01,-1.237992419521167786e-01,-7.626329025932920835e-02,3.726064234975121764e-02,6.166032049655581493e-02
6.679058676311105947e-03,1.419649384040835849e-03,-3.651401547906125283e-03,-1.422346528469153187e-02,-3.240540270169000453e-02,-4.913428712440619239e-02,-5.091152810493601577e-02,-3.172434182877854891e-02,1.554465737270895563e-02,2.535332376781103403e-02,1.986246641449984640e-02,2.828713124698831183e-03,-8.618200536030247438e-03,-3.935768343907986022e-02,-9.660474027066109914e-02,-1.515362064848859158e-01,-1.598477050988376946e-01,-1.002283645775044474e-01,4.906665343406700630e-02,7.980720718592602958e-02
-1.678071649958465250e-03,7.436013456942627831e-03,-1.185480263179739500e-02,-8.801439572984348647e-03,2.402957966245147098e-02,6.737720803126201474e-02,8.611943111563623299e-02,5.950170143053419569e-02,-2.878339504450445202e-02,-4.749428405644249424e-02,1.660626808203327642e-02,5.140458958317738192e-03,-1.176047839156720703e-02,-3.723038641762516088e-02,-7.487296612478219759e-02,-1.065815320821177081e-01,-1.068591880775031644e-01,-6.499560351162941840e-02,3.180118757833204357e-02,5.250891088818968044e-02
5.299694069834444410e-03,2.415749459587761966e-03,-5.011499355157600366e-03,-1.331378784291011204e-02,-2.302490233935030467e-02,-2.976008911685451563e-02,-2.811231466838058635e-02,-1.654598328270161234e-02,8.174714420133047735e-03,1.324010256528249455e-02,1.943038093396370902e-02,3.133661791259602369e-03,-9.032110571601859039e-03,-3.907390577014363542e-02,-9.373297733502174156e-02,-1.455936663143407583e-01,-1.528377175644787811e-01,-9.556714620220913003e-02,4.675376342183698575e-02,7.633648568574293025e-02
1.681683582574582114e-03,4.966959520417997716e-03,-8.475222601813733533e-03,-1.091947056842809856e-02,1.089248321523619487e-03,2.005833913242970404e-02,3.074632799727810423e-02,2.243193098308931058e-02,-1.104933344148516586e-02,-1.630311184421477308e-02,2.346374928116229386e-02,2.364046523109647469e-04,-5.087141345441963114e-03,-4.159186560144130518e-02,-1.205422741625942346e-01,-2.010177684146186305e-01,-2.179896628185967744e-01,-1.389505913054801534e-01,6.795465030246852778e-02,1.103615033356430131e-01
6.218294566656096256e-03,1.767995109197624537e-03,-4.131286769266979617e-03,-1.393358310107719635e-02,-2.916627235343011160e-02,-4.245155653658651274e-02,-4.310376975494835394e-02,-2.644467663073202940e-02,1.299507964789651734e-02,2.100946926973006057e-02,1.615153021681739465e-02,5.486144944401930013e-03,-1.223555994081345147e-02,-3.699067119525829145e-02,-7.183342553259154661e-02,-1.003168245601825798e-01,-9.954499962239912736e-02,-6.011875956494150408e-02,2.947726182620693733e-02,4.847031158994068167e-02
6.221360680434939727e-03,1.763683884087527409e-03,-4.125235751510627699e-03,-1.393359106513817128e-02,-2.919759270849581548e-02,-4.251513193683405245e-02,-4.317355105640172108e-02,-2.649972767361585824e-02,1.301804953494190183e-02,2.108050712414622635e-02,1.679439063232415763e-02,5.024790137339592289e-03,-1.160728909444455267e-02,-3.740060192539630679e-02,-7.613397727586967978e-02,-1.092068987987302592e-01,-1.100127934738183433e-01,-6.707507335904121237e-02,3.285572594707070193e-02,5.401415147646872195e-02
4.442097721941297428e-03,3.040046789554910409e-03,-5.865334536706630353e-03,-1.275974339967562293e-02,-1.718359159503825284e-02,-1.769998696837302155e-02,-1.396363856143265775e-02,-7.073650234967331085e-03,3.594397813680468533e-03,5.476600847778324843e-03,1.752086973491465138e-02,4.501224429470998545e-03,-1.089373590021067151e-02,-3.785467915185281723e-02,-8.098002619056698936e-02,-1.192246668614091454e-01,-1.217908990514300072e-01,-7.492252291663639707e-02,3.664545940297435356e-02,6.039962974758575354e-02
1.113530180173050166e-02,-1.906956996172139152e-03,9.297862248628732673e-04,-1.729180874875003299e-02,-6.436259613618813824e-02,-1.150841229074108241e-01,-1.258026175374047373e-01,-8.434567785597391065e-02,4.204131233622838276e-02,6.085829467952837135e-02,1.745374214247924494e-02,4.865010202995220800e-03,-1.149752446143185655e-02,-3.751774368435283058e-02,-7.627358063635193697e-02,-1.099736274595466273e-01,-1.115177556502272849e-01,-6.703056058008320661e-02,3.246586593294797235e-02,5.664620329765340800e-02
1.110322483983898489e-03,5.431559395128670968e-03,-9.126193685196785921e-03,-1.060066381300697053e-02,5.270567128069727006e-03,2.865410365689819577e-02,4.057625622550979638e-02,2.919280471076328431e-02,-1.400428545022280868e-02,-2.369453773749748138e-02,1.654299518951707348e-02,5.196300276661187934e-03,-1.183894898568628798e-02,-3.721205421763345428e-02,-7.443226222892593280e-02,-1.056830191478458358e-01,-1.058257559830080713e-01,-6.431939420936881591e-02,3.144816049999997476e-02,5.222483634399842367e-02
2.539099943900226600e-03,4.411773432893663534e-03,-7.737965302722737797e-03,-1.152656754949943872e-02,-4.314229457020092931e-03,8.871842572865726653e-03,1.727364538140177541e-02,1.373255380362399525e-02,-6.507292301328389782e-03,-1.128514493361870014e-02,1.580479666670325800e-02,5.732460752748191890e-03,-1.257081144505275624e-02,-3.675118012259540046e-02,-6.946594416261014926e-02,-9.542652195058001774e-02,-9.376171269088548477e-02,-5.631062082260995805e-02,2.758627076203310977e-02,4.569797682148227236e-02
2.115323149955116583e-03,4.674977952254849925e-03,-8.083914004462441905e-03,-1.122889259967631975e-02,-1.747382059614778840e-03,1.419969971340883687e-02,2.371885684692803115e-02,1.783968734265241676e-02,-8.721053901659826108e-03,-1.292967832886472192e-02,2.153736331657762904e-02,1.611984938968968883e-03,-6.957949473401107976e-03,-4.037799099284745952e-02,-1.077720466075673955e-01,-1.746151525367646840e-01,-1.869393066560204042e-01,-1.182644991870914208e-01,5.785570804903455988e-02,9.388638929794695942e-02
6.907477228879355113e-04,5.719644399874337926e-03,-9.514475802915733568e-03,-1.032277591537791341e-02,7.996843008418543647e-03,3.429918762654916159e-02,4.726195480774387364e-02,3.359233892590722526e-02,-1.618189429676780006e-02,-2.677082089268644979e-02,1.836785071740168473e-02,3.881472163291210808e-03,-1.004694811392927919e-02,-3.836438491676799623e-02,-8.665031085173277581e-02,-1.309331832788006300e-01,-1.355316137323294701e-01,-8.406252495998671470e-02,4.106034042076853185e-02,6.771436386941249996e-02
5.921778588447473846e-03,1.971078603735760409e-03,-4.405728898798621715e-03,-1.372766949247459546e-02,-2.722133922720895716e-02,-3.842937640808616329e-02,-3.833168617303521486e-02,-2.332592579085866064e-02,1.147689872514976069e-02,1.857378328239468052e-02,1.884671204403132183e-02,3.553756033944623083e-03,-9.604497171458024896e-03,-3.870664290516596939e-02,-8.983577782315221860e-02,-1.375359407830727410e-01,-1.433603155764436587e-01,-8.925838644043182502e-02,4.367670576208711186e-02,7.140885524944061424e-02
2.783278691810353936e-03,4.233393684215474434e-03,-7.493806859631486211e-03,-1.166529855963785618e-02,-5.898279851870913415e-03,5.590431927179730434e-03,1.349372535552236484e-02,1.112099631705192916e-02,-5.232718437009429430e-03,-9.057248107946912208e-03,1.844329413821552133e-02,3.833386948897295199e-03,-9.982667911598491761e-03,-3.843008895184926027e-02,-8.716233241427462364e-02,-1.319991918802312925e-01,-1.368105584450335921e-01,-8.491119052041032345e-02,4.148660161092006249e-02,6.836048449221358847e-02
-3.442316902813186141e-03,8.693649497775950141e-03,-1.356926966361845545e-02,-7.648987214195948625e-03,3.584747683414098163e-02,9.189108495350263583e-02,1.149636708631790599e-01,7.870061197205870107e-02,-3.843373871206851727e-02,-6.057876484390236488e-02,1.970126380593550941e-02,2.906170863991260067e-03,-8.715065362901383561e-03,-3.914672777212495347e-02,-9.547819104289931302e-02,-1.491782420879044224e-01,-1.569166680069812025e-01,-9.827850251233968826e-02,4.815597757169979426e-02,7.779169612476372064e-02
5.002155418303927403e-03,2.641941845898818086e-03,-5.323117149673114654e-03,-1.313730005765107248e-02,-2.096190362553711911e-02,-2.550669779263502190e-02,-2.316985022388795556e-02,-1.316599481370303928e-02,6.531548119534665020e-03,1.044693738629241808e-02,1.566885887881003248e-02,5.832360678595188697e-03,-1.270710993573113609e-02,-3.667794584697367521e-02,-6.858577391287715153e-02,-9.360585082416850167e-02,-9.163660969001063972e-02,-5.487882087606672787e-02,2.692392529376788288e-02,4.434316750039582478e-02
3.574240663193807392e-03,3.663970605670584333e-03,-6.714572789186093460e-03,-1.217667816904701925e-02,-1.125595644696260333e-02,-5.470086035461510336e-03,4.884909926824378308e-04,2.462016984544512788e-03,-1.037483650977779562e-03,-2.063338339664180093e-03,1.908446849561967751e-02,3.376257707943856878e-03,-9.361087184973242159e-03,-3.884265480637161261e-02,-9.143488164536386908e-02,-1.408354480569389833e-01,-1.472170799599515911e-01,-9.183346341143043545e-02,4.488238867852826358e-02,7.368839288621123473e-02
1.010758190295674153e-02,-1.051862346942544768e-03,-2.771224069495550890e-04,-1.648623211577730091e-02,-5.575468860515681024e-02,-9.734296603929432079e-02,-1.076946084730448089e-01,-6.945950150892113428e-02,3.395024784650363392e-02,5.491800010127692588e-02,1.919678435615385093e-02,3.313218462247372043e-03,-9.279719041143663638e-03,-3.894966027378091167e-02,-9.214787061037878202e-02,-1.423290489998602082e-01,-1.490248839409843984e-01,-9.302295858654235916e-02,4.562462270674075282e-02,7.381606679044919184e-02
3.400027561768184832e-03,3.794917242482765719e-03,-6.896705907315512155e-03,-1.207118730631883720e-02,-1.005047617958781427e-02,-2.978983133883514670e-03,3.376312990467582320e-03,4.429843764298889083e-03,-1.961243404607698575e-03,-3.904565237133131306e-03,1.762714885528329778e-02,4.420957182301780974e-03,-1.078335582971457624e-02,-3.791653129662993921e-02,-8.170776204751289962e-02,-1.207258395888611419e-01,-1.235502034889298106e-01,-7.609062868838002702e-02,3.718180635024776609e-02,6.149318994783894987e-02
5.882416872208341696e-03,2.002887706952729066e-03,-4.449893606075094529e-03,-1.370502252971093037e-02,-2.693290338848097071e-02,-3.783512970848453005e-02,-3.764730888550001098e-02,-2.285005471351221965e-02,1.124979996941083936e-02,1.815292909289160234e-02,1.813121888756757949e-02,4.066592708155084002e-03,-1.030267272889928351e-02,-3.825084646654659110e-02,-8.505770605857893019e-02,-1.276564300112152661e-01,-1.317296505065118917e-01,-8.152235473503555152e-02,3.989541684179331166e-02,6.539706286433126514e-02
5.078331956067230757e-03,2.587294828715539299e-03,-5.248704028340970933e-03,-1.318767913760367574e-02,-2.147661817275952831e-02,-2.656948239497175512e-02,-2.442145745201777102e-02,-1.399698015304138773e-02,6.934163683998089203e-03,1.111814320677495874e-02,1.556826652505699515e-02,5.904583153752120117e-03,-1.280545314054887945e-02,-3.661428016519750750e-02,-6.791435579698296143e-02,-9.221790808285539043e-02,-9.000314663539255022e-02,-5.379284006184904821e-02,2.640030129721690488e-02,4.345050141935068166e-02
6.135654818762423246e-03,1.824817134842456057e-03,-4.208365211436726136e-03,-1.387600017987760184e-02,-2.862012883796261759e-02,-4.132210710452020874e-02,-4.176608014088973447e-02,-2.556931318571320846e-02,1.256950402347894666e-02,2.032028613078402240e-02,1.706787938066681165e-02,4.829098394333743161e-03,-1.134088656020458205e-02,-3.757453047744987312e-02,-7.795668247905357395e-02,-1.129753798314486329e-01,-1.144481610178834929e-01,-7.002744586227903356e-02,3.429715517821368964e-02,5.632947118297050582e-02
4.318470474960308531e-03,3.090337863728004342e-03,-5.923936806261408637e-03,-1.261733047699794587e-02,-1.642350182562177588e-02,-1.623086757201544494e-02,-1.223573468378909290e-02,-5.991820321229550037e-03,3.060228050786917113e-03,4.727249417675608717e-03,1.853799859395693916e-02,3.435131191851882593e-03,-9.350217607837413292e-03,-3.797129801844948555e-02,-8.854077736706046642e-02,-1.359518177773858805e-01,-1.420334735457209063e-01,-8.880343273216384503e-02,4.330035311905380824e-02,7.168088729860244701e-02
-1.752230340228005945e-04,6.471875843496892322e-03,-1.057542331043216655e-02,-9.962459013794935578e-03,1.418216159471571633e-02,4.754652715439363492e-02,6.318099508466129555e-02,4.438556162522951792e-02,-2.145093989400995854e-02,-3.495305865168893411e-02,1.923949701205807106e-02,2.889824081033678937e-03,-8.596888692076323779e-03,-3.833015918482349932e-02,-9.327415149050295728e-02,-1.458102977297485170e-01,-1.536190303487636466e-01,-9.655252049964749284e-02,4.706559607082686641e-02,7.767510997619148094e-02
1.119818310461562216e-02,-2.218506559801242117e-03,1.422697833060117961e-03,-1.672742719147125856e-02,-6.469356027981035262e-02,-1.168506885295676478e-01,-1.308874983119877600e-01,-8.567213296807144052e-02,4.169846729392373552e-02,6.932849244134089983e-02,2.365248915540246744e-02,-3.708253438538811064e-04,-4.130704063648300839e-03,-4.097668161945589027e-02,-1.228387953945567906e-01,-2.076334023130194106e-01,-2.267575952298681585e-01,-1.456399823762179746e-01,7.116455612128122499e-02,1.160682607743136335e-01
6.747518432996035820e-03,1.222970373172364844e-03,-3.341636975179293478e-03,-1.405814610086009338e-02,-3.333594251060426755e-02,-5.147354118520396093e-02,-5.377708909524177988e-02,-3.390553005790950675e-02,1.650477382291071909e-02,2.756423621878478780e-02,2.179355217953565793e-02,9.988443799216900620e-04,-6.005574605879693273e-03,-3.986143905591625625e-02,-1.104242159683452573e-01,-1.816385143506861477e-01,-1.960533092092216489e-01,-1.249524484777806560e-01,6.102264770809386757e-02,9.967989990027939506e-02
7.556761777656476053e-03,6.187000648432694483e-04,-2.511037125512451812e-03,-1.455426050692335688e-02,-3.884284668294708809e-02,-6.295246839513206349e-02,-6.740609501102697021e-02,-4.295763747361136531e-02,2.093502821896183613e-02,3.457515904441309934e-02,2.068447946079648991e-02,1.834797432675658313e-03,-7.154634013660024494e-03,-3.922914953170992397e-02,-1.029565020453094282e-01,-1.660508543433570350e-01,-1.776411137081933267e-01,-1.126282581423597579e-01,5.501254737183819410e-02,8.994281929363816264e-02
4.891116155018082612e-03,2.645791119660026447e-03,-5.308021432053828918e-03,-1.294479334608782464e-02,-2.041046168475682196e-02,-2.453909601915606198e-02,-2.198482169642903758e-02,-1.258490773790231151e-02,6.215610120621585521e-03,1.023990203488351139e-02,2.043087123474529587e-02,2.017617850199174279e-03,-7.404029098565169387e-03,-3.906442823034331213e-02,-1.012569768129814862e-01,-1.624892364894950370e-01,-1.733968035753224446e-01,-1.097959143104693253e-01,5.354636938657839768e-02,8.816815356666385384e-02
-5.488214905312427394e-03,1.053953395384277236e-02,-1.618911136417264252e-02,-6.865630509304401774e-03,5.080332776934314704e-02,1.239184078109948628e-01,1.532345882110223712e-01,1.047766036688625307e-01,-5.109483689985091365e-02,-8.182160265920460085e-02,1.876993017005210151e-02,3.221672614184892258e-03,-9.049224053407942808e-03,-3.797506095021865175e-02,-8.997074955110266614e-02,-1.389218780328525527e-01,-1.453709686263434109e-01,-9.101780430657763210e-02,4.459210462997623137e-02,7.243270413271601926e-02
2.925236315257122820e-03,4.126100649803496334e-03,-7.344987139373836994e-03,-1.178135297818093744e-02,-6.994438711614110911e-03,3.413674163164770545e-03,1.107775182378100721e-02,9.499989495303633527e-03,-4.565041673276534068e-03,-6.886863384592156745e-03,2.047661082826152112e-02,1.970849061651874790e-03,-7.336669714573584855e-03,-3.906956773045538317e-02,-1.016042205820283095e-01,-1.632071136669732692e-01,-1.742183435572192407e-01,-1.103319201749839024e-01,5.380737900535456641e-02,8.842968421140225133e-02
3.911521188127462662e-03,3.352459725979374180e-03,-6.271239739948714781e-03,-1.235328480476926075e-02,-1.398455901718281130e-02,-1.114405189799572843e-02,-5.959336087182444397e-03,-2.055104722962965841e-03,8.310172491832364117e-04,3.180168327713082943e-03,2.328733880392985789e-02,-1.382354588971013154e-04,-4.440024868823541637e-03,-4.068381569646412760e-02,-1.204810101165379732e-01,-2.026199619582617628e-01,-2.207989168998753804e-01,-1.414994631643685663e-01,6.910997347297491433e-02,1.127669199109078146e-01
-5.734626258594721637e-03,1.073165858042977178e-02,-1.645581437620403931e-02,-6.717868176029040406e-03,5.255632346085147011e-02,1.275655275353566043e-01,1.575378162852870134e-01,1.076642646421202276e-01,-5.248971668399974450e-02,-8.416165315331691765e-02,1.872740978336631668e-02,3.252934614840552463e-03,-9.092070227431799795e-03,-3.794761667927900456e-02,-8.967977018933344369e-02,-1.383130782423799832e-01,-1.446472716933288882e-01,-9.053187329829900931e-02,4.435245175400458900e-02,7.206662479590865422e-02
1.804303850807362219e-03,4.945198044050117328e-03,-8.464974429120492722e-03,-1.111766269048385103e-02,4.002671523529750114e-04,1.886359788501651771e-02,2.940267760660351601e-02,2.170689143173000143e-02,-1.071448163148695093e-02,-1.552037297901331762e-02,2.217634986062350100e-02,6.874921769103176095e-04,-5.572413407163537280e-03,-4.002139978708148943e-02,-1.130039968787719951e-01,-1.870026361291579620e-01,-2.023020074358924947e-01,-1.291230161346078320e-01,6.305218398546819092e-02,1.028931629490722477e-01
1.037575246126051787e-02,-1.898545449024922893e-03,1.083006702530493054e-03,-1.659523462552053158e-02,-6.338303875197261184e-02,-1.135609941417380503e-01,-1.247308734050504853e-01,-8.425201800543107022e-02,4.210677912084212493e-02,5.981557834713248367e-02,1.595919894487027313e-02,5.694827003067434723e-03,-1.256010384115348669e-02,-3.623803526796662289e-02,-6.704098115556508808e-02,-9.163014500810026663e-02,-8.958456901146008566e-02,-5.336758444578496019e-02,2.599830567056008596e-02,4.426808935292679548e-02
8.471917629983422016e-04,5.707571532708701628e-03,-9.524481713847661110e-03,-1.059521368853260335e-02,7.152152508160418420e-03,3.288454419647986182e-02,4.573189713268264317e-02,3.283659007539846408e-02,-1.576795596154149243e-02,-2.655129515956911046e-02,1.572801481961816350e-02,5.547302606213631859e-03,-1.225283601001623396e-02,-3.633350701267071270e-02,-6.953555813161545196e-02,-9.630003999604033749e-02,-9.514340414044641925e-02,-5.748197664491355718e-02,2.808501807410661300e-02,4.686860833215959754e-02
2.699950287172426036e-03,4.319335898459694331e-03,-7.617806986266724943e-03,-1.167351470944589728e-02,-5.348355695514662306e-03,6.843224504715450171e-03,1.497500829320449513e-02,1.226214864400769836e-02,-5.753317573587409320e-03,-1.027786724873058256e-02,1.611144696096128426e-02,5.262703893585803094e-03,-1.186260544847627177e-02,-3.656497674370505491e-02,-7.212246195280058725e-02,-1.017012316017494589e-01,-1.015372882039217300e-01,-6.175258772550679121e-02,3.014135007325305718e-02,5.039707772247684070e-02
5.333445050961158063e-03,2.317166382697305113e-03,-4.854404138817869190e-03,-1.322344838756672573e-02,-2.344772282680536446e-02,-3.086408737074183839e-02,-2.951359032927783690e-02,-1.756233490761578697e-02,8.639764031412708670e-03,1.417824345995138263e-02,1.932889954689751000e-02,2.844121717677325356e-03,-8.539020480944799207e-03,-3.843321139100058792e-02,-9.386034887978220165e-02,-1.470550847957857454e-01,-1.551670068087794008e-01,-9.758656531998030625e-02,4.760617258877233166e-02,7.844955791329397132e-02
4.623975393391703548e-03,2.861933657983489407e-03,-5.609363772872618358e-03,-1.281131740581004791e-02,-1.853469466013937805e-02,-2.062943875854218040e-02,-1.747134841564471769e-02,-9.439401512667599387e-03,4.730147061318851556e-03,7.427588587253682040e-03,1.713734724445586943e-02,4.491998102209841803e-03,-1.080343922773365287e-02,-3.716720421655534540e-02,-7.907432343715431466e-02,-1.162028859668632896e-01,-1.186948508874767771e-01,-7.320285490573602560e-02,3.571363683660701283e-02,5.940644318424583015e-02
2.696854239156777980e-03,4.321464484781395270e-03,-7.620385592359633919e-03,-1.167182648106144735e-02,-5.331224504280009102e-03,6.879092299945560422e-03,1.501730563266552576e-02,1.229076071045523411e-02,-5.769001113858325709e-03,-1.028923563054314795e-02,1.612892518320052648e-02,5.249555516040498027e-03,-1.184451052487291850e-02,-3.657504318742742233e-02,-7.224053137633308641e-02,-1.019474649507018937e-01,-1.018281408203900451e-01,-6.194735239810882088e-02,3.023735762937435068e-02,5.054320554990339442e-02
6.038358552215225550e-03,1.798582094880169652e-03,-4.146259582863284776e-03,-1.366223967881732837e-02,-2.817883127459232251e-02,-4.073103754571392315e-02,-4.123848003241011723e-02,-2.531767610525402501e-02,1.241205222635114770e-02,2.024972667367655119e-02,1.574941185103614916e-02,5.539380729578054219e-03,-1.224360695207524566e-02,-3.637337583846797506e-02,-6.970399397514004391e-02,-9.665532473761623278e-02,-9.559748965515618702e-02,-5.775644941958137102e-02,2.825500371811459285e-02,4.687868306288479892e-02
1.317269525974279487e-02,-3.451922894484961424e-03,3.040435852678491369e-03,-1.776653980506004427e-02,-7.515967742657178596e-02,-1.389893201229140673e-01,-1.547026268346934907e-01,-1.023160353034530817e-01,4.873160015335021439e-02,8.893711933103810863e-02,1.951945974999882982e-02,2.948583127286172334e-03,-8.762886265528152530e-03,-3.836915392305555172e-02,-9.205664432122760699e-02,-1.435373472716908183e-01,-1.535801342244867140e-01,-9.442468273590276517e-02,4.619185730358552067e-02,7.577470111391702845e-02
4.822182989016640664e-03,2.699578869041274060e-03,-5.381754270518505912e-03,-1.290681844515574606e-02,-1.993739922016688274e-02,-2.355241037018260958e-02,-2.083410766018302385e-02,-1.179835259852716166e-02,5.842005620587501467e-03,9.562778787652714829e-03,2.011874474571173632e-02,2.252109774621452454e-03,-7.726259324678436125e-03,-3.888423820843862205e-02,-9.915345213627455023e-02,-1.580991703218304623e-01,-1.682077338482829143e-01,-1.063245784146130274e-01,5.185201675070966187e-02,8.545042628945495600e-02
4.492136258136165960e-03,2.949528105318736243e-03,-5.726395314772726557e-03,-1.270682536206266776e-02,-1.765665104361459348e-02,-1.880332563397187073e-02,-1.518979359961560201e-02,-8.063240822991243895e-03,3.993113373704891209e-03,6.861728665899194390e-03,2.056254110268235236e-02,1.912411804263325354e-03,-7.257739409720520563e-03,-3.913400484825186459e-02,-1.021769687843955138e-01,-1.644102659459694138e-01,-1.756640676959406455e-01,-1.112992555324911342e-01,5.430635081964618055e-02,8.909499838511965308e-02
5.079730597271812920e-03,2.502676584394450052e-03,-5.108006425096724319e-03,-1.305446720372122407e-02,-2.171771871918459079e-02,-2.726273780575108607e-02,-2.517166518427908090e-02,-1.475595107421469321e-02,7.233769795681578921e-03,1.221020004487513924e-02,2.102207210162387874e-02,1.569544252804144779e-03,-6.787371029463855343e-03,-3.940350167007643234e-02,-1.052651843499629591e-01,-1.708584181641475686e-01,-1.832927975288759503e-01,-1.164038871194375407e-01,5.680763206945969868e-02,9.307199777313285294e-02
6.490910430846069668e-03,1.451386487642643969e-03,-3.666834674613263581e-03,-1.392663511151687357e-02,-3.130300075070657773e-02,-4.723965781698133415e-02,-4.891442807229773315e-02,-3.047919225475745342e-02,1.490338623992425171e-02,2.447431588084810275e-02,1.747830623247997872e-02,4.238798622119316351e-03,-1.045617477750968374e-02,-3.737325739249298256e-02,-8.137984616828598805e-02,-1.210137740739898604e-01,-1.243976369314822999e-01,-7.700171607440825516e-02,3.760534553763230509e-02,6.214174494934086856e-02
-3.233289928195687279e-03,8.766645992460953690e-03,-1.372743342155221223e-02,-8.209266954579567954e-03,3.469961796168426899e-02,9.037249485534123994e-02,1.136109992555261600e-01,7.825244920998188081e-02,-3.798865079309120263e-02,-6.137150753037626250e-02,1.841261285399356518e-02,3.503989147922881298e-03,-9.439791974763446503e-03,-3.781667987646435136e-02,-8.762514843071360360e-02,-1.340234464448703533e-01,-1.396409197035058947e-01,-8.720200493607012382e-02,4.259575326705630077e-02,6.980011605791389129e-02
1.098333191558853450e-02,-2.033421727473366802e-03,1.160673139739082371e-03,-1.659918175361347475e-02,-6.298550844767991652e-02,-1.132877194254116038e-01,-1.267456135302388320e-01,-8.282669244127392749e-02,4.037136184664956440e-02,6.655173743154185750e-02,2.281207769979393118e-02,2.584926122304598284e-04,-4.994899537384862864e-03,-4.048527294534554760e-02,-1.171745842879943211e-01,-1.957917405963459645e-01,-2.127748655219852125e-01,-1.362473998579415146e-01,6.659416208544448323e-02,1.085050162049658595e-01
6.942154061136893151e-04,5.807219395848689514e-03,-9.657981618749559780e-03,-1.049547541979079998e-02,8.089987422198911121e-03,3.486538971354363053e-02,4.812827477224565498e-02,3.436281240169714035e-02,-1.651743730346251493e-02,-2.739984957219863959e-02,1.825113198778105517e-02,3.637263699433089525e-03,-9.624806361576223462e-03,-3.777600128647121136e-02,-8.662698213254060864e-02,-1.319463078018978941e-01,-1.372585855840228741e-01,-8.560591676110042292e-02,4.170457579415115523e-02,6.926034595682438455e-02
2.154947394195083632e-05,6.318900069961424365e-03,-1.036391924357227441e-02,-1.007593498049262105e-02,1.280577706863120571e-02,4.468795845170550618e-02,5.982699205947288046e-02,4.212626357278865391e-02,-2.042398648971591180e-02,-3.271171821214488573e-02,1.980066983160899685e-02,2.467153798615652482e-03,-8.015991311090632510e-03,-3.865027557022417820e-02,-9.704997142061927429e-02,-1.536919674605405628e-01,-1.629295528328938147e-01,-1.027795058222087943e-01,5.012941545781959829e-02,8.238526489433890820e-02
-1.490160448544136651e-03,7.467411321685706038e-03,-1.194390441934880046e-02,-9.237887260057000421e-03,2.297993151892574470e-02,6.585459668538258537e-02,8.463442352152009129e-02,5.887928062951913039e-02,-2.838230568443142476e-02,-4.750532409558214098e-02,1.526244264679910145e-02,5.890219573094102046e-03,-1.272249124176100948e-02,-3.605013752189037413e-02,-6.640805738194030527e-02,-8.976935277377977307e-02,-8.741193285102426269e-02,-5.230104166415961570e-02,2.557997776245115110e-02,4.263108859372079229e-02
9.325885833307151485e-03,-7.033269873939693162e-04,-6.941313650230124255e-04,-1.561439998125615375e-02,-5.085733470676231244e-02,-8.798386007393754760e-02,-9.707107124244997165e-02,-6.268747596861252991e-02,3.055571837152664880e-02,4.994349436022216954e-02,1.855722482960292519e-02,3.434430702160741478e-03,-9.352529827554405262e-03,-3.800886930196246960e-02,-8.863833273676664792e-02,-1.361666289481111292e-01,-1.423247310332822479e-01,-8.898572045558426902e-02,4.351752685577022634e-02,7.119198734881318491e-02
1.899586901781671888e-03,4.874875758550263269e-03,-8.367444476491358446e-03,-1.117459038345799266e-02,-2.411874880586806214e-04,1.752141919887005572e-02,2.780193681833299790e-02,2.064760241190141329e-02,-1.015258924110323119e-02,-1.485888105437551017e-02,2.194275696767516992e-02,8.637204000531001347e-04,-5.814560123952920712e-03,-3.989135560171793576e-02,-1.114430167196771709e-01,-1.837422290783674583e-01,-1.984543642298680077e-01,-1.265478984714563937e-01,6.177399768978813349e-02,1.009128771715656347e-01
2.103330893763192405e-03,4.762749830519808457e-03,-8.226286287462664104e-03,-1.131018284587076775e-02,-1.281088765832722430e-03,1.531098073203622512e-02,2.505007763721682490e-02,1.891792325771528976e-02,-8.998389617632619394e-03,-1.532073359760905903e-02,1.806935170964271697e-02,3.780451971734710703e-03,-9.823009509895768571e-03,-3.768553999001075100e-02,-8.539355746384762191e-02,-1.293775136189373731e-01,-1.342403517067876362e-01,-8.359508041077413909e-02,4.072789178275518923e-02,6.776190462217117350e-02
5.243268351912973302e-03,2.384967846376536554e-03,-4.950013527659253600e-03,-1.316926353150904040e-02,-2.281892686813716264e-02,-2.955353971141673822e-02,-2.796683024306723803e-02,-1.652556128886240039e-02,8.137636832220676228e-03,1.334849662020336572e-02,1.926135002366577420e-02,2.894191393951292546e-03,-8.607574315309403368e-03,-3.839350344261024256e-02,-9.340906700745886526e-02,-1.461132236981294297e-01,-1.540531705490323366e-01,-9.684022384661031269e-02,4.724235974900956037e-02,7.785072744635970765e-02
1.005743968838301861e-02,-1.219521137454812609e-03,3.905208286109074223e-06,-1.603541869364522726e-02,-5.539812646583770761e-02,-9.771902787223227249e-02,-1.070116567424078680e-01,-7.113735435316778655e-02,3.572614030502789528e-02,4.929075637995516262e-02,1.667361255190003000e-02,4.903376062687272996e-03,-1.138845595424659712e-02,-3.686711916954229368e-02,-7.523888459508791537e-02,-1.081820801345865224e-01,-1.097972242943474480e-01,-6.647969635473965910e-02,3.209592921083776612e-02,5.661930896042496886e-02
-9.052107512205753714e-04,7.018624540886923141e-03,-1.132508114246998619e-02,-9.575950399589982370e-03,1.894989079180298130e-02,5.747404926493554500e-02,7.475017995208715904e-02,5.225670398684455903e-02,-2.517695038276721725e-02,-4.213383833112583493e-02,1.599725558918391188e-02,5.337957652290954702e-03,-1.196365237921882471e-02,-3.647424049570830579e-02,-7.136352065392057020e-02,-1.001055685682693125e-01,-9.962430842353188487e-02,-6.046745572898395982e-02,2.952871704825048987e-02,4.922471018765484096e-02
6.179922279682295572e-03,1.683186924696634945e-03,-3.983921156182934284e-03,-1.373723823087550852e-02,-2.920297407410809426e-02,-4.286158614356264107e-02,-4.372378380177336515e-02,-2.702938730215721785e-02,1.323494949884501323e-02,2.169818686599123136e-02,1.825331719161868427e-02,3.655659874025829481e-03,-9.654771167728740111e-03,-3.781893632991339266e-02,-8.660474813901611335e-02,-1.319157931603021083e-01,-1.372823193478970860e-01,-8.562096958202443375e-02,4.179180834245727061e-02,6.898798025146583857e-02
9.285598308170439630e-03,-6.649498743080614616e-04,-7.499436968875436427e-04,-1.559356898505080864e-02,-5.051799932141768507e-02,-8.726936914882904572e-02,-9.624570304989435443e-02,-6.210603166270763087e-02,3.023109709373987194e-02,4.977380405816206332e-02,1.768741448869601274e-02,4.086588136520366565e-03,-1.024818762457776686e-02,-3.750495140693823476e-02,-8.278403114888550907e-02,-1.239466571276351681e-01,-1.278747352070555565e-01,-7.931521358990924198e-02,3.879626695945870285e-02,6.363157865658206069e-02
-2.001908486050030245e-03,7.861948597341076456e-03,-1.249055468720502819e-02,-8.923177813674069980e-03,2.660862692829740056e-02,7.340832033030696147e-02,9.361460619574626940e-02,6.484266057079707268e-02,-3.129092145745231840e-02,-5.203851018576265836e-02,1.627600250624841594e-02,5.121153259619745657e-03,-1.166396019054129901e-02,-3.662293970219475392e-02,-7.326637476046457542e-02,-1.040685755936724827e-01,-1.042969239093521211e-01,-6.357767619337223453e-02,3.104534900190368887e-02,5.158286443488184492e-02
3.517221893752310070e-03,3.700316324850472412e-03,-6.765338843896342644e-03,-1.214102622166608400e-02,-1.088443472164967070e-02,-4.696764752878709870e-03,1.395166719893838753e-03,3.119280959877856769e-03,-1.339250318525503445e-03,-2.689829337008418919e-03,1.815251691227903752e-02,3.722667235803965580e-03,-9.744750123365297084e-03,-3.774431291121293358e-02,-8.594740011233686916e-02,-1.305381380052896556e-01,-1.356269987163232216e-01,-8.452166235340771716e-02,4.119662761012624769e-02,6.842160276412387332e-02
5.678521785752253803e-03,2.069841027654582832e-03,-4.519760329105351748e-03,-1.344796422672684712e-02,-2.572592484608108784e-02,-3.561888862413231660e-02,-3.519903153954567765e-02,-2.127485207695328437e-02,1.045189473814992116e-02,1.700192394492194489e-02,1.568271086305941808e-02,5.589418019153649664e-03,-1.231240878347365786e-02,-3.633345842624905592e-02,-6.924916185108706546e-02,-9.570706424362523945e-02,-9.447475419751800996e-02,-5.700989516679030866e-02,2.788744999203868202e-02,4.631602385592643867e-02
5.512080164919150316e-03,2.191285094325930161e-03,-4.686110470319169302e-03,-1.334141393112699657e-02,-2.460230898572512981e-02,-3.327512238927413102e-02,-3.241179258606301239e-02,-1.943809712006608695e-02,9.566023405653659856e-03,1.552490671338576517e-02,1.728020584873868337e-02,4.386125100865528870e-03,-1.065828112183924217e-02,-3.725424341777218429e-02,-8.004101255601403508e-02,-1.182200821721764161e-01,-1.210872649847379995e-01,-7.479550588542593914e-02,3.650704932317065665e-02,6.055064757824603350e-02
6.289060810079946662e-03,1.606666224891521721e-03,-3.881036669614945991e-03,-1.380842827484827194e-02,-2.990611259219968024e-02,-4.432965998537499730e-02,-4.548195625925851443e-02,-2.817276909720328737e-02,1.379148679612481575e-02,2.258303342928326060e-02,1.680997928469871172e-02,4.741305346067710424e-03,-1.114669135304031250e-02,-3.698661398623147301e-02,-7.686867620300011361e-02,-1.116016972008918584e-01,-1.132690957784631691e-01,-6.956355856528056991e-02,3.398375906740852548e-02,5.629407062431344977e-02
1.025431534769122299e-02,-1.341399976441601249e-03,1.624958982555033127e-04,-1.612516452178463372e-02,-5.636687882327026666e-02,-9.981277289924513074e-02,-1.092145836773040085e-01,-7.286463096178824594e-02,3.668354075979551182e-02,4.983216908807107381e-02,1.703554613915431171e-02,4.642116503244995973e-03,-1.103297481019143225e-02,-3.706818097111706789e-02,-7.755035094685631958e-02,-1.129917832485184820e-01,-1.156834404320909726e-01,-7.018474970197796647e-02,3.378292587111740575e-02,6.035976821646170387e-02
9.660247441400926505e-03,-1.002719552122298408e-03,-2.675641712684556639e-04,-1.586869589362381941e-02,-5.380228851684886598e-02,-9.412420498876210295e-02,-1.037618753094493584e-01,-6.787653994311551586e-02,3.356641701901114799e-02,5.071066454699767190e-02,1.503319537553612917e-02,6.100444183951031496e-03,-1.302180281614163243e-02,-3.594457711159061708e-02,-6.460080739725061749e-02,-8.602270343833218202e-02,-8.309851998133931106e-02,-4.923629768378647714e-02,2.407568890110736715e-02,4.039505417959000921e-02
4.185860302543122080e-03,3.192399312999008934e-03,-6.064346368149464012e-03,-1.255088677601806299e-02,-1.554821055739459730e-02,-1.440424943799826010e-02,-1.011950370279051867e-02,-4.520520519924575709e-03,2.354471877703472743e-03,3.418739538907561437e-03,1.701450025201148297e-02,4.583710169080844332e-03,-1.092936059963341144e-02,-3.709394881652869347e-02,-7.824265142118191907e-02,-1.144676838728309193e-01,-1.166397344512561107e-01,-7.183218572008302771e-02,3.503987637990842174e-02,5.836708169531629187e-02
1.272352955168717936e-02,-3.089109672716222610e-03,2.530657768796990004e-03,-1.744628280649330315e-02,-7.165951235926362739e-02,-1.316592531850229453e-01,-1.482386122241653170e-01,-9.633430558647854136e-02,4.582561199451919837e-02,8.484444493097850759e-02,2.023567592355907108e-02,1.753363287013018357e-03,-6.904066531204892943e-03,-3.935140372090573796e-02,-1.054799982514596640e-01,-1.707547054252508967e-01,-1.838727586773239997e-01,-1.178023155697008051e-01,5.936111899339551606e-02,8.206478935003853892e-02
-4.197516985310401072e-03,9.530581812268477948e-03,-1.479094718497309981e-02,-7.622095601747959359e-03,4.169376201142140081e-02,1.049409362091266590e-01,1.308440648233104298e-01,8.977317868721405858e-02,-4.370413598217146034e-02,-7.004003196788591290e-02,1.895019248831475434e-02,3.092533360415872234e-03,-8.873056838316940864e-03,-3.810256648592150186e-02,-9.122171911058306326e-02,-1.415282634317359400e-01,-1.484786718706802566e-01,-9.310741014263573812e-02,4.554237832389806256e-02,7.418318091289992366e-02
-3.194455003278057204e-03,8.748346869548530996e-03,-1.370608693438352121e-02,-8.245014751514467138e-03,3.451181395425902826e-02,8.990936730361705209e-02,1.130613319717446719e-01,7.788504707689342110e-02,-3.768777641746527685e-02,-6.196338503149979859e-02,1.644803600337740868e-02,4.987141436376608949e-03,-1.147899470659569099e-02,-3.670499785766476175e-02,-7.440269716172781544e-02,-1.064398096257738180e-01,-1.070785825493883597e-01,-6.542987645652613427e-02,3.198490370801575222e-02,5.276150804770869673e-02
1.025721493238290760e-02,-1.492509438777100961e-03,4.195384029023301042e-04,-1.625639636212319883e-02,-5.835203562219054563e-02,-1.037452819150991301e-01,-1.134054892759564087e-01,-7.621904923535986753e-02,3.841023967141551226e-02,5.186065550509540156e-02,1.669892238740322554e-02,5.024020062874265391e-03,-1.160023958093790025e-02,-3.676517144705347684e-02,-7.358506207650095110e-02,-1.049527172786225426e-01,-1.059694484337436876e-01,-6.380787408680763106e-02,3.078442128464031410e-02,5.458828364695833546e-02
-2.116353278529464754e-03,7.901505840469537356e-03,-1.253091882945479331e-02,-8.843239743443722517e-03,2.695212125818446242e-02,7.427850908275315800e-02,9.468850411609759654e-02,6.555246374054581049e-02,-3.200179646165855069e-02,-5.033092330776137158e-02,2.061112028904282800e-02,1.851193064262401933e-03,-7.168920037334325368e-03,-3.907548080440936822e-02,-1.024111785623849774e-01,-1.648823118629470785e-01,-1.760911745627914138e-01,-1.115895492846777359e-01,5.450885202026437698e-02,8.893807702663343584e-02
9.384915788030079309e-03,-7.431043793486302729e-04,-6.415047506270615818e-04,-1.565313848797487972e-02,-5.122951892156688003e-02,-8.875156753670404575e-02,-9.799371728613724686e-02,-6.328426626668003097e-02,3.081213758580608406e-02,5.065003145215948160e-02,1.797401923246141897e-02,3.871978647180480959e-03,-9.953598360131026695e-03,-3.767133020956384137e-02,-8.471155464816301772e-02,-1.279698508986650551e-01,-1.326323174147319151e-01,-8.249881559945858311e-02,4.034981321550178135e-02,6.612753907994063651e-02
1.583856415104320514e-03,5.151320209131532435e-03,-8.760378196699983647e-03,-1.100902032223639859e-02,2.214379420419120351e-03,2.259586680293566505e-02,3.364618478250561845e-02,2.467872630514383187e-02,-1.178079281056589045e-02,-2.005661002777597499e-02,1.773271633340239850e-02,4.034061905828521810e-03,-1.017185218326888824e-02,-3.748821744162320058e-02,-8.310706155673312778e-02,-1.246062736502721868e-01,-1.285958298048756887e-01,-7.982640829172461816e-02,3.888904116735713429e-02,6.484992778694237403e-02
6.339713177129488453e-03,1.552621940785346016e-03,-3.802065104139086549e-03,-1.382547263662375035e-02,-3.036483169301729124e-02,-4.528084600512176372e-02,-4.654744004099096999e-02,-2.896318034895989380e-02,1.415357437981553702e-02,2.337588321909670266e-02,1.970659496312632264e-02,2.564159287906604689e-03,-8.155282114819036032e-03,-3.865752935618632646e-02,-9.639322053956143888e-02,-1.523441819685874277e-01,-1.614295696512038636e-01,-1.017754715488725786e-01,4.967569461747174675e-02,8.161094312376361570e-02
9.160148195237582947e-03,-5.842840838107751789e-04,-8.572926723080173672e-04,-1.551100171199483804e-02,-4.975614373493555259e-02,-8.569696775327789728e-02,-9.432431179193291604e-02,-6.092723679991005753e-02,2.968829156457774079e-02,4.869414344132287631e-02,1.989516464116586336e-02,2.432296512154166757e-03,-7.976615805738475340e-03,-3.878329249756627684e-02,-9.763132583031354506e-02,-1.549406112275041603e-01,-1.645184452163445943e-01,-1.038487978004470069e-01,5.076120462047058884e-02,8.291170691002525128e-02
1.094871708028102852e-02,-1.690702594112442059e-03,5.859901576461962192e-04,-1.637512192333524796e-02,-5.884035688550585258e-02,-1.050212663930196327e-01,-1.165082047431353907e-01,-7.623834280455721313e-02,3.735642679058938376e-02,5.932557238662003463e-02,1.851326858985283264e-02,3.227479428203054723e-03,-8.989072398445763223e-03,-3.818833513821216774e-02,-9.149376833169629852e-02,-1.417218007416199133e-01,-1.495874868998146590e-01,-9.331329651859629482e-02,4.544616367537516327e-02,7.587783937679833113e-02
-5.271848993517874726e-03,1.035587749638203214e-02,-1.592733159069237639e-02,-7.042724323843896350e-03,4.895860475254958100e-02,1.199619348802758306e-01,1.484808597961398968e-01,1.016239429451844395e-01,-4.929250303775628561e-02,-8.063760337461725602e-02,1.526793025179831731e-02,5.865021526018532327e-03,-1.268311977638852603e-02,-3.600525438023603059e-02,-6.645259356687310826e-02,-8.986419184048313746e-02,-8.747292010378708571e-02,-5.229567265772925438e-02,2.569683810380995678e-02,4.189471163764098283e-02
1.440637479529813247e-03,5.249231626822844533e-03,-8.891944653494125717e-03,-1.092080011965193206e-02,3.108287434989219500e-03,2.447167812205775991e-02,3.589728806458811206e-02,2.615207399736243360e-02,-1.257235401687669188e-02,-2.061835524028025890e-02,1.894412883391466407e-02,3.118626545650399207e-03,-8.912699784560856875e-03,-3.817916651986397181e-02,-9.129074161574476931e-02,-1.416792593468326200e-01,-1.487643723361272152e-01,-9.330596901393824194e-02,4.547088110140164174e-02,7.524620734967217561e-02
-2.944627515933245787e-03,8.563899803956671886e-03,-1.345310870321725014e-02,-8.391466769942401704e-03,3.285227011945338060e-02,8.643028798140459101e-02,1.089519205866364554e-01,7.513663366170648950e-02,-3.631812113322906849e-02,-6.006056003149378569e-02,1.585958638802642540e-02,5.432647206858189082e-03,-1.209176505224099710e-02,-3.637456545198042984e-02,-7.044027862403824669e-02,-9.817529785906958795e-02,-9.732434066096271041e-02,-5.891162925334120226e-02,2.880858922904129885e-02,4.768089232345724959e-02
5.924654888360969540e-04,5.896187835092282434e-03,-9.783524472689986151e-03,-1.044861679780481264e-02,8.846484670006201506e-03,3.641671288755190389e-02,4.990000830633617435e-02,3.562842426453059069e-02,-1.713182069006181571e-02,-2.872746274165027813e-02,1.569319693701809459e-02,5.572775837441534819e-03,-1.228775313097776878e-02,-3.631191857829184355e-02,-6.930172895151763546e-02,-9.581129077775164815e-02,-9.456457166945626824e-02,-5.709439575650332444e-02,2.790109279002740347e-02,4.652756351169259896e-02
-1.616569053812674794e-03,7.514412653458601293e-03,-1.199406156604456222e-02,-9.110426639122336245e-03,2.352408504574363124e-02,6.717744562047600621e-02,8.640412577037875907e-02,5.995664786877664965e-02,-2.948538374569744519e-02,-4.531872335935110963e-02,2.266233138573081618e-02,3.070426591729041865e-04,-5.047047079461193519e-03,-4.023999851212960860e-02,-1.161829804670221900e-01,-1.936331678369866971e-01,-2.100449219444692484e-01,-1.343023720215771044e-01,6.564342569733369603e-02,1.068974100745498507e-01
9.978228581875830949e-03,-1.211995956390786444e-03,1.023419863349986358e-05,-1.600275825282327855e-02,-5.547866479348918106e-02,-9.761665478686019914e-02,-1.084263639289262393e-01,-7.032483153381072216e-02,3.432665489202102460e-02,5.572896426155329180e-02,1.948550443665111875e-02,2.741411814362201826e-03,-8.401758020750153821e-03,-3.854905701738644414e-02,-9.486509155508800195e-02,-1.491707631796367062e-01,-1.576976784366216910e-01,-9.928520004869147153e-02,4.855864416120381916e-02,7.922262922197424728e-02
-1.290817996999121808e-03,7.320984665588302354e-03,-1.174449076162865577e-02,-9.337756993091889113e-03,2.173080320793241427e-02,6.325470119248946532e-02,8.161846516647394689e-02,5.681049499475546161e-02,-2.736953972321351167e-02,-4.577061188523262603e-02,1.651661310210131295e-02,4.942038905120106629e-03,-1.141821324899941828e-02,-3.676741972193135061e-02,-7.489381280216195202e-02,-1.074647357406615933e-01,-1.083156382808323631e-01,-6.626611253846177718e-02,3.233037896492588215e-02,5.386024238068283509e-02
7.544720275968530565e-03,6.401643947013882507e-04,-2.544696747880008728e-03,-1.455358978667137954e-02,-3.865305683967769357e-02,-6.255547413239549714e-02,-6.699075660320949477e-02,-4.261075774120501314e-02,2.078556488920828976e-02,3.415559059249103496e-02,1.923822332634383958e-02,2.918857624892495783e-03,-8.643262555295502803e-03,-3.839382035141184618e-02,-9.323421460190252363e-02,-1.457552123809294220e-01,-1.536532021173420692e-01,-9.656723915642720368e-02,4.717733331328826524e-02,7.729926992320629298e-02
-1.867424565085512578e-03,7.757925214809134606e-03,-1.234743135268808086e-02,-8.996565377165647442e-03,2.569259436225207471e-02,7.150950311733726694e-02,9.139546997441416742e-02,6.333487654674327394e-02,-3.056502516157200838e-02,-5.070852706345479327e-02,1.691063368379164267e-02,4.641735346645241289e-03,-1.100470216720913011e-02,-3.698554403348210118e-02,-7.755461176743952412e-02,-1.130120436557168206e-01,-1.148614936945659831e-01,-7.063624940761883964e-02,3.446207418407179479e-02,5.722289503615766992e-02
7.020004140308511165e-03,1.057053918456212632e-03,-3.124933807454672446e-03,-1.424588842011464268e-02,-3.488217238585541308e-02,-5.470102591951413878e-02,-5.774924989141790033e-02,-3.636381007960361178e-02,1.775113523452054309e-02,2.922845128222120725e-02,1.641508362855020886e-02,5.038851605228822361e-03,-1.155570268329806152e-02,-3.676138102627571347e-02,-7.420977678579229742e-02,-1.060538161294665993e-01,-1.067135956201271108e-01,-6.517484669583188672e-02,3.186794259939391971e-02,5.270890958261197079e-02
1.581022556668837398e-04,6.207578214813432721e-03,-1.020743063216874441e-02,-1.018850691892239820e-02,1.167352749514814075e-02,4.233092034558595673e-02,5.691127516587377033e-02,4.027882432930114665e-02,-1.936288453759156536e-02,-3.244998064990842201e-02,1.751906056992233451e-02,4.192238424291415411e-03,-1.038888824317809115e-02,-3.735278556551609869e-02,-8.164438274471910728e-02,-1.215515129592575350e-01,-1.249677135129525912e-01,-7.740490353426943138e-02,3.771893446149785639e-02,6.286699633365552820e-02
1.615431469123303210e-03,5.074951015868120474e-03,-8.639040625025830311e-03,-1.099841960977443467e-02,1.580355607796351744e-03,2.134223755631555614e-02,3.241776453114075807e-02,2.366192103006204903e-02,-1.180602801686095674e-02,-1.661401700662662462e-02,2.337703206463631611e-02,-2.170537143574152728e-04,-4.329283506971211282e-03,-4.069996806666686257e-02,-1.210602133600189312e-01,-2.038213586960738732e-01,-2.221645230764327517e-01,-1.424090186378005884e-01,6.957321514097467019e-02,1.133968381671481424e-01
5.313322271399079089e-03,2.345458599857862952e-03,-4.898902994960228040e-03,-1.323013145762499086e-02,-2.323468456440905619e-02,-3.042657052045622326e-02,-2.906422771613112813e-02,-1.716902650575378997e-02,8.461480669313065431e-03,1.370076756808785712e-02,1.569927359485545626e-02,5.576913521239006133e-03,-1.229520280966391391e-02,-3.634147364031745098e-02,-6.935534154822411979e-02,-9.592929769588810773e-02,-9.473505428872852629e-02,-5.718862426706559227e-02,2.797022471315838837e-02,4.648585416740079468e-02
7.215016037994112508e-03,9.050366461719333566e-04,-2.914536159826588285e-03,-1.436176779840689192e-02,-3.625715754913388933e-02,-5.756402584071001333e-02,-6.113104274922370046e-02,-3.863079352373638420e-02,1.884175952937273968e-02,3.107382232043960635e-02,1.708608897667124316e-02,4.534287169295513065e-03,-1.086240566851368744e-02,-3.714970426541464033e-02,-7.873942932918244486e-02,-1.155044334870858752e-01,-1.178889970041172991e-01,-7.264265605267114512e-02,3.550072955313825912e-02,5.859864435339394440e-02
6.816118474069446376e-03,1.147546146713269294e-03,-3.231291415366384367e-03,-1.407401641493824691e-02,-3.396081722119144441e-02,-5.278820144031426409e-02,-5.515885255073854632e-02,-3.501043639281044284e-02,1.695074177414155475e-02,2.878435989314411664e-02,2.403906203472683245e-02,-6.880791885276044129e-04,-3.687929530127392885e-03,-4.115506762433794596e-02,-1.255404112101999592e-01,-2.132024679787817290e-01,-2.333542056253067876e-01,-1.499249026549638875e-01,7.322317866224475891e-02,1.196283846262921058e-01
7.212816245251316150e-03,8.902122856537554585e-04,-2.889227192532570904e-03,-1.435183867430944206e-02,-3.637854574671733898e-02,-5.781479713935487597e-02,-6.137154665601302767e-02,-3.887184740845735231e-02,1.896017747172554571e-02,3.126615890263055586e-02,1.962999166669512907e-02,2.624479751262578930e-03,-8.238860708077618000e-03,-3.861870279414763435e-02,-9.587022743060877317e-02,-1.512556142990322261e-01,-1.601518337466041886e-01,-1.009188619009463300e-01,4.928331001213106383e-02,8.081352625812071588e-02
5.337898681193581352e-03,2.310111289703244142e-03,-4.846043355146743142e-03,-1.322166309994664279e-02,-2.348564396920328062e-02,-3.094273523583569718e-02,-2.958477089899108625e-02,-1.763609037223256085e-02,8.663776554899022334e-03,1.431724406038264313e-02,1.986354006096779923e-02,2.441716108297513343e-03,-7.985922101418650720e-03,-3.874033270183858263e-02,-9.746419336799153066e-02,-1.545767289108145592e-01,-1.640564312064191621e-01,-1.035322176340043587e-01,5.051524270455381299e-02,8.304103898017550778e-02
-5.478497142595323277e-03,1.052973750399065211e-02,-1.617680161256610308e-02,-6.832612556512164537e-03,5.085303932654041542e-02,1.240980587561483772e-01,1.535131999840649852e-01,1.049637379840023116e-01,-5.127912617840086479e-02,-8.189708353020912213e-02,2.082029807042273806e-02,1.677541679936472852e-03,-6.927524246682872922e-03,-3.913091915955169142e-02,-1.037175129331728562e-01,-1.676022400168650228e-01,-1.792200831318708776e-01,-1.136622136230045071e-01,5.560788695979479446e-02,9.070448615973882023e-02
4.154534516100649721e-04,6.028434788390660964e-03,-9.965413026996742737e-03,-1.034258172117369194e-02,1.005175392045882729e-02,3.892822322401012780e-02,5.287706890772765622e-02,3.760587301342395439e-02,-1.806423671344650067e-02,-3.045820542827442495e-02,1.607274573161862619e-02,5.285338604090188130e-03,-1.189212465345164740e-02,-3.652791154922677141e-02,-7.187152120946806166e-02,-1.011696311681012928e-01,-1.008938531750482454e-01,-6.131995512468349507e-02,2.992972092703221482e-02,5.002051122128005345e-02
6.915071780013076763e-03,1.132430325955620376e-03,-3.225817164679602167e-03,-1.418196874247250674e-02,-3.420905932795131887e-02,-5.329604496912897227e-02,-5.607966939223369557e-02,-3.526251013810882684e-02,1.721574304826906099e-02,2.834561277563336229e-02,1.728713263875961137e-02,4.383236830029682563e-03,-1.065481203689688794e-02,-3.726476987628413173e-02,-8.009092339634879543e-02,-1.183245424452337990e-01,-1.212208959603283120e-01,-7.487497643188362195e-02,3.658134334071590915e-02,6.040300812513091366e-02
-2.474036047264982496e-04,6.524532904744292927e-03,-1.064578127506404619e-02,-9.934412873144241041e-03,1.459461941147099581e-02,4.840660134827975969e-02,6.413910328817368223e-02,4.506708624971086929e-02,-2.171306464454615670e-02,-3.598851943986538376e-02,1.827705330962783870e-02,3.616336419585378104e-03,-9.595929829446857989e-03,-3.778161200220462451e-02,-8.678168064947851257e-02,-1.322647345387861217e-01,-1.376192422043548136e-01,-8.585535282286743675e-02,4.183639424860047251e-02,6.941793435370927079e-02
7.119783618505931555e-03,9.770717656068135526e-04,-3.013333508897654903e-03,-1.430487106870367495e-02,-3.560741679234470658e-02,-5.621003666770853224e-02,-5.952953856789680587e-02,-3.756081135252151149e-02,1.832422751956583329e-02,3.020913573180915995e-02,1.709675352582151753e-02,4.526038528197322275e-03,-1.085091378180698743e-02,-3.715558541018647298e-02,-7.881287069925109467e-02,-1.156576471845890408e-01,-1.180698285804728243e-01,-7.276397632808895288e-02,3.555780087008552498e-02,5.870359651783721433e-02
-2.348948349908036581e-03,8.125239733969048112e-03,-1.285371406636887613e-02,-8.729562383492473626e-03,2.895097968227322571e-02,7.827839555284892004e-02,9.933928387753881983e-02,6.869386302189164906e-02,-3.315556857020728748e-02,-5.519790877210028340e-02,1.549956650828729354e-02,5.706251951725492544e-03,-1.246828769806134288e-02,-3.617720580457343960e-02,-6.802458950025316864e-02,-9.313689176253263369e-02,-9.138325567690575024e-02,-5.494410132286037945e-02,2.686832957067836550e-02,4.464641312064791812e-02
3.080130534000580234e-04,6.108822570096716226e-03,-1.007622677294480427e-02,-1.027574885044830154e-02,1.079457020624691524e-02,4.047744794878947727e-02,5.472559449113940239e-02,3.881645203893845097e-02,-1.862575504320482245e-02,-3.151718441757943301e-02,1.660062419998822869e-02,4.884678673844809749e-03,-1.134073116736827175e-02,-3.682943592800436844e-02,-7.545569653383657482e-02,-1.086429497829662916e-01,-1.097240664337636173e-01,-6.721233010230123761e-02,3.276652085909482343e-02,5.481376579887375922e-02
1.149490734074024023e-02,-2.389403015317842494e-03,1.642089122582429672e-03,-1.690925802293983746e-02,-6.621526226394605641e-02,-1.199991687659919537e-01,-1.347865802133181024e-01,-8.808171053254330862e-02,4.301555901496085382e-02,6.992875409897886252e-02,2.114641672537848072e-02,1.505900305697319141e-03,-6.707553713205506585e-03,-3.952034929159724264e-02,-1.059805235026515524e-01,-1.724074042818465324e-01,-1.851438075069210543e-01,-1.177207794790486595e-01,5.757578903488752564e-02,9.367432717696488886e-02
6.369798746415605839e-03,1.545141904196120630e-03,-3.796718691179317914e-03,-1.385632899782819616e-02,-3.045873848302725964e-02,-4.548122786753266283e-02,-4.684362582665908825e-02,-2.908174683679881634e-02,1.422664378630043684e-02,2.334122386221216400e-02,1.685073278433410482e-02,4.709982717672894781e-03,-1.110349538252420817e-02,-3.701056916201411057e-02,-7.715126878606777538e-02,-1.121908348306686204e-01,-1.139673160266858054e-01,-7.002637915413839620e-02,3.420651937591301373e-02,5.666026941870151712e-02
5.154286815785974474e-03,2.464656891455028684e-03,-5.063349601893878463e-03,-1.313368849474510526e-02,-2.214761915586753449e-02,-2.816084088576627925e-02,-2.638441001914094974e-02,-1.538117776762504794e-02,7.598159524607258838e-03,1.224719555625120374e-02,1.602816457952715989e-02,5.329013462963536063e-03,-1.195449671506542549e-02,-3.653035710852942097e-02,-7.157570175313296423e-02,-1.005609932509897997e-01,-1.002091749220236638e-01,-6.084750135265480642e-02,2.973784781222092027e-02,4.945309605144067311e-02
9.296821759136597585e-03,-7.139727214100499708e-04,-6.691816645460167690e-04,-1.558687419646040406e-02,-5.093839656047968040e-02,-8.817299411368861861e-02,-9.715831689379997305e-02,-6.294527944676012177e-02,3.067030980088803968e-02,5.044574427756939178e-02,2.177038255344870832e-02,1.029397970653253558e-03,-6.050909795062779650e-03,-3.986900718671804872e-02,-1.102182848562210382e-01,-1.812300164714254480e-01,-1.955860784607658664e-01,-1.246696776829094716e-01,6.092747533922648895e-02,9.933625561704052809e-02
2.004850868349766085e-03,4.843817355875318191e-03,-8.339543102824049231e-03,-1.127145174201261979e-02,-6.369664100422988209e-04,1.665772753842436824e-02,2.655139792635630852e-02,2.002516420170726355e-02,-9.561056604575898094e-03,-1.624780359889216319e-02,1.513688668979606966e-02,5.996961923252053239e-03,-1.287204640997365035e-02,-3.600122830097096660e-02,-6.552880753217103782e-02,-8.794867685052115691e-02,-8.528188214656651223e-02,-5.089834564104683823e-02,2.491598688883095783e-02,4.146984993527425001e-02
2.806878787314051257e-03,4.231742962629523111e-03,-7.493892194080137639e-03,-1.171869668973276983e-02,-6.068756258554751197e-03,5.335306473453034319e-03,1.328419236166939084e-02,1.103182657949659459e-02,-5.207279431119261372e-03,-8.763005646324369818e-03,1.883028299866904010e-02,3.209106299470139423e-03,-9.038115740916955604e-03,-3.812715471272733192e-02,-9.052628608890114781e-02,-1.400889492684187498e-01,-1.469043426209210856e-01,-9.206159477650235901e-02,4.486827945091749481e-02,7.429914329052357547e-02
2.975163447340530357e-03,4.104622996079738267e-03,-7.318439325435367390e-03,-1.181785541328729018e-02,-7.221179585989528048e-03,2.934016631417762054e-03,1.044168770331894459e-02,9.139303322851470915e-03,-4.281425581292223718e-03,-7.333971006490028893e-03,1.878940869678560888e-02,3.241679894160728881e-03,-9.083360358062640694e-03,-3.810546488294454248e-02,-9.024065395196231854e-02,-1.394935168164477823e-01,-1.462017476081663991e-01,-9.159531574499274464e-02,4.463677604003520039e-02,7.399400733269437258e-02
-2.033133822269883595e-03,7.885373438127164097e-03,-1.252315895359969351e-02,-8.918582794923881479e-03,2.677106929249300354e-02,7.373503972231865156e-02,9.395116007019477244e-02,6.510116889289203901e-02,-3.138371815310432578e-02,-5.255657817618196448e-02,1.501574701154637093e-02,6.072978690379475519e-03,-1.297286935022603366e-02,-3.590513859255638207e-02,-6.475998754583150996e-02,-8.632977433573760240e-02,-8.334759405807903865e-02,-4.957482863360121450e-02,2.425467801919226410e-02,4.044659405658113105e-02
-3.512061272327282602e-03,8.980846909735367561e-03,-1.402254420333847243e-02,-8.076007674827509475e-03,3.653203433781337245e-02,9.412481573588094008e-02,1.179936392619415075e-01,8.121437881123128033e-02,-3.930079294714093618e-02,-6.470910873193823354e-02,1.586473045317357555e-02,5.426946503291465995e-03,-1.208361627366698332e-02,-3.636920871042587100e-02,-7.045865785281825444e-02,-9.821623119783880196e-02,-9.736217672727154326e-02,-5.893303467653621119e-02,2.884222600992720695e-02,4.755343030781476743e-02
1.797562381953742017e-03,4.997757287058436290e-03,-8.549786524301772328e-03,-1.114895964734013284e-02,7.554090155812275692e-04,1.955799917891643327e-02,2.998782805920201591e-02,2.230856244309403769e-02,-1.064168957477657461e-02,-1.824607614397761451e-02,1.559751446919868667e-02,5.648829833562525604e-03,-1.239320672193694808e-02,-3.626413243245477785e-02,-6.864329296061616459e-02,-9.444335245482478325e-02,-9.295478123839051587e-02,-5.602154961298580482e-02,2.737319817369364416e-02,4.574069763903541863e-02
-8.998553106957241088e-04,7.026059957677676174e-03,-1.133738172540618011e-02,-9.547319510313191301e-03,1.913675491974037302e-02,5.785545521685652587e-02,7.531355644775364344e-02,5.254095197983438270e-02,-2.533761673183813901e-02,-4.200482728389835774e-02,1.802427928639532828e-02,3.805443267103872373e-03,-9.855692295339588821e-03,-3.763086856067592717e-02,-8.506789105689524511e-02,-1.286862704129835833e-01,-1.333836781398554661e-01,-8.302608381477050159e-02,4.046693898559709790e-02,6.715886747617745567e-02
7.489966585957061329e-03,7.034325893379538008e-04,-2.638170284120715248e-03,-1.452514581441203059e-02,-3.808486360898309664e-02,-6.137490355699284222e-02,-6.564309599957172947e-02,-4.163388429094810189e-02,2.029417444604233317e-02,3.352053271453112743e-02,1.627027115384674372e-02,5.147499942298121300e-03,-1.170485559216748184e-02,-3.667934457560505235e-02,-7.324142599417184096e-02,-1.040328932096026560e-01,-1.043259884213835059e-01,-6.357284377084242155e-02,3.109700611099961223e-02,5.138434300033541124e-02
4.075549054698809209e-03,3.253441683984541893e-03,-6.142270026727366869e-03,-1.245433770086065532e-02,-1.487784849972064068e-02,-1.301713732915980339e-02,-8.285036446709317937e-03,-3.509054600759826600e-03,1.711088740051880386e-03,3.646945732149662472e-03,2.156660172710483936e-02,1.155866047486714399e-03,-6.217905697692517608e-03,-3.970480016986691063e-02,-1.089314491787103656e-01,-1.785064300035128226e-01,-1.923133772410102749e-01,-1.224386997106967356e-01,5.975317212720299143e-02,9.778898560569142251e-02
8.668960861131613793e-03,-1.866689759349692002e-04,-1.412628064967395153e-03,-1.522349697336135635e-02,-4.615928964024271913e-02,-7.819324332918786702e-02,-8.552445813385886608e-02,-5.490542403386860365e-02,2.670867072089497599e-02,4.425348625424005422e-02,1.611520635126834078e-02,5.264386930980066714e-03,-1.186545969264288583e-02,-3.659254132005559240e-02,-7.220323478738635559e-02,-1.018665943738214646e-01,-1.017637709888081499e-01,-6.185117776321299998e-02,3.028420043149584323e-02,4.987678377156472276e-02
7.291243322802967719e-03,8.567312112375304045e-04,-2.850443217311012314e-03,-1.440680349212997841e-02,-3.669307307999098572e-02,-5.847759331901402485e-02,-6.221673883447993714e-02,-3.933839547141202569e-02,1.919033744593854479e-02,3.163508947777990410e-02,1.558731961053541615e-02,5.660641938753090130e-03,-1.240990051178846032e-02,-3.628411830543652739e-02,-6.863430801526342051e-02,-9.442112647653380653e-02,-9.296074011101394807e-02,-5.597781077685122508e-02,2.740563920682357463e-02,4.536039894211608969e-02
-6.528340717698311035e-04,6.824042913212636369e-03,-1.105685529066238043e-02,-9.723277323959717347e-03,1.719900841002695510e-02,5.383179582195246615e-02,7.045343777736039204e-02,4.937823346303059358e-02,-2.377679468779401312e-02,-3.985087873876154430e-02,1.625571102376685562e-02,5.144276040330068855e-03,-1.169778084709229005e-02,-3.662373010434852999e-02,-7.310184581390311020e-02,-1.037320757146748540e-01,-1.039094068721313768e-01,-6.333343515428044301e-02,3.091110836442844539e-02,5.156898320054154050e-02
-9.416323314077879036e-04,7.047535667690858069e-03,-1.136503679721956490e-02,-9.519893230376741747e-03,1.933839153437868705e-02,5.829730380616703067e-02,7.586611124282691132e-02,5.289251805130936596e-02,-2.558633112408358057e-02,-4.170652414349751425e-02,1.893834870819693927e-02,3.115238239161967349e-03,-8.906580700665162054e-03,-3.814960090506872015e-02,-9.122712714840758297e-02,-1.415367837282390795e-01,-1.485590867941310178e-01,-9.317080148981715659e-02,4.542328583308315182e-02,7.499095714063340468e-02
-5.656587232841070456e-03,1.066902523776005335e-02,-1.636880321914639322e-02,-6.755989191063675736e-03,5.200730543426980435e-02,1.264672268542154088e-01,1.562594059201138919e-01,1.068048905752067290e-01,-5.215736492984697492e-02,-8.324218033052417642e-02,1.962127774093849752e-02,2.578566830407705290e-03,-8.165154777277902620e-03,-3.844975463850623665e-02,-9.567460063204295817e-02,-1.508242759917971798e-01,-1.594134387235902339e-01,-1.004071469083019363e-01,4.918426557765588625e-02,7.990789679488891073e-02
2.552060290762717815e-03,4.419410782186646534e-03,-7.752899118890358224e-03,-1.156751899027114693e-02,-4.355781179359378454e-03,8.905276458762743236e-03,1.751096571975637242e-02,1.385361064303317069e-02,-6.583774266586159968e-03,-1.098038518194852445e-02,1.900864788688944040e-02,3.074873719414152051e-03,-8.853770838807464849e-03,-3.822712764558527931e-02,-9.172021292970150563e-02,-1.425788785721999741e-01,-1.498420079842804342e-01,-9.402894526886407256e-02,4.582084992058871320e-02,7.588895808181071734e-02
1.094496951012019492e-02,-1.840316400991852397e-03,8.421241252116393183e-04,-1.651189119039912084e-02,-6.079501664956372259e-02,-1.090778039986406711e-01,-1.193572660814044700e-01,-8.020548133404405144e-02,4.004876533271992112e-02,5.712760573282341797e-02,1.760054885703002392e-02,4.340932909500619385e-03,-1.065971231932506119e-02,-3.729411914053322452e-02,-7.975543500650968121e-02,-1.177813541699855443e-01,-1.216615886950773440e-01,-7.379665155113797337e-02,3.551316973408023825e-02,6.342148431770819328e-02
-9.869573617878463212e-04,7.084641285552407269e-03,-1.141809826164025612e-02,-9.519464140692428245e-03,1.958677271393494124e-02,5.879494379372039031e-02,7.633519764831875332e-02,5.329408212589847177e-02,-2.566639545104687156e-02,-4.301259588145998902e-02,1.642549423853606472e-02,5.013880574928998579e-03,-1.151782295129273256e-02,-3.671812220855519976e-02,-7.426030883580359010e-02,-1.061456697688666906e-01,-1.067582171854340456e-01,-6.523319822127165990e-02,3.182946105706162265e-02,5.308196798453435061e-02
6.363501603807233953e-03,1.549712966409592940e-03,-3.801559418447618063e-03,-1.385227590344986423e-02,-3.042493373270925214e-02,-4.541043968613138471e-02,-4.675677296037442782e-02,-2.902939523828793403e-02,1.420394993716005312e-02,2.328962117604850210e-02,1.707497285057768543e-02,4.541860550076139147e-03,-1.087255339172359461e-02,-3.713994225713643238e-02,-7.865939636044250172e-02,-1.153376355413757853e-01,-1.176865394457477232e-01,-7.251541140417136488e-02,3.542049153369559999e-02,5.861451672284991032e-02
4.830045690350309728e-03,2.668983208180767536e-03,-5.333942165628336070e-03,-1.288402509068985874e-02,-2.011980575850279285e-02,-2.394868591873990094e-02,-2.110898347898000627e-02,-1.217362440633774565e-02,5.899549359901966328e-03,1.049555473891663343e-02,2.303629540147422716e-02,5.946059519458535281e-05,-4.713702808943009970e-03,-4.056104907684567051e-02,-1.187937382190845520e-01,-1.990903746079140113e-01,-2.166491048006550235e-01,-1.387376102909258779e-01,6.767436699359813401e-02,1.109555120372223008e-01
1.009623075309643014e-02,-1.210029411951835110e-03,-2.085089145816704237e-05,-1.602257670447844451e-02,-5.515591451070665785e-02,-9.724965718019218386e-02,-1.065814905694207199e-01,-7.065755993336758634e-02,3.538634853027281674e-02,4.961899739078007299e-02,1.677106668765238062e-02,4.801105418669689151e-03,-1.123840950428857399e-02,-3.694815245699595990e-02,-7.627442458169919615e-02,-1.103032498935751782e-01,-1.123150391956337785e-01,-6.818475668242719723e-02,3.294663034793500478e-02,5.782460110301790301e-02
1.084728916343674632e-02,-1.892330318658763666e-03,9.548530469275715027e-04,-1.651851201798695129e-02,-6.166665037166934454e-02,-1.105231167405107684e-01,-1.236217449918583372e-01,-8.056254273270763155e-02,3.938736799786347886e-02,6.369725682770094322e-02,2.063345221841328403e-02,1.886298758596666181e-03,-7.228854676847765170e-03,-3.921840769064557919e-02,-1.025515572020582883e-01,-1.652345028695227647e-01,-1.766772749117524188e-01,-1.120219000278657173e-01,5.479315987082383071e-02,8.919345579847318128e-02
7.134588802497066062e-03,9.507932288145247435e-04,-2.972915130510558543e-03,-1.430543495438398559e-02,-3.582994359804815565e-02,-5.667173300211002240e-02,-6.002699164824829015e-02,-3.796231412932615096e-02,1.852407995427236831e-02,3.049842377310307828e-02,1.941841562168167279e-02,2.782086400845658336e-03,-8.454992867838073689e-03,-3.849541096814244195e-02,-9.445231303953649515e-02,-1.482967427638601510e-01,-1.566541047507168105e-01,-9.857557265581376460e-02,4.814854301612930126e-02,7.890770614235285974e-02
2.075697486467791009e-03,4.788609957894724573e-03,-8.263094888318809478e-03,-1.130589650443804967e-02,-1.100794292056822728e-03,1.568919606955062815e-02,2.543883710448088115e-02,1.923759760562191237e-02,-9.112399371273699478e-03,-1.599055365233334816e-02,1.636598313751519429e-02,5.067688428609190554e-03,-1.159364113314800132e-02,-3.670761399098652206e-02,-7.385938308836037525e-02,-1.053209676856434185e-01,-1.058125558348606554e-01,-6.460255469651923765e-02,3.149754346341521877e-02,5.281135338019336822e-02
9.727203997586225670e-03,-1.042500422724322584e-03,-2.163587501227311194e-04,-1.584222838533500335e-02,-5.392218005132570074e-02,-9.439406232820304887e-02,-1.044927927674705326e-01,-6.786823568069266788e-02,3.304503441258700019e-02,5.446987848697307927e-02,2.198152841632927679e-02,8.732709829625123765e-04,-5.837025831480803506e-03,-3.999477035414208959e-02,-1.116306624076701393e-01,-1.841850372998903862e-01,-1.990771723280963523e-01,-1.270187010796237637e-01,6.207960366363174387e-02,1.011523103606564861e-01
7.776588989516469708e-03,4.871285024450958123e-04,-2.340670926700028770e-03,-1.469403589466273911e-02,-4.004004163589836018e-02,-6.544878623165162335e-02,-7.045610922191780645e-02,-4.485874675495401392e-02,2.185747886637330606e-02,3.611156693845477689e-02,1.661368191073014922e-02,4.890164302269045526e-03,-1.135156974825672627e-02,-3.687862635985634380e-02,-7.555309919863772983e-02,-1.088561502086908273e-01,-1.100290793063052192e-01,-6.738524718093423516e-02,3.295805791797333517e-02,5.436743318656092616e-02
9.067855528469004334e-06,6.338088334046297970e-03,-1.039090875770269998e-02,-1.011231894162990461e-02,1.280602834715665120e-02,4.466039561257230395e-02,5.962096319795888444e-02,4.214754689998700260e-02,-2.032353043650564003e-02,-3.376935745544616674e-02,1.503895533232538217e-02,6.063995280922988840e-03,-1.296256298151420017e-02,-3.593424798114906726e-02,-6.489439080114606240e-02,-8.661724499285053391e-02,-8.370147861826647551e-02,-4.983251156715487462e-02,2.440629791210230728e-02,4.054148806549935646e-02
6.092371449325784116e-03,1.756482453607370597e-03,-4.088186851781940717e-03,-1.369316988790401403e-02,-2.855406980739223430e-02,-4.151250427321442893e-02,-4.215829541810608982e-02,-2.593997855776055891e-02,1.271295003966317790e-02,2.075966068681583607e-02,1.619123509963207863e-02,5.206886762454301931e-03,-1.178668514806127665e-02,-3.662851653597780366e-02,-7.268745815420535328e-02,-1.028790385254973044e-01,-1.029555861606512718e-01,-6.267273565987792339e-02,3.063750154550000382e-02,5.081913803438431465e-02
4.098792714975554863e-03,3.258805571768190988e-03,-6.156124377033759046e-03,-1.249564008254732544e-02,-1.493381503510174055e-02,-1.312529095654435887e-02,-8.599677971067330728e-03,-3.517395107980929737e-03,1.874178719594451516e-03,2.593787115145126249e-03,1.733022565844302698e-02,4.345007366427476592e-03,-1.060094298826818812e-02,-3.727539134044858399e-02,-8.038213823668688418e-02,-1.189302364631554115e-01,-1.219138177761853320e-01,-7.535588593516941158e-02,3.674841865593400647e-02,6.116848487724944883e-02
-1.599811084978766673e-03,7.558713522375287014e-03,-1.207373013990512348e-02,-9.149486435893076919e-03,2.391056905298182683e-02,6.779053626612061012e-02,8.700735508874099522e-02,6.039494046744021960e-02,-2.912148798245386278e-02,-4.850172260785776124e-02,1.688879743071267092e-02,4.659430846874257348e-03,-1.102916923668876767e-02,-3.697649620968274098e-02,-7.740971688698056186e-02,-1.127100962886443403e-01,-1.145080959694380895e-01,-7.040247021651528658e-02,3.433989871033005237e-02,5.711412448293783084e-02
-1.255078631742304052e-03,7.284606861717772552e-03,-1.169170818577603028e-02,-9.380591103206721570e-03,2.131357007689982722e-02,6.239049022780192300e-02,8.053033893877227511e-02,5.614338679978986280e-02,-2.705897700557461510e-02,-4.530479238503618000e-02,1.509423841591903126e-02,6.018353644063105523e-03,-1.289893397706221717e-02,-3.595585526680911831e-02,-6.526796498056332274e-02,-8.739329409530000037e-02,-8.460737905978302220e-02,-5.042813857512598585e-02,2.467361720882752657e-02,4.112987036178435141e-02
7.262125424301879573e-03,8.784177857569866466e-04,-2.879935962022418458e-03,-1.438992468581881158e-02,-3.649993668140688596e-02,-5.807454294020866770e-02,-6.174112485207607082e-02,-3.902014348118765241e-02,1.903666306162753868e-02,3.137523161643052810e-02,1.558442179061400590e-02,5.662773834761887504e-03,-1.241279091838917714e-02,-3.628241671132224899e-02,-6.861514328891593628e-02,-9.438117800834190663e-02,-9.291350178225316059e-02,-5.594644641599279267e-02,2.738999355877367106e-02,4.533764276860019482e-02
1.022934090321619971e-02,-1.408422160491848429e-03,2.828977593116177580e-04,-1.615559545423389184e-02,-5.728322971380603312e-02,-1.013758464175383706e-01,-1.128462591065199361e-01,-7.332016767646963584e-02,3.576646678284673558e-02,5.825158832673969084e-02,2.003745538100154544e-02,2.330037514834210066e-03,-7.837448753112492839e-03,-3.887079804986698361e-02,-9.856402778942520426e-02,-1.568966704291360481e-01,-1.668288078969079602e-01,-1.054087179427146553e-01,5.154457612891118201e-02,8.405992522060337646e-02
9.422154549801053935e-03,-7.830720521744202745e-04,-5.834361296216533654e-04,-1.566830086038561998e-02,-5.156383862868240547e-02,-8.946246312397590494e-02,-9.879291851914809297e-02,-6.387952789244799590e-02,3.115813259168028621e-02,5.079829457527249015e-02,1.936787322048130755e-02,2.827592599932406137e-03,-8.519482535341946217e-03,-3.847855167576143265e-02,-9.408474084020421180e-02,-1.475378899887470896e-01,-1.557681357931264832e-01,-9.798843663511076774e-02,4.791508152570792684e-02,7.824164691600782318e-02
