3.480734825134277344e-01,6.542108505964279175e-01,6.140513941645622253e-01,6.195409595966339111e-01,6.142937690019607544e-01,6.152822971343994141e-01,6.223731301724910736e-01,6.112074032425880432e-01,6.580043733119964600e-01,3.348183035850524902e-01,-7.996082305908203125e-03,2.055168151855468750e-03,-1.423090696334838867e-03,9.187608957290649414e-04,-1.930356025695800781e-03,1.854658126831054688e-03,2.636060118675231934e-03,-1.451253890991210938e-03,2.377033233642578125e-03,-1.072192192077636719e-02,-3.469941020011901855e-02,1.128124818205833435e-02,-9.829167276620864868e-03,1.673460006713867188e-03,-4.224240779876708984e-03,-7.765293121337890625e-02,-3.681161999702453613e-02,-9.554982185363769531e-03,3.586977720260620117e-03,1.994037628173828125e-02,2.996683120727539062e-03,-7.617771625518798828e-04,6.953775882720947266e-04,-3.619670867919921875e-03,-3.644227981567382812e-03,-4.637718200683593750e-03,-2.274632453918457031e-03,2.442121505737304688e-03,-2.235174179077148438e-03,5.512237548828125000e-03
3.480201959609985352e-01,6.540474593639373779e-01,6.142282411456108093e-01,6.192815229296684265e-01,6.129180490970611572e-01,6.111301481723785400e-01,6.228689029812812805e-01,6.120478063821792603e-01,6.568242609500885010e-01,3.383710980415344238e-01,-6.261229515075683594e-03,1.597046852111816406e-03,-1.013547182083129883e-03,-7.039755582809448242e-04,-6.974577903747558594e-03,-8.917331695556640625e-03,-4.363521933555603027e-03,7.081270217895507812e-03,-4.554271697998046875e-03,3.109931945800781250e-03,-1.621937751770019531e-02,6.928969174623489380e-03,-6.934817880392074585e-03,-4.284158349037170410e-03,-1.162153482437133789e-02,-1.007448434829711914e-01,-4.262976348400115967e-02,2.273124456405639648e-02,-2.024030685424804688e-02,5.117583274841308594e-02,-1.804828643798828125e-03,7.237195968627929688e-04,-8.475780487060546875e-04,2.543807029724121094e-03,-9.027719497680664062e-04,-7.918834686279296875e-03,1.453220844268798828e-03,7.880449295043945312e-03,-5.574226379394531250e-03,5.133152008056640625e-03
3.506783843040466309e-01,6.535530984401702881e-01,6.144805029034614563e-01,6.189569160342216492e-01,6.131492257118225098e-01,6.117783188819885254e-01,6.226994581520557404e-01,6.118814349174499512e-01,6.569188609719276428e-01,3.389333486557006836e-01,-1.090669631958007812e-02,2.705633640289306641e-03,-1.808360219001770020e-03,1.368597149848937988e-03,-3.005027770996093750e-03,3.848075866699218750e-03,1.155197620391845703e-03,-1.787900924682617188e-03,1.872718334197998047e-03,-5.755305290222167969e-03,-2.302947640419006348e-02,8.526522666215896606e-03,-7.955282926559448242e-03,-2.698689699172973633e-03,-1.142609119415283203e-02,-9.931969642639160156e-02,-4.230901598930358887e-02,1.541155576705932617e-02,-1.464402675628662109e-02,4.308462142944335938e-02,7.975101470947265625e-05,2.840161323547363281e-05,6.556510925292968750e-06,-1.302361488342285156e-03,-1.616239547729492188e-03,-2.113342285156250000e-03,-8.322596549987792969e-04,5.316734313964843750e-04,-6.554126739501953125e-04,2.281427383422851562e-03
3.402778506278991699e-01,6.559948474168777466e-01,6.129518002271652222e-01,6.210798025131225586e-01,6.146917343139648438e-01,6.162591576576232910e-01,6.230173632502555847e-01,6.105163767933845520e-01,6.592653468251228333e-01,3.289031982421875000e-01,-2.080488204956054688e-02,4.760637879371643066e-03,-2.623990178108215332e-03,-8.055120706558227539e-04,-9.126186370849609375e-03,-1.964330673217773438e-03,5.032792687416076660e-03,4.685401916503906250e-03,3.857612609863281250e-04,-2.223765850067138672e-02,-3.826126456260681152e-02,1.202210783958435059e-02,-1.026628166437149048e-02,2.749770879745483398e-03,4.327297210693359375e-04,-5.496954917907714844e-02,-2.891007065773010254e-02,-2.535420656204223633e-02,1.668098568916320801e-02,-5.817711353302001953e-03,-7.546353340148925781e-02,2.365988492965698242e-02,-2.365276217460632324e-02,8.471214771270751953e-02,9.996080398559570312e-02,4.216098785400390625e-02,2.420771121978759766e-02,-9.076118469238281250e-03,1.158189773559570312e-02,-4.498744010925292969e-02
3.494496345520019531e-01,6.539021432399749756e-01,6.142427474260330200e-01,6.192613020539283752e-01,6.140251010656356812e-01,6.164376735687255859e-01,6.221819743514060974e-01,6.110648810863494873e-01,6.582097187638282776e-01,3.342096209526062012e-01,-3.017783164978027344e-03,9.789019823074340820e-04,-8.741915225982666016e-04,8.840411901473999023e-04,1.033544540405273438e-04,1.586675643920898438e-03,2.234801650047302246e-03,-1.571416854858398438e-03,1.783549785614013672e-03,-6.168842315673828125e-03,-3.778372704982757568e-02,1.203987747430801392e-02,-1.037713140249252319e-02,3.046378493309020996e-03,-1.950621604919433594e-03,-7.132041454315185547e-02,-3.503024578094482422e-02,-1.628196239471435547e-02,8.562326431274414062e-03,1.325201988220214844e-02,1.958239078521728516e-02,-6.027966737747192383e-03,6.048291921615600586e-03,-2.329850196838378906e-02,-2.575385570526123047e-02,-1.027822494506835938e-02,-7.661640644073486328e-03,2.019405364990234375e-04,-1.872062683105468750e-03,1.297688484191894531e-02
3.384814858436584473e-01,6.563664227724075317e-01,6.127441674470901489e-01,6.213475391268730164e-01,6.147157549858093262e-01,6.178344488143920898e-01,6.228351928293704987e-01,6.102508604526519775e-01,6.597686409950256348e-01,3.266013860702514648e-01,-1.833248138427734375e-02,4.201248288154602051e-03,-2.287581562995910645e-03,-1.207321882247924805e-03,-9.739398956298828125e-03,-5.776405334472656250e-03,3.478318452835083008e-03,6.394863128662109375e-03,-7.714033126831054688e-04,-2.092647552490234375e-02,-4.236274957656860352e-02,1.300336793065071106e-02,-1.097410172224044800e-02,4.841253161430358887e-03,4.830479621887207031e-03,-4.312729835510253906e-02,-2.644746005535125732e-02,-3.689503669738769531e-02,2.494445443153381348e-02,-1.551687717437744141e-02,-6.672382354736328125e-02,2.092286944389343262e-02,-2.093061804771423340e-02,7.497501373291015625e-02,8.702445030212402344e-02,3.490853309631347656e-02,2.192342281341552734e-02,-5.820751190185546875e-03,8.779525756835937500e-03,-3.901803493499755859e-02
3.503166437149047852e-01,6.536856740713119507e-01,6.143763065338134766e-01,6.191106885671615601e-01,6.135070025920867920e-01,6.125105023384094238e-01,6.226827464997768402e-01,6.116734743118286133e-01,6.572110280394554138e-01,3.380175232887268066e-01,-1.323509216308593750e-02,3.229603171348571777e-03,-2.114519476890563965e-03,1.707985997200012207e-03,-2.366065979003906250e-03,7.020473480224609375e-03,3.418967127799987793e-03,-3.733396530151367188e-03,3.685832023620605469e-03,-1.061379909515380859e-02,-2.687786519527435303e-02,9.419787675142288208e-03,-8.531711995601654053e-03,-1.631617546081542969e-03,-1.017284393310546875e-02,-9.423601627349853516e-02,-4.072077572345733643e-02,8.720695972442626953e-03,-9.513348340988159180e-03,3.529024124145507812e-02,-8.314728736877441406e-03,2.645224332809448242e-03,-2.585142850875854492e-03,7.929921150207519531e-03,1.058983802795410156e-02,4.748344421386718750e-03,1.351356506347656250e-03,-2.558231353759765625e-03,2.070903778076171875e-03,-3.825187683105468750e-03
3.574691414833068848e-01,6.520321518182754517e-01,6.154116913676261902e-01,6.176337301731109619e-01,6.120189428329467773e-01,6.131596267223358154e-01,6.223642677068710327e-01,6.118530109524726868e-01,6.568332910537719727e-01,3.400892615318298340e-01,5.179643630981445312e-03,-7.683783769607543945e-04,-3.813207149505615234e-05,1.135125756263732910e-03,4.223942756652832031e-03,4.768848419189453125e-03,-6.251037120819091797e-05,-2.197504043579101562e-03,-6.014108657836914062e-04,1.268041133880615234e-02,-2.454222738742828369e-02,8.979864418506622314e-03,-8.348044008016586304e-03,-1.767352223396301270e-03,-1.011759042739868164e-02,-9.598159790039062500e-02,-3.991448879241943359e-02,1.252448558807373047e-02,-1.205983757972717285e-02,3.708881139755249023e-02,4.510962963104248047e-02,-1.433107256889343262e-02,1.466819643974304199e-02,-5.541455745697021484e-02,-6.064856052398681641e-02,-1.247978210449218750e-02,-1.565885543823242188e-02,-1.072216033935546875e-02,3.799438476562500000e-03,2.018761634826660156e-02
3.368639945983886719e-01,6.567396670579910278e-01,6.125100329518318176e-01,6.216859966516494751e-01,6.147656440734863281e-01,6.166601479053497314e-01,6.232378482818603516e-01,6.103015616536140442e-01,6.597160696983337402e-01,3.265309929847717285e-01,-2.273178100585937500e-02,5.120903253555297852e-03,-2.672255039215087891e-03,-2.061098814010620117e-03,-1.253139972686767578e-02,-7.624626159667968750e-03,3.940597176551818848e-03,9.608745574951171875e-03,-2.422809600830078125e-03,-2.277755737304687500e-02,-3.810672461986541748e-02,1.196030527353286743e-02,-1.022886857390403748e-02,2.968013286590576172e-03,2.525568008422851562e-03,-4.633760452270507812e-02,-2.606382966041564941e-02,-3.006935119628906250e-02,2.052423357963562012e-02,-1.320886611938476562e-02,-9.892296791076660156e-02,3.098949790000915527e-02,-3.100848197937011719e-02,1.116311550140380859e-01,1.303153038024902344e-01,5.409073829650878906e-02,3.269821405410766602e-02,-1.024889945983886719e-02,1.415848731994628906e-02,-5.895864963531494141e-02
3.375465869903564453e-01,6.565518677234649658e-01,6.126446872949600220e-01,6.214730814099311829e-01,6.146463751792907715e-01,6.186372935771942139e-01,6.227409914135932922e-01,6.101199686527252197e-01,6.600265651941299438e-01,3.253775835037231445e-01,-1.685738563537597656e-02,3.867730498313903809e-03,-2.087756991386413574e-03,-1.443862915039062500e-03,-1.014995574951171875e-02,-8.048057556152343750e-03,2.414733171463012695e-03,7.472515106201171875e-03,-1.563191413879394531e-03,-1.966154575347900391e-02,-4.426884651184082031e-02,1.346199586987495422e-02,-1.131207123398780823e-02,5.907118320465087891e-03,7.202565670013427734e-03,-3.678596019744873047e-02,-2.514019608497619629e-02,-4.276782274246215820e-02,2.914857864379882812e-02,-2.046293020248413086e-02,-6.139028072357177734e-02,1.924154162406921387e-02,-1.924720406532287598e-02,6.893169879913330078e-02,7.900726795196533203e-02,3.071808815002441406e-02,2.057677507400512695e-02,-4.132747650146484375e-03,7.279872894287109375e-03,-3.559815883636474609e-02
3.475462198257446289e-01,6.542989164590835571e-01,6.140196025371551514e-01,6.195531636476516724e-01,6.138078719377517700e-01,6.182229220867156982e-01,6.220052391290664673e-01,6.107071861624717712e-01,6.588580980896949768e-01,3.313415646553039551e-01,-3.490209579467773438e-03,1.083090901374816895e-03,-9.349584579467773438e-04,1.022383570671081543e-03,-5.019903182983398438e-04,8.945465087890625000e-04,1.731649041175842285e-03,-1.786589622497558594e-03,2.090394496917724609e-03,-7.202863693237304688e-03,-4.372030496597290039e-02,1.344609260559082031e-02,-1.136486604809761047e-02,5.751326680183410645e-03,3.448307514190673828e-03,-5.584728717803955078e-02,-3.170949220657348633e-02,-3.161197900772094727e-02,1.979482173919677734e-02,-1.311600208282470703e-03,2.373445034027099609e-02,-7.428526878356933594e-03,7.532626390457153320e-03,-2.881956100463867188e-02,-3.335499763488769531e-02,-1.291465759277343750e-02,-8.503913879394531250e-03,3.435611724853515625e-04,-2.118587493896484375e-03,1.410472393035888672e-02
3.452442288398742676e-01,6.548847109079360962e-01,6.136243343353271484e-01,6.201438978314399719e-01,6.145271062850952148e-01,6.161688268184661865e-01,6.225483193993568420e-01,6.108181998133659363e-01,6.586546897888183594e-01,3.320840001106262207e-01,-1.491570472717285156e-02,3.557845950126647949e-03,-2.189457416534423828e-03,8.971542119979858398e-04,-3.854036331176757812e-03,4.032135009765625000e-03,5.176022648811340332e-03,-1.768350601196289062e-03,3.678381443023681641e-03,-1.865720748901367188e-02,-3.924423456192016602e-02,1.231023669242858887e-02,-1.048669591546058655e-02,3.067418932914733887e-03,-1.335442066192626953e-03,-6.550431251525878906e-02,-3.306469321250915527e-02,-2.082151174545288086e-02,1.249015331268310547e-02,4.804670810699462891e-03,-2.759349346160888672e-02,8.719414472579956055e-03,-8.704543113708496094e-03,3.026342391967773438e-02,3.689169883728027344e-02,1.510643959045410156e-02,7.638514041900634766e-03,-3.820657730102539062e-03,4.400253295898437500e-03,-1.531004905700683594e-02
3.483101725578308105e-01,6.541470736265182495e-01,6.140942871570587158e-01,6.194838359951972961e-01,6.141635179519653320e-01,6.147005259990692139e-01,6.224341653287410736e-01,6.113147810101509094e-01,6.578347384929656982e-01,3.354419469833374023e-01,-8.666396141052246094e-03,2.201661467552185059e-03,-1.502096652984619141e-03,9.543001651763916016e-04,-2.251982688903808594e-03,1.996040344238281250e-03,2.398639917373657227e-03,-1.388549804687500000e-03,2.275884151458740234e-03,-1.025426387786865234e-02,-3.274507820606231689e-02,1.081794872879981995e-02,-9.512256830930709839e-03,9.334385395050048828e-04,-5.421638488769531250e-03,-8.124065399169921875e-02,-3.772807121276855469e-02,-5.432307720184326172e-03,5.673766136169433594e-04,2.382409572601318359e-02,1.370906829833984375e-03,-2.594590187072753906e-04,1.970827579498291016e-04,-1.803398132324218750e-03,-1.714587211608886719e-03,-3.972768783569335938e-03,-1.666605472564697266e-03,2.465248107910156250e-03,-2.130270004272460938e-03,4.602670669555664062e-03
3.442447185516357422e-01,6.551195979118347168e-01,6.134746149182319641e-01,6.203646361827850342e-01,6.144807338714599609e-01,6.151559352874755859e-01,6.228731498122215271e-01,6.108639538288116455e-01,6.585932746529579163e-01,3.321545720100402832e-01,-1.923394203186035156e-02,4.478052258491516113e-03,-2.618014812469482422e-03,4.544407129287719727e-04,-5.851626396179199219e-03,3.944396972656250000e-03,5.972117185592651367e-03,-1.159906387329101562e-04,2.989172935485839844e-03,-2.079832553863525391e-02,-3.601476550102233887e-02,1.151597872376441956e-02,-9.913332760334014893e-03,1.573085784912109375e-03,-3.311276435852050781e-03,-6.833291053771972656e-02,-3.282786905765533447e-02,-1.530885696411132812e-02,8.966237306594848633e-03,6.377696990966796875e-03,-5.372202396392822266e-02,1.685720682144165039e-02,-1.681891083717346191e-02,5.967414379119873047e-02,7.189142704010009766e-02,3.150033950805664062e-02,1.629722118377685547e-02,-8.427619934082031250e-03,9.477376937866210938e-03,-3.217101097106933594e-02
3.456294536590576172e-01,6.547837555408477783e-01,6.136950626969337463e-01,6.200302541255950928e-01,6.145319044589996338e-01,6.173197627067565918e-01,6.222830712795257568e-01,6.107132583856582642e-01,6.588322594761848450e-01,3.314353823661804199e-01,-1.059317588806152344e-02,2.621099352836608887e-03,-1.714527606964111328e-03,9.721517562866210938e-04,-2.535104751586914062e-03,2.653121948242187500e-03,4.107192158699035645e-03,-2.013444900512695312e-03,3.452718257904052734e-03,-1.592934131622314453e-02,-4.242232441902160645e-02,1.308826357126235962e-02,-1.105187833309173584e-02,4.608228802680969238e-03,1.165330410003662109e-03,-6.022918224334716797e-02,-3.236655890941619873e-02,-2.755856513977050781e-02,1.706579327583312988e-02,9.303092956542968750e-04,-6.965160369873046875e-03,2.284616231918334961e-03,-2.284258604049682617e-03,7.015585899353027344e-03,9.069323539733886719e-03,2.346038818359375000e-03,9.912848472595214844e-04,-3.788471221923828125e-04,5.395412445068359375e-04,-2.247333526611328125e-03
3.499732017517089844e-01,6.537834405899047852e-01,6.143147796392440796e-01,6.191632375121116638e-01,6.139681637287139893e-01,6.159455478191375732e-01,6.222409754991531372e-01,6.111649349331855774e-01,6.580391898751258850e-01,3.349098563194274902e-01,-2.408623695373535156e-03,8.416324853897094727e-04,-7.906109094619750977e-04,7.338970899581909180e-04,1.491308212280273438e-04,1.171350479125976562e-03,2.003788948059082031e-03,-1.023054122924804688e-03,1.255810260772705078e-03,-4.786252975463867188e-03,-3.579199314117431641e-02,1.157118380069732666e-02,-1.005719974637031555e-02,2.256140112876892090e-03,-3.288626670837402344e-03,-7.507395744323730469e-02,-3.574609756469726562e-02,-1.196044683456420898e-02,5.436003208160400391e-03,1.704466342926025391e-02,1.886606216430664062e-02,-5.795896053314208984e-03,5.808830261230468750e-03,-2.241003513336181641e-02,-2.451181411743164062e-02,-9.436130523681640625e-03,-7.418394088745117188e-03,-2.412796020507812500e-04,-1.541614532470703125e-03,1.251840591430664062e-02
3.368241786956787109e-01,6.567479819059371948e-01,6.125053837895393372e-01,6.216921210289001465e-01,6.147663593292236328e-01,6.166866421699523926e-01,6.232354193925857544e-01,6.102967411279678345e-01,6.597254350781440735e-01,3.264869451522827148e-01,-2.269756793975830078e-02,5.112990736961364746e-03,-2.666890621185302734e-03,-2.071171998977661133e-03,-1.255154609680175781e-02,-7.703304290771484375e-03,3.911122679710388184e-03,9.650945663452148438e-03,-2.449035644531250000e-03,-2.275800704956054688e-02,-3.817245364189147949e-02,1.197586208581924438e-02,-1.024018973112106323e-02,3.002598881721496582e-03,2.602994441986083984e-03,-4.612338542938232422e-02,-2.601721882820129395e-02,-3.026896715164184570e-02,2.066805958747863770e-02,-1.338315010070800781e-02,-9.883582592010498047e-02,3.096351027488708496e-02,-3.098270297050476074e-02,1.115388870239257812e-01,1.301776170730590820e-01,5.399823188781738281e-02,3.268361091613769531e-02,-1.019263267517089844e-02,1.411509513854980469e-02,-5.889248847961425781e-02
3.507167696952819824e-01,6.535952240228652954e-01,6.144412755966186523e-01,6.189771965146064758e-01,6.135493516921997070e-01,6.165491938591003418e-01,6.221083402633666992e-01,6.110938265919685364e-01,6.581575572490692139e-01,3.344620466232299805e-01,-8.136034011840820312e-04,5.111843347549438477e-04,-6.579905748367309570e-04,1.066952943801879883e-03,1.144409179687500000e-03,2.192020416259765625e-03,1.602873206138610840e-03,-2.090454101562500000e-03,1.547038555145263672e-03,-2.383112907409667969e-03,-3.773528337478637695e-02,1.204836368560791016e-02,-1.040739193558692932e-02,3.231748938560485840e-03,-1.525640487670898438e-03,-7.064294815063476562e-02,-3.488470613956451416e-02,-1.654613018035888672e-02,8.789569139480590820e-03,1.275527477264404297e-02,3.025114536285400391e-02,-9.461343288421630859e-03,9.574085474014282227e-03,-3.632318973541259766e-02,-4.076433181762695312e-02,-1.384377479553222656e-02,-1.096445322036743164e-02,-1.585721969604492188e-03,-1.367568969726562500e-03,1.729404926300048828e-02
3.497704267501831055e-01,6.535108536481857300e-01,6.146429777145385742e-01,6.186085268855094910e-01,6.104945689439773560e-01,6.183858811855316162e-01,6.217586547136306763e-01,6.109336689114570618e-01,6.587352603673934937e-01,3.306149840354919434e-01,6.993770599365234375e-03,-1.201331615447998047e-03,2.490282058715820312e-04,8.531957864761352539e-04,-4.314184188842773438e-04,-5.434274673461914062e-03,-7.448300719261169434e-03,1.299142837524414062e-03,-3.189861774444580078e-03,1.787471771240234375e-02,-3.798648715019226074e-02,1.219838857650756836e-02,-1.073010638356208801e-02,6.087258458137512207e-03,8.084118366241455078e-03,-4.703426361083984375e-02,-3.054580092430114746e-02,-3.125846385955810547e-02,1.949813961982727051e-02,-1.296877861022949219e-03,7.421743869781494141e-02,-2.378049492835998535e-02,2.434170246124267578e-02,-9.046673774719238281e-02,-1.100522279739379883e-01,-3.690719604492187500e-02,-2.170836925506591797e-02,-1.708745956420898438e-03,-3.952741622924804688e-03,3.626978397369384766e-02
3.484627008438110352e-01,6.541316509246826172e-01,6.140991300344467163e-01,6.194632127881050110e-01,6.142431050539016724e-01,6.166582703590393066e-01,6.221858859062194824e-01,6.109901890158653259e-01,6.583425849676132202e-01,3.336207270622253418e-01,-4.782199859619140625e-03,1.361444592475891113e-03,-1.071497797966003418e-03,9.329319000244140625e-04,-5.135536193847656250e-04,1.734972000122070312e-03,2.666100859642028809e-03,-1.781225204467773438e-03,2.308726310729980469e-03,-8.933067321777343750e-03,-3.899005055427551270e-02,1.231324672698974609e-02,-1.055266708135604858e-02,3.445088863372802734e-03,-1.275479793548583984e-03,-6.919050216674804688e-02,-3.465729951858520508e-02,-1.886212825775146484e-02,1.042288541793823242e-02,1.103359460830688477e-02,1.444017887115478516e-02,-4.390031099319458008e-03,4.379153251647949219e-03,-1.715958118438720703e-02,-1.888823509216308594e-02,-8.802413940429687500e-03,-6.041347980499267578e-03,1.189947128295898438e-03,-2.173423767089843750e-03,1.076412200927734375e-02
3.475754857063293457e-01,6.543515622615814209e-01,6.139509156346321106e-01,6.196968406438827515e-01,6.142517626285552979e-01,6.148662865161895752e-01,6.225554272532463074e-01,6.111433431506156921e-01,6.580835878849029541e-01,3.345584273338317871e-01,-1.401543617248535156e-02,3.384947776794433594e-03,-2.156287431716918945e-03,1.387134194374084473e-03,-2.654433250427246094e-03,6.161928176879882812e-03,4.949986934661865234e-03,-3.378510475158691406e-03,4.270613193511962891e-03,-1.620614528656005859e-02,-3.517258167266845703e-02,1.136197894811630249e-02,-9.840771555900573730e-03,1.418605446815490723e-03,-4.825711250305175781e-03,-7.707786560058593750e-02,-3.620286285877227783e-02,-9.894609451293945312e-03,4.291087388992309570e-03,1.655119657516479492e-02,-1.751291751861572266e-02,5.567014217376708984e-03,-5.544722080230712891e-03,1.873493194580078125e-02,2.367949485778808594e-02,9.766101837158203125e-03,4.119932651519775391e-03,-3.109455108642578125e-03,3.130197525024414062e-03,-9.094119071960449219e-03
3.516626954078674316e-01,6.532728672027587891e-01,6.146939694881439209e-01,6.185916885733604431e-01,6.121630668640136719e-01,6.173672974109649658e-01,6.218943744897842407e-01,6.110474020242691040e-01,6.583207398653030396e-01,3.334146142005920410e-01,3.327965736389160156e-03,-3.753751516342163086e-04,-2.356022596359252930e-04,1.360133290290832520e-03,1.848340034484863281e-03,1.187562942504882812e-03,-1.542404294013977051e-03,-2.205610275268554688e-03,3.515481948852539062e-04,6.786108016967773438e-03,-3.862592577934265137e-02,1.230594143271446228e-02,-1.067248359322547913e-02,4.593253135681152344e-03,2.210736274719238281e-03,-6.186056137084960938e-02,-3.334911167621612549e-02,-2.275907993316650391e-02,1.331323385238647461e-02,6.900548934936523438e-03,5.544137954711914062e-02,-1.761221885681152344e-02,1.796075701713562012e-02,-6.718504428863525391e-02,-7.846331596374511719e-02,-2.521562576293945312e-02,-1.798200607299804688e-02,-3.185510635375976562e-03,-1.877546310424804688e-03,2.807116508483886719e-02
3.549580574035644531e-01,6.526452600955963135e-01,6.150090470910072327e-01,6.182221248745918274e-01,6.130125820636749268e-01,6.104730367660522461e-01,6.230667009949684143e-01,6.121512725949287415e-01,6.563701182603836060e-01,3.416201472282409668e-01,1.709461212158203125e-03,-1.115947961807250977e-04,-1.426488161087036133e-04,-1.101672649383544922e-03,-2.753734588623046875e-04,-2.596616744995117188e-03,6.057322025299072266e-05,5.477309226989746094e-03,-4.740118980407714844e-03,9.747982025146484375e-03,-1.369768381118774414e-02,6.357446312904357910e-03,-6.491929292678833008e-03,-6.508082151412963867e-03,-1.729017496109008789e-02,-1.121456623077392578e-01,-4.181680083274841309e-02,3.363603353500366211e-02,-2.696341276168823242e-02,5.292278528213500977e-02,-5.233883857727050781e-03,1.682162284851074219e-03,-1.619696617126464844e-03,4.459142684936523438e-03,9.820222854614257812e-03,1.266574859619140625e-02,8.342862129211425781e-04,-1.127099990844726562e-02,7.599830627441406250e-03,-5.604863166809082031e-03
3.479522466659545898e-01,6.542508602142333984e-01,6.140240579843521118e-01,6.195703595876693726e-01,6.143527328968048096e-01,6.166407465934753418e-01,6.222083196043968201e-01,6.109691858291625977e-01,6.583818942308425903e-01,3.334295749664306641e-01,-6.103515625000000000e-03,1.648887991905212402e-03,-1.221686601638793945e-03,9.787827730178833008e-04,-9.266138076782226562e-04,2.017021179199218750e-03,2.970963716506958008e-03,-1.959681510925292969e-03,2.657592296600341797e-03,-1.061785221099853516e-02,-3.926049172878265381e-02,1.236901432275772095e-02,-1.058218628168106079e-02,3.489181399345397949e-03,-1.210987567901611328e-03,-6.884026527404785156e-02,-3.463374078273773193e-02,-1.937985420227050781e-02,1.080340147018432617e-02,1.054883003234863281e-02,1.036572456359863281e-02,-3.099411725997924805e-03,3.073692321777343750e-03,-1.238238811492919922e-02,-1.344394683837890625e-02,-7.249832153320312500e-03,-4.753768444061279297e-03,1.548767089843750000e-03,-2.122879028320312500e-03,8.775234222412109375e-03
3.500245809555053711e-01,6.535668075084686279e-01,6.145334541797637939e-01,6.188615188002586365e-01,6.122339665889739990e-01,6.099174320697784424e-01,6.229049153625965118e-01,6.123109087347984314e-01,6.563760861754417419e-01,3.402183055877685547e-01,-7.173299789428710938e-03,1.825600862503051758e-03,-1.205652952194213867e-03,-1.701712608337402344e-05,-6.394624710083007812e-03,-5.945920944213867188e-03,-4.586324095726013184e-03,5.195021629333496094e-03,-3.775596618652343750e-03,5.431056022644042969e-03,-1.291018724441528320e-02,6.157513707876205444e-03,-6.414648145437240601e-03,-5.525052547454833984e-03,-1.403421163558959961e-02,-1.086473464965820312e-01,-4.492087662220001221e-02,3.091847896575927734e-02,-2.626749873161315918e-02,5.917382240295410156e-02,5.155801773071289062e-03,-1.562386751174926758e-03,1.545041799545288086e-03,-6.425261497497558594e-03,-1.132011413574218750e-02,-1.003408432006835938e-02,-7.548332214355468750e-04,6.190776824951171875e-03,-4.853010177612304688e-03,7.410764694213867188e-03
3.394035696983337402e-01,6.561326682567596436e-01,6.129016131162643433e-01,6.211109235882759094e-01,6.145348250865936279e-01,6.190213561058044434e-01,6.224989295005798340e-01,6.101710572838783264e-01,6.599025428295135498e-01,3.261551856994628906e-01,-1.387858390808105469e-02,3.251597285270690918e-03,-1.845046877861022949e-03,-7.544755935668945312e-04,-7.879972457885742188e-03,-5.880594253540039062e-03,2.320140600204467773e-03,4.872322082519531250e-03,-2.872943878173828125e-04,-1.784515380859375000e-02,-4.593947529792785645e-02,1.388347893953323364e-02,-1.161742582917213440e-02,6.613403558731079102e-03,7.577002048492431641e-03,-3.797030448913574219e-02,-2.611880004405975342e-02,-4.406064748764038086e-02,2.973586320877075195e-02,-1.907920837402343750e-02,-3.924214839935302734e-02,1.230961084365844727e-02,-1.229551434516906738e-02,4.358732700347900391e-02,4.951477050781250000e-02,1.844024658203125000e-02,1.304513216018676758e-02,-2.036094665527343750e-03,4.213809967041015625e-03,-2.228116989135742188e-02
3.395130634307861328e-01,6.561633050441741943e-01,6.128509417176246643e-01,6.212192624807357788e-01,6.147103011608123779e-01,6.162796318531036377e-01,6.230836138129234314e-01,6.104746013879776001e-01,6.593544930219650269e-01,3.284211158752441406e-01,-2.146184444427490234e-02,4.890084266662597656e-03,-2.659067511558532715e-03,-1.096576452255249023e-03,-9.948134422302246094e-03,-3.143787384033203125e-03,4.868447780609130859e-03,5.813837051391601562e-03,-2.413988113403320312e-04,-2.249276638031005859e-02,-3.803116083145141602e-02,1.196047291159629822e-02,-1.022296771407127380e-02,2.698585391044616699e-03,7.302761077880859375e-04,-5.338382720947265625e-02,-2.830579876899719238e-02,-2.597355842590332031e-02,1.724815368652343750e-02,-7.241249084472656250e-03,-8.200573921203613281e-02,2.570250630378723145e-02,-2.569985389709472656e-02,9.218478202819824219e-02,1.085222959518432617e-01,4.568910598754882812e-02,2.651554346084594727e-02,-9.612321853637695312e-03,1.243853569030761719e-02,-4.895162582397460938e-02
3.440001010894775391e-01,6.551749259233474731e-01,6.134406924247741699e-01,6.204122230410575867e-01,6.144898086786270142e-01,6.151365935802459717e-01,6.229026466608047485e-01,6.108510196208953857e-01,6.586196199059486389e-01,3.320139646530151367e-01,-1.959955692291259766e-02,4.553586244583129883e-03,-2.647235989570617676e-03,3.645718097686767578e-04,-6.132364273071289062e-03,3.673553466796875000e-03,5.994766950607299805e-03,2.195835113525390625e-04,2.821624279022216797e-03,-2.101671695709228516e-02,-3.589670360088348389e-02,1.148474588990211487e-02,-9.890027344226837158e-03,1.521185040473937988e-03,-3.285467624664306641e-03,-6.792926788330078125e-02,-3.262904286384582520e-02,-1.537972688674926758e-02,9.071320295333862305e-03,5.925118923187255859e-03,-5.656635761260986328e-02,1.774591207504272461e-02,-1.770856976509094238e-02,6.291055679321289062e-02,7.567739486694335938e-02,3.316807746887207031e-02,1.726913452148437500e-02,-8.798122406005859375e-03,9.943008422851562500e-03,-3.395521640777587891e-02
3.513489961624145508e-01,6.533364057540893555e-01,6.146588996052742004e-01,6.186376512050628662e-01,6.121314764022827148e-01,6.175352632999420166e-01,6.218812093138694763e-01,6.110137775540351868e-01,6.583889126777648926e-01,3.330786228179931641e-01,3.302812576293945312e-03,-3.723204135894775391e-04,-2.325624227523803711e-04,1.327350735664367676e-03,1.637816429138183594e-03,7.879734039306640625e-04,-1.751586794853210449e-03,-2.015471458435058594e-03,2.404451370239257812e-04,6.824254989624023438e-03,-3.906106948852539062e-02,1.240911707282066345e-02,-1.074774563312530518e-02,4.838198423385620117e-03,2.793729305267333984e-03,-6.021893024444580078e-02,-3.300853073596954346e-02,-2.420347929000854492e-02,1.436358690261840820e-02,5.568504333496093750e-03,5.566573143005371094e-02,-1.769044995307922363e-02,1.804363727569580078e-02,-6.747639179229736328e-02,-7.906544208526611328e-02,-2.563071250915527344e-02,-1.794511079788208008e-02,-2.924680709838867188e-03,-2.054929733276367188e-03,2.819478511810302734e-02
3.489426970481872559e-01,6.540356874465942383e-01,6.141448244452476501e-01,6.194371953606605530e-01,6.139037907123565674e-01,6.134258508682250977e-01,6.227074116468429565e-01,6.114058271050453186e-01,6.576343327760696411e-01,3.363971710205078125e-01,-1.553511619567871094e-02,3.727570176124572754e-03,-2.362117171287536621e-03,1.633450388908386230e-03,-2.683639526367187500e-03,8.033037185668945312e-03,5.101799964904785156e-03,-4.034996032714843750e-03,4.493355751037597656e-03,-1.514935493469238281e-02,-3.071172535419464111e-02,1.030518859624862671e-02,-9.109031409025192261e-03,-4.367083311080932617e-04,-8.175015449523925781e-03,-8.654165267944335938e-02,-3.835740685462951660e-02,4.920959472656250000e-04,-3.203958272933959961e-03,2.559703588485717773e-02,-2.134168148040771484e-02,6.723433732986450195e-03,-6.658077239990234375e-03,2.265131473541259766e-02,2.869832515716552734e-02,1.335549354553222656e-02,5.324482917785644531e-03,-5.191326141357421875e-03,4.833936691284179688e-03,-1.232624053955078125e-02
3.490013480186462402e-01,6.538748294115066528e-01,6.143111586570739746e-01,6.191753223538398743e-01,6.131269782781600952e-01,6.117219924926757812e-01,6.227472871541976929e-01,6.119307354092597961e-01,6.569395437836647034e-01,3.383327722549438477e-01,-7.586002349853515625e-03,1.925826072692871094e-03,-1.274779438972473145e-03,1.505762338638305664e-04,-5.085468292236328125e-03,-3.819465637207031250e-03,-2.043217420578002930e-03,3.311634063720703125e-03,-1.801073551177978516e-03,-7.946491241455078125e-04,-2.009816467761993408e-02,7.842935621738433838e-03,-7.531281560659408569e-03,-3.213584423065185547e-03,-1.091885566711425781e-02,-9.859025478363037109e-02,-4.219129681587219238e-02,1.761019229888916016e-02,-1.645302772521972656e-02,4.628533124923706055e-02,1.391172409057617188e-03,-3.006756305694580078e-04,2.264678478240966797e-04,-1.631855964660644531e-03,-4.238724708557128906e-03,-7.247447967529296875e-03,-3.412365913391113281e-04,5.565881729125976562e-03,-4.224538803100585938e-03,5.768775939941406250e-03
3.564195036888122559e-01,6.521294564008712769e-01,6.154246032238006592e-01,6.175668165087699890e-01,6.107009202241897583e-01,6.154890656471252441e-01,6.219220012426376343e-01,6.115452572703361511e-01,6.574874743819236755e-01,3.368216156959533691e-01,8.283734321594238281e-03,-1.421540975570678711e-03,2.364963293075561523e-04,1.810684800148010254e-03,4.321217536926269531e-03,3.397226333618164062e-03,-3.774628043174743652e-03,-3.375530242919921875e-03,-7.327795028686523438e-04,1.913177967071533203e-02,-3.076328337192535400e-02,1.049864292144775391e-02,-9.495507925748825073e-03,2.012595534324645996e-03,-1.905143260955810547e-03,-7.569301128387451172e-02,-3.659753501415252686e-02,-6.397366523742675781e-03,1.444697380065917969e-03,2.148920297622680664e-02,7.817173004150390625e-02,-2.494883537292480469e-02,2.551317214965820312e-02,-9.510076045989990234e-02,-1.105018854141235352e-01,-3.192281723022460938e-02,-2.493500709533691406e-02,-8.013725280761718750e-03,-1.595020294189453125e-04,3.701663017272949219e-02
3.499845266342163086e-01,6.533913016319274902e-01,6.147506982088088989e-01,6.184412464499473572e-01,6.097555756568908691e-01,6.182501614093780518e-01,6.217352375388145447e-01,6.110096871852874756e-01,6.586802154779434204e-01,3.304817676544189453e-01,8.877873420715332031e-03,-1.615762710571289062e-03,4.717260599136352539e-04,7.535517215728759766e-04,-7.921457290649414062e-04,-7.192373275756835938e-03,-9.710654616355895996e-03,2.234935760498046875e-03,-4.489302635192871094e-03,2.334988117218017578e-02,-3.593398630619049072e-02,1.173454150557518005e-02,-1.046276465058326721e-02,5.906581878662109375e-03,8.859395980834960938e-03,-4.584598541259765625e-02,-3.048919141292572021e-02,-2.998411655426025391e-02,1.855757832527160645e-02,-1.975893974304199219e-04,8.330273628234863281e-02,-2.673989534378051758e-02,2.739191055297851562e-02,-1.016262769699096680e-01,-1.244188547134399414e-01,-4.166364669799804688e-02,-2.385133504867553711e-02,-1.753091812133789062e-03,-4.492759704589843750e-03,4.028129577636718750e-02
3.496860861778259277e-01,6.538242995738983154e-01,6.142955720424652100e-01,6.192027330398559570e-01,6.139559149742126465e-01,6.125656664371490479e-01,6.228872798383235931e-01,6.117123514413833618e-01,6.571987792849540710e-01,3.378053903579711914e-01,-1.817703247070312500e-03,6.240159273147583008e-04,-4.648417234420776367e-04,-1.387760043144226074e-03,-3.380179405212402344e-03,-6.895542144775390625e-03,-3.797709941864013672e-04,6.947994232177734375e-03,-4.318594932556152344e-03,1.227974891662597656e-03,-2.102227509021759033e-02,8.059356361627578735e-03,-7.650718092918395996e-03,-3.422349691390991211e-03,-1.145648956298828125e-02,-9.593880176544189453e-02,-3.905589878559112549e-02,1.589131355285644531e-02,-1.448789238929748535e-02,3.971946239471435547e-02,-1.219546794891357422e-02,4.046350717544555664e-03,-4.185438156127929688e-03,1.440989971160888672e-02,1.831269264221191406e-02,6.912469863891601562e-03,3.435790538787841797e-03,-1.519441604614257812e-03,1.425504684448242188e-03,-3.958225250244140625e-03
3.471491336822509766e-01,6.544293016195297241e-01,6.139179170131683350e-01,6.197125315666198730e-01,6.143413484096527100e-01,6.174465119838714600e-01,6.221430003643035889e-01,6.107952743768692017e-01,6.586816906929016113e-01,3.321707844734191895e-01,-6.596684455871582031e-03,1.758188009262084961e-03,-1.282870769500732422e-03,1.048982143402099609e-03,-1.076102256774902344e-03,2.136945724487304688e-03,3.160417079925537109e-03,-2.224683761596679688e-03,2.985060214996337891e-03,-1.177096366882324219e-02,-4.215550422668457031e-02,1.305158436298370361e-02,-1.105261966586112976e-02,4.687741398811340332e-03,1.043677330017089844e-03,-6.205976009368896484e-02,-3.306023776531219482e-02,-2.633935213088989258e-02,1.594969630241394043e-02,3.632009029388427734e-03,1.017594337463378906e-02,-3.079295158386230469e-03,3.087043762207031250e-03,-1.250422000885009766e-02,-1.375746726989746094e-02,-6.852626800537109375e-03,-4.590153694152832031e-03,1.018524169921875000e-03,-1.688957214355468750e-03,7.954120635986328125e-03
3.516337275505065918e-01,6.530982553958892822e-01,6.148902773857116699e-01,6.182700172066688538e-01,6.102992892265319824e-01,6.177154481410980225e-01,6.217629425227642059e-01,6.111015304923057556e-01,6.584165468811988831e-01,3.321117758750915527e-01,8.019924163818359375e-03,-1.406371593475341797e-03,3.153234720230102539e-04,1.164287328720092773e-03,8.649826049804687500e-04,-3.393888473510742188e-03,-7.176473736763000488e-03,4.923343658447265625e-05,-2.757549285888671875e-03,1.987349987030029297e-02,-3.598453104496002197e-02,1.173583790659904480e-02,-1.041230931878089905e-02,5.185544490814208984e-03,6.035983562469482422e-03,-5.341780185699462891e-02,-3.202566504478454590e-02,-2.536237239837646484e-02,1.518595218658447266e-02,4.291176795959472656e-03,8.007586002349853516e-02,-2.563762664794921875e-02,2.623438835144042969e-02,-9.748291969299316406e-02,-1.174066066741943359e-01,-3.821039199829101562e-02,-2.388352155685424805e-02,-3.199100494384765625e-03,-3.384828567504882812e-03,3.883886337280273438e-02
3.416308164596557617e-01,6.556946635246276855e-01,6.131326779723167419e-01,6.208283156156539917e-01,6.146587431430816650e-01,6.163082718849182129e-01,6.228792406618595123e-01,6.105832830071449280e-01,6.591211184859275818e-01,3.296986818313598633e-01,-1.931929588317871094e-02,4.461050033569335938e-03,-2.525642514228820801e-03,-2.880096435546875000e-04,-7.602691650390625000e-03,-4.363059997558593750e-05,5.205482244491577148e-03,2.693295478820800781e-03,1.463830471038818359e-03,-2.156877517700195312e-02,-3.888952732086181641e-02,1.218550652265548706e-02,-1.038308814167976379e-02,2.958461642265319824e-03,1.114606857299804688e-04,-5.736839771270751953e-02,-2.994218468666076660e-02,-2.476555109024047852e-02,1.601490378379821777e-02,-3.540813922882080078e-03,-6.225371360778808594e-02,1.953357458114624023e-02,-1.952010393142700195e-02,6.964182853698730469e-02,8.256494998931884766e-02,3.480315208435058594e-02,1.960361003875732422e-02,-7.757186889648437500e-03,9.693145751953125000e-03,-3.688454627990722656e-02
3.527305722236633301e-01,6.531454026699066162e-01,6.147046014666557312e-01,6.186437159776687622e-01,6.134225279092788696e-01,6.108297407627105713e-01,6.231115795671939850e-01,6.120390817523002625e-01,6.566025093197822571e-01,3.404340147972106934e-01,2.498626708984375000e-04,1.778900623321533203e-04,-2.312362194061279297e-04,-1.595228910446166992e-03,-2.091407775878906250e-03,-5.537986755371093750e-03,-2.879202365875244141e-04,7.393956184387207031e-03,-5.447447299957275391e-03,6.941556930541992188e-03,-1.450841128826141357e-02,6.531916558742523193e-03,-6.604883819818496704e-03,-6.130293011665344238e-03,-1.617604494094848633e-02,-1.084206104278564453e-01,-4.097765684127807617e-02,3.046363592147827148e-02,-2.471551299095153809e-02,5.037730932235717773e-02,-1.478958129882812500e-02,4.764080047607421875e-03,-4.802584648132324219e-03,1.633489131927490234e-02,2.261269092559814453e-02,1.439642906188964844e-02,4.166126251220703125e-03,-8.169889450073242188e-03,6.144762039184570312e-03,-8.882999420166015625e-03
3.541511297225952148e-01,6.525024622678756714e-01,6.152666211128234863e-01,6.177445873618125916e-01,6.096423417329788208e-01,6.167273223400115967e-01,6.217684000730514526e-01,6.113635227084159851e-01,6.579684168100357056e-01,3.339962959289550781e-01,1.026320457458496094e-02,-1.873865723609924316e-03,5.117803812026977539e-04,1.493364572525024414e-03,2.303242683410644531e-03,-1.696109771728515625e-03,-8.024945855140686035e-03,-1.002192497253417969e-03,-2.940595149993896484e-03,2.543795108795166016e-02,-3.212071955204010010e-02,1.084704697132110596e-02,-9.828843176364898682e-03,3.849953413009643555e-03,3.709316253662109375e-03,-6.122744083404541016e-02,-3.391538560390472412e-02,-1.675319671630859375e-02,8.907109498977661133e-03,1.223081350326538086e-02,9.166347980499267578e-02,-2.936008572578430176e-02,3.005450963973999023e-02,-1.115938425064086914e-01,-1.334726810455322266e-01,-4.183673858642578125e-02,-2.755910158157348633e-02,-5.377292633056640625e-03,-2.720832824707031250e-03,4.371321201324462891e-02
3.485277891159057617e-01,6.541315466165542603e-01,6.140861064195632935e-01,6.195156797766685486e-01,6.140171736478805542e-01,6.138713955879211426e-01,6.226572766900062561e-01,6.113267764449119568e-01,6.577697992324829102e-01,3.358433246612548828e-01,-1.501345634460449219e-02,3.610268235206604004e-03,-2.292841672897338867e-03,1.559361815452575684e-03,-2.658367156982421875e-03,7.434129714965820312e-03,5.036324262619018555e-03,-3.840804100036621094e-03,4.427790641784667969e-03,-1.545476913452148438e-02,-3.208406269550323486e-02,1.063056662678718567e-02,-9.334634989500045776e-03,1.369118690490722656e-04,-7.147669792175292969e-03,-8.369195461273193359e-02,-3.772526979446411133e-02,-2.680599689483642578e-03,-9.251236915588378906e-04,2.290737628936767578e-02,-1.986539363861083984e-02,6.276249885559082031e-03,-6.226480007171630859e-03,2.112853527069091797e-02,2.676463127136230469e-02,1.200556755065917969e-02,4.852950572967529297e-03,-4.429101943969726562e-03,4.202365875244140625e-03,-1.108717918395996094e-02
3.481456041336059570e-01,6.541924178600311279e-01,6.140641644597053528e-01,6.195199713110923767e-01,6.143169999122619629e-01,6.153705418109893799e-01,6.223645918071269989e-01,6.112101823091506958e-01,6.580039039254188538e-01,3.348091840744018555e-01,-6.435513496398925781e-03,1.705378293991088867e-03,-1.216650009155273438e-03,6.510913372039794922e-04,-1.856088638305664062e-03,4.594326019287109375e-04,2.152562141418457031e-03,-4.990100860595703125e-04,1.596570014953613281e-03,-9.187102317810058594e-03,-3.436945378780364990e-02,1.120891794562339783e-02,-9.787935763597488403e-03,1.620888710021972656e-03,-4.185438156127929688e-03,-7.757067680358886719e-02,-3.666442632675170898e-02,-9.270846843719482422e-03,3.362834453582763672e-03,2.028644084930419922e-02,5.183815956115722656e-03,-1.427441835403442383e-03,1.341700553894042969e-03,-5.904078483581542969e-03,-6.354808807373046875e-03,-5.929470062255859375e-03,-2.905011177062988281e-03,2.875328063964843750e-03,-2.711772918701171875e-03,7.066726684570312500e-03
3.460029363632202148e-01,6.545768082141876221e-01,6.138719394803047180e-01,6.197790727019309998e-01,6.139921844005584717e-01,6.123677492141723633e-01,6.229683086276054382e-01,6.117253527045249939e-01,6.573321446776390076e-01,3.364525437355041504e-01,-4.250168800354003906e-03,1.105859875679016113e-03,-6.197988986968994141e-04,-2.097114920616149902e-03,-7.428646087646484375e-03,-1.319050788879394531e-02,-3.236278891563415527e-03,1.075530052185058594e-02,-6.383419036865234375e-03,5.141496658325195312e-04,-1.894012093544006348e-02,7.551807910203933716e-03,-7.331751286983489990e-03,-3.583654761314392090e-03,-1.015698909759521484e-02,-9.327793121337890625e-02,-3.928193449974060059e-02,1.583778858184814453e-02,-1.480236649513244629e-02,4.188591241836547852e-02,-2.052533626556396484e-02,6.739974021911621094e-03,-7.011413574218750000e-03,2.524626255035400391e-02,2.715754508972167969e-02,3.226280212402343750e-03,7.229685783386230469e-03,6.324052810668945312e-03,-3.305196762084960938e-03,-4.598855972290039062e-03
3.502187728881835938e-01,6.535902321338653564e-01,6.144885122776031494e-01,6.189333647489547729e-01,6.127625554800033569e-01,6.109818220138549805e-01,6.227808780968189240e-01,6.120804846286773682e-01,6.566763892769813538e-01,3.394535183906555176e-01,-8.539557456970214844e-03,2.153456211090087891e-03,-1.441344618797302246e-03,6.037056446075439453e-04,-4.672646522521972656e-03,-1.556396484375000000e-03,-1.861512660980224609e-03,1.923203468322753906e-03,-1.096844673156738281e-03,-3.731250762939453125e-05,-1.824378967285156250e-02,7.408134639263153076e-03,-7.232684642076492310e-03,-3.977671265602111816e-03,-1.248383522033691406e-02,-1.034423112869262695e-01,-4.351887106895446777e-02,2.249687910079956055e-02,-2.001151442527770996e-02,5.080425739288330078e-02,3.839612007141113281e-03,-1.131087541580200195e-03,1.122862100601196289e-03,-5.070090293884277344e-03,-7.999539375305175781e-03,-7.241487503051757812e-03,-1.185476779937744141e-03,4.070281982421875000e-03,-3.341436386108398438e-03,5.993843078613281250e-03
3.395320773124694824e-01,6.561603993177413940e-01,6.128519028425216675e-01,6.212190091609954834e-01,6.147060096263885498e-01,6.161774098873138428e-01,6.231044791638851166e-01,6.104870289564132690e-01,6.593327596783638000e-01,3.285082578659057617e-01,-2.169847488403320312e-02,4.941090941429138184e-03,-2.684175968170166016e-03,-1.110628247261047363e-03,-1.002073287963867188e-02,-3.065586090087890625e-03,4.934713244438171387e-03,5.863666534423828125e-03,-2.603530883789062500e-04,-2.257621288299560547e-02,-3.771665692329406738e-02,1.188444346189498901e-02,-1.016870513558387756e-02,2.552255988121032715e-03,4.834532737731933594e-04,-5.394542217254638672e-02,-2.838601171970367432e-02,-2.528464794158935547e-02,1.677128672599792480e-02,-6.785154342651367188e-03,-8.339679241180419922e-02,2.613887190818786621e-02,-2.613550424575805664e-02,9.376013278961181641e-02,1.104367971420288086e-01,4.661464691162109375e-02,2.696353197097778320e-02,-9.903192520141601562e-03,1.273751258850097656e-02,-4.985475540161132812e-02
3.455709218978881836e-01,6.548152863979339600e-01,6.136635541915893555e-01,6.200960054993629456e-01,6.144551932811737061e-01,6.155296266078948975e-01,6.226498074829578400e-01,6.109107285737991333e-01,6.584930121898651123e-01,3.327477574348449707e-01,-1.623892784118652344e-02,3.848180174827575684e-03,-2.344936132431030273e-03,9.394884109497070312e-04,-4.090428352355957031e-03,4.907131195068359375e-03,5.534887313842773438e-03,-1.907348632812500000e-03,3.803670406341552734e-03,-1.903247833251953125e-02,-3.736588358879089355e-02,1.185935735702514648e-02,-1.016708090901374817e-02,2.212956547737121582e-03,-2.852499485015869141e-03,-6.932723522186279297e-02,-3.378625214099884033e-02,-1.648235321044921875e-02,9.430855512619018555e-03,8.083939552307128906e-03,-3.344976902008056641e-02,1.053932309150695801e-02,-1.051214337348937988e-02,3.678023815155029297e-02,4.486477375030517578e-02,1.916646957397460938e-02,9.485244750976562500e-03,-5.273103713989257812e-03,5.815267562866210938e-03,-1.923537254333496094e-02
3.481982350349426270e-01,6.541699618101119995e-01,6.140816733241081238e-01,6.194990724325180054e-01,6.142010837793350220e-01,6.147924661636352539e-01,6.224264018237590790e-01,6.113077476620674133e-01,6.578527539968490601e-01,3.353434801101684570e-01,-7.823824882507324219e-03,2.010852098464965820e-03,-1.385629177093505859e-03,7.778704166412353516e-04,-2.313137054443359375e-03,9.975433349609375000e-04,2.066358923912048340e-03,-7.445812225341796875e-04,1.793324947357177734e-03,-9.517312049865722656e-03,-3.266479074954986572e-02,1.080137863755226135e-02,-9.506136178970336914e-03,9.599179029464721680e-04,-5.267441272735595703e-03,-8.085298538208007812e-02,-3.759230673313140869e-02,-5.611240863800048828e-03,6.736516952514648438e-04,2.380126714706420898e-02,2.414584159851074219e-03,-5.702972412109375000e-04,4.906058311462402344e-04,-2.811789512634277344e-03,-3.023147583007812500e-03,-4.906654357910156250e-03,-1.940906047821044922e-03,3.028392791748046875e-03,-2.604961395263671875e-03,5.560398101806640625e-03
3.451522588729858398e-01,6.549088656902313232e-01,6.136073172092437744e-01,6.201720982789993286e-01,6.144999265670776367e-01,6.157920956611633301e-01,6.226383522152900696e-01,6.108531877398490906e-01,6.585964262485504150e-01,3.322919607162475586e-01,-1.617336273193359375e-02,3.828972578048706055e-03,-2.323776483535766602e-03,8.405297994613647461e-04,-4.289269447326660156e-03,4.345893859863281250e-03,5.460277199745178223e-03,-1.556634902954101562e-03,3.631830215454101562e-03,-1.925551891326904297e-02,-3.812135756015777588e-02,1.203683391213417053e-02,-1.029026880860328674e-02,2.544596791267395020e-03,-2.148509025573730469e-03,-6.715416908264160156e-02,-3.323821723461151123e-02,-1.855313777923583984e-02,1.095905900001525879e-02,6.030738353729248047e-03,-3.425574302673339844e-02,1.079434156417846680e-02,-1.077026128768920898e-02,3.773760795593261719e-02,4.585647583007812500e-02,1.939725875854492188e-02,9.810686111450195312e-03,-5.119085311889648438e-03,5.776166915893554688e-03,-1.965367794036865234e-02
3.459008932113647461e-01,6.547151654958724976e-01,6.137413606047630310e-01,6.199601143598556519e-01,6.144666373729705811e-01,6.176606118679046631e-01,6.222009621560573578e-01,6.106885373592376709e-01,6.588749587535858154e-01,3.312811851501464844e-01,-8.922338485717773438e-03,2.258285880088806152e-03,-1.528769731521606445e-03,9.747296571731567383e-04,-2.056598663330078125e-03,2.121448516845703125e-03,3.648906946182250977e-03,-1.980066299438476562e-03,3.227472305297851562e-03,-1.445484161376953125e-02,-4.322974383831024170e-02,1.328983157873153687e-02,-1.120331883430480957e-02,5.046248435974121094e-03,1.919388771057128906e-03,-5.863630771636962891e-02,-3.212237358093261719e-02,-2.940553426742553711e-02,1.832351088523864746e-02,-1.657009124755859375e-04,3.180503845214843750e-04,1.162290573120117188e-06,5.781650543212890625e-06,-1.305222511291503906e-03,-8.205175399780273438e-04,-1.753807067871093750e-03,-1.316428184509277344e-03,3.750324249267578125e-04,-5.013942718505859375e-04,2.054333686828613281e-03
3.416807651519775391e-01,6.556841433048248291e-01,6.131385713815689087e-01,6.208207309246063232e-01,6.146547198295593262e-01,6.162485480308532715e-01,6.228874810039997101e-01,6.105927452445030212e-01,6.591039523482322693e-01,3.297736048698425293e-01,-1.942062377929687500e-02,4.483327269554138184e-03,-2.538174390792846680e-03,-2.799183130264282227e-04,-7.602334022521972656e-03,6.103515625000000000e-05,5.248829722404479980e-03,2.660989761352539062e-03,1.486122608184814453e-03,-2.160155773162841797e-02,-3.872065246105194092e-02,1.214502006769180298e-02,-1.035423949360847473e-02,2.877891063690185547e-03,-4.339218139648437500e-05,-5.777180194854736328e-02,-3.002160787582397461e-02,-2.433943748474121094e-02,1.571220159530639648e-02,-3.200411796569824219e-03,-6.268513202667236328e-02,1.966795325279235840e-02,-1.965349912643432617e-02,7.012248039245605469e-02,8.317244052886962891e-02,3.512859344482421875e-02,1.973080635070800781e-02,-7.887601852416992188e-03,9.812355041503906250e-03,-3.717851638793945312e-02
3.481345176696777344e-01,6.541860997676849365e-01,6.140712872147560120e-01,6.195121854543685913e-01,6.142428964376449585e-01,6.149390935897827148e-01,6.224130988121032715e-01,6.112846508622169495e-01,6.578908935189247131e-01,3.351960778236389160e-01,-7.298231124877929688e-03,1.893177628517150879e-03,-1.316249370574951172e-03,6.901174783706665039e-04,-2.253174781799316406e-03,5.576610565185546875e-04,1.989424228668212891e-03,-4.737377166748046875e-04,1.596689224243164062e-03,-9.258985519409179688e-03,-3.298540413379669189e-02,1.087862625718116760e-02,-9.560905396938323975e-03,1.099288463592529297e-03,-5.002498626708984375e-03,-8.005261421203613281e-02,-3.735084831714630127e-02,-6.416141986846923828e-03,1.259297132492065430e-03,2.305793762207031250e-02,3.100156784057617188e-03,-7.773935794830322266e-04,6.894469261169433594e-04,-3.513932228088378906e-03,-3.824472427368164062e-03,-5.302429199218750000e-03,-2.157092094421386719e-03,3.167152404785156250e-03,-2.757787704467773438e-03,6.059885025024414062e-03
3.430150151252746582e-01,6.553837954998016357e-01,6.133221760392189026e-01,6.205619573593139648e-01,6.146284341812133789e-01,6.165436208248138428e-01,6.226949207484722137e-01,6.106353923678398132e-01,6.590040922164916992e-01,3.303863406181335449e-01,-1.709890365600585938e-02,4.001945257186889648e-03,-2.345740795135498047e-03,2.385377883911132812e-04,-5.893826484680175781e-03,1.561164855957031250e-03,5.144953727722167969e-03,6.914138793945312500e-04,2.484679222106933594e-03,-2.042710781097412109e-02,-4.001013934612274170e-02,1.246994733810424805e-02,-1.058894023299217224e-02,3.421127796173095703e-03,2.150535583496093750e-04,-5.893611907958984375e-02,-3.089872002601623535e-02,-2.525413036346435547e-02,1.606419682502746582e-02,-1.772046089172363281e-03,-4.538977146148681641e-02,1.427042484283447266e-02,-1.425600051879882812e-02,5.048394203186035156e-02,6.021153926849365234e-02,2.503347396850585938e-02,1.383417844772338867e-02,-5.666971206665039062e-03,7.010221481323242188e-03,-2.638316154479980469e-02
3.487298488616943359e-01,6.540536880493164062e-01,6.141517534852027893e-01,6.193963959813117981e-01,6.142241060733795166e-01,6.147655844688415527e-01,6.224720738828182220e-01,6.113404706120491028e-01,6.577948182821273804e-01,3.356017470359802246e-01,-3.930091857910156250e-03,1.135766506195068359e-03,-8.605420589447021484e-04,-5.856156349182128906e-06,-2.026915550231933594e-03,-2.246141433715820312e-03,1.155570149421691895e-03,1.898527145385742188e-03,-3.868341445922851562e-04,-5.266904830932617188e-03,-3.093171119689941406e-02,1.040370017290115356e-02,-9.248826652765274048e-03,3.802925348281860352e-04,-5.933284759521484375e-03,-8.210742473602294922e-02,-3.719948232173919678e-02,-2.915382385253906250e-03,-1.181781291961669922e-03,2.542269229888916016e-02,4.014492034912109375e-03,-1.041144132614135742e-03,9.333789348602294922e-04,-4.322886466979980469e-03,-4.278779029846191406e-03,-4.467964172363281250e-03,-2.312481403350830078e-03,2.162218093872070312e-03,-2.187490463256835938e-03,6.339788436889648438e-03
3.485088348388671875e-01,6.541214436292648315e-01,6.141049712896347046e-01,6.194559857249259949e-01,6.142536103725433350e-01,6.165291070938110352e-01,6.222021505236625671e-01,6.110145375132560730e-01,6.583022475242614746e-01,3.337802290916442871e-01,-4.793405532836914062e-03,1.362457871437072754e-03,-1.068562269210815430e-03,8.986592292785644531e-04,-5.708932876586914062e-04,1.618862152099609375e-03,2.629458904266357422e-03,-1.651406288146972656e-03,2.218306064605712891e-03,-8.835792541503906250e-03,-3.850898146629333496e-02,1.219895854592323303e-02,-1.047354564070701599e-02,3.247648477554321289e-03,-1.616537570953369141e-03,-7.016491889953613281e-02,-3.486962616443634033e-02,-1.779365539550781250e-02,9.639412164688110352e-03,1.204782724380493164e-02,1.383578777313232422e-02,-4.193037748336791992e-03,4.174679517745971680e-03,-1.639807224273681641e-02,-1.799952983856201172e-02,-8.578300476074218750e-03,-5.847990512847900391e-03,1.282930374145507812e-03,-2.201795578002929688e-03,1.055204868316650391e-02
3.530236482620239258e-01,6.530638784170150757e-01,6.147699207067489624e-01,6.185225173830986023e-01,6.130737364292144775e-01,6.153956949710845947e-01,6.221949160099029541e-01,6.113562285900115967e-01,6.576980873942375183e-01,3.364254832267761230e-01,1.451015472412109375e-03,2.457201480865478516e-05,-4.152804613113403320e-04,1.039370894432067871e-03,2.192735671997070312e-03,2.800464630126953125e-03,1.017719507217407227e-03,-1.946806907653808594e-03,7.051229476928710938e-04,2.768158912658691406e-03,-3.319045901298522949e-02,1.099123060703277588e-02,-9.696915745735168457e-03,1.494869589805603027e-03,-4.553258419036865234e-03,-7.954216003417968750e-02,-3.664533793926239014e-02,-6.422638893127441406e-03,1.507252454757690430e-03,2.138090133666992188e-02,3.549349308013916016e-02,-1.116254925727844238e-02,1.133984327316284180e-02,-4.290282726287841797e-02,-4.761445522308349609e-02,-1.366567611694335938e-02,-1.264327764511108398e-02,-4.410266876220703125e-03,1.702308654785156250e-04,1.863145828247070312e-02
3.508455753326416016e-01,6.535481959581375122e-01,6.144656240940093994e-01,6.189838349819183350e-01,6.135317385196685791e-01,6.085983514785766602e-01,6.236794702708721161e-01,6.123186051845550537e-01,6.562245860695838928e-01,3.413756489753723145e-01,-9.751319885253906250e-04,3.588348627090454102e-04,-1.213848590850830078e-04,-3.558412194252014160e-03,-6.118774414062500000e-03,-1.309442520141601562e-02,-2.063214778900146484e-03,1.466226577758789062e-02,-1.010179519653320312e-02,9.512066841125488281e-03,-4.146784543991088867e-03,4.052478820085525513e-03,-4.901383072137832642e-03,-1.005366444587707520e-02,-2.109158039093017578e-02,-1.194415092468261719e-01,-4.206036031246185303e-02,4.793328046798706055e-02,-3.697413206100463867e-02,6.282711029052734375e-02,-4.942023754119873047e-02,1.568824052810668945e-02,-1.584994792938232422e-02,5.691504478454589844e-02,6.948769092559814453e-02,3.238677978515625000e-02,1.626193523406982422e-02,-9.697198867797851562e-03,9.617328643798828125e-03,-2.796769142150878906e-02
3.509540557861328125e-01,6.535239815711975098e-01,6.144825145602226257e-01,6.189631298184394836e-01,6.132583022117614746e-01,6.118716001510620117e-01,6.227247640490531921e-01,6.118143126368522644e-01,6.569863185286521912e-01,3.388681411743164062e-01,-1.301801204681396484e-02,3.183707594871520996e-03,-2.095922827720642090e-03,1.745805144309997559e-03,-2.457857131958007812e-03,6.929159164428710938e-03,2.839177846908569336e-03,-3.571987152099609375e-03,3.337979316711425781e-03,-8.817315101623535156e-03,-2.452158927917480469e-02,8.867882192134857178e-03,-8.162245154380798340e-03,-2.457857131958007812e-03,-1.150774955749511719e-02,-9.850859642028808594e-02,-4.184691607952117920e-02,1.366603374481201172e-02,-1.316967606544494629e-02,4.017680883407592773e-02,-6.141424179077148438e-03,1.946568489074707031e-03,-1.870632171630859375e-03,5.321979522705078125e-03,7.297158241271972656e-03,3.547191619873046875e-03,7.850527763366699219e-04,-2.457380294799804688e-03,1.850843429565429688e-03,-2.692818641662597656e-03
3.539586067199707031e-01,6.527796685695648193e-01,6.149812415242195129e-01,6.182049959897994995e-01,6.120873391628265381e-01,6.161099076271057129e-01,6.219932772219181061e-01,6.113103553652763367e-01,6.578236445784568787e-01,3.357148766517639160e-01,4.253029823303222656e-03,-5.636364221572875977e-04,-1.626908779144287109e-04,1.497641205787658691e-03,3.140091896057128906e-03,3.194332122802734375e-03,-9.203702211380004883e-04,-2.981901168823242188e-03,4.886984825134277344e-04,8.780121803283691406e-03,-3.467102348804473877e-02,1.137667521834373474e-02,-1.002192124724388123e-02,2.750828862190246582e-03,-1.641809940338134766e-03,-7.290673255920410156e-02,-3.562720119953155518e-02,-1.198655366897583008e-02,5.511045455932617188e-03,1.653838157653808594e-02,5.635881423950195312e-02,-1.789006590843200684e-02,1.824623346328735352e-02,-6.832313537597656250e-02,-7.836782932281494141e-02,-2.325153350830078125e-02,-1.872295141220092773e-02,-5.460262298583984375e-03,-4.608631134033203125e-04,2.792870998382568359e-02
3.553624153137207031e-01,6.524995118379592896e-01,6.151324510574340820e-01,6.180111989378929138e-01,6.122732162475585938e-01,6.148062646389007568e-01,6.221664212644100189e-01,6.115394830703735352e-01,6.573895290493965149e-01,3.377053141593933105e-01,4.156827926635742188e-03,-5.448758602142333984e-04,-1.627206802368164062e-04,1.333862543106079102e-03,3.606200218200683594e-03,4.114151000976562500e-03,-4.938244819641113281e-05,-2.757310867309570312e-03,2.826452255249023438e-04,9.032845497131347656e-03,-3.052957355976104736e-02,1.039056852459907532e-02,-9.319681674242019653e-03,7.375478744506835938e-04,-5.671381950378417969e-03,-8.371591567993164062e-02,-3.763778507709503174e-02,-1.128911972045898438e-03,-2.293974161148071289e-03,2.582478523254394531e-02,4.887640476226806641e-02,-1.549091935157775879e-02,1.580351591110229492e-02,-5.943202972412109375e-02,-6.659579277038574219e-02,-1.756238937377929688e-02,-1.674264669418334961e-02,-7.349967956542968750e-03,1.274347305297851562e-03,2.367079257965087891e-02
3.569238781929016113e-01,6.520796269178390503e-01,6.154225766658782959e-01,6.175897642970085144e-01,6.112892180681228638e-01,6.148104667663574219e-01,6.220474168658256531e-01,6.116277575492858887e-01,6.572804152965545654e-01,3.379863500595092773e-01,6.961464881896972656e-03,-1.135006546974182129e-03,9.560585021972656250e-05,1.718774437904357910e-03,4.639148712158203125e-03,4.717588424682617188e-03,-1.935392618179321289e-03,-3.608226776123046875e-03,-1.542568206787109375e-04,1.576006412506103516e-02,-2.952131628990173340e-02,1.018634438514709473e-02,-9.234905242919921875e-03,9.264200925827026367e-04,-4.704236984252929688e-03,-8.258032798767089844e-02,-3.775416314601898193e-02,-8.518099784851074219e-04,-2.523839473724365234e-03,2.619677782058715820e-02,6.717205047607421875e-02,-2.139467000961303711e-02,2.187070250511169434e-02,-8.178198337554931641e-02,-9.341132640838623047e-02,-2.535438537597656250e-02,-2.208626270294189453e-02,-8.904457092285156250e-03,1.132488250732421875e-03,3.161287307739257812e-02
3.438706398010253906e-01,6.551576554775238037e-01,6.134800761938095093e-01,6.203158125281333923e-01,6.144708991050720215e-01,6.184108853340148926e-01,6.222388520836830139e-01,6.104751825332641602e-01,6.592793464660644531e-01,3.293691873550415039e-01,-1.021456718444824219e-02,2.517998218536376953e-03,-1.613512635231018066e-03,5.535930395126342773e-04,-3.596901893615722656e-03,-1.788139343261718750e-05,3.299966454505920410e-03,-2.971887588500976562e-04,2.422034740447998047e-03,-1.565659046173095703e-02,-4.528664052486419678e-02,1.376456022262573242e-02,-1.153386011719703674e-02,6.034776568412780762e-03,4.487037658691406250e-03,-5.007743835449218750e-02,-2.984811365604400635e-02,-3.649681806564331055e-02,2.369892597198486328e-02,-8.220374584197998047e-03,-9.065151214599609375e-03,2.901196479797363281e-03,-2.878010272979736328e-03,9.195923805236816406e-03,1.076853275299072266e-02,3.037452697753906250e-03,2.184450626373291016e-03,-3.011226654052734375e-04,7.188320159912109375e-04,-4.006385803222656250e-03
3.385915756225585938e-01,6.563624888658523560e-01,6.127341091632843018e-01,6.213776543736457825e-01,6.147362589836120605e-01,6.165650784969329834e-01,6.231044195592403412e-01,6.103962659835815430e-01,6.595107913017272949e-01,3.276479244232177734e-01,-2.155923843383789062e-02,4.896774888038635254e-03,-2.629131078720092773e-03,-1.396924257278442383e-03,-1.070427894592285156e-02,-4.738807678222656250e-03,4.475384950637817383e-03,7.000684738159179688e-03,-9.309053421020507812e-04,-2.250170707702636719e-02,-3.855456411838531494e-02,1.208039000630378723e-02,-1.031018048524856567e-02,3.015652298927307129e-03,1.712560653686523438e-03,-5.013275146484375000e-02,-2.741810679435729980e-02,-2.843004465103149414e-02,1.910147070884704590e-02,-9.996175765991210938e-03,-8.568382263183593750e-02,2.685457468032836914e-02,-2.685967087745666504e-02,9.645855426788330078e-02,1.131089925765991211e-01,4.720091819763183594e-02,2.794992923736572266e-02,-9.426832199096679688e-03,1.260018348693847656e-02,-5.103182792663574219e-02
3.483166694641113281e-01,6.541789025068283081e-01,6.140577271580696106e-01,6.195524409413337708e-01,6.140835583209991455e-01,6.141730844974517822e-01,6.226134710013866425e-01,6.112808138132095337e-01,6.578494757413864136e-01,3.355181217193603516e-01,-1.443028450012207031e-02,3.481373190879821777e-03,-2.221181988716125488e-03,1.516476273536682129e-03,-2.578377723693847656e-03,6.956338882446289062e-03,4.901468753814697266e-03,-3.717064857482910156e-03,4.353821277618408203e-03,-1.542007923126220703e-02,-3.296734392642974854e-02,1.084166765213012695e-02,-9.483098983764648438e-03,5.259811878204345703e-04,-6.461620330810546875e-03,-8.193302154541015625e-02,-3.737831115722656250e-02,-4.704535007476806641e-03,5.024373531341552734e-04,2.137190103530883789e-02,-1.768136024475097656e-02,5.605101585388183594e-03,-5.567699670791625977e-03,1.877307891845703125e-02,2.384912967681884766e-02,1.032352447509765625e-02,4.156529903411865234e-03,-3.679275512695312500e-03,3.527402877807617188e-03,-9.471774101257324219e-03
3.514575362205505371e-01,6.534425616264343262e-01,6.145227625966072083e-01,6.188831329345703125e-01,6.137390434741973877e-01,6.138189435005187988e-01,6.225677058100700378e-01,6.115525662899017334e-01,6.573950722813606262e-01,3.374429941177368164e-01,-7.394552230834960938e-04,4.467368125915527344e-04,-5.058497190475463867e-04,-1.519322395324707031e-04,-4.528760910034179688e-04,-1.445293426513671875e-03,9.778439998626708984e-04,2.210497856140136719e-03,-1.437306404113769531e-03,5.309581756591796875e-04,-2.698071300983428955e-02,9.489167481660842896e-03,-8.633047342300415039e-03,-1.215025782585144043e-03,-8.786678314208984375e-03,-8.972430229187011719e-02,-3.823196887969970703e-02,6.066977977752685547e-03,-7.464200258255004883e-03,3.183728456497192383e-02,8.527398109436035156e-03,-2.539336681365966797e-03,2.524614334106445312e-03,-1.038753986358642578e-02,-9.692549705505371094e-03,-1.749753952026367188e-03,-3.851354122161865234e-03,-2.938270568847656250e-03,9.644031524658203125e-04,6.029605865478515625e-03
3.484182953834533691e-01,6.541318297386169434e-01,6.141010671854019165e-01,6.194667667150497437e-01,6.142996549606323242e-01,6.153983175754547119e-01,6.223646700382232666e-01,6.112181097269058228e-01,6.579870283603668213e-01,3.349012136459350586e-01,-5.174398422241210938e-03,1.425266265869140625e-03,-1.055940985679626465e-03,4.714131355285644531e-04,-1.635909080505371094e-03,-2.892017364501953125e-04,1.904919743537902832e-03,9.739398956298828125e-05,1.045763492584228516e-03,-7.823944091796875000e-03,-3.402923047542572021e-02,1.113337278366088867e-02,-9.741559624671936035e-03,1.518756151199340820e-03,-4.305422306060791016e-03,-7.780289649963378906e-02,-3.654538094997406006e-02,-8.730828762054443359e-03,2.993792295455932617e-03,2.058970928192138672e-02,6.804823875427246094e-03,-1.930713653564453125e-03,1.844733953475952148e-03,-7.722139358520507812e-03,-8.290767669677734375e-03,-6.286859512329101562e-03,-3.403723239898681641e-03,2.547740936279296875e-03,-2.619028091430664062e-03,7.852792739868164062e-03
3.444193005561828613e-01,6.550581157207489014e-01,6.135269328951835632e-01,6.202659383416175842e-01,6.145888566970825195e-01,6.173649728298187256e-01,6.223888136446475983e-01,6.106284484267234802e-01,6.589938774704933167e-01,3.306372761726379395e-01,-1.270687580108642578e-02,3.068283200263977051e-03,-1.916065812110900879e-03,7.201135158538818359e-04,-3.726720809936523438e-03,2.038955688476562500e-03,4.401221871376037598e-03,-1.083970069885253906e-03,3.162920475006103516e-03,-1.774001121520996094e-02,-4.261583089828491211e-02,1.311806961894035339e-02,-1.106186211109161377e-02,4.646912217140197754e-03,1.673996448516845703e-03,-5.747067928314208984e-02,-3.138056397438049316e-02,-2.923130989074707031e-02,1.850262284278869629e-02,-2.164244651794433594e-03,-1.908254623413085938e-02,6.060183048248291016e-03,-6.054461002349853516e-03,2.070784568786621094e-02,2.501213550567626953e-02,9.251594543457031250e-03,5.094826221466064453e-03,-1.822710037231445312e-03,2.441167831420898438e-03,-9.845852851867675781e-03
3.447295427322387695e-01,6.550114005804061890e-01,6.135397702455520630e-01,6.202759370207786560e-01,6.144352108240127563e-01,6.149376034736633301e-01,6.228709705173969269e-01,6.109184697270393372e-01,6.584929004311561584e-01,3.326119184494018555e-01,-1.916241645812988281e-02,4.469171166419982910e-03,-2.628117799758911133e-03,5.867332220077514648e-04,-5.542755126953125000e-03,4.610300064086914062e-03,6.056100130081176758e-03,-5.979537963867187500e-04,3.233432769775390625e-03,-2.053892612457275391e-02,-3.543223440647125244e-02,1.138067618012428284e-02,-9.819738566875457764e-03,1.310691237449645996e-03,-3.935635089874267578e-03,-7.037222385406494141e-02,-3.337618708610534668e-02,-1.350712776184082031e-02,7.618933916091918945e-03,8.294224739074707031e-03,-5.187296867370605469e-02,1.627781987190246582e-02,-1.623374223709106445e-02,5.752575397491455078e-02,6.951797008514404297e-02,3.069877624511718750e-02,1.561498641967773438e-02,-8.490085601806640625e-03,9.377241134643554688e-03,-3.113424777984619141e-02
3.492390513420104980e-01,6.539155989885330200e-01,6.142433062195777893e-01,6.192766949534416199e-01,6.139544993638992310e-01,6.119321286678314209e-01,6.230366192758083344e-01,6.118010878562927246e-01,6.570776402950286865e-01,3.381242156028747559e-01,-1.918435096740722656e-03,6.220042705535888672e-04,-4.076957702636718750e-04,-1.931890845298767090e-03,-4.468202590942382812e-03,-9.123802185058593750e-03,-1.021414995193481445e-03,9.019255638122558594e-03,-5.697846412658691406e-03,2.345681190490722656e-03,-1.802362501621246338e-02,7.344119250774383545e-03,-7.162336260080337524e-03,-4.528596997261047363e-03,-1.283717155456542969e-02,-9.918522834777832031e-02,-3.944450616836547852e-02,2.096116542816162109e-02,-1.807683706283569336e-02,4.354685544967651367e-02,-2.056121826171875000e-02,6.687521934509277344e-03,-6.860494613647460938e-03,2.425920963287353516e-02,2.958643436431884766e-02,1.111268997192382812e-02,6.414294242858886719e-03,-1.725435256958007812e-03,2.149105072021484375e-03,-8.470654487609863281e-03
3.497706651687622070e-01,6.538127809762954712e-01,6.143070384860038757e-01,6.191633641719818115e-01,6.137272715568542480e-01,6.169831156730651855e-01,6.220824383199214935e-01,6.109892576932907104e-01,6.583414971828460693e-01,3.336688280105590820e-01,-1.869559288024902344e-03,7.384270429611206055e-04,-7.718503475189208984e-04,1.077204942703247070e-03,6.800889968872070312e-04,2.009153366088867188e-03,1.860469579696655273e-03,-2.147197723388671875e-03,1.889586448669433594e-03,-4.490494728088378906e-03,-3.947329521179199219e-02,1.245169714093208313e-02,-1.067771017551422119e-02,3.893360495567321777e-03,-3.435015678405761719e-04,-6.710231304168701172e-02,-3.416289389133453369e-02,-2.049398422241210938e-02,1.164710521697998047e-02,9.267687797546386719e-03,2.744734287261962891e-02,-8.564323186874389648e-03,8.655130863189697266e-03,-3.292667865753173828e-02,-3.711414337158203125e-02,-1.341629028320312500e-02,-1.005315780639648438e-02,-6.566047668457031250e-04,-1.790285110473632812e-03,1.623630523681640625e-02
3.468028903007507324e-01,6.544187366962432861e-01,6.139587238430976868e-01,6.196606233716011047e-01,6.140376180410385132e-01,6.130238771438598633e-01,6.227986179292201996e-01,6.116296723484992981e-01,6.574424058198928833e-01,3.362947106361389160e-01,-4.685878753662109375e-03,1.236423850059509277e-03,-7.708221673965454102e-04,-1.296058297157287598e-03,-5.847334861755371094e-03,-9.426355361938476562e-03,-1.945540308952331543e-03,7.586956024169921875e-03,-4.208743572235107422e-03,-1.688122749328613281e-03,-2.259142696857452393e-02,8.419908583164215088e-03,-7.915720343589782715e-03,-2.355769276618957520e-03,-8.900701999664306641e-03,-9.040594100952148438e-02,-3.902073204517364502e-02,1.034575700759887695e-02,-1.089644432067871094e-02,3.766226768493652344e-02,-1.166129112243652344e-02,3.935366868972778320e-03,-4.159748554229736328e-03,1.468431949615478516e-02,1.546478271484375000e-02,-6.134510040283203125e-04,3.872036933898925781e-03,5.889415740966796875e-03,-3.629207611083984375e-03,-1.099109649658203125e-04
3.469097614288330078e-01,6.544669419527053833e-01,6.139042079448699951e-01,6.197227537631988525e-01,6.141634583473205566e-01,6.180219352245330811e-01,6.220741607248783112e-01,6.106994077563285828e-01,6.588586717844009399e-01,3.313810825347900391e-01,-5.553245544433593750e-03,1.529276371002197266e-03,-1.160100102424621582e-03,1.004204154014587402e-03,-1.018047332763671875e-03,1.406669616699218750e-03,2.629160881042480469e-03,-1.931786537170410156e-03,2.634227275848388672e-03,-1.046109199523925781e-02,-4.368416965007781982e-02,1.342091336846351624e-02,-1.132246106863021851e-02,5.484849214553833008e-03,2.734959125518798828e-03,-5.731725692749023438e-02,-3.197662532329559326e-02,-3.070914745330810547e-02,1.915818452835083008e-02,-5.890727043151855469e-04,1.466965675354003906e-02,-4.531651735305786133e-03,4.578948020935058594e-03,-1.799082756042480469e-02,-2.047777175903320312e-02,-8.892059326171875000e-03,-5.812168121337890625e-03,7.696151733398437500e-04,-1.793861389160156250e-03,9.823799133300781250e-03
3.568338751792907715e-01,6.521651148796081543e-01,6.153367832303047180e-01,6.177311614155769348e-01,6.120076477527618408e-01,6.138970851898193359e-01,6.222539953887462616e-01,6.117270141839981079e-01,6.570592001080513000e-01,3.391174674034118652e-01,5.128383636474609375e-03,-7.523298263549804688e-04,-6.058812141418457031e-05,1.310691237449645996e-03,4.194140434265136719e-03,4.752874374389648438e-03,-2.321302890777587891e-04,-2.707123756408691406e-03,-1.727938652038574219e-04,1.189935207366943359e-02,-2.716019749641418457e-02,9.601678699254989624e-03,-8.782677352428436279e-03,-6.121098995208740234e-04,-8.048951625823974609e-03,-9.051811695098876953e-02,-3.896333277225494385e-02,6.484150886535644531e-03,-7.750391960144042969e-03,3.218102455139160156e-02,4.971551895141601562e-02,-1.578649878501892090e-02,1.613569259643554688e-02,-6.074762344360351562e-02,-6.746315956115722656e-02,-1.596879959106445312e-02,-1.704972982406616211e-02,-9.459733963012695312e-03,2.641201019287109375e-03,2.306771278381347656e-02
3.483560085296630859e-01,6.536468267440795898e-01,6.146499738097190857e-01,6.185511648654937744e-01,6.088961064815521240e-01,6.185997128486633301e-01,6.217217668890953064e-01,6.109708622097969055e-01,6.588916927576065063e-01,3.288767933845520020e-01,1.049256324768066406e-02,-1.995190978050231934e-03,7.273554801940917969e-04,2.245754003524780273e-04,-2.774357795715332031e-03,-1.205945014953613281e-02,-1.333737373352050781e-02,5.095124244689941406e-03,-6.960809230804443359e-03,2.932417392730712891e-02,-3.441597521305084229e-02,1.139472424983978271e-02,-1.030342280864715576e-02,6.336584687232971191e-03,1.173782348632812500e-02,-3.850328922271728516e-02,-2.905988693237304688e-02,-3.302466869354248047e-02,2.078121900558471680e-02,-3.347277641296386719e-03,8.915138244628906250e-02,-2.870690822601318359e-02,2.944663166999816895e-02,-1.090344190597534180e-01,-1.358872652053833008e-01,-4.660391807556152344e-02,-2.427810430526733398e-02,-2.670288085937500000e-04,-5.787611007690429688e-03,4.282426834106445312e-02
3.484923839569091797e-01,6.540977209806442261e-01,6.141275912523269653e-01,6.194384992122650146e-01,6.140649020671844482e-01,6.143360137939453125e-01,6.224702186882495880e-01,6.113855689764022827e-01,6.577238738536834717e-01,3.358459472656250000e-01,-8.896112442016601562e-03,2.251565456390380859e-03,-1.527979969978332520e-03,9.565502405166625977e-04,-2.442598342895507812e-03,1.942157745361328125e-03,2.161338925361633301e-03,-1.255989074707031250e-03,2.119839191436767578e-03,-9.691953659057617188e-03,-3.144706785678863525e-02,1.051130890846252441e-02,-9.304247796535491943e-03,4.592090845108032227e-04,-6.167232990264892578e-03,-8.351111412048339844e-02,-3.830716013908386230e-02,-2.761304378509521484e-03,-1.393646001815795898e-03,2.636533975601196289e-02,8.857250213623046875e-04,-1.140534877777099609e-04,5.358457565307617188e-05,-1.278758049011230469e-03,-1.249551773071289062e-03,-3.844738006591796875e-03,-1.438617706298828125e-03,2.521991729736328125e-03,-2.131700515747070312e-03,4.338502883911132812e-03
3.531683683395385742e-01,6.529854685068130493e-01,6.148420497775077820e-01,6.184053122997283936e-01,6.125118434429168701e-01,6.162284612655639648e-01,6.220253221690654755e-01,6.112510189414024353e-01,6.579088345170021057e-01,3.354297876358032227e-01,2.933263778686523438e-03,-2.834200859069824219e-04,-2.918392419815063477e-04,1.382902264595031738e-03,2.695798873901367188e-03,3.042459487915039062e-03,-1.070946455001831055e-04,-2.786993980407714844e-03,8.155703544616699219e-04,5.642533302307128906e-03,-3.557014465332031250e-02,1.157466322183609009e-02,-1.013478636741638184e-02,2.869710326194763184e-03,-1.707077026367187500e-03,-7.249307632446289062e-02,-3.543558716773986816e-02,-1.314866542816162109e-02,6.353706121444702148e-03,1.553893089294433594e-02,4.915046691894531250e-02,-1.556015014648437500e-02,1.584789156913757324e-02,-5.948531627655029297e-02,-6.783926486968994141e-02,-2.045226097106933594e-02,-1.662933826446533203e-02,-4.570484161376953125e-03,-5.931854248046875000e-04,2.493667602539062500e-02
3.457818031311035156e-01,6.547107249498367310e-01,6.137613654136657715e-01,6.199164465069770813e-01,6.141562163829803467e-01,6.185162067413330078e-01,6.220714114606380463e-01,6.105732098221778870e-01,6.590970605611801147e-01,3.302643299102783203e-01,-6.283760070800781250e-03,1.679271459579467773e-03,-1.217871904373168945e-03,8.508563041687011719e-04,-1.794219017028808594e-03,4.184246063232421875e-04,2.420485019683837891e-03,-1.268863677978515625e-03,2.369880676269531250e-03,-1.126360893249511719e-02,-4.516577720642089844e-02,1.376595348119735718e-02,-1.156330481171607971e-02,6.184801459312438965e-03,4.385352134704589844e-03,-5.213487148284912109e-02,-3.071707487106323242e-02,-3.529185056686401367e-02,2.257722616195678711e-02,-5.399823188781738281e-03,1.098811626434326172e-02,-3.400832414627075195e-03,3.460019826889038086e-03,-1.391386985778808594e-02,-1.619541645050048828e-02,-7.288932800292968750e-03,-4.368841648101806641e-03,7.290840148925781250e-04,-1.451969146728515625e-03,7.433414459228515625e-03
3.336707353591918945e-01,6.574217975139617920e-01,6.121135503053665161e-01,6.222226619720458984e-01,6.147817373275756836e-01,6.174432039260864258e-01,6.233389414846897125e-01,6.100682765245437622e-01,6.602040082216262817e-01,3.240108489990234375e-01,-2.308225631713867188e-02,5.143493413925170898e-03,-2.560317516326904297e-03,-3.175050020217895508e-03,-1.540040969848632812e-02,-1.358151435852050781e-02,2.288311719894409180e-03,1.410162448883056641e-02,-5.121648311614990234e-03,-2.220642566680908203e-02,-3.902916610240936279e-02,1.216527447104454041e-02,-1.039031147956848145e-02,3.771454095840454102e-03,5.565643310546875000e-03,-3.612756729125976562e-02,-2.322922646999359131e-02,-3.703826665878295898e-02,2.582406997680664062e-02,-2.137780189514160156e-02,-1.123862266540527344e-01,3.519487380981445312e-02,-3.523904085159301758e-02,1.272238492965698242e-01,1.469454765319824219e-01,5.958795547485351562e-02,3.800219297409057617e-02,-9.571552276611328125e-03,1.474976539611816406e-02,-6.658172607421875000e-02
3.501340746879577637e-01,6.537420600652694702e-01,6.143398582935333252e-01,6.191355586051940918e-01,6.139988154172897339e-01,6.144233644008636475e-01,6.225030720233917236e-01,6.114248037338256836e-01,6.576265618205070496e-01,3.364222645759582520e-01,-2.077102661132812500e-03,7.357746362686157227e-04,-6.553828716278076172e-04,-7.450580596923828125e-05,-1.089692115783691406e-03,-1.802921295166015625e-03,1.137480139732360840e-03,1.994252204895019531e-03,-8.787512779235839844e-04,-2.356052398681640625e-03,-2.940541505813598633e-02,1.005365699529647827e-02,-9.014446288347244263e-03,-2.522766590118408203e-04,-7.120728492736816406e-03,-8.519077301025390625e-02,-3.751970827579498291e-02,7.047057151794433594e-04,-3.682702779769897461e-03,2.779912948608398438e-02,7.110238075256347656e-03,-2.052664756774902344e-03,1.994341611862182617e-03,-8.331179618835449219e-03,-8.024096488952636719e-03,-3.369808197021484375e-03,-3.383636474609375000e-03,-5.073547363281250000e-04,-5.915164947509765625e-04,6.583213806152343750e-03
3.560201525688171387e-01,6.521856039762496948e-01,6.154074370861053467e-01,6.175804287195205688e-01,6.104147434234619141e-01,6.157992780208587646e-01,6.218730732798576355e-01,6.115049347281455994e-01,6.575948819518089294e-01,3.361920714378356934e-01,8.880019187927246094e-03,-1.553714275360107422e-03,3.085434436798095703e-04,1.789763569831848145e-03,3.983497619628906250e-03,2.408742904663085938e-03,-4.788026213645935059e-03,-3.001093864440917969e-03,-1.174688339233398438e-03,2.083075046539306641e-02,-3.117541968822479248e-02,1.060441508889198303e-02,-9.591862559318542480e-03,2.491891384124755859e-03,-5.308389663696289062e-04,-7.224619388580322266e-02,-3.599035739898681641e-02,-8.959770202636718750e-03,3.284037113189697266e-03,1.925653219223022461e-02,8.262193202972412109e-02,-2.639350295066833496e-02,2.699637413024902344e-02,-1.005088090896606445e-01,-1.176778078079223633e-01,-3.480195999145507812e-02,-2.597165107727050781e-02,-7.472753524780273438e-03,-7.956027984619140625e-04,3.920090198516845703e-02
3.489405512809753418e-01,6.538334488868713379e-01,6.143795773386955261e-01,6.190089508891105652e-01,6.119914352893829346e-01,6.185917258262634277e-01,6.218290254473686218e-01,6.107856184244155884e-01,6.588548272848129272e-01,3.307554125785827637e-01,2.820968627929687500e-03,-2.893507480621337891e-04,-2.288818359375000000e-04,9.689778089523315430e-04,-1.177787780761718750e-04,-2.406597137451171875e-03,-3.139242529869079590e-03,-2.542734146118164062e-04,-7.357597351074218750e-04,6.689190864562988281e-03,-4.165488481521606445e-02,1.301998645067214966e-02,-1.119375973939895630e-02,6.332054734230041504e-03,6.535768508911132812e-03,-4.939448833465576172e-02,-3.066833317279815674e-02,-3.342592716217041016e-02,2.110117673873901367e-02,-3.169059753417968750e-03,5.387306213378906250e-02,-1.717156171798706055e-02,1.753881573677062988e-02,-6.554055213928222656e-02,-7.858765125274658203e-02,-2.685880661010742188e-02,-1.660746335983276367e-02,-1.140117645263671875e-03,-3.046512603759765625e-03,2.733087539672851562e-02
3.450523614883422852e-01,6.549356281757354736e-01,6.135880500078201294e-01,6.202046945691108704e-01,6.144552230834960938e-01,6.152811348438262939e-01,6.227605640888214111e-01,6.109020709991455078e-01,6.585152447223663330e-01,3.325821161270141602e-01,-1.777100563049316406e-02,4.173099994659423828e-03,-2.492249011993408203e-03,7.484406232833862305e-04,-4.871487617492675781e-03,4.693984985351562500e-03,5.808845162391662598e-03,-1.203894615173339844e-03,3.509402275085449219e-03,-1.991367340087890625e-02,-3.655591607093811035e-02,1.165643706917762756e-02,-1.001807674765586853e-02,1.825481653213500977e-03,-3.258228302001953125e-03,-6.940269470214843750e-02,-3.346377611160278320e-02,-1.541841030120849609e-02,8.843153715133666992e-03,7.733225822448730469e-03,-4.311275482177734375e-02,1.354956626892089844e-02,-1.351431012153625488e-02,4.766190052032470703e-02,5.777680873870849609e-02,2.516222000122070312e-02,1.270794868469238281e-02,-6.906986236572265625e-03,7.648706436157226562e-03,-2.546262741088867188e-02
3.478218913078308105e-01,6.542208194732666016e-01,6.140644028782844543e-01,6.195198297500610352e-01,6.141121685504913330e-01,6.126150786876678467e-01,6.229299344122409821e-01,6.116799935698509216e-01,6.573148667812347412e-01,3.370068669319152832e-01,-3.021955490112304688e-03,8.618384599685668945e-04,-5.377829074859619141e-04,-1.780673861503601074e-03,-5.207896232604980469e-03,-9.801864624023437500e-03,-1.358896493911743164e-03,8.763432502746582031e-03,-5.196034908294677734e-03,9.429454803466796875e-05,-2.059777081012725830e-02,7.948450744152069092e-03,-7.581174373626708984e-03,-3.372162580490112305e-03,-1.072692871093750000e-02,-9.397852420806884766e-02,-3.884688019752502441e-02,1.492899656295776367e-02,-1.390990614891052246e-02,3.958946466445922852e-02,-1.815748214721679688e-02,5.969196557998657227e-03,-6.185263395309448242e-03,2.195382118225097656e-02,2.562510967254638672e-02,6.529331207275390625e-03,5.775094032287597656e-03,1.857519149780273438e-03,-4.549026489257812500e-04,-5.379199981689453125e-03
3.427256345748901367e-01,6.554581671953201294e-01,6.132706105709075928e-01,6.206451654434204102e-01,6.145749092102050781e-01,6.155212223529815674e-01,6.229457557201385498e-01,6.107328236103057861e-01,6.588440984487533569e-01,3.309467434883117676e-01,-2.013504505157470703e-02,4.651516675949096680e-03,-2.654209733009338379e-03,-2.732872962951660156e-05,-7.142305374145507812e-03,1.875638961791992188e-03,5.765825510025024414e-03,1.688241958618164062e-03,2.049207687377929688e-03,-2.162778377532958984e-02,-3.676474094390869141e-02,1.168163493275642395e-02,-1.002578809857368469e-02,1.941218972206115723e-03,-2.040505409240722656e-03,-6.349205970764160156e-02,-3.133046627044677734e-02,-1.883929967880249023e-02,1.172202825546264648e-02,1.779556274414062500e-03,-6.361627578735351562e-02,1.995298266410827637e-02,-1.992523670196533203e-02,7.102644443511962891e-02,8.482980728149414062e-02,3.666877746582031250e-02,1.980686187744140625e-02,-9.048461914062500000e-03,1.065087318420410156e-02,-3.811395168304443359e-02
3.424768447875976562e-01,6.555104106664657593e-01,6.132412105798721313e-01,6.206819936633110046e-01,6.146104633808135986e-01,6.158957481384277344e-01,6.228878125548362732e-01,6.106767579913139343e-01,6.589441671967506409e-01,3.305239677429199219e-01,-1.945674419403076172e-02,4.502430558204650879e-03,-2.573847770690917969e-03,-5.033612251281738281e-05,-7.060885429382324219e-03,1.341819763183593750e-03,5.534872412681579590e-03,1.776218414306640625e-03,1.981317996978759766e-03,-2.146875858306884766e-02,-3.786832094192504883e-02,1.194618269801139832e-02,-1.021355390548706055e-02,2.452164888381958008e-03,-1.107573509216308594e-03,-6.113409996032714844e-02,-3.089275956153869629e-02,-2.146339416503906250e-02,1.357400417327880859e-02,-2.219676971435546875e-04,-6.039893627166748047e-02,1.895186305046081543e-02,-1.893031597137451172e-02,6.744563579559326172e-02,8.037877082824707031e-02,3.433942794799804688e-02,1.881080865859985352e-02,-8.162975311279296875e-03,9.816646575927734375e-03,-3.593802452087402344e-02
3.507872819900512695e-01,6.534988135099411011e-01,6.145420521497726440e-01,6.188095360994338989e-01,6.125986576080322266e-01,6.175781488418579102e-01,6.219166927039623260e-01,6.109675318002700806e-01,6.584395021200180054e-01,3.329974412918090820e-01,1.851797103881835938e-03,-5.979835987091064453e-05,-3.862231969833374023e-04,1.280382275581359863e-03,1.413226127624511719e-03,1.192092895507812500e-03,-6.428658962249755859e-04,-2.149462699890136719e-03,8.037686347961425781e-04,3.345489501953125000e-03,-3.993029892444610596e-02,1.259912922978401184e-02,-1.084969937801361084e-02,4.863828420639038086e-03,2.393007278442382812e-03,-6.072378158569335938e-02,-3.300750255584716797e-02,-2.477014064788818359e-02,1.477783918380737305e-02,5.101203918457031250e-03,4.817748069763183594e-02,-1.526764035224914551e-02,1.555109024047851562e-02,-5.831158161163330078e-02,-6.789815425872802734e-02,-2.237796783447265625e-02,-1.588261127471923828e-02,-2.326726913452148438e-03,-1.976251602172851562e-03,2.499401569366455078e-02
3.382223248481750488e-01,6.564439386129379272e-01,6.126852408051490784e-01,6.214455142617225647e-01,6.147424429655075073e-01,6.165370345115661621e-01,6.231439784169197083e-01,6.103811040520668030e-01,6.595456525683403015e-01,3.274448513984680176e-01,-2.194190025329589844e-02,4.973068833351135254e-03,-2.652212977409362793e-03,-1.547828316688537598e-03,-1.113736629486083984e-02,-5.319118499755859375e-03,4.400432109832763672e-03,7.587671279907226562e-03,-1.260042190551757812e-03,-2.262318134307861328e-02,-3.831222653388977051e-02,1.201916486024856567e-02,-1.026714965701103210e-02,2.935186028480529785e-03,1.769483089447021484e-03,-4.957127571105957031e-02,-2.715781331062316895e-02,-2.846467494964599609e-02,1.918968558311462402e-02,-1.049304008483886719e-02,-8.931016921997070312e-02,2.798604965209960938e-02,-2.799421548843383789e-02,1.005977392196655273e-01,1.178721189498901367e-01,4.919338226318359375e-02,2.921962738037109375e-02,-9.760379791259765625e-03,1.309823989868164062e-02,-5.323648452758789062e-02
3.448682427406311035e-01,6.549440473318099976e-01,6.136041134595870972e-01,6.201488152146339417e-01,6.144959628582000732e-01,6.179770529270172119e-01,6.222332045435905457e-01,6.105847731232643127e-01,6.590687930583953857e-01,3.303724527359008789e-01,-9.963512420654296875e-03,2.475097775459289551e-03,-1.618847250938415527e-03,7.926672697067260742e-04,-2.858638763427734375e-03,1.339197158813476562e-03,3.657519817352294922e-03,-1.276135444641113281e-03,2.969861030578613281e-03,-1.551854610443115234e-02,-4.420302808284759521e-02,1.351174339652061462e-02,-1.135388016700744629e-02,5.474105477333068848e-03,3.039717674255371094e-03,-5.470871925354003906e-02,-3.104509413242340088e-02,-3.266912698745727539e-02,2.082288265228271484e-02,-4.043102264404296875e-03,-5.798816680908203125e-03,1.898944377899169922e-03,-1.885592937469482422e-03,5.570292472839355469e-03,6.966114044189453125e-03,1.499414443969726562e-03,8.519887924194335938e-04,-1.611709594726562500e-04,3.454685211181640625e-04,-1.826524734497070312e-03
3.469669818878173828e-01,6.544827520847320557e-01,6.138770133256912231e-01,6.197819188237190247e-01,6.144683361053466797e-01,6.165416538715362549e-01,6.222912482917308807e-01,6.109109967947006226e-01,6.584830805659294128e-01,3.329598903656005859e-01,-9.670734405517578125e-03,2.429485321044921875e-03,-1.637488603591918945e-03,1.150131225585937500e-03,-1.820325851440429688e-03,3.433227539062500000e-03,3.940060734748840332e-03,-2.628684043884277344e-03,3.592789173126220703e-03,-1.441085338592529297e-02,-3.984196484088897705e-02,1.248649135231971741e-02,-1.064044237136840820e-02,3.543213009834289551e-03,-1.085400581359863281e-03,-6.760168075561523438e-02,-3.429681062698364258e-02,-2.063488960266113281e-02,1.185923814773559570e-02,8.445203304290771484e-03,-1.299262046813964844e-03,5.398690700531005859e-04,-5.585253238677978516e-04,7.741451263427734375e-04,1.963257789611816406e-03,-9.734630584716796875e-04,-1.033067703247070312e-03,4.899501800537109375e-04,-5.209445953369140625e-04,1.701593399047851562e-03
3.520148396492004395e-01,6.533140391111373901e-01,6.146046742796897888e-01,6.187619194388389587e-01,6.135431826114654541e-01,6.148772239685058594e-01,6.223431043326854706e-01,6.114001199603080750e-01,6.576281860470771790e-01,3.366569876670837402e-01,-1.049041748046875000e-04,3.401935100555419922e-04,-5.257427692413330078e-04,5.682408809661865234e-04,9.846687316894531250e-04,1.214504241943359375e-03,1.406773924827575684e-03,-4.047155380249023438e-04,1.531839370727539062e-04,2.244710922241210938e-04,-3.139424324035644531e-02,1.054654270410537720e-02,-9.367953985929489136e-03,5.746036767959594727e-04,-6.127238273620605469e-03,-8.312249183654785156e-02,-3.718899190425872803e-02,-2.450346946716308594e-03,-1.361012458801269531e-03,2.482432126998901367e-02,2.216911315917968750e-02,-6.884425878524780273e-03,6.953597068786621094e-03,-2.671384811401367188e-02,-2.868318557739257812e-02,-8.204936981201171875e-03,-8.433043956756591797e-03,-3.181695938110351562e-03,2.145767211914062500e-04,1.275849342346191406e-02
3.536870479583740234e-01,6.529014408588409424e-01,6.148756295442581177e-01,6.183721572160720825e-01,6.128140985965728760e-01,6.153340339660644531e-01,6.221681833267211914e-01,6.113923862576484680e-01,6.576383188366889954e-01,3.366730809211730957e-01,2.330660820007324219e-03,-1.596361398696899414e-04,-3.356933593750000000e-04,1.160755753517150879e-03,2.660274505615234375e-03,3.240585327148437500e-03,6.699711084365844727e-04,-2.290606498718261719e-03,6.380677223205566406e-04,4.659533500671386719e-03,-3.279541432857513428e-02,1.090740412473678589e-02,-9.651698172092437744e-03,1.447916030883789062e-03,-4.567205905914306641e-03,-7.993781566619873047e-02,-3.678186237812042236e-02,-5.763649940490722656e-03,1.036465167999267578e-03,2.191239595413208008e-02,4.049289226531982422e-02,-1.277688145637512207e-02,1.300054788589477539e-02,-4.904472827911376953e-02,-5.474293231964111328e-02,-1.537609100341796875e-02,-1.417630910873413086e-02,-5.242109298706054688e-03,4.043579101562500000e-04,2.063751220703125000e-02
3.513685464859008789e-01,6.532354801893234253e-01,6.147476881742477417e-01,6.185652986168861389e-01,6.116924285888671875e-01,6.088911294937133789e-01,6.229647397994995117e-01,6.125285625457763672e-01,6.560188531875610352e-01,3.416187167167663574e-01,-7.479190826416015625e-03,1.904860138893127441e-03,-1.279950141906738281e-03,2.821832895278930664e-04,-6.317615509033203125e-03,-4.823684692382812500e-03,-5.161255598068237305e-03,4.661917686462402344e-03,-3.828763961791992188e-03,8.004903793334960938e-03,-9.617269039154052734e-03,5.387485027313232422e-03,-5.898088216781616211e-03,-6.703972816467285156e-03,-1.605212688446044922e-02,-1.150249242782592773e-01,-4.664960503578186035e-02,3.817820549011230469e-02,-3.158912062644958496e-02,6.606048345565795898e-02,9.149074554443359375e-03,-2.887129783630371094e-03,2.940058708190917969e-03,-1.164531707763671875e-02,-1.755917072296142578e-02,-1.118564605712890625e-02,-1.875817775726318359e-03,5.104541778564453125e-03,-4.351139068603515625e-03,8.553266525268554688e-03
3.512035608291625977e-01,6.530932486057281494e-01,6.149435713887214661e-01,6.181694641709327698e-01,6.093471497297286987e-01,6.177909672260284424e-01,6.217269487679004669e-01,6.111414954066276550e-01,6.584648787975311279e-01,3.313398957252502441e-01,1.019692420959472656e-02,-1.892924308776855469e-03,5.924254655838012695e-04,9.196698665618896484e-04,-1.294612884521484375e-04,-6.565332412719726562e-03,-1.041865348815917969e-02,1.775741577148437500e-03,-4.691600799560546875e-03,2.666604518890380859e-02,-3.393378853797912598e-02,1.127662509679794312e-02,-1.016830652952194214e-02,5.295515060424804688e-03,7.926940917968750000e-03,-4.926061630249023438e-02,-3.137744963169097900e-02,-2.593064308166503906e-02,1.558738946914672852e-02,3.616809844970703125e-03,9.047877788543701172e-02,-2.904668450355529785e-02,2.975615859031677246e-02,-1.103348731994628906e-01,-1.346040964126586914e-01,-4.435992240905761719e-02,-2.603757381439208984e-02,-2.665281295776367188e-03,-4.370927810668945312e-03,4.345250129699707031e-02
3.436835408210754395e-01,6.552274376153945923e-01,6.134214177727699280e-01,6.204169616103172302e-01,6.146201640367507935e-01,6.170986294746398926e-01,6.225131936371326447e-01,6.106131225824356079e-01,6.590310186147689819e-01,3.303861021995544434e-01,-1.463735103607177734e-02,3.478199243545532227e-03,-2.104088664054870605e-03,5.072206258773803711e-04,-4.707336425781250000e-03,1.750469207763671875e-03,4.715695977210998535e-03,-3.017187118530273438e-04,2.885699272155761719e-03,-1.906192302703857422e-02,-4.178731143474578857e-02,1.290813088417053223e-02,-1.090590655803680420e-02,4.244580864906311035e-03,1.288890838623046875e-03,-5.740475654602050781e-02,-3.102387487888336182e-02,-2.824693918228149414e-02,1.798185706138610840e-02,-2.656459808349609375e-03,-3.045678138732910156e-02,9.609729051589965820e-03,-9.601294994354248047e-03,3.359067440032958984e-02,4.018068313598632812e-02,1.595354080200195312e-02,8.885979652404785156e-03,-3.363609313964843750e-03,4.336595535278320312e-03,-1.695632934570312500e-02
3.388243913650512695e-01,6.563137918710708618e-01,6.127615720033645630e-01,6.213419437408447266e-01,6.147274076938629150e-01,6.163686811923980713e-01,6.231268197298049927e-01,6.104298010468482971e-01,6.594474986195564270e-01,3.279361724853515625e-01,-2.184844017028808594e-02,4.962384700775146484e-03,-2.668902277946472168e-03,-1.346811652183532715e-03,-1.062512397766113281e-02,-4.269599914550781250e-03,4.657238721847534180e-03,6.792664527893066406e-03,-7.960796356201171875e-04,-2.262163162231445312e-02,-3.803434967994689941e-02,1.195615530014038086e-02,-1.022087782621383667e-02,2.754658460617065430e-03,1.168131828308105469e-03,-5.159878730773925781e-02,-2.772247791290283203e-02,-2.698594331741333008e-02,1.806774735450744629e-02,-8.785963058471679688e-03,-8.669185638427734375e-02,2.716797590255737305e-02,-2.717009186744689941e-02,9.756839275360107422e-02,1.145964860916137695e-01,4.807567596435546875e-02,2.821171283721923828e-02,-9.847879409790039062e-03,1.295399665832519531e-02,-5.174553394317626953e-02
3.536898493766784668e-01,6.529324650764465332e-01,6.148376613855361938e-01,6.184441745281219482e-01,6.132314205169677734e-01,6.134465038776397705e-01,6.225333064794540405e-01,6.116719320416450500e-01,6.571609824895858765e-01,3.385821580886840820e-01,1.249551773071289062e-03,3.704428672790527344e-05,-3.428608179092407227e-04,2.170205116271972656e-04,1.230955123901367188e-03,8.003711700439453125e-04,9.429454803466796875e-04,8.333921432495117188e-04,-1.198768615722656250e-03,4.410266876220703125e-03,-2.573668956756591797e-02,9.215220808982849121e-03,-8.459363132715225220e-03,-1.673430204391479492e-03,-9.834825992584228516e-03,-9.318256378173828125e-02,-3.893224895000457764e-02,9.563982486724853516e-03,-9.922385215759277344e-03,3.446650505065917969e-02,1.860570907592773438e-02,-5.797505378723144531e-03,5.893707275390625000e-03,-2.294135093688964844e-02,-2.339601516723632812e-02,-3.563404083251953125e-03,-7.213413715362548828e-03,-6.247043609619140625e-03,2.534389495849609375e-03,9.373426437377929688e-03
3.548362851142883301e-01,6.526726633310317993e-01,6.149920970201492310e-01,6.182463839650154114e-01,6.130343079566955566e-01,6.103411316871643066e-01,6.231008283793926239e-01,6.121670231223106384e-01,6.563480868935585022e-01,3.416796922683715820e-01,1.598596572875976562e-03,-9.272992610931396484e-05,-1.403987407684326172e-04,-1.217097043991088867e-03,-5.134344100952148438e-04,-3.023862838745117188e-03,-8.597970008850097656e-06,5.894780158996582031e-03,-4.993259906768798828e-03,9.793758392333984375e-03,-1.311041414737701416e-02,6.216481328010559082e-03,-6.394136697053909302e-03,-6.740659475326538086e-03,-1.760035753250122070e-02,-1.128396987915039062e-01,-4.188978672027587891e-02,3.466886281967163086e-02,-2.768957614898681641e-02,5.367159843444824219e-02,-7.457137107849121094e-03,2.386331558227539062e-03,-2.332448959350585938e-03,7.080912590026855469e-03,1.286745071411132812e-02,1.379442214965820312e-02,1.593351364135742188e-03,-1.133108139038085938e-02,7.794857025146484375e-03,-6.793260574340820312e-03
3.486015796661376953e-01,6.541188359260559082e-01,6.140912845730781555e-01,6.195126250386238098e-01,6.139634251594543457e-01,6.135402023792266846e-01,6.227307878434658051e-01,6.113591566681861877e-01,6.577112451195716858e-01,3.360802531242370605e-01,-1.614594459533691406e-02,3.857925534248352051e-03,-2.422854304313659668e-03,1.575112342834472656e-03,-2.900123596191406250e-03,8.073329925537109375e-03,5.384415388107299805e-03,-3.901243209838867188e-03,4.530251026153564453e-03,-1.598012447357177734e-02,-3.119388222694396973e-02,1.041384786367416382e-02,-9.177681058645248413e-03,-3.004372119903564453e-04,-7.882595062255859375e-03,-8.519315719604492188e-02,-3.789031505584716797e-02,-7.266998291015625000e-04,-2.231985330581665039e-03,2.389490604400634766e-02,-2.513062953948974609e-02,7.905215024948120117e-03,-7.838636636734008789e-03,2.692615985870361328e-02,3.384554386138916016e-02,1.576471328735351562e-02,6.542503833770751953e-03,-5.876779556274414062e-03,5.584478378295898438e-03,-1.478350162506103516e-02
3.380205631256103516e-01,6.564891934394836426e-01,6.126575618982315063e-01,6.214847564697265625e-01,6.147444248199462891e-01,6.164552867412567139e-01,6.231802925467491150e-01,6.103803217411041260e-01,6.595518812537193298e-01,3.273839354515075684e-01,-2.231204509735107422e-02,5.049169063568115234e-03,-2.681121230125427246e-03,-1.645296812057495117e-03,-1.143431663513183594e-02,-5.608081817626953125e-03,4.400238394737243652e-03,7.962942123413085938e-03,-1.465022563934326172e-03,-2.274549007415771484e-02,-3.797017037868499756e-02,1.193490251898765564e-02,-1.020743697881698608e-02,2.794250845909118652e-03,1.642584800720214844e-03,-4.961073398590087891e-02,-2.705903351306915283e-02,-2.804017066955566406e-02,1.893293857574462891e-02,-1.048386096954345703e-02,-9.230792522430419922e-02,2.892255783081054688e-02,-2.893179655075073242e-02,1.040120124816894531e-01,1.218674182891845703e-01,5.094027519226074219e-02,3.024184703826904297e-02,-1.013660430908203125e-02,1.357603073120117188e-02,-5.509030818939208984e-02
3.445526361465454102e-01,6.550243645906448364e-01,6.135497838258743286e-01,6.202309355139732361e-01,6.145700216293334961e-01,6.175805926322937012e-01,6.223345696926116943e-01,6.106119379401206970e-01,6.590216755867004395e-01,3.305399417877197266e-01,-1.180887222290039062e-02,2.874359488487243652e-03,-1.819416880607604980e-03,7.495880126953125000e-04,-3.431916236877441406e-03,1.820325851440429688e-03,4.170730710029602051e-03,-1.174807548522949219e-03,3.126263618469238281e-03,-1.708555221557617188e-02,-4.320210218429565430e-02,1.326277479529380798e-02,-1.116792857646942139e-02,4.940882325172424316e-03,2.147793769836425781e-03,-5.651569366455078125e-02,-3.127105534076690674e-02,-3.046452999114990234e-02,1.933416724205017090e-02,-2.830147743225097656e-03,-1.461446285247802734e-02,4.663825035095214844e-03,-4.656493663787841797e-03,1.563715934753417969e-02,1.896297931671142578e-02,6.583690643310546875e-03,3.659009933471679688e-03,-1.192092895507812500e-03,1.686096191406250000e-03,-7.097959518432617188e-03
