3.861504362970472615e-01,7.654806611476840938e-01,-1.301393457550144905e+00,-2.987859023316527196e+00,-2.824654136309928898e+00,8.999607348118433547e-01,4.196211630481286647e+00,1.529183710096919224e+00,-8.569822342503293777e-01,-8.153292539300909247e-01,5.519943474392321470e-01,7.153655994120737827e-01,-1.239993979759920872e+00,-3.577375974911380485e+00,-5.256180812211502129e+00,-3.672407364653454742e+00,1.736816441342088790e+00,1.577623885663962167e+00,-1.008141756166257563e+00,1.484491281577200450e-01
7.941294638454579058e-01,9.361005514598573773e-01,-1.684515384327685217e+00,-4.027391682779280835e+00,-2.582778192558788710e+00,3.682077738614092599e+00,4.727205723498976830e+00,1.616509635957487090e+00,-8.208884986796021188e-01,-1.280755603773632512e+00,-2.801160856125676224e-01,4.123221475045290019e-01,-6.286459679309013282e-01,7.772440483743035811e-02,1.788639765211654242e-01,-9.826673799915017216e-02,6.879400692967808650e-01,6.048200056220826015e-01,-2.915702169863816917e-01,-3.767574019573186050e-01
9.140873188046033659e-01,6.355528177685465518e-01,-1.204594907155391192e+00,-4.031205384354920263e+00,-4.930223784769337314e+00,-2.314823545806196314e+00,1.883247282365342612e-01,7.290213356938103351e-01,-3.813658899378188361e-01,-1.906661583198338561e-01,4.298496080353035320e-01,4.325619515592540321e-01,-8.153658083165941095e-01,-1.569267411846341664e+00,2.456535207347493033e-01,2.425347793144486896e+00,2.062117628827506710e+00,8.487220585928421102e-01,-4.808557879287709835e-01,-3.486069231890754350e-01
9.291138914122067938e-01,7.219588676420805040e-01,-1.384352892549372438e+00,-3.357616096884807888e+00,-2.751481270591018546e-01,4.189399800457885625e+00,2.764012815377845822e+00,1.203476914603079040e+00,-7.155885003655413357e-01,-3.123935647001353511e-01,1.035802374020263095e+00,8.264344074044059907e-01,-1.536093964687812674e+00,-4.921919979463535100e+00,-6.357245704508374118e+00,-6.966763201645214121e-01,1.275377937241193083e+00,8.703876917905164490e-01,-3.223112147904932390e-01,-1.032902390888882138e+00
2.529378136812518441e-01,4.561318529571594116e-01,-8.134283893469347326e-01,-1.412463840548484395e+00,-1.925442714626004026e+00,-9.800086733785110527e-01,3.372909551087123203e-01,5.444359098727719060e-01,-2.107492281578617621e-01,-5.185266447856575756e-01,2.184125642622438968e-01,3.436893605887622050e-01,-6.478906590484833083e-01,-7.162342117987223755e-01,-4.104580974338407628e-01,1.688183016202478459e+00,2.437609618404559253e+00,9.476697596158980552e-01,-4.756728879386997733e-01,-7.229150748820973860e-01
7.167502862076474690e-01,7.714893443813686247e-01,-1.428377595783231424e+00,-2.886671815326347978e+00,-1.624558019568038691e-01,5.565895543720941419e+00,5.120443779148537544e+00,1.579307159924162374e+00,-8.568762961041401782e-01,-1.067582034492770893e+00,1.022687538082677650e+00,9.948462695606680173e-01,-1.817140673815331064e+00,-4.916949593234757998e+00,-4.613580495406067072e+00,1.857345674825334525e+00,4.180560518975259043e+00,1.573287142685701356e+00,-8.027402881070607732e-01,-1.161375125496355132e+00
2.055669775409684208e-01,5.234349962481321672e-01,-9.231598950019734851e-01,-1.081984901337766480e+00,5.523977915809711314e-01,2.813521514795772838e+00,2.577148382041986263e+00,1.014909278667731174e+00,-5.398794249639798926e-01,-6.159871609166529538e-01,7.196366032343199937e-01,8.778242420406918711e-01,-1.547362135329824584e+00,-4.068873924998791303e+00,-3.504956416362695393e+00,3.772381875541440110e-01,1.360524255449879316e+00,8.548709850456410742e-01,-4.073828514652939603e-01,-5.977214704252961086e-01
6.403457858881790310e-01,8.123141955820221138e-01,-1.432365204260844349e+00,-3.663515138322858355e+00,-2.232560497035926073e+00,4.435862708781902697e+00,4.418103825530004691e+00,1.270214318837384893e+00,-5.956346185287636485e-01,-1.350129636068443606e+00,2.927967376071868855e-01,8.171255263913839162e-01,-1.313365794341862403e+00,-3.790733505236660417e+00,-5.181000680448399898e+00,-1.885539549088360856e-01,2.373211073587992104e+00,6.146357231945051014e-01,-1.473209757581736001e-01,-1.372338908650866385e+00
8.556231161668425012e-01,1.505819554411080008e-01,-5.084851195649489064e-01,-1.124663817397403509e+00,1.119861834701457282e+00,5.296246925477801959e+00,3.307004894537140860e+00,1.182232046709954520e+00,-6.945501894275886157e-01,-4.466129938492260920e-01,2.788000716278365432e-01,2.495997700218502979e-01,-5.153122820322250108e-01,-5.379796961782430387e-01,-5.361901517780727211e-01,2.980465953001388169e+00,2.837670867238553107e+00,8.661292929604293978e-01,-3.979787507189292417e-01,-9.335961595924612277e-01
2.734784174738115192e-01,8.545625509862766478e-01,-1.392093435518238165e+00,-3.522766491700758618e+00,-4.695215477210958888e+00,-3.800983946767439448e-01,4.825187215152376474e+00,1.252102323457532806e+00,-5.612830514588983410e-01,-1.568740659084307820e+00,3.915888201850603600e-01,4.567475508318504795e-01,-8.735630733522892211e-01,-1.067774388936316043e+00,4.236989679595276614e-01,1.300256961456415894e+00,2.597022405109208343e+00,1.427614566797721807e+00,-9.398477853871006760e-01,1.404363069520186968e-01
6.440571315662700913e-01,1.047750582880351056e+00,-1.829023290901722998e+00,-3.859397098377412405e+00,-2.467550686565631590e+00,1.110116749226261579e+00,2.568966492067000118e+00,1.314423705194996517e+00,-6.854058620035106131e-01,-7.345617343358414875e-01,3.271412955917715193e-01,5.725769362560473308e-01,-1.080012298677240690e+00,-6.461228697380027031e-01,2.507334436389664134e+00,5.510672084680246385e+00,4.569583082606595958e+00,1.626653285175571062e+00,-9.145048467901463196e-01,-8.383289732873977496e-01
3.355941892258366699e-01,3.438179924772543639e-01,-6.489770346745996621e-01,-1.318579984822501716e+00,-1.613196287260824535e+00,-6.492995984986477120e-01,3.424484855253182025e-01,4.762633827234080131e-01,-2.250666665875922234e-01,-2.717396316493705388e-01,3.702374166890458618e-01,1.554933089027425441e-01,-4.023348067840729625e-01,-1.791060971723090200e-01,1.111355775360569842e+00,3.212705331803985764e+00,2.775009493753071155e+00,1.018517370955630330e+00,-5.806644822386358706e-01,-4.699763692295033102e-01
4.604934882882749103e-01,6.670307505970036743e-01,-1.210677569100501172e+00,-1.945566056939577626e+00,8.181807867422392633e-01,4.995886559804036509e+00,4.131257535501811518e+00,1.370393785722685553e+00,-7.501039112669645181e-01,-8.382614427877776997e-01,6.707222430874986152e-01,7.297687684057446722e-01,-1.294581272598374078e+00,-3.710428989327103189e+00,-3.673742521309820042e+00,1.052548904748848768e+00,2.583858644976686936e+00,1.001451875359079979e+00,-5.083248657016953276e-01,-7.433827878371287445e-01
9.057047956621527840e-02,2.666277221646576878e-01,-5.058811316090933152e-01,-1.455661764948629720e-02,2.769798718181649688e-01,1.342598418496227242e-01,6.923597180317324629e-01,6.211339434558792449e-01,-3.212350370882333106e-01,-2.639824340490307675e-01,7.444747010059471481e-01,4.943810258782837530e-01,-9.800464046140678898e-01,-2.663976835873309579e+00,-1.872336232566005787e+00,2.054973538640950892e+00,3.197718907388305887e+00,1.148367051334683087e+00,-6.117324336659165640e-01,-7.411324469251300284e-01
3.912706026976903867e-02,7.279986057447543901e-01,-1.155054628466358757e+00,-2.042831200479947817e+00,-1.057199769360806396e+00,-8.826915038148532011e-02,6.647853013265611066e-01,6.628949339265395313e-01,-3.606365635050196028e-01,-2.016439812667250031e-01,1.069789722291160983e+00,9.033667979645670920e-01,-1.671956824214798409e+00,-4.874698384716690924e+00,-4.658065181200976568e+00,-1.560677820580925523e+00,1.794721531829997774e-01,9.387054998785109294e-01,-4.914785673722049664e-01,-2.232584026625871465e-01
7.489403600982185161e-01,9.123646213998534149e-01,-1.605543050719906217e+00,-4.517099649257529492e+00,-6.979716572063342284e+00,-2.744584294999163454e+00,3.624781693573579044e+00,2.081458973813611113e+00,-1.277588597325075348e+00,-2.612486602375393430e-01,1.048262639976636157e+00,6.057976850786712664e-01,-1.233406933623132140e+00,-3.378441685265594518e+00,-2.519447585904431186e+00,-1.083215351125662362e+00,8.875343287215480270e-01,1.694997378949233413e+00,-1.147227812677896308e+00,6.672238679272025630e-01
4.116996127822462187e-02,3.724393762336312697e-01,-6.523647703776666029e-01,-3.541725460537633041e-01,-4.012092412458311275e-01,-5.166966316908706558e-01,4.409922466471629110e-01,5.981514000717919055e-01,-2.885214722112220964e-01,-3.173273089989224749e-01,6.948114669461130655e-01,6.092835447861907339e-01,-1.154105852947648225e+00,-2.839066778871234042e+00,-2.808603663459164235e+00,1.371774922589164891e+00,3.004834342840219108e+00,1.166797968135365959e+00,-5.925061197470878893e-01,-8.578495773321677120e-01
1.603883215970753826e-03,1.063684471491694206e+00,-1.650260826571606776e+00,-3.639306214391049288e+00,-4.851435434702255911e+00,8.868804024263702290e-01,4.575287471261049177e+00,7.738876653068977873e-01,-1.240457098272195052e-01,-2.284534071321138615e+00,1.320519214139198039e-01,7.538972387712985501e-01,-1.278423210378683228e+00,-1.522477136776852591e+00,-1.058289696734078911e+00,6.545768991897306099e-01,3.896052279646165406e+00,1.695560980185067290e+00,-9.911427420067583371e-01,-5.786620460780289577e-01
6.956842571565579059e-01,8.264630859390441620e-01,-1.446904094931147133e+00,-4.184828603919966916e+00,-4.692958412490726872e+00,-7.748768780020474090e-01,1.089546856104168349e+00,7.319295414389396237e-01,-3.043793041634694774e-01,-7.137595079139292809e-01,5.515081342281492605e-01,9.913630276765699190e-01,-1.718983607176377770e+00,-3.442026366490638534e+00,-8.646584582488572313e-01,4.652823592048342505e+00,4.021877245087890351e+00,1.442286517995974071e+00,-7.382932917468409961e-01,-1.067976513458285925e+00
-1.207049474669167483e-01,4.422524667368172291e-01,-7.497067768261850285e-01,3.912348467769633520e-01,2.666616308923078993e+00,3.187673624071511114e+00,2.522006585391407985e+00,1.096601695208655691e+00,-6.281879938729542090e-01,-4.137802918838648925e-01,1.224298370789993706e+00,5.374697519116272693e-01,-1.192363612391946548e+00,-3.205088889037088329e+00,-1.460577059415377743e+00,1.643641344818859595e+00,1.546724110997866886e+00,1.153665693045779150e+00,-6.626458593307926748e-01,-2.106431769542964905e-01
5.706880422528560759e-01,2.790550964581183790e-01,-6.650190180143259466e-01,-4.757028889156285079e-01,2.572503859567951690e+00,5.194400024808562222e+00,3.332276832485085105e+00,1.257186604859126478e+00,-7.544433577614915176e-01,-3.695552232893663525e-01,1.021696536976123504e+00,9.187830417682043560e-01,-1.709893117140550922e+00,-4.362714842008104554e+00,-2.317896998356257399e+00,2.385589117085465727e+00,2.607791875722050623e+00,1.260318668432382827e+00,-6.746101782607455410e-01,-6.256153118974370209e-01
1.356023734114684576e+00,4.467611511454460671e-01,-1.064689208813550225e+00,-3.452737753667127318e+00,-2.777392518429381063e+00,7.043293168301544283e-01,6.956639428879850540e-01,9.055587600353214306e-01,-5.336550370329496973e-01,-6.263228355513997606e-03,1.344526488102042006e+00,1.821374973180967527e-01,-7.172585035314107405e-01,-1.531200524880539371e+00,1.609063879005346642e+00,4.924378909595974463e+00,3.472392570818329194e+00,1.623791612516924499e+00,-1.015895359814466214e+00,-1.352661180749768766e-01
9.867694205229414761e-01,6.029766769335492826e-01,-1.178430200849710063e+00,-3.913084414085798990e+00,-4.704817096876344529e+00,-3.014067326071928399e+00,-2.974032191826088689e-01,7.981639303830277976e-01,-4.706156340338544242e-01,1.235627393140513591e-01,7.020459314076213930e-01,7.058393812007577317e-01,-1.331577548435781910e+00,-2.615380744986488537e+00,-1.358840874859120973e+00,-7.589934834152327614e-01,7.817780042489825831e-01,1.275887188213654877e+00,-7.629802657131482535e-01,3.714883485079325393e-02
3.349330737660744517e-01,8.948103560807565415e-01,-1.515330309767635386e+00,-2.791326450096348832e+00,-1.153636623937219108e+00,2.978340912130815532e+00,4.785976571359797482e+00,1.498029649685837406e+00,-7.849544192630188988e-01,-1.146932996490445333e+00,5.527317080491135626e-02,1.971043023387975268e-01,-4.003934516417582135e-01,4.777777776748118321e-01,5.538647802427326683e-01,7.608675245644955787e-01,2.135692648275414829e+00,1.118907822732385426e+00,-6.920685305091059947e-01,-1.254753203431190900e-01
4.187343615911265360e-01,4.653829737404358013e-01,-9.162157195625391104e-01,-8.630243113711676406e-01,7.710778264178768104e-01,2.210851016534900459e+00,1.921590430189183740e+00,1.191225258189128278e+00,-6.710216071082718559e-01,-3.538248736696621433e-01,7.610357106561161933e-01,4.854146177159018860e-01,-9.690552036149653325e-01,-2.666591313197802293e+00,-3.049250869437086564e+00,-4.365457211245259428e-01,3.901222382076522388e-01,6.224499274968513518e-01,-3.050552196125116411e-01,-2.847131657550314165e-01
8.087932568195435046e-01,1.031404297387679803e+00,-1.807836025516633693e+00,-4.913945592593424117e+00,-5.383240667995712769e+00,-2.114351958088964700e-01,3.319275184844347137e+00,1.307031691115997152e+00,-5.911389796626245197e-01,-1.301659753999592439e+00,6.660427616018758101e-01,4.321105791149190134e-01,-8.965981518352866830e-01,-1.739116018977684863e+00,-6.185905376939120348e-01,-5.411255750792115515e-01,7.810953939083588038e-01,9.885975569993867840e-01,-5.896304573322237452e-01,4.612020463677854454e-03
1.082430926357452972e+00,6.753331770223865993e-01,-1.319427756982080258e+00,-4.264349140958446860e+00,-5.010553090049635117e+00,-1.633670233255050785e+00,1.083461224249202409e-01,7.216517676696124761e-01,-3.536841801566080190e-01,-2.782168590896550442e-01,6.619567249491592476e-01,4.484137939181020993e-01,-8.754134181676914706e-01,-2.440076306413354601e+00,-6.062311406154643478e-01,2.401849128269876399e+00,2.462378156972031107e+00,9.648068675892738089e-01,-5.412669785160770797e-01,-4.563427698812674294e-01
3.360664157120965001e-01,4.286338342137086532e-01,-8.162088715784105997e-01,-1.037654699687392990e+00,-5.195056928860281031e-01,6.182758803344656773e-01,1.141470567838980044e+00,7.481031645118840778e-01,-3.490682323176056423e-01,-5.412629363779654090e-01,6.013701519988432498e-01,5.402448382577208497e-01,-1.004763677863746985e+00,-2.679865109211481133e+00,-2.850502643430586680e+00,-3.955829986684266664e-01,6.761975445256511730e-01,5.618928449181400664e-01,-2.405133527750255573e-01,-4.769449561615548006e-01
3.200618963435455377e-01,3.136359178209509602e-01,-6.213005425265865078e-01,-8.541813536485060032e-01,-7.875433711676553816e-01,3.565786082967629111e-01,1.183990582096157818e+00,7.650129130381124742e-01,-3.955411563168171329e-01,-3.907576667220327704e-01,1.849285823636211412e-01,4.168488215054723112e-01,-7.189971192906968733e-01,-1.388426368381014742e+00,-2.059508968599986556e+00,-1.332213965736011474e+00,1.607238518373386160e-01,4.056562737867722146e-01,-1.397813796631954542e-01,-4.535286973215900130e-01
-2.570737405659892852e-02,6.799768248820827754e-01,-1.095471233108203934e+00,-1.398117419322602251e+00,-1.065293719018392871e+00,-9.703817465438053791e-01,9.182992747689704416e-01,8.360426933356530643e-01,-4.437692485516807062e-01,-3.186489763808288966e-01,9.178625310014028038e-01,8.859916933804073969e-01,-1.618748406796449713e+00,-4.414768032339702053e+00,-3.457072272507986099e+00,2.942777044012097942e+00,4.446648097659935850e+00,1.408275152211692305e+00,-6.837332878766163580e-01,-1.320466122174481560e+00
3.910705799348949130e-01,1.769642759175674429e-01,-4.869457142676409389e-01,5.198117096840769724e-01,2.832868545079146649e+00,4.474845902510373286e+00,3.088666575810674164e+00,1.263434342611177819e+00,-7.412483201840428526e-01,-4.162004432933102960e-01,2.385912631926214444e-01,5.066006367135045263e-01,-8.814984408920428782e-01,-1.612102825043310705e+00,-2.259335910216944576e+00,3.778936947529019930e-02,1.333274991589293412e+00,6.770196187649198949e-01,-2.923919505771709892e-01,-6.736393187798002113e-01
-2.302090348655322707e-02,8.278604192989431620e-01,-1.350657579450346146e+00,-1.452829236094337118e+00,-8.902646892258506695e-01,1.103091593340867149e+00,2.160724629214566761e+00,1.080489827191525531e+00,-5.295154386797135126e-01,-7.815213516543825234e-01,1.114052425397937141e+00,7.995986108308413831e-01,-1.546799048624982964e+00,-4.046689485131298447e+00,-9.085975039289641009e-01,5.079809890874757983e+00,4.018642806862776418e+00,1.451635173246391464e+00,-8.509891765403209130e-01,-5.548930861608596388e-01
4.900826739968204837e-01,4.661899756676728401e-01,-9.271026297258722071e-01,-1.171810601513688210e+00,-7.937834907729169887e-01,5.050974851762567441e-01,9.290498360229000330e-01,9.380383887674157428e-01,-5.114676237035885586e-01,-2.572542660006666426e-01,2.418588404350008048e-01,2.306884195504705637e-01,-5.045305652525852169e-01,1.729036906253552941e-01,1.384398471122813667e+00,2.498183726156961715e+00,2.020176591713479741e+00,9.223483600468213028e-01,-5.335166909399305935e-01,-2.988978197859138430e-01
8.389835937301817204e-01,7.822924704574215626e-01,-1.430000586909021765e+00,-4.181535276771677800e+00,-4.108764662616945174e+00,3.814738032851940019e+00,5.296425704573588078e+00,1.365138567831459815e+00,-6.067506790774496173e-01,-1.720264222668564491e+00,2.918843304550153284e-01,7.458978275625429699e-01,-1.227881825179996111e+00,-3.339061611200780266e+00,-6.651790343804488970e+00,-1.887913861508239366e+00,3.459959035497651492e+00,1.114779407137884926e+00,-4.656161503921172895e-01,-1.438065967271995760e+00
5.196841747435265724e-01,8.950511226931580078e-01,-1.547379717010361366e+00,-3.397596663733087219e+00,-2.525154939945311927e+00,7.082743378880322904e-01,1.626660290924589081e+00,9.937736523974797231e-01,-4.777285697061015024e-01,-6.858704421368068127e-01,6.808839154031930407e-01,8.219633657589716647e-01,-1.438322217369906175e+00,-4.089371242046340171e+00,-4.620786032243932695e+00,-2.217554497540333569e-01,9.249445795501639589e-01,5.580759966171672248e-01,-1.848985492008372311e-01,-7.753950350238693057e-01
2.077247578783914250e-01,3.767652813764327258e-01,-7.012373488216747663e-01,-6.916873491337041102e-01,-1.136518302862367935e-01,2.158116063638578108e+00,2.511567591626443718e+00,9.057475385406220658e-01,-4.220216289157490142e-01,-8.674148116782535167e-01,6.884865324575056844e-01,1.890479629286541952e-01,-5.296297196179160505e-01,-8.969326554900891590e-01,1.562008958454873975e+00,5.394434214468352806e+00,3.901395427154567219e+00,1.285405679043361671e+00,-7.533033371426984814e-01,-5.575828808729086372e-01
8.511281705098403538e-01,5.523470074474875480e-01,-1.087034342174274748e+00,-3.098145464143681860e+00,-1.300760960279399026e+00,2.370167795749361428e+00,2.517660213598490238e+00,9.697992674111324263e-01,-5.199839869274629489e-01,-5.702423785562082958e-01,-8.701615000650486653e-01,4.146207710855633888e-01,-4.894512982511660115e-01,5.692246356429124798e-01,5.838933947949225267e-01,-1.107094412202816791e+00,5.197040742971655858e-01,-1.694410200250322240e-01,4.642210817661371336e-01,-1.741856865570537982e+00
4.692779966145727566e-01,6.906191518367209570e-01,-1.170984853686040994e+00,-3.521292691788710183e+00,-4.691572035714100863e+00,-1.879955984558970838e+00,1.448024402371712149e+00,8.227834260998918570e-01,-3.943786504226921563e-01,-6.153894757941564819e-01,3.754465881083574041e-01,1.021870919400045707e+00,-1.708661179108500683e+00,-3.566906095868590310e+00,-1.878506863778712566e+00,4.049666865121486659e+00,5.407230875488789223e+00,1.607017420596741131e+00,-7.815281187431609711e-01,-1.569604616298555522e+00
2.864388317117079752e-01,4.343312573686665679e-01,-8.075297826019680603e-01,-1.020005986202052295e+00,-5.507727406265293668e-01,1.156157443180761080e+00,1.614346634976441930e+00,8.440530827312812123e-01,-4.284704248027996210e-01,-5.194276796919009564e-01,4.705871830560188207e-01,3.584622603677309338e-01,-7.445226353440385081e-01,-8.696298372633058937e-01,1.781191172447052606e+00,4.789666106780046562e+00,3.535809058461905963e+00,1.300927665999771721e+00,-7.591542626432004059e-01,-5.140017445594000645e-01
3.028693213225980840e-01,9.028737508854700611e-01,-1.535257575319144641e+00,-2.369663831063240966e+00,-8.055968235694977997e-01,5.623651140895862266e-01,1.039935079046915067e+00,8.602301171122254120e-01,-4.632561000467479984e-01,-2.931229984017658663e-01,8.307914718466078430e-01,6.950458497198882535e-01,-1.291727508140346758e+00,-3.606317215882888672e+00,-2.362431811492361700e+00,1.134241802362464524e+00,1.465376655181431120e+00,8.800401928388327244e-01,-5.096520088963358841e-01,-2.023860410662752518e-01
3.064243413568430441e-01,4.370996777067370775e-01,-8.226270020005147510e-01,-1.043238611479682554e+00,-7.666493170350233699e-01,1.700346375921229614e+00,2.572479881852149486e+00,1.081915126886369594e+00,-5.461340444637403646e-01,-7.738368821567478406e-01,4.991462067396875146e-01,4.433008944785132299e-01,-8.790061239589820330e-01,-1.400633218312074879e+00,1.974837423719983942e-01,4.738103748670167370e+00,4.542609201176717626e+00,1.411123086084255407e+00,-7.396464553904747996e-01,-1.081233007380635991e+00
-1.432944980548577218e-01,5.865508623845487879e-01,-9.253694277503788923e-01,-7.393168553611203508e-01,1.791199217608635888e-02,4.951939375100071483e-02,6.955988844338603094e-01,5.331858954279470320e-01,-2.513954165190743772e-01,-3.580238409206549233e-01,7.788408340095154259e-01,7.392213697084156765e-01,-1.343150950916763620e+00,-3.674538047843102895e+00,-3.978428318335281988e-01,3.482494172146645361e+00,3.080354394754054148e+00,1.168276883327723281e+00,-6.834278775727586908e-01,-4.337739015984582447e-01
2.861963035443046421e-01,4.200117993014074735e-01,-7.790504345481427118e-01,-1.090429940993961511e+00,-2.104686158768278026e-01,1.943622444750430445e+00,2.777932241912273614e+00,1.138971074371990078e+00,-6.170166044801816962e-01,-6.304077065016019388e-01,4.396237475052379717e-01,2.984617594699607301e-01,-6.426238382357928325e-01,-7.272134983146927301e-01,1.506879731574837900e+00,4.836047503725742658e+00,4.139019216646405042e+00,1.372475352711598040e+00,-7.729954681303917718e-01,-7.473040590152786322e-01
6.935166511237732534e-01,8.230077429947987300e-01,-1.464000122482745470e+00,-3.683881156327868389e+00,-1.647259718526579819e+00,2.974543275232523598e+00,3.150393303632900377e+00,1.176916587140309778e+00,-6.088301785805446675e-01,-8.251155134669924118e-01,-5.462109334615320444e-01,8.938298997450949690e-01,-1.308670064471505246e+00,-8.462649746442035825e-01,-2.228060834301554272e-01,-2.527092240027502545e-01,1.093482648656863399e+00,5.939946977621880508e-01,-2.119820030582184045e-01,-7.840950963451897016e-01
3.446743805632312974e-01,5.297429493452701088e-01,-1.010211909715747369e+00,-7.331264616853367944e-01,1.003079924123294830e+00,2.388307868721839533e+00,1.931761609104905686e+00,1.099927885137814476e+00,-5.819024033870359158e-01,-5.249091391304071541e-01,5.427990955807530937e-02,2.012244073417469303e-01,-4.407185893603429161e-01,1.141768160301607882e+00,3.943194105742723554e+00,4.399977525039885151e+00,2.712502998770629947e+00,1.093118324988992640e+00,-6.389413593628640031e-01,-3.751870877606507948e-01
3.115514084029666342e-01,8.790612510994905149e-01,-1.434611723544466866e+00,-3.584469266478369498e+00,-3.610829033024319124e+00,-2.127968376828632061e-02,2.638283123582832346e+00,9.355935894613166548e-01,-4.301161889324891519e-01,-9.486314223075659191e-01,2.727206725063599860e-02,7.043101847435326857e-01,-1.178704826760636815e+00,-1.002698374255251101e+00,1.941006493813331124e+00,5.687335330851603921e+00,4.779800125224071827e+00,1.399278070351813286e+00,-7.171201678751144559e-01,-1.191273624554945121e+00
2.465457668026634630e-01,7.654958644725866623e-01,-1.337063019468307079e+00,-1.429032671120162634e+00,-5.991556842445355108e-03,1.274632143826339492e+00,1.586845409952428954e+00,1.070835971118317742e+00,-5.888230154496014723e-01,-3.703445416604326246e-01,5.178173994393152624e-01,1.187618864573549038e+00,-2.018669534343441541e+00,-3.768020819034122670e+00,-2.036553984793976646e+00,-2.929993595178867136e-02,6.607373941098900749e-01,9.793523200046507782e-01,-5.539902696857915698e-01,-1.187020636095397347e-01
2.226160098262691678e-01,3.663329063828933418e-01,-6.636172339096881867e-01,-1.057469663939347271e+00,-1.026542726005659212e+00,9.394487151975279282e-01,1.585861198987046583e+00,6.521048020479364160e-01,-2.909583433608084468e-01,-6.526188436149267247e-01,5.323670928689533399e-01,2.767822245074769150e-01,-6.574713721285763146e-01,-3.858310762416233275e-01,2.533554208017444243e+00,6.141443261911123663e+00,4.551643742193457243e+00,1.402137143291565691e+00,-8.043225836365451853e-01,-7.381083764367944999e-01
5.116487484912668471e-01,9.501800343982973462e-01,-1.633830969480819961e+00,-3.488990589981431523e+00,-2.583255034028507868e+00,1.340963279685846832e+00,2.820168426380614157e+00,1.158301835687499004e+00,-5.742321950794656571e-01,-8.863994087211829465e-01,4.099036589516318330e-01,4.031289934735710623e-01,-8.041923946493896302e-01,-8.018851669617581557e-01,1.238664706507042412e+00,1.275248475616637789e+00,7.839201295196556174e-01,8.881405154929112866e-01,-5.444476825976566348e-01,7.070505443868838058e-02
2.268881635244883108e-02,3.719426210674153799e-01,-6.800012762534640709e-01,3.139331808210881758e-01,2.512050222412779199e+00,3.212231386218720619e+00,2.402825621214614404e+00,1.128114848760678024e+00,-6.371014373005029485e-01,-4.313695947635958206e-01,6.105382094864284515e-01,4.710708597745388304e-01,-8.957250729334916839e-01,-2.529838204944672153e+00,-2.747746627611308501e+00,-4.419639482623460291e-01,3.663102455647235800e-01,3.948710282366341695e-01,-1.452379699116866096e-01,-4.179252863527052053e-01
1.980353793654332159e-03,4.141037987380576380e-01,-7.242563583805583516e-01,-8.425186016264726852e-02,7.475299502676543417e-01,2.734828465955957633e+00,2.551236707195226661e+00,9.326563215656651362e-01,-4.567087488638177373e-01,-7.870644295873051588e-01,-2.561329307986633386e-01,-8.458397725301701475e-02,9.014378004322105842e-02,1.595079052831538835e+00,-8.156658210749946347e-01,-1.501362763204285855e+00,2.581371737748358042e-01,1.007968159159161950e-02,2.355000890704351257e-01,-1.070966381151070790e+00
3.292921864934700293e-01,2.604389768210196854e-01,-5.437134380421936308e-01,-6.244958696597291414e-01,-5.481143767700207697e-02,5.212949192748699279e-01,4.162229246137293392e-01,5.022050660232501018e-01,-2.370988700290509454e-01,-2.814536507474030835e-01,2.449761672915942434e-01,1.047528530292653609e-01,-2.915213837476107739e-01,1.747486451928735307e-01,8.276296101949498496e-01,1.264629155164758378e+00,9.537772852413283209e-01,6.115094926883981596e-01,-3.316835909637455004e-01,-2.273487195281154449e-01
5.046473954091353908e-01,1.041188025928660776e+00,-1.789665986876155745e+00,-3.356221506129025034e+00,-3.747809926949530884e-02,3.954107173107905382e+00,3.424866450602550572e+00,1.409058633746537170e+00,-7.587013942665346011e-01,-7.750704805779367046e-01,-5.585555631596518245e-01,6.267118555489111786e-01,-9.372662080478342261e-01,6.028134718973250372e-01,5.720123260888305694e-01,3.821233510275837686e-01,1.309472056117426897e+00,7.773500012972880402e-01,-3.102543369307265153e-01,-8.541002674686447582e-01
1.246139809961790190e+00,8.814620289704920841e-01,-1.688955982299267022e+00,-5.088164826045528777e+00,-4.531023657143206762e+00,-2.411979452692994130e-01,1.867630237558008277e+00,1.197935741935806098e+00,-6.320899492453710966e-01,-5.450773790875286240e-01,4.746012811536098885e-01,7.471295069688775881e-01,-1.294804676954135925e+00,-3.400297334933589877e+00,-7.008053736447884319e+00,-3.300388296029845403e+00,1.103358356373478788e+00,7.099857684550683334e-01,-1.867131740339535995e-01,-1.235598658850220133e+00
1.378274202239583968e+00,6.648297024560448909e-01,-1.376041174300944414e+00,-4.728876804360451658e+00,-2.895152091694010998e+00,2.230617750549770406e+00,3.166865274402649977e+00,1.314414662983550253e+00,-7.432121867532551773e-01,-5.511697908879553687e-01,-2.013608730258202584e-01,8.950335424815295537e-01,-1.358214565740643032e+00,-1.963879987756941281e+00,9.137833714299552490e-01,-2.785717331132539498e-01,2.325180628932409233e-01,6.838027545714171485e-01,-3.954493896219636317e-01,-8.541399199473291917e-03
1.483383961772987564e-02,1.862592532798246214e-01,-4.241824773068102461e-01,1.486027602205133524e+00,3.907987927669428263e+00,4.570175182771213152e+00,2.962583718763952323e+00,1.164835656755621063e+00,-6.664965491699723632e-01,-4.855821235301064909e-01,1.195047395753681407e-01,4.337140641016848375e-01,-7.259715830428417060e-01,-1.352338004618826695e+00,-1.955504120898520437e+00,-3.275558961308188133e-01,7.377474458633999088e-01,3.657061125118463707e-01,-9.426424687132514690e-02,-6.634322335458709974e-01
5.142347983075264972e-01,9.633246128065419134e-01,-1.639427117624157271e+00,-3.710001136475877370e+00,-2.587240835123323812e+00,-3.116675345842719325e-01,4.982674818066097355e-01,7.113104332037493149e-01,-3.287617697410973872e-01,-4.306662300839942947e-01,-2.785082989322576474e-01,6.144002576527155535e-01,-9.539886454012063144e-01,-2.153172638830579133e-01,1.246238709545563816e+00,1.642119608664927233e+00,1.513401573222449281e+00,7.005715901746328855e-01,-3.408341061752650503e-01,-5.295263093030529999e-01
-1.441991430557985204e-02,4.957555728865276068e-01,-8.447036015763514927e-01,-4.074887526753239175e-01,-3.990969558543246420e-01,-1.242349099707287657e-01,8.144060664047461096e-01,7.044753743662923728e-01,-3.121761848547074947e-01,-5.576257377953851568e-01,3.301421985053231700e-01,9.443470141433920606e-01,-1.567129129297339496e+00,-3.312606720743991762e+00,-2.605876224431892929e+00,2.378559508484079099e-01,1.462771587741890089e+00,8.493702508856886269e-01,-3.833913252001174832e-01,-7.241852802010113610e-01
5.951219960090505801e-01,6.719365414774010059e-01,-1.220144149401614531e+00,-2.656368779219950405e+00,2.230633949652763015e-01,4.445176936636205056e+00,3.855938087970153472e+00,1.137542590221774619e+00,-6.311944155342654739e-01,-7.167340678639885221e-01,8.619910718591146104e-01,6.021069359117746655e-01,-1.131551718262316042e+00,-3.925476922051124973e+00,-4.156363914544595417e+00,6.029894330854292939e-01,2.614975780845361086e+00,9.744409232973242352e-01,-5.088260305965800478e-01,-6.690017513899009227e-01
1.712463715538034226e+00,7.964058052725456749e-01,-1.683324059849435672e+00,-5.411050317324887615e+00,-2.858598349222702062e+00,3.458188626816869782e+00,3.163130219093408080e+00,1.523324021940539064e+00,-8.790462221759847150e-01,-4.574445126870786971e-01,-3.900092354771339444e-03,1.122220471533933006e+00,-1.782781547737833927e+00,-2.774273378817677216e+00,-7.303725494932165052e-01,1.424390804576711189e-01,1.161334472438238841e+00,8.789771401116323046e-01,-4.348957791742420476e-01,-4.988962050502663281e-01
3.881658838918697896e-01,1.067301284957276941e+00,-1.773266352703153581e+00,-3.571924762067876014e+00,6.388472886281159058e-01,4.760952512208367793e+00,3.365118821183069375e+00,1.313944563592404968e+00,-7.217875089219887297e-01,-6.860200502146829304e-01,-1.321176992154925012e+00,1.130690157277760566e+00,-1.498118558179517779e+00,1.701389404740061562e-01,3.991575007781152373e-01,-6.516926830247109503e-01,1.336265262264224818e+00,5.323815913292766488e-01,-1.332312260167949625e-01,-1.050728142758626582e+00
7.649085189339015489e-01,9.615524642543625822e-01,-1.747372081303287361e+00,-3.161912451384303768e+00,2.106315282276885359e+00,7.475860010496274910e+00,4.826164612628880413e+00,1.644092976728301458e+00,-9.654915887189956525e-01,-6.598512939584739723e-01,1.359540788815839729e+00,8.561296229065179508e-01,-1.676777508312795817e+00,-5.199691838536144139e+00,-4.138400485361701797e+00,3.677956163893950858e+00,3.824306947524515277e+00,1.358299248522671032e+00,-6.882413626032525267e-01,-1.035656437302793220e+00
6.265422035444624393e-01,6.216853421397757762e-01,-1.190429515612199785e+00,-2.180998228137876804e+00,-1.011386981525037809e+00,2.937248282810691613e+00,4.133610103530783952e+00,1.709820517342882429e+00,-9.616258167118855171e-01,-7.814884051581317825e-01,4.966651171679355437e-01,-4.437324856270809248e-02,-1.469536638017718833e-01,5.655482627944140583e-01,3.049776404621784121e+00,5.823883572258519159e+00,3.892195402552873329e+00,1.214036086354782773e+00,-7.067421591068833164e-01,-5.798045497741683985e-01
6.061601694806721952e-01,8.131650254294503499e-01,-1.409096940551449295e+00,-4.003168336401089711e+00,-6.012580678534797052e+00,-2.070564987964123915e+00,1.879531944977783642e+00,1.047853764728648773e+00,-5.098993375099736269e-01,-7.624448176129581256e-01,5.807248714321391336e-01,7.341232406345368222e-01,-1.307847880385627937e+00,-3.175667397230188094e+00,-1.980935364227581319e+00,4.856424613021045111e+00,5.350067083029511394e+00,1.380141408124329283e+00,-6.456133767245124666e-01,-1.580182270151875290e+00
7.379280829458645385e-01,1.152496239010146306e+00,-1.988732507370936098e+00,-4.835278157754956396e+00,-3.111595786468326796e+00,3.851756689880837747e+00,5.635171674966942490e+00,1.480795938802873080e+00,-6.865938743541075695e-01,-1.689047265836293388e+00,-1.325347075253880541e-02,9.507186621643741731e-01,-1.536268489500873358e+00,-1.847915962176428284e+00,4.954590822788910165e-01,1.036200921616931891e+00,3.631028926245379651e+00,1.806737142053139955e+00,-1.125661550882659290e+00,-1.875622186245321232e-01
1.595840381691599752e-01,6.962599229013883839e-01,-1.151976528422147705e+00,-1.888520418666638223e+00,-5.628960625301823173e-01,-7.761807556455003754e-01,5.335733455201874254e-02,5.515452009851409265e-01,-3.080931986267473888e-01,-2.292080743512326171e-02,1.232253465905304379e+00,9.238751506004783121e-01,-1.754695514604492912e+00,-5.089775199842239140e+00,-4.767035724443072553e+00,-4.377168240094104767e-01,1.668036234617341407e+00,1.345538888127880028e+00,-7.595175729352851013e-01,-3.087521332200645063e-01
4.835532175481540018e-01,2.738531090851514804e-01,-6.526728523838914997e-01,7.061588295628150325e-02,4.558014191109304392e+00,6.304495323779137905e+00,3.564769805218098941e+00,1.331720987782678112e+00,-8.296647117838442664e-01,-2.442169485733939882e-01,1.053563916219463659e+00,1.567688795797413936e-01,-6.105337692828121110e-01,-9.164147813748867444e-01,1.265898481692125266e+00,5.146580303974180204e+00,3.742202303748795256e+00,1.485700552551415088e+00,-8.658114836712208495e-01,-5.225226814254101404e-01
7.989400976710593349e-01,4.018034378836106701e-01,-8.773614978174875123e-01,-1.797962641156869656e+00,1.167895878203620175e+00,4.426838260680485249e+00,3.009600948386655705e+00,1.212443324193119620e+00,-7.413430908566062127e-01,-2.575908639137964307e-01,1.063570246274633924e+00,5.978474649829660370e-01,-1.196034311105477421e+00,-3.853259931582909470e+00,-3.090777634662220663e+00,1.297193502295352019e+00,1.560066584497770581e+00,7.347510176433124096e-01,-3.784120918387776644e-01,-4.352271341414790107e-01
-9.025644313388982154e-02,5.129161960957626665e-01,-9.106668797592377684e-01,8.466561558125555997e-01,3.776263253913338946e+00,6.109048244986200693e+00,4.259812427504945376e+00,1.520908260604184825e+00,-8.607422792326772099e-01,-7.513966315682797381e-01,3.280151681170662692e-01,1.170642320952421045e+00,-1.955877894950788232e+00,-3.233060936371306315e+00,-1.348506630174112653e+00,3.255735099529806664e+00,3.000364656620815307e+00,1.179204453351986315e+00,-5.820553649944839592e-01,-9.251277837242205537e-01
4.284760588956120220e-01,2.605874783853611154e-01,-6.278278984225514892e-01,2.880207477164022367e-01,4.090554619525996749e+00,6.658687249933074703e+00,3.777946554192413764e+00,1.256198833356136690e+00,-7.123426677832596088e-01,-6.297517787784269183e-01,8.138787627417645165e-01,4.653157090651454664e-01,-9.818034559914983195e-01,-2.196048727019296543e+00,7.389186821128343463e-02,5.239392559863854437e+00,4.265701166278047296e+00,1.309803777151878901e+00,-6.730323123229878801e-01,-1.054773925332108231e+00
2.817459599699425610e-01,8.876133441556764980e-01,-1.475626786361974752e+00,-2.791576231285813670e+00,-1.298222393788255768e+00,5.703369172519170416e-01,8.512696681920203234e-01,7.714203907945489380e-01,-3.824909016979147203e-01,-3.988515397991833078e-01,1.301028478876075756e+00,5.616001679632851573e-01,-1.178120367600545171e+00,-4.463155090810630554e+00,-2.774569081108171353e+00,2.504946450897707511e+00,2.142895685925337634e+00,1.056894699747359390e+00,-6.315940608781821508e-01,-2.073301386029999249e-01
3.013688069244572221e-01,1.000170426914788857e+00,-1.640713010056874532e+00,-3.558399435635442032e+00,-3.479870451902199679e+00,-6.562617651163156207e-01,1.338424735045407044e+00,7.762647917620382199e-01,-3.337890805162036512e-01,-7.409043591755668512e-01,6.991841281690344689e-02,6.698031287244766707e-01,-1.124565042712696306e+00,-1.162429101556675226e+00,1.637374478513803355e+00,4.788457931878765450e+00,4.119064123454560189e+00,1.432521245733937132e+00,-7.774071499780645933e-01,-8.870742059858969242e-01
3.767608476841635690e-01,1.352155434197440942e-01,-3.901056083893563731e-01,1.847832099231481728e-01,1.995232423026864765e+00,4.149848026673583767e+00,2.949549223493448835e+00,1.098693865572323070e+00,-6.269969942688012887e-01,-4.888437430636614067e-01,3.600539048352162375e-02,2.275120519224338167e-01,-4.073318435211926158e-01,-1.829829730220298434e-01,-3.370326310495874167e-01,4.242383066976835315e-01,8.595056477283812280e-01,4.211836176960654377e-01,-1.700277562765579731e-01,-4.688031182275892994e-01
3.188553943189285089e-01,8.559899576583082093e-01,-1.415342305827253400e+00,-3.199106337054271165e+00,-2.603931168546586683e+00,-2.453650942145857716e-01,1.434290159880229787e+00,8.694949406363626787e-01,-4.547419138071138733e-01,-4.430179068112549690e-01,1.489261401692794883e-02,7.253394647734839884e-01,-1.214799928430979170e+00,-9.085907699609492294e-01,2.499322045961278604e+00,5.367194923071328283e+00,4.556627070622703890e+00,1.564857237811161816e+00,-8.616682985839921871e-01,-9.156329453982243738e-01
5.139401790933657566e-01,1.022705328635599153e+00,-1.765902222967321800e+00,-3.423649496807331438e+00,-2.445930411975544061e+00,1.874206581314937781e+00,3.365517354139400119e+00,1.412346488854043125e+00,-7.300278330601225329e-01,-9.364105886226796738e-01,5.782019720544718799e-01,2.149698742955443720e-01,-5.922730257126715969e-01,2.788384212948246538e-02,3.508832771763675584e+00,6.342689113436695614e+00,4.571524984457390417e+00,1.635040257021561194e+00,-9.768795103020976311e-01,-5.541536774195292558e-01
3.380717373102308243e-01,1.676537634448678205e-01,-4.130515205354292618e-01,-1.133117890236782915e-01,2.022247732346221127e+00,4.764434696877088093e+00,2.922824418836699412e+00,6.138711867015120838e-01,-2.673332838566352954e-01,-8.545765457552612077e-01,1.244858325542705924e+00,7.864633713164099760e-01,-1.554379208402703050e+00,-4.636096940365760588e+00,-4.469779258865677285e+00,2.464406717597899199e+00,5.076853779891647100e+00,1.750940285174056088e+00,-9.527433421716406947e-01,-1.081902399697041828e+00
1.588622164049516006e-01,6.901416818803104425e-01,-1.171139687097475512e+00,-1.436630264571063353e+00,1.078440243032017909e+00,2.096889699070691560e+00,1.930169223698813497e+00,9.745436558519361414e-01,-5.276510731872916526e-01,-4.485304099372974251e-01,8.918975028021451923e-01,9.203927181711527572e-01,-1.657163217263997623e+00,-4.540705343816110684e+00,-3.836777463144360745e+00,-2.722382055396984635e-01,8.655965592905092709e-01,8.558336837103733830e-01,-4.155673859002465553e-01,-4.713597229098430152e-01
2.325538679303275347e-01,5.705569401149501729e-01,-1.039075795298378901e+00,-6.442908661086518274e-01,3.063495891737267662e+00,5.633331933146463300e+00,3.984717618615996049e+00,1.394833971397273942e+00,-7.734338201911218347e-01,-7.601688259344768772e-01,3.661058093891736420e-01,1.172527421542097076e-01,-3.702118954576416598e-01,2.339087415455329833e-01,1.116227831715515206e+00,3.609466627261569638e+00,3.790744983426689529e+00,1.447599611225445448e+00,-7.842881877027895188e-01,-8.404597344196447217e-01
2.324873605763503603e-01,5.024745677793500676e-01,-9.024252162254565723e-01,-1.101103835943483489e+00,-1.274631323613051759e+00,-1.044075862152755274e+00,4.427111116667820090e-02,7.568164836820261421e-01,-3.631078584911601737e-01,-3.254805442317935116e-01,6.304413035153536571e-01,6.660963431151457614e-01,-1.222499484530457092e+00,-2.927042767217140184e+00,-3.073720535515764851e+00,2.353910835510455435e-01,2.587455379474695949e+00,1.375354661715593840e+00,-7.518438668066046437e-01,-6.087379732198628934e-01
3.292313756856203866e-01,3.896161772804249690e-01,-7.600689226724597347e-01,-8.087223371795221327e-01,-1.147327821785095292e+00,-8.571389530248434419e-01,5.717687993883353581e-01,8.447259909131216160e-01,-4.557147353338432683e-01,-2.153849199881258947e-01,8.980696275641407711e-01,4.719991454990903335e-01,-1.021672329494917486e+00,-2.320366247189276088e+00,-1.896759726169209070e+00,2.116067439618074975e+00,3.640171458929184478e+00,1.401554887264545135e+00,-7.623667204217475790e-01,-7.819569612425377736e-01
4.933156613112709560e-02,2.125374301127368193e-01,-4.111287550004790736e-01,1.876716468122546499e-01,-1.451683470486786476e-02,3.969067433624847707e-01,1.500103555312238157e+00,8.544545362191307003e-01,-4.712013303508837403e-01,-3.410670498388439498e-01,2.952739733779266018e-01,7.250238350227335982e-01,-1.279416737312125019e+00,-1.523096020641441894e+00,1.377567504615285321e+00,4.546115772457847370e+00,4.277530133097698695e+00,1.700070264140520093e+00,-9.616530665834682745e-01,-7.667229726626125785e-01
3.525749415176760992e-01,7.108850018099580614e-01,-1.275955499642408508e+00,-1.538198441476120282e+00,1.040843899266931549e+00,5.533912783109332878e+00,4.924636512933742161e+00,1.507217271341182885e+00,-7.735060287424616599e-01,-1.235278968744342620e+00,4.438988955251267909e-01,1.015811294719137337e+00,-1.720204093948398016e+00,-3.496796395376800870e+00,-2.633161535952826426e+00,2.125603398179748638e+00,3.465237825469083432e+00,1.153469052696292296e+00,-5.514697139103456047e-01,-1.100699259028687704e+00
4.881939058195852721e-01,8.980140154087656867e-01,-1.580490313727500595e+00,-2.613257920977738458e+00,4.224311113861952127e-01,2.233684982521100704e+00,2.019536813023547150e+00,1.234552886332836774e+00,-6.924051488159937984e-01,-3.747682436291555064e-01,-9.199299041203375105e-02,2.176854586632416266e-01,-4.606953627932481865e-01,1.903625156455412526e+00,6.212775292996763454e+00,5.198269259821914012e+00,3.510691559513087423e+00,1.461818747923622874e+00,-1.005345295386923299e+00,1.541932323437570085e-01
1.139292456727883485e+00,5.785062250834274167e-01,-1.190827231772077832e+00,-3.860294169341480064e+00,-3.642858780868985846e+00,-1.137558938082638749e+00,-2.059555028799167908e-01,6.459586787973345956e-01,-3.667990207613776588e-01,4.443843204623466187e-02,1.102985913816242558e+00,5.443585815756678548e-01,-1.153358321538783038e+00,-3.343183693779621102e+00,-1.862577220316792515e+00,5.487738443795461274e-01,9.203948394576020320e-01,1.019390203554508156e+00,-5.883362467095577530e-01,-1.024638195798441703e-01
4.948448042697636273e-01,8.652564301386029832e-01,-1.477371997353848831e+00,-3.404209872106454871e+00,-1.463975619822125207e+00,9.605452080617893351e-01,1.394410958105412934e+00,8.193806046830018897e-01,-4.329001704437842046e-01,-3.835412135902697695e-01,9.478841875698713615e-01,6.545597824582000124e-01,-1.256398387256094429e+00,-4.050460380389392157e+00,-5.742154041690886501e+00,-9.970245439308454971e-01,1.106034448717545082e+00,7.167245793122277719e-01,-2.602599310711504743e-01,-8.842827024668635794e-01
-2.464498862715791550e-02,7.423869635186218785e-01,-1.214304820490049064e+00,-1.178373584873442459e+00,-3.631203480155459906e-01,6.184907391654654862e-01,1.086116769779792879e+00,7.357999618950458176e-01,-3.312651340456561067e-01,-5.964339711432086188e-01,4.124846659826015838e-01,1.094925091947167806e+00,-1.828476844830573267e+00,-3.793378290453585766e+00,-2.953959021860278700e+00,1.344578839943448567e-01,1.417096906166246173e+00,9.182134062545064257e-01,-4.238278608747280130e-01,-7.077624972850460328e-01
1.621800060873650196e-01,6.789747612608439953e-01,-1.229925269870718818e+00,-4.571752723583043937e-02,4.720381560724671743e+00,6.031679393069605766e+00,3.794103083197947868e+00,1.632627290645526363e+00,-9.781180951750195751e-01,-4.039388676641049170e-01,1.038216353543335080e+00,1.076394190748022783e+00,-1.983660360620718821e+00,-4.309438980566753230e+00,-1.111636990701428962e+00,2.826049544375508482e+00,2.318644400604036537e+00,1.366600233813682230e+00,-7.907193721428352751e-01,-3.088846902052333476e-01
1.908257499139529578e-01,4.817077598551451623e-02,-2.231554954300926652e-01,1.070902414133172886e+00,3.514071987981990830e+00,3.757798938826899970e+00,2.270061866063803002e+00,9.428957455867569282e-01,-5.600848479263752511e-01,-2.628795186577368992e-01,7.202894441580491858e-01,8.277531591635158836e-01,-1.503600484125446890e+00,-3.337833805867856718e+00,-1.730352742313742809e+00,5.744793772820223632e-01,1.220883407647070484e+00,1.028271033463634021e+00,-5.476869216093438464e-01,-3.687469389145662246e-01
6.972216094082820392e-01,7.561577595626421955e-01,-1.417891102398993519e+00,-2.360264701620022443e+00,1.901544181836868352e+00,6.583459943503054745e+00,4.073406766765411469e+00,1.252255600971485583e+00,-6.842271893258952131e-01,-8.001922863579054024e-01,9.629387347924776019e-01,8.919761897465074973e-01,-1.638253013296857352e+00,-4.481093535766529357e+00,-3.596677162243986370e+00,3.583533335520306284e+00,4.186814064091793242e+00,1.195872766871126647e+00,-5.346542993725931225e-01,-1.398734156457802857e+00
2.850947345408444411e-02,5.161605641193697247e-01,-8.706497688256201739e-01,-5.998274446411754335e-01,9.623560621696223283e-01,1.759837132522569458e+00,1.610476068777269454e+00,8.553257341303155403e-01,-4.900769962970780713e-01,-2.602112499588725147e-01,3.552821290112692654e-01,2.615851008655855070e-01,-5.743788186878777680e-01,-3.643993969701234681e-01,-5.729396234658503673e-01,2.134744157424297573e-01,8.939796117100591299e-01,8.280947549791070061e-01,-4.349783808996978696e-01,-3.157202463744683829e-01
5.947186281094367644e-01,6.403661391841150019e-01,-1.141161885140502763e+00,-3.190702856515192476e+00,-2.718656981316452725e+00,-6.171002516677889238e-01,6.766542962612653866e-01,7.015175794480126292e-01,-3.662746095886512676e-01,-2.668864171631319948e-01,2.694627635990592407e-01,5.122489795879872077e-01,-9.543906399984108946e-01,-6.242345682768707382e-01,1.955564733896229423e+00,4.024266899378380558e+00,3.664125783830704197e+00,1.472892951143279561e+00,-8.480092579417836118e-01,-5.856106087678151217e-01
3.627525728299755281e-01,3.070118928041573603e-01,-6.658152334339795253e-01,-1.694787700292325061e-01,4.307465443469717381e-01,2.175974430420250627e+00,2.599843456293119637e+00,1.212423537486865932e+00,-6.950527337265293149e-01,-4.246215447657706865e-01,7.041739434771356887e-01,3.337440982791848865e-01,-7.693995294936103457e-01,-1.150309809778618630e+00,1.463821207719294026e+00,5.170502005472696005e+00,4.193912792229771647e+00,1.589961344585548497e+00,-9.631618773394019506e-01,-4.408113759571800627e-01
4.261072306573301383e-01,6.912063611550030018e-01,-1.257239360651359883e+00,-1.504254724313936142e+00,2.160935952003615323e+00,5.352636368945945300e+00,3.198172205622905384e+00,9.819653160631791611e-01,-5.368047718974767735e-01,-6.172489932802619483e-01,1.264902836423992039e+00,1.023557273510586674e+00,-1.943673668628579820e+00,-4.909731517808909373e+00,-2.035067692890542457e+00,4.369356256953062179e+00,5.009395685216915695e+00,2.053531108405093342e+00,-1.224564012489233189e+00,-5.973506434681301602e-01
4.447569204702887524e-01,5.203304556695256267e-01,-9.864557272233968055e-01,-1.377735696600312476e+00,2.774271669466811252e-01,1.965656089442443966e+00,1.896510055610572065e+00,1.046844085000761426e+00,-5.923717365915062150e-01,-3.277974828923820860e-01,8.166590802009414396e-02,2.762252671735023202e-01,-5.839369373686725817e-01,1.227087157453563560e+00,4.971635991947667144e+00,6.147335414092365724e+00,4.076174060650992637e+00,1.642848969635947398e+00,-1.002705715672532749e+00,-3.707689015589498149e-01
2.459603646004433208e-01,4.012549956552847186e-01,-7.514106186828263256e-01,-5.834117251895918344e-01,1.755037734497877810e+00,4.333882495819684877e+00,3.360382503499165896e+00,1.053245398680213052e+00,-5.852968675150311828e-01,-6.383664023310405833e-01,8.775420455047326929e-01,9.160031610433516658e-01,-1.658938811623272169e+00,-4.331631345753591766e+00,-3.259913993634201645e+00,2.622417903180443766e+00,3.904642515085262833e+00,1.435865155003730909e+00,-7.554578207423366942e-01,-9.696923297541816256e-01
1.118016884398897876e-01,8.395488971829182523e-01,-1.414444691518434993e+00,-1.474785535954164173e+00,2.499875099808005208e-01,1.798688625321902324e+00,2.091379324897319147e+00,1.175489579523856465e+00,-6.362339945319158696e-01,-5.070850394208508138e-01,6.014118243817133669e-01,7.363782137709672382e-01,-1.300351064238088217e+00,-3.320500037802063709e+00,-2.793645871535933356e+00,-5.671374622587266323e-01,1.145584864208370329e-01,5.790448946046787837e-01,-2.926579890662885375e-01,-1.860373210528776522e-01
5.438366990062554543e-03,6.537958639559739993e-01,-1.087166617167743654e+00,-7.578273810121624043e-01,2.835031947447287148e+00,4.904384244535991755e+00,3.256343186207382168e+00,1.039776056870173271e+00,-5.675798523099230275e-01,-6.542324324776976896e-01,-1.480210608680455064e-01,3.919918054904307225e-01,-6.814597275241011110e-01,6.975239442526878220e-01,1.214676644537789008e+00,2.721252467273780784e+00,3.719190927776224065e+00,1.354590012072835137e+00,-7.344089085280310902e-01,-8.264389842902054584e-01
2.985238999936750681e-01,3.801226671788225375e-01,-7.331066999880658797e-01,-7.786104654939842717e-01,-3.029570297875529561e-01,1.074698653628264333e+00,1.672735036416771015e+00,9.566173461508586939e-01,-5.177565392987053539e-01,-4.152645259014022261e-01,8.014606584111729770e-01,4.236788703407369794e-01,-9.063253969743657601e-01,-2.179001538701500262e+00,-1.011229589003040719e+00,3.321376693671218128e+00,3.821118557282574990e+00,1.472715804626768765e+00,-8.400196662433958572e-01,-6.592642758793599844e-01
6.350176886993166292e-01,8.754476413265620538e-01,-1.584734876892714084e+00,-2.765347462872734585e+00,1.277568376707375997e+00,5.535272981523977620e+00,4.909915569830744175e+00,1.653756432104613205e+00,-9.387039466954611999e-01,-8.341614493379589934e-01,2.687060017869299378e-01,4.370693485015620938e-01,-8.545363804984396072e-01,-2.059774151351676796e-01,7.955969887265663676e-01,2.427847520100328005e+00,3.074568059857972990e+00,1.453390391905630574e+00,-8.463816616478773147e-01,-4.453791643921355403e-01
-7.401308494545979499e-01,4.945796289366787835e-01,-7.139282781723780280e-01,1.993378622949918855e+00,7.227308001757686284e+00,6.555452556337719727e+00,3.975365324972409020e+00,1.037880190683681869e+00,-5.388126344264203560e-01,-9.374152020933157470e-01,3.934543024643943898e-01,5.675325182666784984e-01,-1.032041541949509478e+00,-1.693087252570714352e+00,4.088522839074473780e-01,2.552453926761417691e+00,3.154522504997649524e+00,1.345248917373981001e+00,-7.933482113502171584e-01,-4.178687249475697696e-01
5.302686910405089993e-01,1.173146292455702788e+00,-2.040448032454973415e+00,-3.100353546011822559e+00,5.937774938422883952e-01,5.482026510679622433e+00,5.693982910113373208e+00,1.870942491135256347e+00,-1.067472967487902435e+00,-9.517792133069838956e-01,9.091020180449157495e-01,1.178582208785336816e+00,-2.061974893656053798e+00,-5.320634058460862903e+00,-4.150855076650382891e+00,-8.451639244214421975e-02,3.609413339063260562e+00,2.095086332972839305e+00,-1.296283693041543117e+00,-1.685177148686158866e-01
1.662906049595533342e-02,7.920347186695984032e-01,-1.303221003318173921e+00,-1.507427749797718430e+00,-7.650443576013183922e-01,1.687587235036811961e+00,3.559134469260945899e+00,1.571460961354258501e+00,-8.708985644414557470e-01,-7.577812155405547756e-01,-1.056547579733155967e-01,4.745875082833576619e-01,-8.197721204816614815e-01,3.610260160408738095e-01,2.301858855474998578e+00,5.295553123485397862e+00,4.924170594724455619e+00,1.432266211023493385e+00,-7.394593646159298705e-01,-1.206483682832850679e+00
8.217358121913467262e-01,8.466695645574593421e-01,-1.622993639967762025e+00,-2.163174085188233509e+00,4.366350713854237675e+00,6.688232774492917976e+00,3.829611939687026290e+00,1.739875575812719122e+00,-1.099487905693745438e+00,-1.031375368378895652e-01,1.592604607490753610e+00,9.801963096185636326e-01,-1.942082768967675399e+00,-5.507439915690029331e+00,-4.659951193294228355e-01,3.811433958673763556e+00,2.363308219963150325e+00,1.427076826671658694e+00,-8.856718997702324181e-01,-8.054002634290027829e-03
2.232382450709281818e-01,8.631670857503120908e-01,-1.543448971792938496e+00,-5.773855687426945327e-01,3.787274984910644182e+00,6.456014155512793451e+00,4.409664160305097447e+00,1.548978818246091071e+00,-8.513187267851795026e-01,-8.736332923524861016e-01,4.283207563328078060e-01,1.134243100865356402e+00,-1.933297711146336306e+00,-3.200906505680786829e+00,-1.270444492366451517e+00,1.867934588560757891e+00,2.234745860240900939e+00,9.317870773911669513e-01,-4.451294726979527772e-01,-7.669998297835532997e-01
8.834684796321496947e-01,3.163023413747345081e-01,-8.243545420061170192e-01,-8.338484349196306766e-01,2.304702946269902686e+00,6.321288351553805640e+00,4.482035877036198990e+00,1.652799474229285526e+00,-9.732518542787919058e-01,-5.896632620050200613e-01,5.601349906946250234e-01,-4.441909328077901721e-04,-2.061689213614649463e-01,-1.829146574177611118e-01,-5.079504654612069237e-01,1.322754077186089061e+00,1.776647785842702554e+00,8.589954673697580700e-01,-4.745896141095901632e-01,-3.713062819931903791e-01
1.306970482202700345e-01,3.952119003741567105e-01,-7.432287810053603838e-01,-9.894572060488002196e-02,2.581965504317022542e-01,1.264853393839993068e+00,1.531044606769818017e+00,8.802712619570087771e-01,-4.107771431426073261e-01,-6.819056118103600239e-01,1.035280136747847690e+00,5.431072169395607663e-01,-1.148987646121610195e+00,-2.889821847748369699e+00,-3.748414180473315094e-01,4.056937359668859600e+00,3.190609336149379249e+00,1.361587447833801923e+00,-7.830788154619762187e-01,-4.885288085798486502e-01
6.164490087943523822e-01,1.962471196995651812e-01,-5.533508123241328569e-01,-1.894849182022786127e-01,3.339730785816659164e+00,6.023946232670434497e+00,3.688950699758778207e+00,1.178040168929259224e+00,-6.870641427925876510e-01,-5.214451338626753252e-01,4.832542719185465852e-01,3.979834329315921071e-01,-7.744730570972546690e-01,-1.636932551998137919e+00,-9.388879482141092581e-01,2.831652630420748995e+00,3.081282734611737961e+00,9.863641380196852548e-01,-5.292908938647785666e-01,-6.791409567589975493e-01
1.417357167975467624e-01,1.064828525947265847e+00,-1.702697009245696114e+00,-3.428765024763899660e+00,-2.738622903295955258e+00,1.047813808448815109e+00,4.000587858277029341e+00,1.276632697903949065e+00,-6.472807140360858913e-01,-1.079222577091048407e+00,-1.038988056784480307e-01,4.820310501583287555e-01,-7.870256895183621593e-01,-2.835874441035193261e-01,6.898105635542698399e-01,3.256577915631567732e-01,8.683599899936168542e-01,7.224727027542118263e-01,-4.198363429505714839e-01,-1.073091246900809009e-01
1.964480658360521770e-01,2.968200280788630407e-01,-6.196747760066291244e-01,3.622654988162035128e-01,2.348658581730035166e+00,2.895550524614287191e+00,2.301833814024658587e+00,1.135352807948329490e+00,-6.418473478659232345e-01,-4.050421858633080907e-01,2.268849545344103213e-01,4.573478542199946317e-01,-8.585101296288011330e-01,-4.918965623523674502e-01,5.758434268693369829e-01,1.018252736739682751e+00,1.162512415909269015e+00,9.179613993652095960e-01,-4.858284978317377045e-01,-3.600330424474534885e-01
-1.051065729398480419e-01,3.236926042910472368e-01,-5.517304809195413551e-01,4.659088653592960427e-01,2.969575531051324990e+00,3.367803870807024147e+00,2.156006735390313622e+00,8.644124159420371045e-01,-4.922772911770769144e-01,-3.570408000051634168e-01,3.498496164839190459e-01,4.242056250798177663e-02,-2.106736307208678105e-01,-6.859012329157819499e-02,-1.922348920005182982e-01,8.782549289706619300e-01,9.468237220553280542e-01,6.172071862598697001e-01,-2.921710215985434123e-01,-4.282406270008684568e-01
1.496904892470402870e-01,2.488332661883272678e-01,-4.829847555234677015e-01,-1.969363484052520097e-01,6.501193702218337478e-01,1.340297854675984501e+00,1.444390132783008873e+00,7.630431036156103408e-01,-4.046053746049424471e-01,-3.850697022177421158e-01,3.346277850339903770e-01,3.185720268623567497e-01,-6.595666546680177822e-01,-4.666040362015192455e-01,4.656328102733084950e-01,1.209709205938149346e+00,1.364848480524484930e+00,9.573117590910630303e-01,-5.035676568196741920e-01,-4.235124447175614426e-01
1.156825586050064691e+00,4.976379790738564290e-01,-1.108694691815939271e+00,-3.025402931971393095e+00,-1.157579602831242838e+00,3.080071155579052089e+00,3.090075025622780913e+00,1.411073270442335881e+00,-8.299598311287613717e-01,-3.878936450490315657e-01,9.388754681094866328e-01,6.858621589626842097e-01,-1.287891949282849557e+00,-4.239414416161450205e+00,-5.292774276204679218e+00,-2.276161101411823928e+00,3.240465613906541309e-01,7.522931799992028656e-01,-3.888963641504816771e-01,-2.433874155860648592e-01
1.104236406876743182e+00,9.060992706228092608e-01,-1.702096143085817248e+00,-4.676027089044777263e+00,-3.602096228184503257e+00,7.571759302437851558e-01,1.868916038258694234e+00,1.101944118702077757e+00,-5.488553463748082617e-01,-6.662193278184057599e-01,5.102571169169122234e-01,2.100666678944695387e-01,-5.438290978731293857e-01,-6.035939454419136929e-02,2.644862907294333265e+00,4.516313367243673049e+00,2.471601531732118495e+00,9.740928572206930536e-01,-5.809642877269136640e-01,-2.749160097554158577e-01
1.129263747302601678e-01,3.267276086096305154e-01,-5.936213780082058022e-01,-3.938027565911452754e-01,2.866937059139308686e-02,5.339931905095732789e-01,6.510948123612205762e-01,5.179837901431408875e-01,-2.342718098601942744e-01,-3.883319024171500433e-01,3.526421844455009946e-01,7.129763195264520181e-01,-1.201074195484497231e+00,-2.953736392058779803e+00,-4.253245181790119567e+00,-1.924029980575851617e+00,6.096249541269678218e-01,5.500100133355048104e-01,-1.868714496910061917e-01,-7.019241481869128441e-01
1.665295652347075217e-01,7.414137194349227356e-01,-1.287619391257058821e+00,-1.092001860935267743e+00,8.510610691842985798e-01,1.787094509281934140e+00,1.494024543680683159e+00,9.876065882199976942e-01,-5.028169634158603518e-01,-5.209848032310701038e-01,-2.706409889230358967e-01,-2.026027851266533619e-01,2.194475386926869331e-01,3.420301597909029212e+00,4.305194895406297739e+00,3.570290611002092440e+00,2.457949822620476787e+00,9.183852923201832885e-01,-5.742744740666618775e-01,-1.641394058253215216e-01
-4.833759741354891337e-02,8.884149673384844625e-01,-1.440982196914886604e+00,-1.413790271400503507e+00,6.835804498984220379e-01,1.675705125410640317e+00,1.574211908855037478e+00,9.024959510292919207e-01,-4.483723547804452370e-01,-5.680089111429497128e-01,3.465018401837366979e-01,9.927301190185273683e-01,-1.642687604022631032e+00,-3.462533742306351581e+00,-2.374401984800826426e+00,-1.273356539851148439e-01,4.843822879153660832e-01,5.267522831143274242e-01,-2.054658652117818673e-01,-5.107520268640479699e-01
-8.077346547386039799e-02,6.225279835879101720e-01,-1.009557115380183667e+00,-8.311843486118853930e-01,-4.163292186338045653e-01,5.178170123315526396e-01,1.431193231102165120e+00,8.265486901084996285e-01,-4.071470462726891060e-01,-5.513983040046026574e-01,1.279519247558891015e+00,7.848192678608267858e-01,-1.569791306893518312e+00,-4.281422167826017144e+00,-1.458522456144067947e+00,4.283952302800405398e+00,4.050816928153666119e+00,1.565665931902605390e+00,-9.251912487793676476e-01,-5.294540176387354524e-01
6.784744347133563336e-01,1.030367671900904725e+00,-1.797940472305505688e+00,-3.883257167520614228e+00,1.022384422891420702e-01,4.786052073015350850e+00,4.143399619927615518e+00,1.343539092394814727e+00,-7.232850093460551077e-01,-8.819334861856071850e-01,2.011172804737496565e-03,5.529372559504628359e-01,-9.410156101852716892e-01,-4.357610250159318910e-01,1.081921831315923566e+00,2.101949420409135350e+00,2.257224127090094346e+00,9.772662991625897799e-01,-5.136091467303103286e-01,-5.774059462839784551e-01
-3.307628370771069359e-02,6.219021841674231554e-01,-1.061293140506470722e+00,-9.210131888744742257e-02,4.258307213190642315e+00,5.736173989951574015e+00,3.871722839477693690e+00,1.435554134360270684e+00,-8.237929708576217092e-01,-6.218907896197869434e-01,4.623847799776619749e-01,-5.984923804258984043e-02,-1.020300846955345953e-01,3.105191916956568932e-01,1.478604026205351252e+00,3.406108982159575138e+00,2.773012601842161473e+00,1.017842541808882340e+00,-5.146104408270684161e-01,-7.665914531891848682e-01
3.519655982712813214e-01,1.280678097486744216e+00,-2.112902705433688855e+00,-3.846236869569366945e+00,1.314242437328982271e+00,5.183337860494881433e+00,4.801915346751037816e+00,1.629953544954576117e+00,-8.892128182455716345e-01,-9.920943579240795174e-01,-5.911262832753958474e-01,5.232078586058970249e-01,-7.606015473375813407e-01,1.025340138940233015e+00,9.783926032773461179e-01,9.239238617526289721e-01,2.234261461164730900e+00,8.148103972803935058e-01,-4.091440365446045724e-01,-6.555852789307329287e-01
1.712030142983305969e-01,1.290916761072239183e+00,-2.087801141339182376e+00,-3.530244725085310176e+00,8.139442775012892262e-02,3.209346507313300290e+00,2.802252021123575521e+00,1.318229502251467844e+00,-7.175430765770394181e-01,-6.260220567949152937e-01,6.061005111074928564e-01,5.647358499199336412e-01,-9.897446555930200507e-01,-3.675443251688797819e+00,-3.893788797589424977e+00,-1.812585468848918691e+00,1.019701535018923827e-01,4.536677077439059680e-01,-1.940141330694533373e-01,-3.179716105601915199e-01
4.463346375545010347e-01,1.053696232036442915e+00,-1.782738181854171655e+00,-3.639357475019085353e+00,-2.896655507335262669e+00,7.814149765267728309e-01,3.113424226258050709e+00,1.569976954211974141e+00,-8.768603744407960088e-01,-6.398498249405869531e-01,9.999476795490487568e-02,6.707191635464309076e-01,-1.152173008424014045e+00,-9.838768257852948951e-01,1.348288505681655813e+00,5.505746901762926804e+00,5.485875222174747101e+00,1.763678623878695895e+00,-9.700092090071517070e-01,-1.118749116272311106e+00
7.791148337904356680e-01,5.508054389687061514e-01,-1.065028204568035708e+00,-3.060954116974890393e+00,-2.637427927589998777e+00,8.633648236797982767e-01,1.673365103173628299e+00,8.375074883708590878e-01,-4.076450742976293617e-01,-6.013650991187673434e-01,4.604111014031700422e-01,5.770757406226827424e-01,-1.088203627724107614e+00,-1.510524258264435815e+00,2.114161347835868954e-01,1.362498193910732125e+00,1.384523109251994510e+00,9.114609262354328445e-01,-4.567476025763966274e-01,-5.014646285299276807e-01
-4.619141097117012151e-01,7.509163583207876247e-01,-1.179846713341119901e+00,7.375084663465791834e-01,4.055549046952709347e+00,4.611246562240627789e+00,3.723827104551614031e+00,1.290382829496648620e+00,-7.053746437272542247e-01,-7.723694153643760885e-01,5.727302612444824526e-01,1.068488762579961948e+00,-1.823394061461226956e+00,-3.964456115098716538e+00,-1.295330330662609830e+00,1.065395893086400481e+00,1.952853940585301373e+00,9.729894179642604168e-01,-5.313836149190149793e-01,-4.262164455530209062e-01
9.249562859988315067e-01,8.423286693372942224e-01,-1.540359425083916767e+00,-4.269031888932274477e+00,-1.185667404293095695e+00,8.270544312078841331e-01,6.550218860113403707e-01,8.407278722077918820e-01,-4.926695668888123603e-01,-1.124547200792780192e-02,-1.985945945484781372e-01,1.108215190152058272e+00,-1.727617988680555161e+00,-2.051982340764889834e+00,6.141534082813996376e-01,1.886211245456970609e+00,1.983811724252666497e+00,1.057208794865733603e+00,-5.588502884602348786e-01,-5.345126533371862276e-01
1.518373365179862822e-01,3.529520274370233079e-01,-6.992363274759534342e-01,2.718285628306830737e-01,1.873133612412392068e+00,3.957022730585988413e+00,3.464127062574847038e+00,1.243123032071203449e+00,-6.234635524188884004e-01,-9.834279500133562557e-01,1.420567666938241380e-01,5.389579958872070531e-01,-8.970677442529826351e-01,-1.703807757761276465e+00,-2.447692883254620089e+00,-9.976566810737261815e-01,5.515953510568391005e-01,4.450443118118342367e-01,-1.405169859268499688e-01,-6.279080750702173974e-01
4.240243449194261993e-01,2.023537108369480308e-01,-5.043928060875807473e-01,-5.296469715346167895e-02,3.009211320100816156e+00,5.046271694507617589e+00,3.264066259009360316e+00,1.243677472658150318e+00,-7.535322549150090810e-01,-3.332469766855085669e-01,5.300757661672963472e-01,3.625099309037695949e-01,-7.369035812564317389e-01,-1.551382120030807110e+00,-5.518366477524363489e-01,1.884531693265311336e+00,1.949814614029413251e+00,8.175388780766115193e-01,-4.373252177593667245e-01,-4.501341317116754892e-01
1.457202902209176476e-01,4.692002937864365175e-01,-8.486574131543104249e-01,-4.916932990641522672e-01,2.927059578903246084e-01,7.943512921899155144e-01,9.068480656842162757e-01,7.729854900469939061e-01,-3.868470421331942632e-01,-3.992203177354091692e-01,9.562650868315063502e-01,8.356598528532543924e-01,-1.551293518377809821e+00,-4.260613290735919101e+00,-3.590853212823036600e+00,6.275455709328617848e-01,1.851677950148012064e+00,1.274558963923793531e+00,-7.039223161875014512e-01,-4.233847046282999127e-01
4.905808198749980198e-01,-9.264834423807898067e-02,-6.059763186997806778e-02,6.650492120924385020e-01,3.243583803384774367e+00,5.248416147286572908e+00,3.147805210490887795e+00,8.420951127031152117e-01,-4.814416572608751221e-01,-4.953176918532918305e-01,1.008274507510070528e+00,3.774319561707463744e-01,-8.957809427454345164e-01,-2.262149621498150687e+00,-9.884830457625978228e-01,3.527071917293903347e+00,4.172077537959378191e+00,1.623770017406563460e+00,-9.427469053411724476e-01,-6.303206025903622667e-01
8.502786542765763400e-01,8.001042211123657877e-01,-1.462923145197771779e+00,-3.969211985784279140e+00,-2.403248626067763016e+00,5.337987072263148391e-01,1.276471242908902459e+00,8.663352552115266558e-01,-4.525963098943094343e-01,-3.918332475262441550e-01,1.865223075121636431e-01,8.947765137455576667e-01,-1.515445400461899794e+00,-1.628876462240173462e+00,2.659841885718350341e+00,4.711308288351549578e+00,3.209442560349710760e+00,1.251380715495796769e+00,-7.043630712652325654e-01,-5.703206233095206024e-01
2.611299986195301792e-01,3.916679705230988184e-01,-7.433481744455324725e-01,-7.162227170103838692e-01,-1.285971735903672919e-01,1.030478446764854006e+00,1.282428076430150110e+00,8.154805222193007852e-01,-4.075989381409079737e-01,-4.800870803337562998e-01,2.236460378592022569e-01,2.627917677483693204e-01,-5.082832128267283922e-01,-6.135680679440421725e-01,3.147524110317600349e-02,1.403557006981079436e+00,1.472534128841870071e+00,6.891971961318258399e-01,-3.706096342779985897e-01,-3.546510143117602154e-01
1.181073027730915742e-01,3.842551760130690774e-01,-7.210928133765465153e-01,1.135461742366063349e-02,5.405647883481450311e-01,1.122902603203909999e+00,1.510864786960438133e+00,9.469299552897615380e-01,-4.997126370133012641e-01,-4.377357986242948473e-01,6.679542450604913917e-01,1.116088052076210424e+00,-1.936077527532045428e+00,-4.118436621393279928e+00,-2.235514393925723542e-01,4.557345021925910622e+00,4.689880558188567861e+00,1.748220339346775676e+00,-9.714831055592200171e-01,-9.107881401533433063e-01
3.325324855398308355e-01,8.606885959682384346e-01,-1.507506046912244768e+00,-1.886085814928575077e+00,3.007227999276729791e-01,2.575972005384764341e+00,2.440261053616624487e+00,1.270855017479280535e+00,-6.731423476769067271e-01,-6.464678641494164824e-01,9.353319959624134539e-01,8.427128274678560294e-01,-1.561654997214918961e+00,-3.921122458192224158e+00,-8.180468892025484218e-01,4.756501599151878423e+00,3.766464089188167108e+00,1.354117464933368487e+00,-7.919260280057764945e-01,-5.318980929176320149e-01
9.607198611845013669e-02,6.277828220038149665e-01,-1.067796991031344289e+00,-9.935255593416367770e-01,1.195735124468678467e+00,3.575913846203865099e+00,3.364172801715893613e+00,1.193676484210003386e+00,-6.413711706745616192e-01,-7.563106191877240203e-01,8.309698548969188803e-01,7.940693626908689184e-01,-1.451788304468806023e+00,-3.928693228927051084e+00,-3.083239661677065868e+00,5.480006969591471044e-01,1.832720780342443456e+00,8.671850023375656802e-01,-4.266085512466573082e-01,-6.223964678450901733e-01
4.368299767350091733e-01,5.864258281555364549e-01,-1.069220335734591520e+00,-1.845048722220414605e+00,-7.949233011301094776e-02,2.690079227828998665e+00,2.517889823250659465e+00,1.041331957722213986e+00,-5.719553484153748757e-01,-5.184695754048344041e-01,-9.971098472330949813e-02,4.309851767879445683e-01,-7.790280262699795788e-01,1.140475257610077620e+00,5.442521638204652845e+00,6.944864212208217147e+00,4.409068337462556109e+00,1.634415779044561923e+00,-9.886878507518891412e-01,-4.709010843593031681e-01
1.091110424910757132e-01,6.337995742768801621e-01,-1.099560838055725798e+00,-8.473342491795959885e-01,-2.618010602671593801e-01,2.100051975768218782e+00,3.324363929589599032e+00,1.505138671080311186e+00,-8.548271414540351554e-01,-5.989747309048926160e-01,9.894943695128536332e-01,9.738975915016212515e-01,-1.810778162678104097e+00,-4.010194740040736505e+00,-9.029361162113063166e-01,5.599383993829984085e+00,5.241657877902476059e+00,1.789029407710427177e+00,-1.030203289349076012e+00,-8.299897524525140513e-01
7.858109189209344647e-01,1.227092412138302224e+00,-2.151797609982515791e+00,-4.380211000774985486e+00,-1.301500245539038092e+00,4.606806228869003483e+00,5.329260475702401578e+00,1.889436912237283384e+00,-1.073525980897678922e+00,-9.147113037890535203e-01,-2.113509906497663127e-01,9.811596145661337642e-01,-1.571990543697043829e+00,-8.903390794940325703e-01,1.222363097976335133e+00,1.954353599677124409e+00,3.430844085955819356e+00,1.847336735181442036e+00,-1.148447208657183971e+00,-1.560676354556249090e-01
2.758990043834402828e-01,6.386654299802868584e-01,-1.134578783859364171e+00,-1.370013344249785048e+00,-7.609843047690700857e-01,1.775474781141463954e-01,8.183297649898432224e-01,8.317314929065584561e-01,-4.331190784883401368e-01,-3.197074749547108019e-01,1.120630190524472436e+00,9.455111528543991284e-01,-1.770041591948593229e+00,-4.635922135598666394e+00,-1.325419914235601127e+00,2.469176480428810994e+00,2.383140817487409358e+00,1.432803236922043144e+00,-8.601827368716934430e-01,-1.806092797397555461e-01
-7.149055672443642429e-02,3.978147427718583540e-01,-6.768635814944878870e-01,-1.940908781882296624e-02,-3.249688221244397823e-01,-2.281143869619647879e-01,5.982107874910502776e-01,5.943903396481609036e-01,-2.395715446089766443e-01,-5.652641415582077000e-01,9.145241523344086465e-01,9.256763973839747806e-01,-1.693366070391532752e+00,-4.303952982863548549e+00,-3.725866585143654763e+00,1.664059117238960717e+00,3.058233804925750920e+00,1.442977269339832391e+00,-7.516079616364649274e-01,-8.574563619531669900e-01
4.080086145273417175e-01,1.121502000815773892e+00,-1.887465575574115428e+00,-3.360665210631503808e+00,-1.299788295776417968e+00,6.396663759863648879e-01,9.819800682626830257e-01,1.021902283721816351e+00,-5.795813934597142669e-01,-1.688570856552254196e-01,-1.327374532154279030e-01,2.817145802902725760e-01,-5.001178259260395942e-01,9.150232369727184789e-01,2.270519188546825440e+00,2.513662408807090909e+00,1.781711788721408896e+00,7.262001401180544491e-01,-3.868590462932353091e-01,-4.246224840195483297e-01
5.396942203142482963e-01,7.834876354165062340e-01,-1.370015477573947260e+00,-3.200699352946098752e+00,-2.529404702204634425e+00,1.114423662848805119e+00,3.336194223967023031e+00,1.471145567291336054e+00,-8.529978386362537801e-01,-5.255481581116060452e-01,2.006342861709185244e-01,3.101026649447040651e-01,-5.994946226025861247e-01,-3.344543181778775187e-01,1.501840340490304682e+00,4.807727170720674792e+00,4.155298802590650098e+00,1.258127008899330157e+00,-6.851924660107125975e-01,-8.602826476285867496e-01
2.644139168198623713e-01,2.365651539097870792e-01,-5.063837769773754660e-01,-1.607862704425615519e-01,4.747515625926266303e-01,1.088013651795939785e+00,1.088246765109173841e+00,7.628188423124078188e-01,-4.091996379880137868e-01,-2.976006918806961554e-01,1.582443305693876479e+00,2.629088114502338702e-01,-8.409193568456646561e-01,-3.122436062326821027e+00,-9.285501290325716417e-02,4.628633495681911292e+00,2.965191657765831490e+00,1.354248458319960990e+00,-8.836991782161403020e-01,5.130943787658233390e-02
6.606771088156107030e-01,7.573749834087478705e-01,-1.320818851253649839e+00,-3.872802651900865367e+00,-1.444917982456406236e+00,6.852514847287967115e-01,8.746823335946526390e-01,7.764958590166215480e-01,-4.322002480141546865e-01,-1.725898561846768708e-01,-4.345369540437993838e-01,1.111803841687363681e+00,-1.734664523383851131e+00,-3.995010343776121409e-01,3.484598469304155177e+00,4.039644277537443706e+00,2.928025404921278607e+00,1.168177766087610259e+00,-6.629189335549380280e-01,-5.087743257869327129e-01
2.348810264453864427e-01,7.170506862997003683e-01,-1.205597352705131575e+00,-2.091271605025493585e+00,-8.913514552022857584e-01,1.121635560487257433e-01,4.229777823446031482e-01,5.337164324678734806e-01,-2.504814350200411099e-01,-3.083504217225255806e-01,-1.245526574890415822e-01,2.852674040052747273e-01,-5.078909156299867833e-01,7.961682980046411728e-01,2.304776005713887521e+00,2.282057850147015898e+00,1.926247484401869547e+00,9.069599026619667992e-01,-4.813344282434252053e-01,-4.898180821663417617e-01
1.254971099534359646e-01,8.990514242605308626e-01,-1.409912925822294660e+00,-3.258039697382110411e+00,-1.678096909245976764e+00,-1.944032556883825424e-01,4.671474673251181930e-01,5.256651533080420879e-01,-2.404700757267441147e-01,-3.500203892138678552e-01,-7.036869702136798743e-01,1.304461012980298928e+00,-1.967961043124770493e+00,-4.652194373099846625e-01,2.697795346473947475e+00,3.194403340889273579e+00,2.477274409607749472e+00,1.031352041393989838e+00,-5.408422437904037983e-01,-6.379391471766137078e-01
-6.081085430164778760e-02,4.709695018276905398e-01,-8.389916072919980650e-01,6.121985839830239584e-01,3.705210693637193575e+00,5.102030853001459754e+00,3.815357816989922490e+00,1.290634660857283844e+00,-6.918057201480033447e-01,-8.475195299653086600e-01,2.582937627161018823e-01,6.850013134356954803e-01,-1.187486866576823896e+00,-1.775039358637388487e+00,-3.346378997485287554e-01,2.258566568164442234e+00,2.690268232820364425e+00,1.057334257569685132e+00,-5.126409418563128151e-01,-8.763142465878674958e-01
1.279937527895904870e+00,9.751717610352986787e-01,-1.854618260582539868e+00,-5.016601748088082680e+00,-3.458563069364907760e-01,3.293228045528756365e+00,2.622438905459314906e+00,1.457447422650682611e+00,-8.551533955758856553e-01,-2.973120187676405179e-01,-8.170244438094448336e-01,1.465918433521838482e+00,-2.136292706533141406e+00,-1.749484579537023965e+00,1.478463394473779502e+00,3.768298860780653903e-01,1.170611825582836385e+00,8.129892432048998474e-01,-3.805117893686243424e-01,-5.854295700967443450e-01
4.196276931528681864e-01,3.634917711482510416e-01,-7.648889395647854306e-01,-4.603058944899720561e-01,7.805584687890841922e-01,1.518296282335869218e+00,1.328430407139346014e+00,9.443307717768095744e-01,-5.217034879453474883e-01,-2.902213553650662137e-01,7.937142347174659385e-01,-1.138521181138083538e+00,1.395454121504824396e+00,3.286614586564615248e+00,3.942466003253292772e+00,3.556389119131102561e+00,2.084433810146760990e+00,9.781741480728036731e-01,-7.145696419865487092e-01,3.937077330450612922e-01
2.701791959511562480e-01,5.100791491205596273e-01,-9.368807089330392079e-01,-9.205333846678794840e-01,1.966228898893351840e+00,5.171031449760254972e+00,4.165416975889833395e+00,1.289508073010119382e+00,-6.780498882882159961e-01,-9.659521936117955176e-01,6.134288090600482635e-01,8.952623412286218052e-01,-1.543731408954767126e+00,-3.994594816766141587e+00,-2.818987657650889211e+00,1.845398956592222639e+00,3.700739444630039898e+00,1.264388190006086043e+00,-6.677289963597810019e-01,-8.922598047645956543e-01
1.218523453503880694e+00,5.940076360915841347e-01,-1.225695209763299598e+00,-4.259641771423946288e+00,-4.368852410600283065e+00,-1.155867793429876000e+00,1.110105624074511493e-01,9.019970857029462330e-01,-5.221813847969162259e-01,2.604876066911016377e-02,4.644070377939022443e-01,4.016312849478964053e-01,-7.677423884158232070e-01,-1.650633699489450823e+00,5.443553236708161824e-01,2.027869142962015037e+00,1.607058459820388308e+00,9.014049766295860744e-01,-5.472365141444855974e-01,-1.096386602577827801e-01
4.762897580036858369e-01,1.310170602960104846e-01,-4.288751407100439561e-01,4.397410685276155196e-01,3.627043138277113776e+00,6.246974292722033972e+00,3.652412637144772045e+00,1.300123999450697898e+00,-7.807740430713773216e-01,-4.118535088304997593e-01,8.608684977292445639e-01,4.277438887870950723e-01,-9.044687706581473474e-01,-2.661030352963301038e+00,-1.894907075460301238e+00,2.894556075276727647e+00,2.698926329612221675e+00,1.016812601658684034e+00,-5.347593395128796834e-01,-6.585272840193218125e-01
7.377030212018257371e-01,1.220600215360645002e+00,-2.115310090087193728e+00,-4.512327765010321734e+00,-2.059994730169102617e+00,1.724165768103278484e+00,2.051782376917933970e+00,1.214403911075570219e+00,-6.380475730972339221e-01,-5.830320785456755139e-01,-4.279510951735593927e-01,1.076965543141620296e+00,-1.670595617486376305e+00,-5.154629068575968809e-01,3.057444660199389208e+00,4.314341709416018134e+00,3.118097569263236224e+00,1.206369759913078488e+00,-6.713438030700042969e-01,-6.101501060456973047e-01
4.508474660975318460e-01,5.499317450067768842e-01,-1.029066171534097185e+00,-1.625316609073137020e+00,-3.340443149292630920e-02,1.726700631436031808e+00,1.692298891369110603e+00,9.885019964762232769e-01,-5.194964147460324755e-01,-4.753289084260215458e-01,1.066880812011756496e-01,1.901301024376201854e-01,-3.843808512001199440e-01,2.986403386008096988e-02,7.585993727763956640e-01,1.161288918275712900e+00,1.152734887749276460e+00,7.473894312639142168e-01,-3.659004708225301328e-01,-4.621327985294128582e-01
3.252128726295248629e-01,6.942470454420346382e-02,-2.419471572135671322e-01,-1.211074887268839689e-01,-3.822664512526817160e-01,8.053953257355039863e-01,1.084034438367498021e+00,5.769572755431152666e-01,-2.891753071470516967e-01,-3.585761999144140844e-01,2.648991972854387589e-01,2.547949931343248542e-01,-5.791182909937142576e-01,5.705965203887712889e-01,3.857926224251694958e+00,5.928301714795397359e+00,4.167139883124121980e+00,1.509149598843020801e+00,-8.777043247709190865e-01,-6.106909113379949128e-01
3.016095949265366061e-01,9.726356506141476954e-01,-1.683883360837027610e+00,-1.819981400036529751e+00,1.445314048171611576e+00,4.928873831586466636e+00,3.731872267891278128e+00,1.386052775367072387e+00,-7.801327272068456775e-01,-6.738800711521606424e-01,7.200057376551829980e-02,-4.563942513610137752e-02,-2.437284327173196152e-02,9.569745360718541205e-01,2.347050685634190781e-01,4.382449854407695633e-01,1.028493151965734098e+00,5.977983108622555442e-01,-2.889467890958005714e-01,-4.214033012505908893e-01
9.461630447407515243e-01,8.612433939629773327e-01,-1.573274670945404186e+00,-4.528649995804598483e+00,-3.524949645157375411e+00,-1.630518083053708045e-01,7.140730626911608869e-01,9.313177064513837866e-01,-4.833391158292021372e-01,-3.274460965673438584e-01,4.194421451007466772e-01,1.206171907338537963e+00,-2.084938343303482711e+00,-2.666696209915279780e+00,6.259953099426944778e-01,3.447403963268092841e+00,2.908513321090964165e+00,1.498103465729013539e+00,-8.279279090978861610e-01,-6.001286089614510377e-01
4.959412914939470007e-01,6.269338758872075035e-01,-1.178685475699200902e+00,-1.481799373661042418e+00,1.432590869489235086e+00,5.024303688061593220e+00,3.796018323894188029e+00,1.159099317560201126e+00,-6.240275407520761153e-01,-7.966451855896479195e-01,1.145632178078279662e+00,1.193075049347005034e+00,-2.181053835923084883e+00,-5.134461850654195025e+00,-3.101692985321167662e+00,3.066785583855720088e+00,5.144104305436180802e+00,1.905276568384678848e+00,-1.086439263239175279e+00,-8.749865723005876283e-01
3.183371015063700127e-01,3.240918379340078093e-01,-6.566318613392950754e-01,-2.459897607310883305e-01,3.481842932339491714e+00,4.693570364644043202e+00,2.721258674715085313e+00,1.168231727172279300e+00,-7.451800021026314669e-01,-7.186596903972169992e-02,1.114796585735229995e+00,8.575398636293530830e-01,-1.621493974606724064e+00,-4.417306625401892894e+00,-1.967609534699611196e+00,2.244197706061825226e+00,1.622601611208323247e+00,9.610311539246823020e-01,-5.660744908730714897e-01,-1.552162541446159560e-01
6.047393970906347338e-01,1.113492301400801354e+00,-1.877392808137082536e+00,-4.669937901478554920e+00,-2.644936411201646020e+00,3.089282531065981718e+00,3.995770441249131721e+00,1.467703047864371335e+00,-7.610841498971735453e-01,-1.041408376843277583e+00,-3.833371112119198232e-01,5.931797039633994739e-01,-8.885367500316492251e-01,-1.540549823111710126e-01,6.964235935369729180e-01,1.896384769199151721e-01,5.658392984278224347e-01,5.830876224632016713e-01,-2.643308837719989257e-01,-4.214735179880655380e-01
7.670129177659090747e-01,8.619580809274390854e-01,-1.527967679386214028e+00,-4.248902148275188750e+00,-3.950458830774774999e+00,-1.270852624855985269e+00,3.580402586718245406e-01,7.618257521944821198e-01,-3.706701274123557766e-01,-3.505273558583211213e-01,5.152752594020457710e-01,1.039354476137148708e+00,-1.802886332068301956e+00,-3.123479719596901738e+00,-1.200127462442161924e-01,2.836476245670028540e+00,2.700711896296866588e+00,1.333540491385141857e+00,-7.559621198581905066e-01,-4.665890071609903322e-01
2.450427976576682321e-01,7.713897993782906637e-01,-1.370217683626049565e+00,-9.753066712304239161e-01,1.957477161670637678e+00,4.628578116066167425e+00,3.410512732246433476e+00,1.432854354547617781e+00,-8.064563388395958876e-01,-6.116918223863374582e-01,4.914429453023848038e-01,1.051084900366837216e+00,-1.771288347232244931e+00,-3.888124118627014791e+00,-2.997108242583204962e+00,7.519585632227349103e-01,1.239300917046501027e+00,7.716197960765490693e-01,-3.363292293036480030e-01,-6.816713754794004876e-01
-6.902423681604180628e-02,2.411023290321047119e-01,-4.339198546133721246e-01,5.420493099589949182e-01,8.160805032275328941e-01,7.784062215184233136e-01,1.404251149068508564e+00,6.827576102599102192e-01,-3.727814239005640684e-01,-3.165780224402171550e-01,4.285684968491362823e-01,6.570863083225698675e-01,-1.161769737234259692e+00,-2.217690315512216959e+00,8.144748055771787731e-01,4.174743012245406781e+00,3.713724478509155436e+00,1.353735707894403006e+00,-8.076198359645850866e-01,-4.672117171464224561e-01
-4.319882042104292857e-03,2.425106018882176306e-01,-4.498909757196159487e-01,3.518132618372476483e-01,7.752355758370251815e-01,6.878245629282329077e-01,5.810648183115761922e-01,5.037478042455217908e-01,-2.467322625558932003e-01,-2.751852082253013476e-01,6.169142787972656805e-01,8.422526573419656382e-01,-1.485658011987647242e+00,-3.377732129912483394e+00,-2.409245685109254076e+00,8.167361441762281959e-01,1.362424392046259092e+00,8.266168518809183796e-01,-4.120815526805009510e-01,-4.948717954506298145e-01
6.706366065960814860e-01,1.053692861422670157e+00,-1.845260307077458917e+00,-3.778268997710653387e+00,-1.593392194431823672e+00,4.164524647494361353e+00,4.790627477335870132e+00,1.678377274408671349e+00,-9.178283366695686452e-01,-1.005983056157867983e+00,5.001474890753914160e-01,2.070651035542889484e-01,-5.435050402284564708e-01,9.715112379238534379e-02,3.097764176679967285e+00,5.423265356937887027e+00,2.615270583579853536e+00,7.743571301900583626e-01,-4.275913171812510960e-01,-4.752473802829036420e-01
-4.346526557227235049e-02,3.652963163798452761e-01,-6.258212688174061844e-01,1.266001638274593666e-01,3.209083376615903482e+00,3.731602838129383315e+00,2.264907389398657322e+00,9.335197868906895957e-01,-5.359129337765060619e-01,-3.527097895385259418e-01,7.319811283762233112e-01,7.766438528848832457e-01,-1.404452592689544588e+00,-3.443353582903826648e+00,-2.031808477658134215e+00,7.471783832316372109e-01,7.409382927017613696e-01,6.671462289359310072e-01,-3.554957316617488039e-01,-2.244043129898699307e-01
2.077275827466180946e-01,5.258127585718421759e-01,-9.370494576853733992e-01,-9.788191183291781172e-01,2.384994859651620447e-01,1.076766227327274672e+00,1.322179535404337969e+00,9.258008812449605163e-01,-4.886208557488707638e-01,-4.024728109122748254e-01,2.162146853176412642e-01,-1.562140700138819061e-01,1.140795253467086212e-01,6.006545527574583820e-01,2.762445791533419404e-01,2.593522869042888881e-03,2.345311451460903029e-01,3.315194176525735892e-01,4.617691749418439268e-02,-1.100725556737815136e+00
9.651808797074843405e-01,3.963694264703868653e-01,-9.308991134263113754e-01,-1.750724341507122084e+00,2.390966266683398178e+00,5.679079018964604764e+00,3.408892393500528861e+00,1.418175910791243499e+00,-8.853856997438396270e-01,-1.852229464344061494e-01,1.271401048038835579e+00,4.826589483611834486e-01,-1.075907226915766124e+00,-3.720160197882940611e+00,-2.328373681299221065e+00,1.573432504812202426e+00,1.312119493580314655e+00,7.902094069247896924e-01,-4.749680987001531629e-01,-7.944846230697878708e-02
7.648363207263669805e-01,2.941743531901866993e-01,-7.462213605076251088e-01,-7.111688113801326594e-01,3.873916208106722880e+00,6.610408674443684518e+00,3.906327710925099783e+00,1.485869762299201424e+00,-9.101731569307185410e-01,-3.293015992421508553e-01,1.253591043068079003e+00,6.348886127472281871e-01,-1.325028521137183057e+00,-3.807953906576135861e+00,-1.621346986577389293e+00,3.095681973425627120e+00,2.317997354614627969e+00,1.054377100239350051e+00,-6.251743166913686922e-01,-2.525658003599778878e-01
6.002629747830473539e-01,3.714484470708965813e-01,-8.346719814410995530e-01,-5.321622269030403807e-01,3.437861225601369863e+00,5.578537687962460190e+00,3.626394228938502717e+00,1.497263037568284938e+00,-9.049892750185161150e-01,-3.494721192057371195e-01,7.215946368089444229e-01,5.745502729094021932e-01,-1.078517827888103353e+00,-3.110666109087764752e+00,-3.076551064982572026e+00,3.181082042332826765e-01,8.936369325529901486e-01,5.754073104663356419e-01,-2.555595406661061442e-01,-4.815419391911670011e-01
2.966770548763937310e-01,2.913764794742866870e-01,-5.726834897470391983e-01,-7.883592944776984801e-01,-6.243871708209254301e-01,1.633846712229351517e-01,4.624745904936339302e-01,5.649084450444685768e-01,-2.912134352373256796e-01,-2.128135546170941694e-01,1.773458390499209891e-01,2.317280228267141196e-01,-5.140947161172405577e-01,7.287595018801017455e-01,3.563619529544488795e+00,4.599866157739853634e+00,2.769067789372621657e+00,1.190184317711609374e+00,-6.840641079217091303e-01,-4.245026309624611027e-01
5.108966538180679251e-01,9.369480573601124407e-01,-1.639265931973988177e+00,-2.861089140476726911e+00,-1.051121164587828227e+00,5.622133313116649544e-01,1.115001589777506741e+00,1.176912711668480105e+00,-6.870324630958101197e-01,-1.047766108127632517e-01,8.810713879717605446e-01,7.868548725562827251e-01,-1.444820892216911679e+00,-4.068163571951379787e+00,-4.368460587725431665e+00,-2.418723164621816135e+00,-3.606814884994067327e-01,7.840997387549112352e-01,-4.609541202424790596e-01,1.322383481934034100e-01
-4.646447252836460873e-01,5.048764653749786557e-01,-7.577425486960156498e-01,7.257488541659833370e-01,1.907985267781028060e+00,1.218557978843709755e+00,1.567277218616659473e+00,8.241146668724049773e-01,-4.242218813204298722e-01,-4.851682905160508708e-01,1.336730136877752217e+00,6.482172148173754866e-01,-1.353283898330061685e+00,-4.279303998526250652e+00,-5.758097723622482844e-01,4.836319069554719796e+00,4.285486184813796839e+00,1.629567380422550560e+00,-9.799641035445758597e-01,-4.710150674749039035e-01
7.533856994888975533e-01,9.071943505968006471e-01,-1.631223575305567497e+00,-3.638312563368201413e+00,-1.375770276585251972e+00,3.998337664362795252e+00,3.551338663959451747e+00,1.250446438731198207e+00,-6.453046718477171151e-01,-9.078597098431709922e-01,8.492897241737142888e-01,7.763803342940679419e-01,-1.390927147249600093e+00,-4.567565217704579794e+00,-5.324186906833681121e+00,-1.123338770949449561e+00,7.519328698398534128e-01,6.051412583826975000e-01,-2.306447311652123633e-01,-6.547144210364960193e-01
-1.785131663176438843e-01,9.095997409027770653e-01,-1.506377810533550576e+00,3.048232534223498102e-02,5.368019790978334704e+00,5.563853892924528921e+00,3.400560944148364406e+00,1.495231586761121001e+00,-9.057600612319408606e-01,-3.111693066189732959e-01,4.765097063933375621e-01,1.344820720987501383e+00,-2.242767443306155961e+00,-4.286569278110554215e+00,-1.222686174077217469e+00,1.909263651872370238e+00,1.916376122855588893e+00,1.072898319816190993e+00,-5.709750497797037028e-01,-4.952173303858871112e-01
4.660567944591487155e-01,1.161026391858908102e-01,-4.364236466783335544e-01,1.002173224235317406e+00,4.942464282307098777e+00,6.664433648754656936e+00,3.824852688760406405e+00,1.363303781233327960e+00,-8.076331491500592374e-01,-4.752286718008227884e-01,1.303220458646610069e-01,1.382537482297531151e+00,-2.275456185063110315e+00,-2.769685151902597564e+00,1.109015557495992121e+00,5.600616479615388776e+00,4.508913137134130444e+00,1.559777588072482235e+00,-8.303996171642759050e-01,-1.033709973623371026e+00
9.059993190253217143e-01,8.536721639134090545e-01,-1.554097922649146479e+00,-4.312864979017547284e+00,-3.564902169510098418e+00,-1.065800508692188453e+00,1.502976795990332293e-01,8.428845614327695746e-01,-4.700425717716640306e-01,-6.284659614357288038e-02,2.087813524280064392e-01,8.326484203485854385e-01,-1.392119688317851489e+00,-2.164270365472061641e+00,-1.893472447208490173e-01,1.203187910692144591e+00,1.531029807903915074e+00,9.438705948835311998e-01,-5.337400963656663277e-01,-2.708289945064010773e-01
1.035210614245095639e+00,9.734969822835130016e-01,-1.775802062148170046e+00,-4.733870963161503020e+00,1.782691365024660302e+00,6.737073276333675587e+00,4.414864900364234401e+00,1.779751926566078613e+00,-1.067199000429378541e+00,-4.694767203420910917e-01,-7.878970617506853014e-01,1.700932966693757598e+00,-2.573662672852026656e+00,-1.395506736767532230e+00,1.433608083106512332e+00,2.738591691264936845e+00,3.178940516529078941e+00,1.317109752395345890e+00,-6.456547965620624829e-01,-1.038576374554110560e+00
1.519237427301061982e-01,3.614608016356385956e-01,-7.569927500669347831e-01,1.091368781189776760e+00,4.338868588217689393e+00,5.399172665937369331e+00,4.090624017581523830e+00,1.617907695379819266e+00,-9.393424468462834298e-01,-6.089794334199433168e-01,4.991121130775875714e-01,-1.939732494683572561e-01,-1.257506921076063759e-02,2.472516779040681456e+00,6.587651086876901374e+00,5.567979492319998336e+00,2.951633320090634172e+00,1.159767509083748926e+00,-7.325682151456900382e-01,-1.331410328017363365e-01
6.405455672872606421e-01,-1.577745411050550384e-01,-5.632404907761168200e-02,1.394269377809540300e+00,5.121895614601158719e+00,5.317876443364258243e+00,2.995847469401949237e+00,1.215125721542430925e+00,-8.591744667090761567e-01,2.791310505436758183e-01,3.464802692159392183e-01,-6.709644939516992701e-03,-1.491733982407726922e-01,3.764867153514340203e-01,2.002452729264133424e+00,3.923358620450857259e+00,2.929970959483092052e+00,1.069514231821096839e+00,-5.951906247152255469e-01,-5.567935168113222755e-01
4.886306149886360806e-01,9.863923655931895462e-01,-1.650812166845210927e+00,-4.342098698084008390e+00,-4.996893754199652982e+00,3.053981027197880671e+00,5.390427554541785682e+00,1.122235142262622665e+00,-3.394513893081147482e-01,-2.344596687686506975e+00,2.883958348580314413e-01,8.780880587174001439e-01,-1.450107589675049935e+00,-3.094494992575780756e+00,-1.064193596952625498e+00,7.570732187692658099e-01,2.717900636496976219e+00,1.141753044200743084e+00,-6.045615613850227055e-01,-6.841459389959149151e-01
2.686360217567724251e-01,3.181429754592015602e-01,-6.312064176226332979e-01,-3.566497765527212871e-01,2.472420903455598840e+00,5.112314139490578668e+00,3.706989584210142130e+00,1.191798093868133623e+00,-6.757882881805931108e-01,-6.420401345330146725e-01,1.349381807025477054e+00,6.106995792018289348e-01,-1.302407107961567556e+00,-4.293087635500397070e+00,-3.520867181955761094e+00,2.970395473578486989e+00,3.480673520536564869e+00,1.303869309901988904e+00,-6.843346666058857108e-01,-8.595540096880678327e-01
2.779913236625623507e-01,5.914319499816090842e-01,-1.051012736291389693e+00,-1.449881479165732401e+00,-5.373659401126712476e-01,8.472898755651084857e-01,1.451796968419611478e+00,8.267140768654535066e-01,-3.869116394287044902e-01,-6.267963066691668583e-01,1.020656705562822397e+00,9.821318018751253875e-01,-1.801457969306343498e+00,-4.674840657262974375e+00,-3.462004254159911643e+00,8.591898532016321033e-01,1.658059760126640692e+00,9.974060443951735522e-01,-4.871304257913317004e-01,-6.453477528298522392e-01
5.006272401789011450e-01,8.722781120066321892e-01,-1.472627194031711273e+00,-3.837259799825153639e+00,-2.229259406381286723e+00,2.829879237451936369e+00,3.612921349097815593e+00,1.143885792354815800e+00,-5.432191843045994784e-01,-1.130975136917024670e+00,-5.268462320180340441e-01,1.199644665745263961e+00,-1.768143620869967014e+00,-2.055978264824992241e+00,-3.722767623166554629e-01,8.630215595033589870e-02,1.560863197528348234e+00,8.154557502981251149e-01,-3.725576236026050259e-01,-7.072725335931576707e-01
2.964877364313605601e-01,9.909700141583624999e-01,-1.614127153109055079e+00,-3.720021640031890620e+00,-3.017011993076144538e+00,8.298127483739009547e-01,2.979466426376101040e+00,1.137247412450679285e+00,-5.541373067175814349e-01,-9.672033657122527384e-01,8.119369728065738145e-02,5.522703601572803711e-01,-9.400075840383247394e-01,-8.527329040832527518e-01,1.711162670844029066e+00,4.976509778541466922e+00,4.160154257534290245e+00,1.229376569177669909e+00,-6.806385798753243899e-01,-8.021678461794559123e-01
7.838642806259876750e-01,9.035871052178867657e-01,-1.647150032462886937e+00,-3.474971965283907060e+00,-1.022175538878107526e+00,2.683608088033747396e+00,2.689944228789969305e+00,1.246270144163797111e+00,-6.777411950829541620e-01,-5.873907179791455491e-01,-7.147614283249960065e-01,4.667786877443835247e-01,-6.085704223446268823e-01,2.826861516288295406e-01,1.501642441803983985e+00,-5.095813827775589333e-01,3.735069607771889233e-01,5.108642121897735144e-01,-1.562890872442340706e-01,-6.720950763623275703e-01
-1.013741787820708617e-01,1.455804186687540858e+00,-2.280733640791929417e+00,-3.313112095118726952e+00,-5.028421515836619671e-01,1.510238725400467885e+00,2.063518379414993831e+00,1.055132535709874864e+00,-5.256536757138411398e-01,-7.020824029273657896e-01,-5.791051995053231316e-01,5.957797273189227028e-01,-8.977441509620672777e-01,6.636875811881726150e-01,1.408888832753648845e+00,-6.509866512015202167e-01,8.034056643644633677e-01,4.508169824962040551e-01,-4.503406334598408778e-02,-1.098523239023906584e+00
7.047047689031336881e-02,2.697276774058882109e-01,-5.298134386321496914e-01,4.146842619192004364e-01,6.806801344054720371e-01,8.586672045173109336e-01,1.063953901604767882e+00,5.799971825582513896e-01,-2.660555990534074766e-01,-4.730553232726836810e-01,9.192415793861162532e-02,9.882851603717091038e-01,-1.643804464914978558e+00,-1.559661485340363196e+00,2.959510396500875995e+00,4.509401321603711210e+00,3.042155342065150148e+00,1.218592421937662928e+00,-7.320260340695116108e-01,-3.302357431337333837e-01
-7.531580635979632232e-01,8.701527406739165693e-01,-1.323212032917720604e+00,1.498693217470276728e+00,4.786360807401660367e+00,3.864356169359796311e+00,2.660239319785158596e+00,1.105993937533811478e+00,-6.030563091539573595e-01,-5.801463599071284838e-01,3.085834994315035940e-01,1.280496117132021050e+00,-2.145522608834331102e+00,-2.986660158121811737e+00,-1.233637079084444338e-01,1.410720089348846962e+00,1.288653957355660129e+00,1.075453636689251535e+00,-6.069022711658607072e-01,-2.321843528827952086e-01
2.585620311255480003e-02,3.500388894606449863e-01,-6.449121858108116667e-01,5.023348562142303519e-01,3.299415828965075903e+00,4.954170492381631874e+00,3.234501737655927744e+00,1.064764344690901643e+00,-6.119032420397650940e-01,-5.165892679195615012e-01,5.194881843491676587e-01,1.353891176691229548e-01,-4.215023981163735778e-01,-2.604796964416692395e-01,9.555507462618437753e-01,3.616609859952582884e+00,3.272861854313167562e+00,1.292293405963410580e+00,-7.017965677355899601e-01,-7.121695496425978211e-01
1.052002646597782753e+00,8.502377674586301115e-01,-1.594548998298904730e+00,-4.656697113431566670e+00,-5.715432390916519445e+00,-3.228371460439664192e-02,1.845689904245559454e+00,1.024944232410632150e+00,-4.497964400931684925e-01,-9.418074897415324997e-01,7.194729990203047043e-01,4.735987897258960300e-01,-9.385918888970949947e-01,-2.479205225080985286e+00,-8.809488004612554546e-01,-8.591489083188111886e-01,-3.408666327338087387e-01,6.599788462546342105e-01,-4.049263542378130354e-01,2.178542105599974299e-01
2.701451318689884196e-01,4.899187094272099974e-01,-9.207997294155391144e-01,-6.634607146240983910e-01,1.043024332290639400e+00,1.881250444424791501e+00,1.359952210694324926e+00,9.935966057797154249e-01,-4.953485467045384283e-01,-5.389384833498344074e-01,2.191001076048022245e-01,5.815270269338155273e-01,-1.006052720768852327e+00,-1.576995706595549107e+00,-1.295112994251186533e+00,2.255863184604489646e-01,1.120180856617416731e+00,8.504599089216875463e-01,-4.125159583446688094e-01,-5.285063116098395186e-01
7.290593239009116600e-01,1.041198195872382826e+00,-1.850086750628096466e+00,-3.654570945221286227e+00,4.924091302471494958e-01,4.353361584375468496e+00,3.688712983659220956e+00,1.584295871330906547e+00,-9.115183214216956431e-01,-5.649962703164238542e-01,1.251968666982789191e+00,4.102747281828866832e-01,-9.351574649225830038e-01,-3.937373517951201052e+00,-3.701339259183114905e+00,-7.501240834452977957e-01,3.045005641989635414e-01,5.808299118188950949e-01,-3.479005549208267767e-01,5.457755732791014225e-02
8.647926896710916855e-01,1.169646515109369567e+00,-2.055466190089077383e+00,-4.958260813904634468e+00,-3.407430555518462967e+00,1.577795724874518912e+00,4.018156142552203214e+00,2.060252998091371968e+00,-1.193216348691636952e+00,-6.261290967619803638e-01,-2.887410796293223836e-01,8.487920517848549506e-01,-1.286844772264807313e+00,-1.438885621244430091e+00,3.719067733932117648e-01,3.938134702810277776e+00,4.272722219550328049e+00,1.190119194768034960e+00,-6.003370661656319829e-01,-1.105198461843137414e+00
-2.839656951937615803e-01,4.089266846919238918e-01,-6.827602427859317258e-01,1.132466503559336646e+00,4.430444384814155256e+00,4.365957081595062128e+00,3.204430423357825131e+00,1.319014853581703006e+00,-7.504123051278267509e-01,-5.478496668393592062e-01,5.970613623765526068e-01,1.024872175681158737e+00,-1.775721911723798119e+00,-3.676201373728007482e+00,-5.977744144687987538e-01,1.789623191456381157e+00,1.752793692353818544e+00,1.080900543648068757e+00,-5.747508934748014608e-01,-4.636421307139149683e-01
1.272898443345970465e+00,4.790443193775842379e-01,-1.059217285869484382e+00,-4.003094826907793724e+00,-3.184080472850345789e+00,2.020127936109223088e-01,6.492482066705623778e-01,6.535936327492537501e-01,-3.471578949452838736e-01,-1.971500951906736687e-01,1.121196046370376509e+00,5.775051542308854424e-01,-1.202207269499034892e+00,-3.453962077517546359e+00,3.119367106980907023e-01,3.652821175777791307e+00,2.402643507862227246e+00,1.209024253379444858e+00,-7.322571716748552673e-01,-1.738077787226555981e-01
2.327969956104582183e-01,9.929984843513604831e-02,-2.849629865947307938e-01,4.255611375236105220e-01,3.278242266842455788e+00,5.311199777442256575e+00,3.032952139836928573e+00,7.756738233677977767e-01,-4.384056727382376617e-01,-5.057255253711219201e-01,9.162136247810643841e-01,5.334668063995651188e-01,-1.085688624680491099e+00,-2.990171332968293072e+00,-1.295304981087003204e+00,3.988592778387209936e+00,4.031563655553639158e+00,1.292567749563118040e+00,-7.256733600324157818e-01,-7.273722898631842515e-01
