3.656711556524647744e-01,6.500212201899022713e-01,6.167010902747938061e-01,6.158890778890743212e-01,6.089519654782634683e-01,6.068969191336066604e-01,6.234817888035939504e-01,6.118481306512173479e-01,6.570299985655814190e-01,3.381532784992020702e-01,-1.759848384428923038e-02,4.474069931215081397e-03,-3.357205969722505678e-03,7.772425752612480490e-03,8.883565330412564881e-03,3.084761791787661925e-02,-1.781695819703903519e-02,-1.200424682204461954e-02,-8.517192730400644299e-04,5.576160001004595163e-02,-1.130826549389452040e-02,6.057197521626180026e-03,-6.722178248417521457e-03,-3.738337950464763748e-03,-5.881637480783942495e-03,-1.281126700391730655e-01,-3.786753578040694818e-02,1.796654872671556158e-02,-1.317309349200683488e-02,2.279390006715964132e-02,9.474887310583286759e-02,-2.923940863267645088e-02,2.898199203051990414e-02,-1.057685608461972071e-01,-1.241916069113031401e-01,-6.553534494026660995e-02,-3.040939460080781254e-02,1.875199760229722887e-02,-1.913039211903058701e-02,5.730499368235281166e-02
3.439792057642225842e-01,6.551335393340037561e-01,6.134832307337414470e-01,6.203756883638371633e-01,6.133519065359196443e-01,6.136345305741488509e-01,6.232470575254430711e-01,6.113130788320542131e-01,6.579663540497719953e-01,3.340769571722841391e-01,-2.643813864542792630e-02,6.260573646088582120e-03,-3.958012584187978709e-03,4.675692069275586525e-03,4.114637711001130349e-03,3.492650029917106214e-02,1.203946694359597953e-02,-3.140311006923231230e-02,2.505018799853675829e-02,-4.423040977968275417e-02,-2.964251208291809880e-02,9.990482789486668930e-03,-8.900874338247296083e-03,-5.372659030116778978e-04,-8.366213023145510630e-03,-7.098175280421717415e-02,-3.303157882508597765e-02,-5.047789459819976808e-03,9.714678826969781744e-04,1.854084712150967651e-02,-7.384072664528876229e-02,2.228629455756471478e-02,-2.143265244560878593e-02,7.436285623084945562e-02,9.038711058857459846e-02,5.642529805405015197e-02,2.240526275256739946e-02,-3.047459114551042889e-02,2.667434043485523640e-02,-5.971206210098360667e-02
3.424572661743308100e-01,6.554981954837564295e-01,6.132544282948958481e-01,6.206314902985816673e-01,6.163637647578714684e-01,6.124369764110395575e-01,6.232780986600520157e-01,6.118034524639048843e-01,6.573032020062904435e-01,3.362566149654115932e-01,-1.555512201484795382e-02,3.609295514374614728e-03,-1.997059673468301773e-03,-7.651839222227092320e-04,-9.702910712848955566e-03,-4.870888338955194075e-03,1.138015837161164643e-03,3.982890004160553193e-03,-3.249437627408998004e-04,-1.402683905130911075e-02,-1.542155580703771789e-02,6.626798537115195786e-03,-6.520779253446910145e-03,-6.625916341032760115e-03,-1.749484270840876571e-02,-1.062396915136251535e-01,-4.045748147377475901e-02,3.131463476795098844e-02,-2.491712810134232015e-02,4.821192298517463365e-02,-5.381080087604137030e-02,1.735182882768961793e-02,-1.777235580024869727e-02,6.439303921277397813e-02,7.480345210913870446e-02,1.828118939469154658e-02,1.577635910530165303e-02,7.298472517831694484e-03,-1.800689125383721917e-03,-1.976238270397570607e-02
3.595989900893299396e-01,6.513985112098825692e-01,6.158681710457563074e-01,6.169553107384493362e-01,6.127298408637342764e-01,6.155769579715428819e-01,6.210780263582631466e-01,6.121807203950426768e-01,6.565421327906513227e-01,3.406343581572051082e-01,3.123653118451755542e-02,-6.645180417739193594e-03,3.503849248974550464e-03,-4.260209257382577969e-03,4.560493880292719460e-04,-2.357500840507264356e-02,-9.873732374606937132e-03,2.273217044028759404e-02,-2.081248373040313349e-02,5.023793558745938415e-02,-2.530234000900305480e-02,9.241222935622774026e-03,-8.751653071759742109e-03,4.864352361576042283e-04,-5.246649213815450519e-03,-9.652167989813496829e-02,-4.441935762709805363e-02,2.398489205599809489e-03,-5.986450005621391304e-03,3.753829020636974267e-02,7.081006554587662705e-02,-2.346867020098045500e-02,2.481980242908858256e-02,-9.462271710072739372e-02,-1.079655949088592082e-01,-6.347307426868724345e-03,-1.854511899141273595e-02,-3.333323125984945234e-02,1.933784267993748224e-02,7.362497886161167848e-03
3.404177932856002897e-01,6.560053641467116226e-01,6.129300919567257644e-01,6.210917931633832545e-01,6.156548041319667153e-01,6.199514079904917541e-01,6.224988143105749661e-01,6.101127815802250831e-01,6.598666170931478669e-01,3.269725599796167170e-01,-2.375718886921206197e-02,5.542134348969027929e-03,-3.353836183481938640e-03,2.172382396103466479e-03,-2.760583551880847059e-04,1.426132194300995526e-02,7.732128703311915222e-03,-1.332094040689058359e-02,1.329882527767567955e-02,-3.701420287816162974e-02,-4.345622983692811608e-02,1.332230088839464477e-02,-1.127781737117294555e-02,5.870152484619598800e-03,5.828174064589125049e-03,-3.283192995554987809e-02,-2.461263302290525937e-02,-4.620441897015268445e-02,3.197888741241638327e-02,-2.495279044246785649e-02,-4.895992056327128777e-02,1.632716877656394464e-02,-1.726783044821115706e-02,6.423844713825765940e-02,7.431230895618753940e-02,9.091534575922446959e-03,1.268867675348836141e-02,1.488941553437832938e-02,-8.247421338999680329e-03,-6.815652030437172049e-03
3.505255942116884960e-01,6.536102515915407363e-01,6.144387472747778745e-01,6.190251860491079450e-01,6.120951947900308276e-01,6.142585635903931029e-01,6.220195896079303566e-01,6.113545416903708452e-01,6.578104656856822441e-01,3.355356923377381673e-01,1.474500325940840406e-02,-3.149004971415970619e-03,1.804193318579871627e-03,-4.180487184785635670e-03,-1.141930698922320395e-02,-3.886967223589737896e-02,-1.169230946799990414e-02,4.030861449322596657e-02,-3.187004361471457853e-02,5.362076747313547498e-02,-3.440808931408230464e-02,1.138851852963815303e-02,-1.015345945438797352e-02,4.210683569190389053e-03,1.330912616404132665e-03,-7.822097256001279975e-02,-4.117186914653300778e-02,-2.067745426348678930e-02,1.074705811580950812e-02,1.751552288647191882e-02,7.412707160205525558e-02,-2.301117870606401300e-02,2.297999173975658754e-02,-8.474153504424697392e-02,-1.016239638957352337e-01,-4.659171678032533737e-02,-2.097987949312755604e-02,1.564135706464805237e-02,-1.598578115744881539e-02,4.723903784370134251e-02
3.467056795946907854e-01,6.545312422891602644e-01,6.138485655164254151e-01,6.198063070304161704e-01,6.159479282876927364e-01,6.122565512343396410e-01,6.225173839349686933e-01,6.120516783630973734e-01,6.568131163348966961e-01,3.389059269684679965e-01,-1.918013284824716252e-02,4.331545729809585174e-03,-2.288108605693764744e-03,-2.033289377469960860e-03,-1.701409960095239676e-02,-1.507124577034186716e-02,-4.766907062822898708e-03,2.231004267492657858e-02,-1.633280799886777795e-02,2.036149651060722987e-02,-2.112475875580704932e-02,8.010866307277680898e-03,-7.535527779630218220e-03,-4.392356347799289407e-03,-1.303865007064264336e-02,-1.101206815765799207e-01,-4.501630517133467513e-02,2.291777624418086037e-02,-2.146722603561672035e-02,5.883859899406523181e-02,-5.675234988795232333e-02,1.863019809834231752e-02,-1.942610174678176260e-02,7.150503079842623899e-02,8.122919968173028527e-02,1.386420043577679673e-02,1.765753436556330436e-02,1.621290102104014363e-02,-8.459625490822929306e-03,-1.158831508790861275e-02
3.606949512304363781e-01,6.511914654690593718e-01,6.159710521357970592e-01,6.168936690392226030e-01,6.087314515033332984e-01,6.095315000357401924e-01,6.222602667900855034e-01,6.130255575279395241e-01,6.551260934228801958e-01,3.461512485380435766e-01,-5.438280274394542008e-03,1.615070944147604850e-03,-1.482038429076882073e-03,3.494329358966395249e-03,3.468937524988195339e-03,5.308476573206927576e-03,-8.783616745902816242e-03,1.510922613345816240e-03,-4.509545120930082140e-03,2.521458126632070834e-02,-1.190238581108438165e-02,6.171763550071818205e-03,-6.771161901148865098e-03,-3.620355515861050505e-03,-8.518957003200058886e-03,-1.065120752155601785e-01,-4.778900858536525020e-02,2.433830993476106958e-02,-2.454324560425552929e-02,7.403200491588596277e-02,9.434058204020062677e-02,-2.875529163288615547e-02,2.815255326850474651e-02,-1.018915881693447378e-01,-1.210952133696674982e-01,-7.013989127781776467e-02,-3.051143430291202233e-02,2.955364013687221750e-02,-2.786940756121319279e-02,7.216851303656673933e-02
3.500376592901797146e-01,6.536639195143547632e-01,6.144380164135718747e-01,6.189948672549505648e-01,6.112028460949370245e-01,6.130190240068038587e-01,6.224133035772113631e-01,6.112460076896787387e-01,6.579637319924556138e-01,3.348216092236113717e-01,-4.893885774004957945e-03,1.667786746538144765e-03,-1.860390148079386387e-03,7.075758639417241945e-03,1.589488145922795734e-02,3.285318988096926074e-02,4.782994248878177229e-03,-4.090804606545889871e-02,3.150644725065011864e-02,-4.687080991620179438e-02,-4.426448357395808275e-02,1.355000021894163867e-02,-1.137365091413974905e-02,4.802127783416737516e-03,1.711836686698560428e-03,-7.839322350587321631e-02,-4.052054904983211359e-02,-1.435268283727228651e-02,6.818909126747345860e-03,1.834229085649383487e-02,8.332088836075174365e-02,-2.521802646009370028e-02,2.445215352432671824e-02,-8.753216718647505168e-02,-1.032079112992551062e-01,-6.316137565289958733e-02,-2.610584393162010061e-02,2.775763591468317221e-02,-3.326837960816479700e-02,1.118399036857943007e-01
3.520705947737337027e-01,6.531594329290698608e-01,6.147766028012411343e-01,6.184656736816043221e-01,6.110327016699410585e-01,6.156813666983798061e-01,6.221883742973781661e-01,6.114676206083065058e-01,6.576437189016034468e-01,3.359896919375562341e-01,-6.879238801498446798e-03,2.147307648645528991e-03,-2.185388765812017013e-03,7.961852777301468148e-03,1.749270638635417804e-02,3.921032369244979721e-02,9.778765235306081938e-03,-4.482233944985421215e-02,3.389422319087374846e-02,-4.886216069361265513e-02,-3.495820239258749795e-02,1.145693297526695700e-02,-1.006839072944919720e-02,2.800425992517101975e-03,1.459729878374733947e-03,-6.705533543345287839e-02,-3.384215457519315629e-02,-9.138807576843033936e-03,3.116112686775576821e-03,2.087594827437104505e-02,7.832734921333078804e-02,-2.455617875937086275e-02,2.466807627235630823e-02,-9.067720785995930788e-02,-1.053143298991875421e-01,-4.232184991623694215e-02,-2.708787095647116616e-02,1.606031655300075439e-03,-8.410699370818675025e-03,5.359460575835703344e-02
3.643511284752398716e-01,6.502924978391088073e-01,6.165471745097009793e-01,6.160624291445873091e-01,6.120234885257461732e-01,6.119188356919953442e-01,6.208226435554087264e-01,6.129877520649900102e-01,6.552014233752665451e-01,3.462156596026673139e-01,3.786025708734849782e-02,-8.120006417764044637e-03,4.406877057770227854e-03,-5.518320445804426530e-03,1.656662668700282365e-03,-2.871287241429742315e-02,-1.253111949066278499e-02,2.747886622769417017e-02,-2.530786946256401507e-02,6.183055556991328555e-02,-2.348288363525213862e-02,8.791431292549431453e-03,-8.330283583818619275e-03,-8.593148585936058459e-04,-8.970191437476182639e-03,-1.182985921614652935e-01,-5.213763128995429347e-02,1.417402956081623838e-02,-1.512108814468792264e-02,5.291650540553145821e-02,7.890664533967532701e-02,-2.559634016192077061e-02,2.655460851400549827e-02,-9.982012618391347680e-02,-1.144712587252022240e-01,-1.744723389500695693e-02,-2.164401923939599307e-02,-2.412415311554490238e-02,1.199245728553525320e-02,2.008233862947869652e-02
3.563948705324953004e-01,6.521149353508843838e-01,6.154516666433549332e-01,6.174841494298202171e-01,6.109290031372132113e-01,6.201499892691938465e-01,6.216231911581191483e-01,6.107426957031407699e-01,6.586176615527625788e-01,3.329758378119360707e-01,1.251027322621552085e-02,-2.603823933744583291e-03,1.353348345402515494e-03,-2.937212417898059716e-03,-1.164276054273476885e-02,-3.113216208832988649e-02,-7.545636776841227293e-03,3.118091234389481353e-02,-2.341201413137741077e-02,3.302233229974908812e-02,-3.281607838059116822e-02,1.110206008671141970e-02,-1.018149693777316116e-02,5.278199731679889331e-03,4.994920764991028772e-03,-4.718685954206885275e-02,-2.907780023807966449e-02,-3.103737720483032078e-02,1.860677691858942523e-02,3.749877635642263202e-03,6.856155763178342633e-02,-2.304800405393422208e-02,2.470926709069558302e-02,-9.532798065868268445e-02,-1.111465167958370914e-01,-8.142290084847465803e-03,-1.709449905441037115e-02,-2.953607998427751347e-02,1.730104784836374032e-02,5.389581944495652754e-03
3.533819405794125235e-01,6.528246111738160717e-01,6.150068099343350969e-01,6.181196093975455108e-01,6.099597508010015101e-01,6.201781583169800882e-01,6.217925199299736416e-01,6.109520992958014096e-01,6.585742626222004237e-01,3.320725441229075425e-01,-7.765068468376627384e-03,2.153278594241819603e-03,-1.890994761560916768e-03,4.860525626037648893e-03,1.299894618508643830e-03,1.297529043229279574e-02,3.238053907313609078e-03,-1.332470994811808286e-02,9.712416674360329488e-03,-1.222120730778766123e-02,-3.753248686728072325e-02,1.221406552153922985e-02,-1.087428035622338418e-02,6.785147749892209146e-03,1.135911548565997527e-02,-3.242942778821659988e-02,-2.340886318156087942e-02,-4.009454921872955546e-02,2.571535384789788714e-02,-8.376415558044818591e-03,7.606613148096638688e-02,-2.446350271632844950e-02,2.520188911566729334e-02,-9.450113870177369313e-02,-1.107127029005197383e-01,-3.135393285273492536e-02,-2.451377211680436097e-02,-8.970799482474707542e-03,1.374531264112494044e-03,3.070190627502769609e-02
3.580544883561580516e-01,6.517212178656298649e-01,6.156974238785287712e-01,6.171993310650346620e-01,6.073733459370986854e-01,6.145528045163826114e-01,6.225653806593772766e-01,6.113324342058581440e-01,6.578195244854256885e-01,3.353536198740582064e-01,1.335829819774994598e-03,3.363381523563361425e-04,-1.163928748753679555e-03,6.698788223499093156e-03,1.695911624696590236e-02,3.352278474183997131e-02,-5.033273748107375961e-05,-3.688796309928183553e-02,2.490178969577461904e-02,-1.811539200077915204e-02,-3.158480725993863258e-02,1.075241726018190402e-02,-9.667775305413909420e-03,2.900115298709060943e-03,4.386595520329453213e-03,-6.096799501604671656e-02,-3.071658065925760364e-02,-1.503399289404622717e-02,8.630413052401692334e-03,7.436207631561582779e-03,1.005271046738094587e-01,-3.035740947491982061e-02,2.933659691993762211e-02,-1.043165952536910662e-01,-1.209290773605091185e-01,-6.798098242621540555e-02,-3.162161481986828365e-02,2.581596405031321914e-02,-3.238585642529274999e-02,1.154130198278089936e-01
3.641514600483013453e-01,6.503129603946081749e-01,6.165507557238019132e-01,6.161269876257902123e-01,6.053911550560195920e-01,6.103970961650063698e-01,6.217712178896408481e-01,6.125265699493134264e-01,6.558602775288512321e-01,3.435519826453571346e-01,6.536903230394333977e-03,-1.093321662006937079e-03,1.880584629842651373e-04,1.152729485827552573e-03,9.062575938024175493e-04,-9.727882783885173981e-03,-6.987232831186308488e-03,5.732641082874489515e-03,-5.907270552143613004e-03,1.769969093838236890e-02,-2.658621792012055840e-02,9.643540615194363258e-03,-9.121084163275804124e-03,2.388258824794178142e-03,2.100554103263055361e-03,-8.373668891146884841e-02,-4.291437737641902450e-02,-1.120008531183733919e-02,2.646463238517825223e-03,3.373219077687085454e-02,1.101975389345415807e-01,-3.290696181960883759e-02,3.146394280454434256e-02,-1.112562613916446008e-01,-1.332192115408922239e-01,-8.915481058149203608e-02,-3.886232813329641017e-02,4.421067352864389843e-02,-4.001312210223845894e-02,9.650043254356086009e-02
3.427692988668122887e-01,6.553624894603438111e-01,6.133897396480401110e-01,6.203742860376257884e-01,6.134899240315389024e-01,6.189117239551576999e-01,6.229528848198930824e-01,6.101767404673263950e-01,6.597407091670417500e-01,3.272791381378856723e-01,-1.380518051942772328e-02,3.010359623389448347e-03,-1.267348686959463878e-03,-5.032567694317960708e-03,-1.910543376441431462e-02,-3.253676281872521642e-02,-1.579065295410892519e-03,3.469015938012081496e-02,-2.098474025352833200e-02,1.632010534770095972e-03,-3.959367650557176627e-02,1.236683611579637680e-02,-1.050763661245416106e-02,3.455535225347436921e-03,3.545189915984887571e-03,-3.613150645984826437e-02,-2.127803813124844873e-02,-3.091146842668894557e-02,2.121005026457663603e-02,-1.518795489677396415e-02,-5.958181429485545633e-02,1.952192302023677759e-02,-2.031154224383849988e-02,7.467055868015370912e-02,8.741640104646138110e-02,2.206995618326190040e-02,1.935675326000728738e-02,9.661407396186410396e-03,-3.070058983400923702e-03,-2.129679859547874143e-02
3.492544482611574796e-01,6.538211333048409291e-01,6.143643692437309456e-01,6.190270130353251465e-01,6.115759537875155027e-01,6.190967361608661346e-01,6.222504780938373781e-01,6.109877764032138892e-01,6.585456393327999702e-01,3.319240183552127910e-01,-1.104693466591733647e-02,2.970074134038683429e-03,-2.513470946708159636e-03,6.841005865828605689e-03,8.329546656196543455e-03,2.807460628124973726e-02,7.157514783640415816e-03,-2.926347251872069011e-02,2.186519274459731640e-02,-3.041712893851162072e-02,-3.599631974482011415e-02,1.177564524747408414e-02,-1.044521075018065709e-02,4.945699788729291529e-03,7.217079247950995181e-03,-3.678351781923899083e-02,-2.338593607234865784e-02,-2.968954690415074454e-02,1.873063368404731185e-02,-3.197054820008933540e-03,7.063769860798298217e-02,-2.260108686327064534e-02,2.316823922536557362e-02,-8.661771208679754086e-02,-1.013027365925598389e-01,-3.109944225944243079e-02,-2.368180303626295571e-02,-6.707471235551095562e-03,-1.283619847464168018e-05,3.074561197053798933e-02
3.504073683769164393e-01,6.535922440816985812e-01,6.144719780005741816e-01,6.189534041564909161e-01,6.122537625727257904e-01,6.106898263783522296e-01,6.230017084491792367e-01,6.123273358257015353e-01,6.563932009370814225e-01,3.402244305818871162e-01,5.623275868407761127e-03,-8.402487899671785138e-04,1.619912156238398023e-04,1.709071434134850406e-03,7.946737672197085045e-03,3.516342756086407451e-03,-1.433366178541287160e-03,-5.385951148899757041e-03,2.753256366695907946e-03,3.553258117108073350e-03,-1.948800614718870783e-02,7.791447787518529511e-03,-6.967779030561963016e-03,-4.016040341700236049e-03,-1.288716513459885887e-02,-1.054763525072168334e-01,-4.176604597165037291e-02,2.790022791760154303e-02,-2.327776975279743921e-02,5.103200963735375628e-02,7.768966387773590387e-02,-2.378960609902560502e-02,2.340341156510696366e-02,-8.478173800586148723e-02,-1.014725412664838067e-01,-5.497792778840985412e-02,-2.688720047755427389e-02,1.983278410258909261e-02,-1.956670298253834067e-02,5.559293227720962793e-02
3.395179078849841492e-01,6.562492354524570581e-01,6.127538103984997431e-01,6.213377053762313418e-01,6.173274779975070903e-01,6.108289621389479951e-01,6.239788490544415644e-01,6.114472974706157693e-01,6.577111348898362353e-01,3.350515608203139539e-01,-2.850989897534626089e-02,6.515524383457141008e-03,-3.702539014656899309e-03,1.626462934686305310e-03,-1.162314609573595128e-02,3.043324361683829183e-03,4.959315170809400208e-03,1.725295479312392681e-04,3.478704629470886437e-03,-2.508329678703364804e-02,-2.131116734098723042e-02,7.885015420128427266e-03,-7.603274823624842083e-03,-6.212318945918570562e-03,-2.224494713892546244e-02,-1.126702063758656669e-01,-3.908624199040077601e-02,3.859295346680752248e-02,-3.010096645276602242e-02,5.281156230703158011e-02,-5.634486304969047593e-02,1.714253611625717738e-02,-1.658244419001815573e-02,5.709244476431866305e-02,6.336016839045166549e-02,2.505225587315620950e-02,1.628934011873568038e-02,-2.101393461722356540e-03,5.541824234083798234e-03,-3.128513437893458426e-02
3.451652179176013524e-01,6.549112158942593798e-01,6.135965601880601916e-01,6.201816034175111625e-01,6.164311469899093066e-01,6.129729260976222172e-01,6.231666734036019895e-01,6.117811155473155127e-01,6.572765263624171794e-01,3.367360036758073605e-01,-3.561380768501562488e-02,8.068409775698866596e-03,-4.606585182773329304e-03,2.485940227384003404e-03,-1.272010489549875445e-02,5.768985463608239384e-03,6.236599476108045138e-03,-2.112935483060626903e-03,6.185086722417237372e-03,-3.424878717581413684e-02,-8.926217763583044196e-03,5.210836236987682890e-03,-5.809930952815636762e-03,-7.311176620976887058e-03,-1.581354584414592507e-02,-1.039501740334098090e-01,-3.849550050255474976e-02,3.042171579337215465e-02,-2.545930792807826054e-02,5.453050905877533661e-02,-6.174278510936892506e-02,1.937098620872776400e-02,-1.932095369014037028e-02,6.842952483716403800e-02,7.498387601677536374e-02,1.526832829581269840e-02,1.727615372816732053e-02,1.288117187440638092e-02,-5.173545466044697505e-03,-2.017179223522445886e-02
3.632782727873310469e-01,6.505110868303835003e-01,6.164573256884169350e-01,6.161093018925024589e-01,6.058906069065810307e-01,6.125418132582240993e-01,6.222788823402755076e-01,6.122623656220300692e-01,6.563819946977280662e-01,3.410390615169796025e-01,1.095041865078347915e-02,-2.236392332481379475e-03,1.141450695139782992e-03,-2.595614074601772236e-03,-8.298911092405384521e-03,-3.326364761286842997e-02,-7.919064004866855147e-03,3.275301198204701170e-02,-2.464700690024520385e-02,3.478533607948562645e-02,-3.681917225934773497e-02,1.180886068479304260e-02,-1.023242135976653103e-02,2.198244496997413949e-03,-1.011126118905503884e-02,-8.574375918941870567e-02,-3.823752924131026271e-02,1.516844320217805662e-03,-4.175012752608241867e-03,2.765053009960519864e-02,1.001204410697867642e-01,-3.081011053779739162e-02,3.045837443678871270e-02,-1.109884024515674639e-01,-1.313513469958161317e-01,-6.542261823165458623e-02,-2.958666139999308400e-02,2.347858430857324707e-02,-2.361208789153849963e-02,6.801614751332651920e-02
3.402379123416101603e-01,6.560353151618538714e-01,6.129214049870428394e-01,6.210954941583886058e-01,6.142785381387894095e-01,6.169429360324181211e-01,6.229889953216116716e-01,6.098164869765363427e-01,6.601455240379874301e-01,3.263665477180137664e-01,-7.921984379981150681e-03,1.714576913997362811e-03,-5.650171275593720427e-04,-5.888190523036242532e-03,-1.884748369379287553e-02,-3.508470315189145955e-02,-1.928477009094597093e-03,3.970858096396241710e-02,-2.672804898760450243e-02,1.935383224007228287e-02,-4.881859123616608120e-02,1.449239744384593111e-02,-1.187315000617536302e-02,5.837989487526548671e-03,4.954812313478494309e-03,-4.672009401813772417e-02,-2.869398727389286044e-02,-3.768647303514090913e-02,2.568920960580503912e-02,-1.635735477578707450e-02,-6.144869749350602428e-02,1.917728033848003708e-02,-1.908291593974210248e-02,6.792506549316024156e-02,7.980640805348532263e-02,4.022719490169938267e-02,2.172030156586656630e-02,-1.159734083374206956e-02,1.278296063216440015e-02,-4.227785798788379068e-02
3.591780269210445020e-01,6.514998796393437486e-01,6.158176838304922907e-01,6.170513557414316619e-01,6.066053677881826367e-01,6.154021762854304800e-01,6.220095269626308987e-01,6.114410944611260446e-01,6.576629421315987045e-01,3.361757641270957109e-01,9.696171668928107307e-03,-1.910301545977129492e-03,8.092775646509542051e-04,-1.118764522953685087e-03,-6.669608204652514166e-03,-2.422120539489631616e-02,-7.217331258732166341e-03,2.033128921771082051e-02,-1.595209339083911507e-02,2.638264146380427805e-02,-3.699455555661593231e-02,1.206073078829759254e-02,-1.070713786021341464e-02,5.917406262960694940e-03,5.298656598730275974e-03,-5.638086194974760434e-02,-3.322854691678409078e-02,-3.129191333026232896e-02,1.909816598379606919e-02,2.776927644480426706e-03,9.587513106845287070e-02,-2.940209399039976981e-02,2.897818019405229775e-02,-1.054621186833366309e-01,-1.259229103732877331e-01,-6.821578078768282538e-02,-2.995354802748994433e-02,2.805664219737441165e-02,-2.672731933025485757e-02,7.053466454406381869e-02
3.465485721225390892e-01,6.545928127664253360e-01,6.137881654496832873e-01,6.199522702074578007e-01,6.155953496749400067e-01,6.097838213179704869e-01,6.233947772011458888e-01,6.119001968277861803e-01,6.568973659813506227e-01,3.388109832435759472e-01,-8.446406422031819267e-03,1.921272096758172565e-03,-8.674502668387174334e-04,-3.798032623815877223e-03,-1.546100516173234615e-02,-2.146019167360632696e-02,-1.816704671808438889e-03,2.212559922265300294e-02,-1.436599707214048990e-02,7.455243439815229661e-03,-9.689683392856696109e-03,5.400663953628002945e-03,-5.830702560538542772e-03,-7.301429029483576943e-03,-1.459874045903147149e-02,-1.165605601372256966e-01,-4.392791196436716950e-02,3.315020988370159100e-02,-2.827320524672959426e-02,6.336100226616601938e-02,-6.455146770330892625e-02,2.009563954910099925e-02,-1.994113336107432299e-02,7.078489351274275254e-02,8.199375082241189272e-02,3.616807345834813919e-02,2.105202252781938205e-02,-7.693124748160631507e-03,9.984717964686178754e-03,-3.914419499840360306e-02
3.473687760155853566e-01,6.543685119125339789e-01,6.139548128076723899e-01,6.196730575387848772e-01,6.141787967489035216e-01,6.116385788995735151e-01,6.231422222954547951e-01,6.118936814982085526e-01,6.569373752506053599e-01,3.386365126519415014e-01,-1.090769100146580378e-02,2.449573211369299695e-03,-1.103893037836818636e-03,-4.116464502346720011e-03,-1.874740108508434616e-02,-2.295533274517051053e-02,-5.283489058203330764e-03,2.965018436770411325e-02,-2.196596293846675776e-02,2.864365653267597275e-02,-1.265560437343360434e-02,6.083605762377430892e-03,-6.357262588663991493e-03,-6.362117043966608598e-03,-1.341503616881010302e-02,-1.042754587626707474e-01,-4.078272404496335879e-02,2.821905892153138765e-02,-2.476502511210611560e-02,5.914637649017540078e-02,-6.777520033832393209e-02,2.128751650609044671e-02,-2.132089805095759016e-02,7.637436732922256444e-02,8.884725590374861759e-02,3.746191598331039679e-02,2.230542731513747434e-02,-6.562611535633328802e-03,9.236235404789502890e-03,-3.888146761709401766e-02
3.435246933437026140e-01,6.552723837482326008e-01,6.133885530736807867e-01,6.204762579738956063e-01,6.143587169326819586e-01,6.178615541241527787e-01,6.225534720573512315e-01,6.107236211217569322e-01,6.589580108008994408e-01,3.303215135118178214e-01,-3.249497931997346462e-02,7.599726786263551886e-03,-4.751010323978493294e-03,5.419204783444696652e-03,4.099997736352865157e-03,3.573701107497415097e-02,9.889334099383233906e-03,-3.054227987979449971e-02,2.480385222794435213e-02,-4.510523037314660699e-02,-4.024739132637525363e-02,1.252970018294465200e-02,-1.070729362295412199e-02,4.045013752141514082e-03,7.743728577244354816e-05,-4.739914577185590228e-02,-2.922953290994384501e-02,-3.254713410301103560e-02,2.117914280702770657e-02,-6.755572378206284485e-03,-6.063388506274604989e-02,1.936485811022544551e-02,-1.972158682613477446e-02,7.161523021738500083e-02,8.451955276971147291e-02,2.698417661018426283e-02,1.571582106486351174e-02,-2.274805202059422549e-03,5.066771435550322666e-03,-2.722285339518897007e-02
3.375609283637573954e-01,6.567090276197773413e-01,6.124670471245630132e-01,6.217364781655703165e-01,6.181473491871908310e-01,6.156144536139591672e-01,6.233131180083373302e-01,6.110458730502474900e-01,6.585540572969346140e-01,3.312583108823454747e-01,-3.079419461587995510e-02,7.205640418149936686e-03,-4.472593721460223562e-03,5.291407696595959442e-03,1.868267922366913594e-03,2.901108478504028573e-02,8.446906883182322967e-03,-2.868659654142276944e-02,2.414675340899767250e-02,-4.805100141060036911e-02,-3.307387249185113343e-02,1.070041810007684585e-02,-9.130407511293459066e-03,-1.265080673513888782e-03,-1.314394653468951152e-02,-7.895777899902278740e-02,-3.140000886046084849e-02,4.690236591451738685e-03,-4.357271252737048538e-03,1.515510085246700098e-02,-3.833364782242295460e-02,1.290935009587222682e-02,-1.373494104460996727e-02,5.091058223354797546e-02,5.692936194706604142e-02,-3.784386395231400385e-03,8.196234236257305544e-03,2.221125697259514892e-02,-1.410335275286639031e-02,3.483517439217473366e-03
3.403187985590185871e-01,6.560344823368573497e-01,6.129074076109086722e-01,6.211223925249572675e-01,6.163901080630511675e-01,6.178566550470939722e-01,6.222256984383999212e-01,6.098506700947456949e-01,6.601445235028152725e-01,3.264588488345705475e-01,-1.081632855668188120e-03,2.554212938438091274e-04,2.235178258981323357e-04,-5.903902365086123594e-03,-1.308101487444197908e-02,-3.343254556801433103e-02,-4.825290335452247018e-03,3.290524771032300039e-02,-2.299812393285199236e-02,2.224324363503790356e-02,-5.168020987314080050e-02,1.516031574133449786e-02,-1.232189014141808064e-02,6.765690765667979958e-03,5.821902482458649747e-03,-5.760882253334146524e-02,-3.427406731183618716e-02,-4.025821308770008433e-02,2.668169368879700493e-02,-1.190704725685047538e-02,-4.864131274255870108e-02,1.607503342813222658e-02,-1.684047671084546588e-02,6.195855799331730779e-02,6.953932761135629692e-02,9.442950445693563954e-03,1.623715114785699229e-02,1.821417525405021748e-02,-9.976498274779352360e-03,-9.263362467378202791e-03
3.483483154505667700e-01,6.541490843018937795e-01,6.140790836667191499e-01,6.195629008079177602e-01,6.139155309288097939e-01,6.140672448637838343e-01,6.220639067933930733e-01,6.112238130272231729e-01,6.580342871609430322e-01,3.345962764180088200e-01,-3.370280243131464071e-02,7.944985851460563409e-03,-5.077133355454328464e-03,6.818301786055983027e-03,7.748828279937405861e-03,4.722868238093269611e-02,1.005297011314177855e-02,-4.099297907235475297e-02,3.120694032244152732e-02,-4.593853243097915928e-02,-3.916916661976982406e-02,1.226173782646824278e-02,-1.038678773025661015e-02,2.917133050937312233e-03,-3.879465169965262694e-03,-8.269930883084448958e-02,-4.347586888064220584e-02,-1.949309353792537045e-02,9.442153961107330878e-03,2.167401449930460994e-02,-6.581281655629549199e-02,2.094619802022641003e-02,-2.128725017877509951e-02,7.741387100747711136e-02,9.278584390773787771e-02,3.280356855506474240e-02,1.603615783854685922e-02,-8.114254539812024505e-03,9.579970198917941299e-03,-3.391028157069939097e-02
3.587007201011501722e-01,6.516501980041538022e-01,6.156955290556419547e-01,6.172060789975258865e-01,6.119259417547082691e-01,6.152618571201999842e-01,6.210139916342156674e-01,6.119383553283563870e-01,6.569816860484239962e-01,3.388336237161209130e-01,2.105136982312445088e-02,-4.491148413816873491e-03,2.498058483421283088e-03,-4.308563850388620262e-03,-7.862152693508223794e-03,-3.450400660281899290e-02,-6.550216563860187038e-03,3.210871995242225996e-02,-2.447500144996263977e-02,3.594165334054039845e-02,-3.588680414025097187e-02,1.170211912295157988e-02,-1.028757387199018616e-02,3.697767397708422860e-03,-2.730595334937802043e-03,-9.277133384116474646e-02,-4.555213591189867517e-02,-1.162234613995667340e-02,3.881381020683534900e-03,2.778432412020974407e-02,7.222253917555170044e-02,-2.367701883523824422e-02,2.486833685523037046e-02,-9.480484637297671713e-02,-1.097072438703330932e-01,-1.796227153931514997e-02,-1.914600188240648398e-02,-1.972606817726210021e-02,1.036152295365917048e-02,1.321608909741395221e-02
3.618349688807116493e-01,6.509529145878110157e-01,6.160943764627877517e-01,6.167779145416383280e-01,6.097061266838701421e-01,6.062236016482844825e-01,6.228568216660483881e-01,6.126750217366746520e-01,6.554077708729346696e-01,3.458074382322104956e-01,2.054441415077119804e-02,-4.332187891052391958e-03,2.229378699720020382e-03,-3.233015232847113660e-03,1.861843781936125403e-04,-2.989969153847699124e-02,-7.259051771954963365e-03,2.264377122236279835e-02,-1.678756123394289923e-02,2.294245983304983583e-02,-1.529110211514508877e-02,6.895104435932358777e-03,-7.084825436477898419e-03,-3.595448886587495479e-03,-1.284996515077036633e-02,-1.236067812419095746e-01,-5.039820225355740729e-02,2.781480541601607723e-02,-2.597821455288373133e-02,7.026654848839367085e-02,9.428915791005498814e-02,-2.858514578893886840e-02,2.783351278347067498e-02,-1.002979785544456381e-01,-1.193633212360786511e-01,-7.000261427120790803e-02,-2.841865992832926999e-02,3.122401298646800341e-02,-2.890165139326238836e-02,7.201800982172060217e-02
3.467423966427412019e-01,6.545300985192732401e-01,6.138397362429337534e-01,6.198859345301400703e-01,6.136178123784554739e-01,6.104047398839351768e-01,6.230577478809907754e-01,6.120640273647992569e-01,6.568335555177103879e-01,3.385048828297745338e-01,-3.765248494140475272e-02,8.574368417049900437e-03,-4.981932561064376930e-03,3.188661513145427812e-03,-1.167620396826378991e-02,1.599837730936545452e-02,6.814018349132144881e-03,-3.881355259695296045e-03,4.870097439537762404e-03,-1.858263101405640411e-02,-2.869051295113275724e-02,9.723675186872220155e-03,-8.593982633710275237e-03,-2.440466944149115303e-03,-1.315879861925456362e-02,-1.021014483489313118e-01,-4.318964118739647418e-02,1.440004634946094250e-02,-1.462361509008013732e-02,4.676751803443217337e-02,-7.511080363502348201e-02,2.272713767525872189e-02,-2.194784187094192193e-02,7.658783774587574200e-02,9.210603004897978396e-02,5.935462256039413659e-02,2.320533551029854008e-02,-3.197764865822370906e-02,2.847486415931807860e-02,-6.527222463637710748e-02
3.620913142897118631e-01,6.508497207718724198e-01,6.161987797722836557e-01,6.165010655520115623e-01,6.113689991592197170e-01,6.156933562938915472e-01,6.217810228926455851e-01,6.120385982368700128e-01,6.563672190547402696e-01,3.425884908953902297e-01,4.432998153118628687e-02,-9.636180081301345263e-03,5.434780854271993589e-03,-8.277511866378331473e-03,-4.275041240968967260e-03,-4.447116303653464442e-02,-2.661407747300342796e-02,5.262199580396434428e-02,-5.077859029184397799e-02,1.329997724191417652e-01,-2.075537273949010220e-02,8.153268950470381193e-03,-7.977619842239068448e-03,-1.323707826897717321e-03,-1.092692757821508986e-02,-8.334796550000117543e-02,-3.146694533566021801e-02,7.349378871971437924e-03,-5.969115281416113167e-03,1.559708586363864856e-02,7.969582529175726904e-02,-2.570181125296710362e-02,2.655500705475822773e-02,-9.969207169022953341e-02,-1.124453737653264007e-01,-1.358196803540252101e-02,-2.390140767378430217e-02,-2.337646384657173990e-02,1.024028401437367813e-02,2.960435695459667782e-02
3.430405135877699907e-01,6.554124682751704123e-01,6.132788105308314419e-01,6.206633762452833381e-01,6.161769762429925024e-01,6.175251358686368874e-01,6.218914459483757540e-01,6.102395184682574136e-01,6.595220525657951027e-01,3.290551431490758016e-01,-3.151111234067810463e-02,7.405129525647985086e-03,-4.706067277349545649e-03,5.784097636643619963e-03,6.746417362425191633e-03,3.640111233951942582e-02,8.961123836865170569e-03,-3.374258611062706803e-02,2.699517599600883069e-02,-4.678739334867101224e-02,-4.632251493706118772e-02,1.396354760996019323e-02,-1.164987544533382414e-02,6.163234234185886035e-03,3.531223818610894349e-03,-6.245635841697227963e-02,-3.820811886364341298e-02,-4.027287100873195441e-02,2.546372414608013071e-02,-3.084240955307687802e-03,-5.042893644286976923e-02,1.670191684413030800e-02,-1.756288023133572088e-02,6.509077844557081827e-02,7.542253154140622640e-02,7.824431171359710890e-03,1.092236409394779437e-02,1.431510148607145066e-02,-7.998349192701842414e-03,-5.899717706907767201e-03
3.364171871723727891e-01,6.569633585841234691e-01,6.123198439921335723e-01,6.219234705251445172e-01,6.178651910539676440e-01,6.189101508247898398e-01,6.227470239993839751e-01,6.101296566551119849e-01,6.599688896541938687e-01,3.260296909041080493e-01,-2.674292335207256038e-02,6.065118434336457844e-03,-3.346367497464348192e-03,3.518756386833297219e-04,-1.076177466499927439e-02,-7.050447367904883259e-03,6.064112441500808977e-03,7.226423736651930475e-03,1.280311851829347633e-04,-3.127024856887049287e-02,-4.424970219551084549e-02,1.341949692357153820e-02,-1.112197548855355100e-02,4.374401785319290484e-03,1.270215955402043823e-03,-5.009603890111351265e-02,-2.745292716302636174e-02,-3.134498834419665453e-02,2.170780925127312536e-02,-1.540843289297182811e-02,-3.839669472022898267e-02,1.301823059620793241e-02,-1.390557679972725946e-02,5.148413363793732239e-02,5.545560736929001922e-02,-8.168230576462289644e-03,1.041116380777282538e-02,3.013420347571457020e-02,-1.938821357638873324e-02,6.557604057388852214e-03
3.388041257079656976e-01,6.563907259573005248e-01,6.126856875841434347e-01,6.214212390201214742e-01,6.164432899498757390e-01,6.178966176045097569e-01,6.225872171264099642e-01,6.103470070346687093e-01,6.596060121999576253e-01,3.275730260060445431e-01,3.207559370078008620e-03,-6.647931214403234035e-04,6.581942176432063751e-04,-5.896770926800212059e-03,-1.087672607336070095e-02,-3.014366228227039618e-02,-4.849364305749762419e-03,2.863553953080491890e-02,-2.034109801437199161e-02,2.171531145288815162e-02,-4.865312825100566452e-02,1.441811190083137559e-02,-1.173207299463283060e-02,5.215517935596322013e-03,2.082374832463360081e-03,-5.501598422547492734e-02,-2.998225200222331965e-02,-3.243704859630008874e-02,2.222292362464951473e-02,-1.408809585214246610e-02,-4.776840573269681978e-02,1.565284252309448801e-02,-1.628050193357927222e-02,5.961692233349451253e-02,6.778708643703081071e-02,1.310717131598358037e-02,1.560739166075824497e-02,1.238356612929559369e-02,-5.875151031557598880e-03,-1.310502895361524700e-02
3.436353923770268937e-01,6.552597073100254743e-01,6.133841279682252789e-01,6.205279570073949369e-01,6.133912752408505753e-01,6.146663975941699665e-01,6.233464013038670926e-01,6.107308199048739894e-01,6.587309671168020131e-01,3.317014715113759671e-01,-1.676489907130011836e-02,4.149833731869882747e-03,-2.862874658933218380e-03,3.846776721888015178e-03,9.016030442908991999e-03,3.631418785893838347e-02,9.141816385625993469e-03,-3.538342271011526985e-02,2.714333377399673342e-02,-4.091991652032338916e-02,-2.320185123144112571e-02,8.663862113874102461e-03,-8.236590769482058164e-03,-3.973175762756950280e-05,-2.023591867341838907e-03,-5.984949164618925260e-02,-3.133446181454849211e-02,-1.638836670822730462e-02,8.510808586169886850e-03,1.373022830422592627e-02,-7.177244525283121845e-02,2.172589817280334498e-02,-2.099607424737529732e-02,7.335023533029377818e-02,8.904987552130755324e-02,5.602263753753741055e-02,2.032092404807299413e-02,-3.219481864724818565e-02,2.806955329133751370e-02,-6.125283052017260754e-02
3.439733276447687338e-01,6.551812672828355444e-01,6.134356305694042000e-01,6.204043600332606045e-01,6.155310455606426423e-01,6.149144507447990016e-01,6.230452305958703585e-01,6.113828330807997702e-01,6.578874727120985755e-01,3.344453491675440926e-01,2.058504204775855884e-02,-4.575394519139370370e-03,3.041667958128935201e-03,-9.435035009996895275e-03,-1.236989092878041860e-02,-4.310582799439342805e-02,-1.088114969856636589e-02,3.830564226830524693e-02,-2.947667093076301523e-02,4.532583626602455784e-02,-1.598840055105837932e-02,6.937501522095504414e-03,-7.007216106853477594e-03,-3.740384995251732833e-03,-5.767299620071192345e-03,-7.668783330635814410e-02,-3.264265913481843168e-02,6.151466587972059460e-03,-7.690077822452793394e-03,3.202020547814205670e-02,-5.496504346081362846e-02,1.790335369606259677e-02,-1.854927463271751134e-02,6.809853715601962842e-02,7.932792488616871585e-02,2.270947205974135907e-02,1.857186942934917206e-02,5.064871758317195799e-03,-2.072848466734070194e-04,-2.198882746968125468e-02
3.566241749845786568e-01,6.521516588311528917e-01,6.153700126153581751e-01,6.177153539293981366e-01,6.094719957355569928e-01,6.105570779696312123e-01,6.232394316676411750e-01,6.118398651542893418e-01,6.567585871251648832e-01,3.402506159283120724e-01,2.813884389354158466e-02,-6.111360849882062005e-03,3.473113829366634292e-03,-6.118075806428195651e-03,-5.236402610347044850e-03,-4.532884605648352522e-02,-1.107545765064613455e-02,3.861197310623951801e-02,-2.930700827680640663e-02,4.320017224559687813e-02,-2.249117838894076904e-02,8.515192656130630283e-03,-8.027276944625780231e-03,-1.782451338256649254e-03,-1.311651525043559113e-02,-9.258066272012586972e-02,-3.932250792014568841e-02,1.659029172776173289e-02,-1.630044838695022744e-02,4.869719865779080503e-02,8.885124689029752498e-02,-2.712232606866913157e-02,2.661033743490438808e-02,-9.660881108399566042e-02,-1.157916182154828111e-01,-6.354896122745196108e-02,-2.610304699725406880e-02,2.851958057175273814e-02,-2.664189125762974827e-02,6.741460487196235252e-02
3.482000266627767182e-01,6.541604693620399757e-01,6.140929355074371543e-01,6.195039687113871318e-01,6.117958260508556956e-01,6.107695683326390679e-01,6.233639210830013155e-01,6.118537562031658439e-01,6.570059445988853941e-01,3.382844671412228443e-01,-2.154101700700251920e-02,4.925812733029362803e-03,-2.754849722001395489e-03,-6.130556424217643765e-04,-1.356557665653079781e-02,1.237764975444942406e-04,1.383402572271102190e-03,1.037373927009156184e-02,-7.451272493972984148e-03,7.621229022325782046e-03,-2.803216536817776383e-02,9.561386062590555845e-03,-8.449985186493196021e-03,-2.962228046234201273e-03,-1.418799274300423796e-02,-9.278319324143000091e-02,-3.963375290973208259e-02,1.759784393595011792e-02,-1.709911537442656768e-02,4.998806553802183361e-02,-8.451695762174100957e-02,2.530023643098585490e-02,-2.414874749151415048e-02,8.345085115399698827e-02,9.946769355155143932e-02,6.938521475622699830e-02,2.698050718922929275e-02,-3.794036219958873968e-02,3.349892726816762478e-02,-7.546494785066841515e-02
3.450793980174331477e-01,6.549466677117405933e-01,6.135568350448015185e-01,6.203322735166090229e-01,6.144294415107096619e-01,6.124996485789424572e-01,6.231879024798645528e-01,6.110096676355567524e-01,6.582016785222603028e-01,3.341522235433631582e-01,-3.607391444478209169e-02,8.459102789441745943e-03,-5.348550591717409104e-03,7.263237686257091597e-03,6.532249868644493529e-03,4.747861460511094978e-02,1.472699040567478773e-02,-4.382872148008355728e-02,3.602424169045572583e-02,-6.749065626594745460e-02,-2.845038330597575438e-02,9.782341164633771846e-03,-8.876697431071721087e-03,-2.597071542184692383e-05,-6.217459549040765809e-03,-7.964135237574575255e-02,-3.763487746947815488e-02,-9.382169265985387460e-03,3.464977326551709445e-03,2.012747169545930567e-02,-7.004588755911672626e-02,2.120038983466258908e-02,-2.047601712529126955e-02,7.144431765533261480e-02,8.633622674343535697e-02,5.170113986807861606e-02,1.845302915975806368e-02,-2.926584414096306680e-02,2.574606880815675028e-02,-5.722599126682896553e-02
3.505850851460192708e-01,6.535534258533332030e-01,6.145090051982667889e-01,6.188844380180388294e-01,6.093606803837345876e-01,6.171034480719224113e-01,6.224639403182186115e-01,6.103648936507382050e-01,6.592470519192485945e-01,3.302024539494559097e-01,1.449138405078606931e-02,-2.908798699258417862e-03,1.274854495905388112e-03,-5.023604958937651598e-04,-7.807544281210245657e-05,-1.423105626516778591e-02,-6.114327057386131567e-03,5.304375784416297604e-03,-5.203670366851336285e-03,1.451070813741123927e-02,-5.686302891129457748e-02,1.652652230663088917e-02,-1.347005555448460221e-02,1.018053641421349902e-02,7.569252050641501681e-03,-3.428123302733931260e-02,-2.739401873241180743e-02,-4.893615430454332366e-02,3.332728264700077908e-02,-2.268294087855680582e-02,8.434003786429125626e-02,-2.575657497066504917e-02,2.528257372561785316e-02,-9.183667611332782532e-02,-1.099337616004776308e-01,-6.280192817730120836e-02,-2.736274368595902409e-02,2.691489980222470241e-02,-2.528152858999413791e-02,6.504038519464197532e-02
3.470364039008115853e-01,6.544261651779592626e-01,6.139323876180429185e-01,6.197223731313767914e-01,6.122441157809680456e-01,6.164665826657211856e-01,6.220993980381175348e-01,6.110484479683691017e-01,6.584954909648549348e-01,3.321198285794983995e-01,-4.106989190080270746e-02,9.432428819680239995e-03,-5.575074556878608506e-03,4.792628684850783888e-03,-5.046550789580326810e-03,2.966878529531221526e-02,7.268679266007611883e-03,-1.294519633514155423e-02,1.020336389175245662e-02,-1.777704942985529682e-02,-5.208253119600698977e-02,1.521110118592363183e-02,-1.229528997539090437e-02,6.249669978243971302e-03,-9.377873544490558655e-05,-5.683187224488250172e-02,-3.591342871280168297e-02,-3.374574118367380804e-02,2.053429208866956041e-02,3.283555069852928197e-03,-7.216666327531107150e-02,2.256823646271067033e-02,-2.255308202694348424e-02,8.104667568855902782e-02,9.770402098441316463e-02,4.732388005084739446e-02,2.135882896396815167e-02,-1.938870225343918702e-02,1.877339577030168183e-02,-5.083970206684093607e-02
3.469316585067433456e-01,6.544933940453694365e-01,6.138580416364783909e-01,6.198478110316310019e-01,6.145588028618251819e-01,6.101119781778061579e-01,6.238708199713796088e-01,6.116992733497906842e-01,6.570798955459161705e-01,3.384022757606857112e-01,-1.738063941657248812e-02,4.001641777497155425e-03,-2.199891999994478976e-03,-8.514487946190076213e-04,-1.236882812864341895e-02,-3.579671005908610822e-03,4.906976347440333841e-04,7.293371684958699017e-03,-4.304653005038292998e-03,-8.364181262781253401e-04,-3.272708814118258092e-03,3.894245386033529099e-03,-4.833028037605408000e-03,-9.468085467710333353e-03,-1.895856865198652930e-02,-1.124603387681874789e-01,-4.011122046555710974e-02,4.331582200161314400e-02,-3.535868733428575161e-02,6.943621116753631584e-02,-7.009325889998771486e-02,2.151397101174253729e-02,-2.105299453805127910e-02,7.402094234158176911e-02,8.638592719479737392e-02,4.393369936454671887e-02,2.147831904863528943e-02,-1.548025785839504502e-02,1.591136501889088561e-02,-4.747358954027273981e-02
3.551613161679852970e-01,6.524825961747927616e-01,6.151729803358201298e-01,6.179828976718229061e-01,6.086786818947120814e-01,6.118580090537164562e-01,6.228815394372765324e-01,6.112432007806960499e-01,6.578129756198367595e-01,3.359132912523947745e-01,-1.709385542983440920e-02,4.346331168585636055e-03,-3.348380037412841247e-03,8.297554676668199292e-03,1.023662637207448621e-02,3.127096706023435591e-02,3.220973073435855292e-03,-3.435312346097616626e-02,2.720500031517553152e-02,-4.398729028468113811e-02,-4.741874060934697654e-02,1.426988251826379409e-02,-1.182885407026225584e-02,5.191125809936622537e-03,-1.055901356780439976e-03,-7.226003307567487044e-02,-3.770902730975499856e-02,-1.209664423953978225e-02,4.826268101341959875e-03,2.205930261005034990e-02,9.742052064758183194e-02,-2.902348876248213652e-02,2.770829919732696947e-02,-9.804602093109353322e-02,-1.150916388715560595e-01,-8.020772484429898597e-02,-3.017394481393296038e-02,4.156471563936338376e-02,-4.296980768685221275e-02,1.226349136510916510e-01
3.384901788641464515e-01,6.564776375271113018e-01,6.126173816228122071e-01,6.215830947023190944e-01,6.151468837759679342e-01,6.185537874676914072e-01,6.226579855901115401e-01,6.095770327657079601e-01,6.604824485913095566e-01,3.252811910592272593e-01,4.006998108217045898e-03,-6.972291217824558122e-04,4.433469165284740533e-04,-3.767550225194467393e-03,-1.582021472864244584e-03,-9.410431644714684768e-03,-1.392083414445109647e-03,9.590047398587644642e-03,-7.580862415503741500e-03,1.277396385273215328e-02,-4.639252583275998293e-02,1.407410118784532121e-02,-1.185986207623115213e-02,7.780461900644516232e-03,1.190617375966976539e-02,-3.332344559692735492e-02,-2.844038902659838663e-02,-5.537773697186539057e-02,3.627189263397946617e-02,-1.772011827069204515e-02,-5.803835563489981308e-02,1.788170731105008515e-02,-1.756499699923355987e-02,6.183084414536962198e-02,7.323025583331813082e-02,3.880242720075218615e-02,1.850056754834409484e-02,-1.539466644238309152e-02,1.512294447616185575e-02,-4.229183464950349303e-02
3.531246543814307026e-01,6.529536923053205211e-01,6.148916120543188590e-01,6.182565756517361955e-01,6.131922043039346182e-01,6.162659340363267901e-01,6.218564765806018357e-01,6.119021622390947712e-01,6.570796642342757732e-01,3.379959250615216515e-01,-4.802243375452170532e-03,1.549099055088135404e-03,-1.587795370636635017e-03,4.935314443537419139e-03,8.851949922122868963e-03,2.077626307376514644e-02,6.570311623880621330e-03,-2.088958781220377411e-02,1.612732805034724701e-02,-2.516560258215296692e-02,-3.300546016338687383e-02,1.092901457820248320e-02,-9.548085383671675586e-03,5.740895363652957772e-04,-7.972683451799925103e-03,-8.580015051861623887e-02,-3.789745559330526953e-02,9.893408939928311635e-03,-1.147542630508617892e-02,4.292870338547780107e-02,6.422817168677061317e-02,-2.138941314582844949e-02,2.276635134190279491e-02,-8.753595381871798198e-02,-9.957159489785263884e-02,-1.099621257149672321e-02,-2.078343888184528560e-02,-2.761968718305264636e-02,1.626268811102958567e-02,5.856416617270210345e-03
3.487757422362780524e-01,6.540238669193175758e-01,6.141825833892049502e-01,6.193162355820597265e-01,6.151854694612705066e-01,6.176435498490372433e-01,6.224793219922176712e-01,6.106452894161558120e-01,6.587562064626203417e-01,3.322994358740074539e-01,2.580127213138005277e-02,-5.608757518738096554e-03,3.237689546331319786e-03,-6.153859976041973177e-03,-9.423914437471616473e-03,-4.125117399935012558e-02,-8.491747830617903461e-03,3.923748500560991087e-02,-3.041020502073600584e-02,4.742493251172701096e-02,-2.474874799821065452e-02,9.137023121595064939e-03,-8.743427113502301104e-03,1.275981752444423425e-03,-2.937794415302286133e-03,-6.347688024182256139e-02,-3.191509630716837104e-02,-1.149505794441667110e-02,5.351305061476791317e-03,1.529256312842375634e-02,5.398652486529409433e-02,-1.827370524424333162e-02,1.973128360776239820e-02,-7.670026182938650960e-02,-8.673718281102690830e-02,3.894324587111121228e-03,-1.272738985714967457e-02,-3.434927014047353677e-02,2.230568025655753350e-02,-8.782847201035032247e-03
3.458949852237338529e-01,6.547032592135008100e-01,6.137527409300345127e-01,6.199790335697953347e-01,6.124069789969315281e-01,6.158541705035305291e-01,6.229080276987531972e-01,6.111415399761503942e-01,6.582968519124046125e-01,3.327980365503071525e-01,-1.263985498378732836e-02,3.178682236851950761e-03,-2.208339774161110786e-03,2.255671419792968507e-03,7.132633456520794460e-03,2.777392807351129062e-02,7.007182040580690538e-03,-2.774013915885075246e-02,2.137110846743836903e-02,-3.266500275444662871e-02,-2.377178196062257332e-02,8.796660123746021659e-03,-8.371863406406722732e-03,2.031391396515574294e-04,-1.405466405388324652e-03,-5.712924190081519749e-02,-3.044512395453273165e-02,-1.806428162866100320e-02,9.845444985660409265e-03,1.138382117884933521e-02,-7.446381276267180493e-02,2.287323617091810424e-02,-2.243769302538804397e-02,7.937730275979912320e-02,9.528873841010604417e-02,5.179779722549700260e-02,2.143542784733972612e-02,-2.466213700178082613e-02,2.273477619716481046e-02,-5.608823583066532836e-02
3.643797487843093430e-01,6.503282524567706169e-01,6.165082072561092197e-01,6.161407007967194538e-01,6.096746680521449857e-01,6.085547363495247275e-01,6.225124338802939805e-01,6.129631193297672143e-01,6.550824432564111843e-01,3.467422520828531418e-01,2.786574295738727253e-02,-5.791659772716707677e-03,2.885829610679619198e-03,-2.194179790188553573e-03,9.127171893734315616e-03,-1.238134367476907693e-02,-8.821615822844575128e-03,1.015518559576334724e-02,-1.185285244177854656e-02,4.040521128381679289e-02,-9.184935597618487657e-03,5.480167835590313286e-03,-6.117053579544163427e-03,-5.685106744769453241e-03,-1.446425415474263815e-02,-1.233303645072213184e-01,-4.597610102683499789e-02,3.758086419909905523e-02,-3.184234994870448199e-02,6.978076803637225933e-02,9.612391916862131347e-02,-2.940647422167124575e-02,2.885886490616784011e-02,-1.041941111026965516e-01,-1.196277081336610121e-01,-5.435896956374502986e-02,-3.023056202033451434e-02,1.203307860580902014e-02,-1.574814729537013513e-02,6.177697999702769227e-02
3.443542859472834561e-01,6.551022107198712918e-01,6.134760171258951678e-01,6.203512176377390386e-01,6.175136447805573692e-01,6.162134240919491246e-01,6.220077535736827645e-01,6.110121587258223741e-01,6.584462546988760767e-01,3.327291079044845112e-01,-4.577749907624473202e-02,1.047705619516921954e-02,-6.254857300849401766e-03,6.274201258139131682e-03,-3.941481844698542167e-03,2.761357231713024857e-02,6.290875700566914835e-03,-1.971308254838130547e-02,1.680596743410370242e-02,-3.479443747805724407e-02,-4.186894554511369493e-02,1.281884865055114842e-02,-1.071773050290922291e-02,2.659939929283986620e-03,-5.385811829566142239e-03,-8.132546993278233494e-02,-4.075399257061642494e-02,-1.452433340502428359e-02,6.832154321675888188e-03,1.876446398054636144e-02,-3.981611575105964418e-02,1.442729830119741929e-02,-1.631608260832522958e-02,6.341770361055319716e-02,7.229926129159293391e-02,-1.385969940962560043e-02,8.495183275642963217e-03,3.718807006956113825e-02,-2.535974827475932780e-02,1.846342510875167986e-02
3.613170944252639405e-01,6.510393639999626503e-01,6.160729373787918739e-01,6.166928032226077772e-01,6.122829279487209675e-01,6.162908636630639592e-01,6.207598917788479387e-01,6.116557398972002346e-01,6.571638901658694021e-01,3.391544025313264488e-01,4.011943839726589411e-02,-8.692460038208683556e-03,4.851995049847728815e-03,-6.941836406717129433e-03,-4.758525501557635262e-03,-3.906496335621361532e-02,-1.499952728759609138e-02,3.813181218562988056e-02,-3.407902991403859161e-02,7.762755324718469130e-02,-3.766166409955445937e-02,1.213035986133682159e-02,-1.060513084478017024e-02,4.562730122874513600e-03,-1.230480590500106219e-03,-8.647270065070657152e-02,-4.348509520052574323e-02,-1.731316072700000638e-02,8.527935680098398114e-03,1.919840415685141605e-02,7.257018404605694584e-02,-2.397892767122277932e-02,2.533696045270449754e-02,-9.679852618574723289e-02,-1.098487494780693574e-01,-7.399516346985476889e-03,-1.913479931763056169e-02,-3.131991259976532604e-02,1.829528317899738188e-02,6.889733692710953150e-03
3.391777268275578683e-01,6.563165810183360094e-01,6.127184260509288549e-01,6.214302670106821580e-01,6.156264124290165007e-01,6.179711790087345502e-01,6.225252702124216553e-01,6.105279335089455195e-01,6.593421193741413333e-01,3.285580756084509613e-01,-2.361247517387609490e-02,5.501466740624010032e-03,-3.299406826826106667e-03,2.245959091288104309e-03,-1.670556040528747149e-04,1.363798047573515707e-02,1.942887971307356160e-02,-2.098487616442091044e-02,2.522824777329994370e-02,-8.768678534409578285e-02,-4.339073002605278728e-02,1.328767568398729268e-02,-1.115778682416816193e-02,5.393836706443716836e-03,4.767430528370248180e-03,-4.953102398454829053e-02,-2.687558215279858831e-02,-4.251316103117359219e-02,3.057676621639490028e-02,-2.998717945214118830e-02,-5.415656542863180739e-02,1.705942234108990055e-02,-1.713612762053447550e-02,6.147413040325750561e-02,7.328734169451997515e-02,3.120002555205027978e-02,1.433443111928199912e-02,-8.845617976086926626e-03,9.212332392894099359e-03,-2.826512265655856115e-02
3.426047772816255277e-01,6.555414631246693213e-01,6.131793452570197811e-01,6.207956204700775249e-01,6.184212875591310610e-01,6.133751078479494634e-01,6.230572302559940212e-01,6.112870282314961656e-01,6.579016736849898628e-01,3.348793592920134010e-01,-4.117671026287128555e-02,9.495723968978773272e-03,-5.777699263792430463e-03,6.691808240388449208e-03,-8.034040163312945737e-04,3.214518623901130301e-02,9.438451947826276278e-03,-3.022981459738795923e-02,2.614933648803470859e-02,-5.550623659927060582e-02,-2.228455224774525401e-02,8.275044164576202121e-03,-7.660158295352673119e-03,-3.614343183079269523e-03,-1.370293196349111481e-02,-9.831994666704406416e-02,-3.979960876445808038e-02,1.465046974122822393e-02,-1.376546323413702783e-02,3.962085466194952693e-02,-4.320614750372097496e-02,1.454537776143513886e-02,-1.546712339801237929e-02,5.733339887943227076e-02,6.286481577270586207e-02,-8.289225295975519159e-03,8.889874015560884912e-03,2.995039285996067141e-02,-1.951890608035535685e-02,8.367206544080504904e-03
3.437097174165415492e-01,6.552138249419672267e-01,6.134366593634248410e-01,6.204080613852750448e-01,6.127155097224765701e-01,6.180933029870152584e-01,6.228015771661884470e-01,6.103848612372967386e-01,6.593936519510139593e-01,3.288756283683127446e-01,5.727403617899213401e-03,-1.115251724672931301e-03,7.562425308717697896e-04,-4.695290779202637710e-03,-2.762606703782708242e-03,-1.246671778277061611e-02,-1.581673138065264536e-03,1.267050684358270521e-02,-9.524944138416056860e-03,1.310204822164304228e-02,-3.673114358521326062e-02,1.183500646579225754e-02,-1.044448931876739220e-02,4.827895141139296013e-03,8.327491552924060070e-03,-3.073958073727564577e-02,-2.426392812917384928e-02,-4.328561008758258916e-02,2.895883841063166125e-02,-1.645956704705689444e-02,-7.179156775298629889e-02,2.208259237031943989e-02,-2.167529426144526247e-02,7.652298890165427914e-02,9.055464205777395692e-02,4.881322444487280060e-02,2.289056577251997321e-02,-2.000937499248257867e-02,1.951303944341142849e-02,-5.355215691176636039e-02
3.496195293516912717e-01,6.537796476318125105e-01,6.143727688962832278e-01,6.189996600360520018e-01,6.124922657561742145e-01,6.189799253707791715e-01,6.220583689125627203e-01,6.110709026574057123e-01,6.584518804063567154e-01,3.323311121399186163e-01,1.662163685334825530e-02,-3.507428239643964329e-03,1.840739727781583353e-03,-3.357696155610635780e-03,-7.632389905627232768e-03,-2.970280957845457953e-02,-6.305685964563267909e-03,2.710495614316319954e-02,-2.069596673489092903e-02,3.068456793216504941e-02,-4.665643630496429939e-02,1.410230559217493830e-02,-1.178561677293553031e-02,6.067392052784840312e-03,-1.801107128459645407e-03,-4.940773692483285684e-02,-2.907651832744562181e-02,-2.537884985190861503e-02,1.619175215689036551e-02,-2.143116230471054599e-03,6.634548247706988089e-02,-2.156114263824510796e-02,2.246496360908283377e-02,-8.522802494780720717e-02,-9.845580632114821207e-02,-1.818721421935524246e-02,-1.806614521956552422e-02,-1.555921218367091463e-02,7.585628722306912708e-03,1.481150982548196104e-02
3.435972482488010016e-01,6.552962196052465327e-01,6.133411607539644983e-01,6.205815333723141425e-01,6.162307637511819092e-01,6.120248505798961958e-01,6.237604164009761254e-01,6.113061246170352625e-01,6.577680320601360098e-01,3.355092470486551459e-01,-4.212696281522394087e-02,9.767261976814906044e-03,-6.099050682014045023e-03,8.006837950663503803e-03,2.673599331518575206e-03,4.464542238331111607e-02,1.475759043155629169e-02,-4.286165400493427424e-02,3.620917682268352117e-02,-7.293713706885393555e-02,-2.170391214829595072e-02,8.067296198618970071e-03,-7.424215395603891293e-03,-4.818794428037544153e-03,-1.847856895873407207e-02,-9.595167164322249143e-02,-3.487124729086514552e-02,2.239510849313863447e-02,-1.775258361235130047e-02,3.447990051687050556e-02,-6.193733801503673725e-02,1.905327728127274856e-02,-1.866349237112054082e-02,6.539273134551470967e-02,7.473865423743482339e-02,2.723534180065262378e-02,1.561645116344270723e-02,-4.666101753108968173e-03,7.689827827456453824e-03,-3.521834039323176735e-02
3.440008189196289701e-01,6.552200952235200937e-01,6.133727627528746673e-01,6.205656132562200611e-01,6.170223120228586211e-01,6.086881662171184093e-01,6.237112831931209689e-01,6.117614902829866530e-01,6.570288928702135989e-01,3.384932642374105516e-01,-3.606638348786880832e-02,8.368309716846374785e-03,-5.111511228060680589e-03,5.893601397592582170e-03,-1.244552861813855854e-03,3.262356365242428252e-02,9.927596503709557041e-03,-2.928401844036849361e-02,2.447132248307199928e-02,-4.818621665729493075e-02,-2.045930314284902241e-02,7.765704429305957113e-03,-7.238478971755443053e-03,-5.726494253238591930e-03,-2.018040842443397098e-02,-1.208645246538393586e-01,-4.509783015835203135e-02,3.352349035351474132e-02,-2.781723878166822428e-02,5.882316633469886202e-02,-5.968912257150715828e-02,1.830410857592329466e-02,-1.788203374155963518e-02,6.257558597886826723e-02,7.270737946573313515e-02,3.176712458721411836e-02,1.521677887539095442e-02,-1.006861618626971044e-02,1.118058801708312483e-02,-3.669635912674606981e-02
3.564606506078921155e-01,6.521965225072164918e-01,6.153381673504053628e-01,6.177319349609687871e-01,6.120079264153349685e-01,6.133531044448945480e-01,6.220956871049858616e-01,6.120588396905913831e-01,6.567092924142954313e-01,3.398023120135695851e-01,2.474370928187251406e-02,-5.358835486680811264e-03,3.074982949768025921e-03,-5.723491731992831622e-03,-7.647799744533168020e-03,-4.267817132687953124e-02,-8.315790477272495818e-03,3.847297173257249042e-02,-2.892947267611660142e-02,4.063484213358710406e-02,-2.187820497564860189e-02,8.443986044515308653e-03,-8.233782808195665159e-03,-5.918438956683154395e-04,-8.375461707072484607e-03,-9.580668459277481841e-02,-4.279301709513492341e-02,6.708897967556901910e-03,-9.397902234080402276e-03,4.280417107124626086e-02,7.451491568877420535e-02,-2.382367165507971035e-02,2.445585479809610219e-02,-9.178995079222367071e-02,-1.072191217404497715e-01,-2.959234758120279918e-02,-1.989903580704911745e-02,-5.710600372257658430e-03,-1.113042424943713748e-04,2.691177262857985530e-02
3.363992857319376695e-01,6.569591273491610650e-01,6.123298719824497027e-01,6.218998018416491691e-01,6.165678976944364287e-01,6.143116688425174221e-01,6.236180373783617448e-01,6.103642631881815994e-01,6.594291491742554356e-01,3.284150093336644094e-01,-1.671181368240390319e-02,3.620539399291123478e-03,-1.588541365563998081e-03,-5.058980160415312358e-03,-2.553132117388674099e-02,-3.945700386823705608e-02,-1.537410809523920459e-03,4.486484478371561418e-02,-2.898699576137800382e-02,1.373732618238460851e-02,-3.792553075286776709e-02,1.185939985172816680e-02,-9.960806161717749435e-03,4.488418213810345392e-04,-6.857242400345096855e-03,-7.557615201177281250e-02,-3.248742042227490551e-02,-2.889696558358685434e-03,5.505167886831687125e-04,1.291765207954307174e-02,-5.634557813196275355e-02,1.703133575777910497e-02,-1.633997601675290373e-02,5.587755862173116733e-02,6.194765941238809109e-02,3.196119937030626051e-02,1.981950467141830458e-02,-6.162494024993126623e-03,8.746354572198567628e-03,-3.696769351446205221e-02
3.367286358307720606e-01,6.568811329084847106e-01,6.123800061454995891e-01,6.218079410434033116e-01,6.180011298290308819e-01,6.175265597626005132e-01,6.229045887835078510e-01,6.105477066941863429e-01,6.593788163696218119e-01,3.280355110880124325e-01,-1.883052252010496835e-02,4.292691496621766668e-03,-2.373339019732712343e-03,-1.056553645048704127e-03,-1.127212335446504780e-02,-1.231231008582529818e-02,6.621331493694196900e-04,1.277579085007175125e-02,-6.387731365093876797e-03,-9.024798787886468415e-03,-4.619451049603230663e-02,1.373933629219984895e-02,-1.112898654416494965e-02,2.660253672575069867e-03,-6.567551850064360514e-03,-6.622628711027442328e-02,-3.025746126516256143e-02,-1.315844994962942112e-02,8.646264510283926952e-03,-6.042998290863438315e-04,-3.831312653163025661e-02,1.308804974448699379e-02,-1.406571250915459106e-02,5.227138978731096786e-02,5.590057479697136539e-02,-1.053902775652239797e-02,1.043288553083782447e-02,3.351324309575307719e-02,-2.204248818495915460e-02,1.067537375342988981e-02
3.382410353064090325e-01,6.565342369050031213e-01,6.125868070183275726e-01,6.215698444316045679e-01,6.174134509007144223e-01,6.194427429591742307e-01,6.225073459162371314e-01,6.099490396562634587e-01,6.601249907064979938e-01,3.259603754514590612e-01,-1.684276469985729330e-02,3.969323169743540700e-03,-2.375432115133676268e-03,5.917983688736522599e-04,-1.493334059236448670e-03,3.468874799456207227e-03,5.515748454143999321e-03,-6.821612593306418219e-03,8.751759413581959926e-03,-3.230203512353858886e-02,-4.605355509689133819e-02,1.387588570769394611e-02,-1.152726797785023037e-02,5.739014192910181500e-03,4.140465957297379679e-03,-4.616075028109665329e-02,-2.748132589320919500e-02,-4.128626903530301789e-02,2.898144129713103867e-02,-2.419119916751285432e-02,-3.842702994673308226e-02,1.337985200337689015e-02,-1.464236918064308439e-02,5.540566085419654924e-02,6.184073608086371188e-02,-8.304523150616915927e-03,9.506136390758760518e-03,2.994215327564403797e-02,-1.965210070603826131e-02,9.311082768479847505e-03
3.371169144973679144e-01,6.567920168434849826e-01,6.124325287794692985e-01,6.217581845692427001e-01,6.174793467349648513e-01,6.180908836114352711e-01,6.225403258707739029e-01,6.104033128173560474e-01,6.595943030522384287e-01,3.273642894061472575e-01,-2.456135365019088829e-02,5.532151804702340261e-03,-2.954712262267716622e-03,-9.789401555108183904e-04,-1.448163123992436685e-02,-1.467686380812782687e-02,1.631290714246602484e-03,1.834269981086756457e-02,-9.903022420176949697e-03,-8.103044064136630253e-03,-4.578629483068336059e-02,1.375051914567356620e-02,-1.127909297657745009e-02,4.223162728627228787e-03,1.273563240268213437e-05,-5.995520952587823221e-02,-3.186833184737471875e-02,-2.624988390670642685e-02,1.704772549429995482e-02,-3.997442900633292259e-03,-4.308087051013317903e-02,1.423950561402269333e-02,-1.488771965148001294e-02,5.436855934744891372e-02,5.900682859123561330e-02,-1.951913393550969156e-04,1.260738325183234296e-02,2.440704598908412237e-02,-1.499225651398175541e-02,-1.315075301212553782e-04
3.413951502527833304e-01,6.557517491674675902e-01,6.131093767049404786e-01,6.207956899862210332e-01,6.149721247546440228e-01,6.182899555641618861e-01,6.220936374184802276e-01,6.106205669514472856e-01,6.592165949345925036e-01,3.291221817531280180e-01,-2.535993724353280410e-02,5.684433940918658980e-03,-2.986255353131688113e-03,-1.684864765742750351e-03,-1.683554648684813110e-02,-1.567486719329441378e-02,-8.580031060954626879e-04,2.536265995419487509e-02,-1.699488601192085738e-02,1.157115401470834061e-02,-5.040538565590380049e-02,1.482555924466057509e-02,-1.198772713481856614e-02,5.588813231687254218e-03,1.921758511038821476e-03,-5.732385995380574750e-02,-3.351310914379498213e-02,-3.157799271684511716e-02,2.008467917865322180e-02,-2.703992292535255682e-03,-5.297573052969682672e-02,1.752831244229813984e-02,-1.842221946690081325e-02,6.830925036702985287e-02,7.937038293816070511e-02,1.745086876725689823e-02,1.743933829085097392e-02,1.062198821243718824e-02,-4.311854351881111436e-03,-1.673171706363482669e-02
3.477511903106168534e-01,6.542397674373136018e-01,6.140686992563797464e-01,6.194347955867115507e-01,6.145416479992156233e-01,6.190253963356229239e-01,6.215091921522124530e-01,6.109309547197354640e-01,6.586785748976317079e-01,3.316204926407908538e-01,1.101115124278953528e-02,-2.077448246775233029e-03,6.847256171821729503e-04,7.942213317822045858e-04,3.413867212401361807e-03,5.573839395237627703e-04,6.720246232590818382e-04,-5.060344612138776774e-03,3.559516607301674643e-03,-3.448963613048824581e-03,-4.838866744964845368e-02,1.453597687210070322e-02,-1.202807417273359797e-02,6.733481796934922062e-03,2.598340746698606790e-03,-6.283812482459355531e-02,-3.530667999253702533e-02,-2.749624305797836871e-02,1.662085778955767895e-02,4.370648422320309347e-03,5.391753989038045730e-02,-1.836450417999416912e-02,1.994080691528023891e-02,-7.790192558549907664e-02,-8.902768995826378096e-02,-2.945596279521317529e-03,-1.654582335373938964e-02,-3.075738582990175315e-02,1.919773037643254104e-02,-1.881066242949536171e-03
3.620085252711994217e-01,6.508770376478008046e-01,6.161746816353277367e-01,6.165522356990807973e-01,6.115256436491638414e-01,6.135140837736337005e-01,6.216018449816755886e-01,6.125623064380625316e-01,6.559222888005322716e-01,3.430445683218839026e-01,3.498322748860806242e-02,-7.509927942950700604e-03,4.065768077599373961e-03,-5.447688750352421699e-03,3.956510859486547793e-04,-3.161943091353741631e-02,-1.034924290740601299e-02,2.904459035010633489e-02,-2.529056833391232426e-02,5.465783676384150525e-02,-1.833376172194048359e-02,7.635302641866972828e-03,-7.629316918802961367e-03,-1.901802890544937452e-03,-9.607052567330680304e-03,-1.037861708083121087e-01,-4.348316597078029366e-02,1.474512361128309246e-02,-1.499502265154636048e-02,4.817023176508309495e-02,8.073356017102654991e-02,-2.583503889132573311e-02,2.650657856590219949e-02,-9.907038240134749540e-02,-1.126268916900755590e-01,-2.310324317263709459e-02,-2.260641186585333681e-02,-1.708608947496768893e-02,7.297324872933649842e-03,2.372182276396048173e-02
3.586487258727077965e-01,6.516428854549347616e-01,6.157142849081754798e-01,6.171880558884430545e-01,6.095369294030594798e-01,6.185407025610423215e-01,6.205564631587331403e-01,6.114603320512005391e-01,6.576297945948788026e-01,3.368318002151633461e-01,2.182041331732126679e-02,-4.570574765268117963e-03,2.295406862617619097e-03,-2.675899396649062366e-03,-5.106142873533876456e-03,-2.349771633999491599e-02,-1.498383288267268916e-02,2.449265225605358129e-02,-2.428203117436916747e-02,6.657522935381431084e-02,-4.028230149011288730e-02,1.286745411971742734e-02,-1.136223082687167797e-02,7.650533995006347440e-03,9.009722292243341896e-03,-5.572156775348882651e-02,-3.879210385106337394e-02,-4.069552544792519322e-02,2.395248155044649510e-02,8.898217823585838349e-03,8.499983935309030070e-02,-2.676822882562220757e-02,2.705505448028270449e-02,-1.000817443544864405e-01,-1.151555010907367310e-01,-3.528551241317127996e-02,-2.654512704095907463e-02,-3.630905361729452191e-03,-4.011994355186281058e-03,4.572984555848313981e-02
3.510299117042927630e-01,6.534341425569399897e-01,6.145992052719986276e-01,6.186816921569293637e-01,6.114134116110081507e-01,6.193141061072358067e-01,6.220828145775072482e-01,6.104546074554286772e-01,6.591105752314364574e-01,3.308497701050792106e-01,-7.096479382966328076e-03,2.136170440092956604e-03,-2.134007302143400842e-03,7.221726781105075078e-03,1.210608386104562034e-02,3.294286150105141253e-02,7.171026139513919997e-03,-3.837525363325244854e-02,2.934041862952375262e-02,-4.321138014528598525e-02,-4.938937597578291899e-02,1.482683994399386883e-02,-1.229319060245728790e-02,7.722557557387739816e-03,7.342691551344595995e-03,-3.637125074344148279e-02,-2.568604855151303962e-02,-3.615770108989237869e-02,2.373290603712218186e-02,-9.939095323017796760e-03,6.952376172286831024e-02,-2.256598347429291523e-02,2.348017527269733590e-02,-8.891781564171702401e-02,-1.025490970788014711e-01,-2.623822736132205846e-02,-2.415838908643198196e-02,-1.274644430658869801e-02,4.424324184528809212e-03,2.559466178138178338e-02
3.507969557260658400e-01,6.535224477889842731e-01,6.145131823446521313e-01,6.189014436351848447e-01,6.100321271424787861e-01,6.146095345437923019e-01,6.227875365572215216e-01,6.111086978799544767e-01,6.581885495444455003e-01,3.338360794538137721e-01,1.895071295520222437e-02,-4.014700672360123693e-03,2.161458605929325594e-03,-3.484250417540669942e-03,-5.499440254168160014e-03,-3.229209726293122418e-02,-9.821214268722495630e-03,2.627242566313670383e-02,-2.105962045341263494e-02,3.695186791353131245e-02,-4.025345915292824484e-02,1.267753088050804777e-02,-1.088865842848936102e-02,5.004144680026615180e-03,9.101086970158059342e-05,-5.718243329555962318e-02,-3.175717825978713327e-02,-2.444332943430501184e-02,1.506585651275408472e-02,2.083007665462649829e-03,8.552586345394358469e-02,-2.584085653129178026e-02,2.508635183829925272e-02,-9.033969345502840254e-02,-1.085559106056806777e-01,-6.598936769287430670e-02,-2.612476607527844039e-02,3.245185607244659154e-02,-2.927545206962786292e-02,6.922002698498999629e-02
3.530478338096347812e-01,6.530740609123220075e-01,6.147251560399795700e-01,6.187224398427902949e-01,6.139037389865686922e-01,6.058859705814230168e-01,6.234118609534688993e-01,6.123467233401532761e-01,6.559080284940943528e-01,3.437030818720043790e-01,-4.559000226010473389e-02,1.044296520272272599e-02,-6.243607328074757441e-03,6.135208300109315505e-03,-8.835517685260318305e-03,3.416127909221732678e-02,6.956573304227151033e-03,-1.881926828409864749e-02,1.401590913314757457e-02,-1.993106933565495092e-02,-1.792856573201845327e-02,7.219706921533959598e-03,-6.862987851478132006e-03,-6.299433325718091503e-03,-2.033707551302193356e-02,-1.298377166382274628e-01,-5.147054973940389661e-02,3.796095744920308102e-02,-3.340882052671198532e-02,7.944260965137875385e-02,-7.931368435840116526e-02,2.411049270010014525e-02,-2.338530451221362480e-02,8.183668167395391491e-02,9.664148693737342755e-02,5.418256624137481048e-02,2.197929248140573916e-02,-2.447325302262854177e-02,2.276494798681138326e-02,-5.716410356679407778e-02
3.379796899214073669e-01,6.566144138491925020e-01,6.125221068512212153e-01,6.216747657512116110e-01,6.181515131084083237e-01,6.170257980339162174e-01,6.230637582029177057e-01,6.108513859663876611e-01,6.588349190707634140e-01,3.303450058090688923e-01,-3.668572118431716322e-02,8.496338519623995722e-03,-5.228460173878964924e-03,5.983321262976803306e-03,9.057207134123973491e-04,2.981841967314912550e-02,1.180286255382854976e-02,-2.965266380257830861e-02,2.682311900303871802e-02,-6.269172769764330688e-02,-3.383562797541105061e-02,1.094724586771527938e-02,-9.506278339990790680e-03,3.902358742534830366e-04,-7.732475611634242324e-03,-6.513357572754206737e-02,-2.829683857838969849e-02,-9.606006184739836543e-03,6.243744189768584384e-03,9.760669149679376128e-04,-3.827824938513502140e-02,1.298441210974968230e-02,-1.389486065457299323e-02,5.165069917588451659e-02,5.706628142891468497e-02,-7.498535793726293641e-03,8.222041754438150218e-03,2.637917300628677547e-02,-1.698983086197275796e-02,5.999659444496832639e-03
3.601895209160824729e-01,6.512532290405608215e-01,6.159829942550578696e-01,6.167320029393597025e-01,6.105940405922803960e-01,6.198352880954047794e-01,6.201174189911994317e-01,6.112708541823195230e-01,6.579763768755003683e-01,3.354502660660383384e-01,-8.500208881884074863e-03,2.296152394501902588e-03,-1.855104688637550410e-03,4.298427171345099197e-03,-2.436069594957008914e-03,9.604020103198345273e-03,-2.940962736262818164e-03,-3.288993800746212431e-03,1.080206645323050427e-03,6.019633724033524036e-03,-4.555086910949600332e-02,1.402525007709579802e-02,-1.194596359030924981e-02,7.805668023008914200e-03,7.644556217937234499e-03,-6.369588550473773148e-02,-4.210386936302493166e-02,-3.354787347692327060e-02,1.880504393244313704e-02,1.488458333188182568e-02,7.200165834624337735e-02,-2.416086324972659821e-02,2.588891908587043905e-02,-9.997390698207055115e-02,-1.145263690570153814e-01,-1.161941004611385247e-02,-2.398246175657195098e-02,-3.044061254841995065e-02,1.707943395966259048e-02,1.210710142804968803e-02
3.540392869174830981e-01,6.527075747208817003e-01,6.150692030797191290e-01,6.179961704203570383e-01,6.110404598617078520e-01,6.202817968659326553e-01,6.215699508273737628e-01,6.109528133342090328e-01,6.585959410951836013e-01,3.320918584427543507e-01,6.697826629276617399e-03,-1.028390044126720627e-03,-8.150909552994659198e-05,3.070272754578112426e-03,6.570048052935850355e-03,1.128143895644721437e-02,8.747788965633695448e-04,-1.545032150427369695e-02,1.054395512221978359e-02,-8.473131699541279135e-03,-4.517738014870296970e-02,1.387385753598581115e-02,-1.168297842742706608e-02,6.863128517293898279e-03,5.890660964555195084e-03,-4.341911602181228180e-02,-2.687675491388668084e-02,-3.361212240522347405e-02,2.230338001194794029e-02,-1.038630380143807340e-02,7.253662529855860186e-02,-2.366630565629902760e-02,2.473081743206519134e-02,-9.375123619277181408e-02,-1.068151936516491818e-01,-1.941438431220267324e-02,-2.278195436678968205e-02,-2.131029300755000674e-02,1.091329039692436054e-02,1.649267914912069810e-02
3.550682715695976377e-01,6.524737713621101554e-01,6.152061563652019283e-01,6.178583495969715011e-01,6.093212807360899319e-01,6.184883080360042973e-01,6.221142515930946360e-01,6.110122481703472719e-01,6.583622784100654490e-01,3.333114639574603633e-01,1.471895616474083734e-02,-3.108570347718445787e-03,1.690159587114987809e-03,-3.442742664947371842e-03,-1.099175143676726224e-02,-3.529604737744444082e-02,-8.390129048679957277e-03,3.327885011325326658e-02,-2.559795264606942039e-02,3.890921121076260092e-02,-3.352664973894622924e-02,1.126343088461316186e-02,-1.023054623198362163e-02,5.332926055567593915e-03,4.666471455689318037e-03,-4.080461850123390938e-02,-2.678825938088177233e-02,-3.334824792768917301e-02,2.157589572942224254e-02,-6.389486772389029248e-03,8.055934215456390934e-02,-2.553650084834478001e-02,2.600440539148178576e-02,-9.700979234133666473e-02,-1.140574089162010862e-01,-3.858190236959677111e-02,-2.317986513058451978e-02,1.781600891089703265e-03,-6.148619021376491856e-03,3.761991543526946313e-02
3.401641530648464862e-01,6.561063977771989242e-01,6.128318062936527477e-01,6.213084895670419883e-01,6.155360455304879075e-01,6.130917489004934495e-01,6.237544529513390223e-01,6.112016703988893962e-01,6.581805632854291765e-01,3.330324387507308526e-01,-3.511618198146584241e-02,8.084133204943496492e-03,-4.882251954606148248e-03,4.573529296390887317e-03,-3.970835746140308209e-03,2.433649489843029909e-02,1.500398673845631040e-02,-2.178342365221452165e-02,2.218551939225451089e-02,-6.380595270963772270e-02,-2.834835715022583635e-02,9.665931300140703092e-03,-8.568639179280164789e-03,-1.700091509182344654e-03,-1.049479518622319085e-02,-7.567779675459834765e-02,-2.932243508886147113e-02,1.642159462685387422e-03,-1.865532762043128727e-03,1.028185590723166946e-02,-6.955414642679014214e-02,2.028155308495869710e-02,-1.877236045961608313e-02,6.279756765200328328e-02,7.448816245199679775e-02,5.825286760000372710e-02,2.108204856893253210e-02,-3.706112459442784113e-02,3.249866642999153787e-02,-7.143719606345913520e-02
3.512683828529502561e-01,6.534132315373565314e-01,6.145806193416064600e-01,6.187963051963565331e-01,6.109252388581914994e-01,6.144399283126108502e-01,6.221638884862971119e-01,6.114654408916516681e-01,6.577440060639907493e-01,3.353737271690289123e-01,-6.019708864846588792e-03,1.860263101039971549e-03,-1.854857633717653127e-03,6.225792699788669678e-03,1.119567519358514139e-02,2.525130177524282857e-02,3.486844609607395607e-03,-3.060874402428766239e-02,2.263728797888930888e-02,-2.908090811417502614e-02,-4.080046093962316767e-02,1.282248012748023885e-02,-1.101614776481364862e-02,4.886567482574225019e-03,3.466450360656885693e-03,-6.960525555244313767e-02,-3.646663567191877481e-02,-1.998881087011181168e-02,1.083462468682496772e-02,1.327281660350361318e-02,8.319596745237704816e-02,-2.532009175380300209e-02,2.474042661802779153e-02,-8.933684154862903126e-02,-1.047443415195312422e-01,-6.056557608744568555e-02,-2.940204858011837355e-02,2.148367017242859209e-02,-2.159864786839763712e-02,6.261973797698881794e-02
3.540608738757586860e-01,6.527711647991644162e-01,6.149708480728400817e-01,6.182542896233664820e-01,6.124263300458887560e-01,6.119238985072938952e-01,6.222150269751317575e-01,6.122614218973133626e-01,6.564430681107369381e-01,3.406093469927646833e-01,2.537996303662500702e-02,-5.485217820175691816e-03,3.108478457633636304e-03,-5.516771491810342626e-03,-5.857933376692835842e-03,-4.025067910625574480e-02,-8.770602657401841903e-03,3.521085137835738149e-02,-2.679833238710046736e-02,3.958579294209828986e-02,-3.045476302423397175e-02,1.033369407687163150e-02,-9.210022926553099870e-03,2.710225123385007207e-04,-1.088955201733054351e-02,-1.024403324069524390e-01,-4.528101813714615481e-02,9.953047914048806719e-03,-1.186913951927918293e-02,4.661164324955308080e-02,7.387018407274320575e-02,-2.332556861531642767e-02,2.367213771031088584e-02,-8.821208729869287057e-02,-1.041133816718276400e-01,-3.670835772891627158e-02,-2.038695128036654286e-02,3.297694192607614205e-03,-6.855449363854078382e-03,3.579607819758476306e-02
3.529226594337824263e-01,6.530130340849407133e-01,6.148384705106405557e-01,6.184499488925129240e-01,6.090682239237530382e-01,6.143507849979910063e-01,6.228040244901985600e-01,6.109468482334908801e-01,6.582950848726467630e-01,3.339412545944528965e-01,2.622195829418413893e-02,-5.661095873948548615e-03,3.101968565333763396e-03,-4.979556875377110642e-03,-6.011771718303332568e-03,-4.016221156550223159e-02,-1.152861573397880555e-02,3.136053874260489455e-02,-2.494277961863280990e-02,4.279363052836755027e-02,-4.512647083961396355e-02,1.378998399743213560e-02,-1.162722607632235214e-02,6.207827252589922032e-03,-2.293315214042142280e-04,-5.388077642181198640e-02,-3.198287150020114739e-02,-2.755957365808171800e-02,1.709409771551802237e-02,1.017313596008365215e-03,8.834756384452710498e-02,-2.678464601798151434e-02,2.609857425506117642e-02,-9.429298462994632757e-02,-1.137006415919563224e-01,-6.810850670222687309e-02,-2.677931407341010636e-02,3.368830891967788954e-02,-3.028837920181070079e-02,7.111553762918304544e-02
3.551581349827046541e-01,6.525489423343049378e-01,6.150762140059367056e-01,6.182192386471954126e-01,6.111355267097535737e-01,6.062925090451559695e-01,6.231537803668604214e-01,6.121646890145708841e-01,6.562630439018292128e-01,3.421807915014374313e-01,1.304373420251077852e-02,-2.490544736267199903e-03,8.443417672288033556e-04,9.902237268378686827e-04,9.370099476068307828e-03,-1.385117694573554650e-03,-5.738332241554418463e-03,-5.642660865614628450e-03,2.205525824566244558e-03,9.133620541336021428e-03,-2.448586702269756055e-02,8.978156715304309865e-03,-8.354064325579793615e-03,-1.402809116529901701e-03,-8.429770490978989728e-03,-1.146752440106959953e-01,-4.756027954870383628e-02,1.657854290469585809e-02,-1.678221012172453550e-02,5.321701712991160071e-02,9.344806449958406591e-02,-2.751371542172685244e-02,2.594875383418654771e-02,-9.109673005527585410e-02,-1.088106177506335953e-01,-8.358932128187571142e-02,-3.163102785636815600e-02,4.682536971665009901e-02,-4.105063714896748511e-02,9.092110383343238178e-02
3.399076200177123530e-01,6.561478030948679763e-01,6.128216784067126444e-01,6.212934885142539221e-01,6.149138712333070966e-01,6.127311287604990664e-01,6.236413315626480047e-01,6.105271272187787757e-01,6.590905147970972378e-01,3.300444708537009220e-01,-1.662136416555666865e-02,3.689232569463833482e-03,-1.752142222202337195e-03,-3.638636889458260731e-03,-1.937628054990384041e-02,-2.466185673195337574e-02,4.122859937220283572e-03,2.932520552577771999e-02,-1.689545147614202394e-02,-5.679993635260532914e-03,-3.806703514865114601e-02,1.193375067917559762e-02,-1.010381733938098270e-02,1.323487028377610952e-03,-4.183057461225145324e-03,-7.392681720274336954e-02,-3.331459637799528278e-02,-1.038386187245519433e-02,5.922694003130307694e-03,7.102427745676901868e-03,-7.334611953107711413e-02,2.129904801063835229e-02,-1.961056500670501496e-02,6.520049097847727126e-02,7.626344716361957432e-02,6.499678626239477341e-02,2.558470782230596804e-02,-3.852686004939109843e-02,3.393418706329395795e-02,-7.591958452419406145e-02
3.478915440390847325e-01,6.542096179180174609e-01,6.140848091682443721e-01,6.194280571741940244e-01,6.136895737451386612e-01,6.175878551222058199e-01,6.227780744344435515e-01,6.103573129047470402e-01,6.591647762131563892e-01,3.307467507095076531e-01,-1.352319773278035792e-02,3.640419886620806927e-03,-3.127972840147577073e-03,9.266820490524501491e-03,1.682574225576647514e-02,4.812633323687282028e-02,9.723666018228046409e-03,-5.002377104982956568e-02,3.753591395484205673e-02,-5.153408218128310847e-02,-3.064613731273509167e-02,1.051018376799848358e-02,-9.580101154033831418e-03,2.561130180309081905e-03,3.888498112977260140e-03,-5.014431624415362221e-02,-2.573073678899569228e-02,-1.694841935790256104e-02,1.015866342170339796e-02,4.062273384924049158e-03,6.346997200196000111e-02,-2.051132839738255276e-02,2.123510524044509504e-02,-7.999106166884528690e-02,-9.003332332867645948e-02,-1.830365189865502951e-02,-2.174498366869801955e-02,-1.847838150907372967e-02,8.991402773473745891e-03,1.774167222375089281e-02
3.033285687871823955e-01,6.621744120861480232e-01,6.102210408744829229e-01,6.242147392112523674e-01,6.096593721256925447e-01,6.138235129214493213e-01,6.161612034954252470e-01,6.103640939331401727e-01,6.630376894249506714e-01,2.990458815184871000e-01,2.282153329286600030e-03,-4.543226439930707350e-04,3.925077545470917473e-04,-3.096046949788916654e-03,-1.179329497281940593e-02,-2.878971398410232890e-02,-3.448752909861826921e-02,-1.884671994257303487e-02,1.721865200579027894e-02,-2.987316416411866377e-02,1.841292204044026742e-02,-1.524936259035769570e-03,-1.503706350508213219e-03,-7.410869385883429861e-03,6.650448992357744366e-03,-4.146904708111570637e-02,-8.459900401681305637e-02,-3.334648564947210320e-02,2.748186857471165978e-02,-3.192721131956568342e-02,1.986870385977777820e-02,-9.190431920537808080e-03,1.153553993703036740e-02,-4.593766957215974361e-02,-1.140870020936957108e-01,-7.661132715839573393e-02,-4.824229320727814463e-02,-1.640765680696687490e-02,1.256750907240682114e-02,-8.731139033274271100e-03
3.477329661695131025e-01,6.543185533668246512e-01,6.139557383674654201e-01,6.197334045831711657e-01,6.162178591216199708e-01,6.072652675103555886e-01,6.229762533210030373e-01,6.123082904342769250e-01,6.561272883492363928e-01,3.424186084521776419e-01,-1.878811435501460264e-02,4.234443024539284728e-03,-1.714531129999682501e-03,-2.756306275683179444e-03,-1.889507722846434784e-02,-1.951141738845543067e-02,-3.993202576323940343e-03,2.649864053430645711e-02,-1.904292983699767960e-02,2.149764948506973847e-02,-2.305528410735885325e-02,8.454564957955372495e-03,-6.864800109066343525e-03,-5.604008611300594078e-03,-1.643249057767101617e-02,-1.330894831653035570e-01,-5.220235540599035134e-02,3.582253811039649155e-02,-3.142386201630188031e-02,7.495650657032978947e-02,-6.195860903788341645e-02,1.954260532285803306e-02,-1.954772993313852458e-02,7.034092508315552272e-02,8.160168405708712047e-02,3.222646936370887616e-02,2.066305248888212001e-02,-3.170226264873119912e-03,6.330359547718714813e-03,-3.285153167595192270e-02
3.478708996485031513e-01,6.542243556777808111e-01,6.140648720976177311e-01,6.195096911108032289e-01,6.123477300342452523e-01,6.167384004328446689e-01,6.229918508901718388e-01,6.104222349356726030e-01,6.591659872780125662e-01,3.303314465399855848e-01,-2.766971053324498997e-02,6.718442738028422914e-03,-4.781142250779795745e-03,1.046637632454726005e-02,9.846615114217270592e-03,4.468791703650815128e-02,9.261390745704464744e-03,-4.475895148022365766e-02,3.626424708840458172e-02,-6.391691843166748266e-02,-4.531026118393604446e-02,1.383139110476543088e-02,-1.167711893915624778e-02,6.135146196840413069e-03,5.282797306292601192e-03,-4.019075667028616794e-02,-2.458932153472568466e-02,-3.175327510830673605e-02,2.315516958376186846e-02,-2.327593386405153730e-02,7.691599334229459739e-02,-2.346608691767018348e-02,2.295842655304693863e-02,-8.282488748333483031e-02,-9.458501880046196741e-02,-4.648419728135949613e-02,-2.310098777327936406e-02,1.317521615449431492e-02,-2.084399745358555059e-02,8.788611542308365221e-02
3.537088189279398165e-01,6.528037101804257114e-01,6.149941921301683712e-01,6.181181214669322355e-01,6.125117175178314000e-01,6.200891145321940634e-01,6.213140273983687178e-01,6.108176660520647783e-01,6.586749010570108753e-01,3.323545031530592553e-01,-6.533566807370948942e-03,1.898445979153823033e-03,-1.528441121659828003e-03,4.574483693203681804e-03,2.820490001728465611e-03,1.473602917344543108e-02,4.787337914026914068e-03,-1.533184187185875069e-02,1.229269047740861633e-02,-2.139627469918676389e-02,-4.385998684772206280e-02,1.359700484732515383e-02,-1.139571076982945005e-02,6.565328377828442627e-03,5.807032029863767875e-03,-5.282704628832308319e-02,-3.219009098918243494e-02,-3.083813269342769448e-02,1.878337051577155456e-02,2.886830876084829633e-03,6.359324800837144742e-02,-2.148071902808526557e-02,2.315240156546962205e-02,-8.971772174331894834e-02,-1.020481112587731665e-01,-5.952468426956035452e-03,-2.007596085595405797e-02,-3.310949293208867439e-02,2.013349299944157400e-02,1.899830926686413290e-03
3.533402482239923481e-01,6.528884187161397845e-01,6.149414320695066882e-01,6.182102359496640664e-01,6.114199801302413473e-01,6.194106800018308601e-01,6.210257851799025897e-01,6.109781232012762020e-01,6.585645267528614788e-01,3.323765587648812581e-01,-1.699781003552439107e-02,4.166262013421484847e-03,-2.899900674259269905e-03,5.274732730608213543e-03,-4.654237611056462678e-03,1.224839589379837085e-02,2.392005420957494990e-03,-5.441047573336832074e-03,4.078965799580909664e-03,-5.951810201643100741e-03,-6.122166181618449166e-02,1.751686621557421372e-02,-1.389713166125368382e-02,1.032379533187172301e-02,4.961874511313846964e-03,-5.291732208490160932e-02,-3.604776276024086040e-02,-3.934025991291902058e-02,2.429604836880220470e-02,5.476118089337046746e-04,7.319871977281983133e-02,-2.361024728919011717e-02,2.441449291906300223e-02,-9.185930074932584233e-02,-1.047885601360992319e-01,-2.425475578355930362e-02,-2.259862660294368469e-02,-1.646036575111447034e-02,7.555431099616552459e-03,1.937461229627482351e-02
3.513127895399922318e-01,6.533775724927830542e-01,6.146254473786779693e-01,6.186661055839344225e-01,6.118640014321613529e-01,6.201430144520301280e-01,6.217966218950802260e-01,6.101163060394502180e-01,6.595971598706916739e-01,3.292143284642914391e-01,1.807429957880464511e-02,-3.822663452868929439e-03,2.011044081963112538e-03,-3.212443809172991355e-03,-8.085090844344024891e-03,-2.961448317339823028e-02,-6.147630840746719921e-03,2.420541864781582467e-02,-1.828926912167000776e-02,2.620508464752641792e-02,-5.299352407758484151e-02,1.567347163299447066e-02,-1.299365485245205717e-02,9.715427632787872886e-03,6.676394946785416118e-03,-3.585590582588001757e-02,-2.912761367902012496e-02,-4.817168923183966223e-02,3.205379614769592739e-02,-1.690936895836821219e-02,6.551636680155817349e-02,-2.162919811153748290e-02,2.287214284088449553e-02,-8.774765419579190484e-02,-1.021360540268644590e-01,-1.593927348869203509e-02,-1.822931698876197396e-02,-1.831593438809127339e-02,9.629216095211425019e-03,1.224176280516847681e-02
3.400149946073360852e-01,6.561174953867863202e-01,6.128459188062798102e-01,6.212213089853607650e-01,6.173408981490808856e-01,6.194139477924909265e-01,6.221619006673579921e-01,6.095613459743403073e-01,6.605124715430883420e-01,3.253595940296991618e-01,-1.819169922045006660e-02,4.293235155503910376e-03,-2.621943668996912832e-03,1.190475659087670808e-03,4.738128839266450912e-04,7.348076691985799651e-03,4.338772289379712321e-03,-9.947123352380654593e-03,1.001962456592669568e-02,-2.810412517490802967e-02,-5.088037096139945425e-02,1.500646507324340795e-02,-1.224219546858249311e-02,7.301450735512108811e-03,6.065227580690562767e-03,-4.953003562984997082e-02,-3.193103452038435069e-02,-4.731800415341046867e-02,3.222826911065574534e-02,-2.108552430597263050e-02,-3.869928941990847387e-02,1.371214659486455489e-02,-1.521567443047597973e-02,5.818323180426331759e-02,6.489745862115745001e-02,-1.255715020663073986e-02,8.872474083341325146e-03,3.512519772986282679e-02,-2.359186872716735953e-02,1.492481735796911957e-02
3.506834745949274357e-01,6.535222969737587428e-01,6.145370690650387990e-01,6.187996143548529782e-01,6.108837175545861475e-01,6.189526478517717312e-01,6.216625747102986210e-01,6.104952633242093363e-01,6.591763676064748001e-01,3.302795683450432396e-01,6.710933633764418205e-03,-1.032871101929191092e-03,-8.686754319568680202e-05,3.386926056200283315e-03,8.172347926299183135e-03,1.158750952307859364e-02,1.464303162282583771e-03,-2.144431755018428101e-02,1.597422908163528138e-02,-2.090576574172611085e-02,-5.722737606728576371e-02,1.663781403972953987e-02,-1.346500674934625677e-02,1.019040578431211312e-02,9.443858211493887794e-03,-4.168986008059518550e-02,-3.083787352227116557e-02,-4.657143682637483045e-02,3.065449665290834180e-02,-1.376786335220485380e-02,7.580291169719495514e-02,-2.388810103430732967e-02,2.416686110187075270e-02,-8.962551625367336239e-02,-1.038293041778210746e-01,-3.939678340885487129e-02,-2.538481377731961058e-02,1.988557254792994167e-05,-5.116338377304255336e-03,3.821057724488585716e-02
3.473447983793561678e-01,6.543487946163283331e-01,6.139854914202479419e-01,6.196318319329641167e-01,6.124465142319216460e-01,6.160256364605283252e-01,6.217173152245452084e-01,6.111635815743639011e-01,6.582639584283831446e-01,3.333355884876592068e-01,-4.252430475663190879e-03,1.014854707246346487e-03,-2.975329071779600140e-04,-4.936359375394818068e-03,-1.222035536888453969e-02,-2.022427583155807576e-02,-4.373820123311111807e-03,2.792058603755681254e-02,-2.146483941684710489e-02,3.208322913002783355e-02,-4.726212213002492502e-02,1.415595014539805865e-02,-1.161538095014000641e-02,5.296955932765553057e-03,3.313291279502521280e-03,-6.679897334776858930e-02,-3.928052218786926009e-02,-3.057203471226736455e-02,1.771607411272310695e-02,1.006994399190749324e-02,-7.254863207114052581e-02,2.270688211178455498e-02,-2.268552225587216337e-02,8.132920364122223078e-02,9.614581105872865852e-02,4.638839252823241666e-02,2.483063957661428914e-02,-1.397968810997295662e-02,1.531225587842319560e-02,-5.009038658544165412e-02
3.597036734215939280e-01,6.514298545391117301e-01,6.158209690214142551e-01,6.170472204403376626e-01,6.124279420373385241e-01,6.120414603644875884e-01,6.217882017198936850e-01,6.125149680678736441e-01,6.559674418677567953e-01,3.428979893527701606e-01,1.921302492758527464e-02,-4.041339280791524276e-03,2.119625357765350313e-03,-3.459143685767757277e-03,-3.308995636449643327e-03,-2.769480574052738883e-02,-4.524821391176962401e-03,2.668807748092872148e-02,-2.027298284070980922e-02,2.943214101157960727e-02,-1.992419413377730097e-02,7.962980333136464306e-03,-7.761677847643064926e-03,-2.141629765419188897e-03,-1.146330465584137481e-02,-1.144408695863967235e-01,-4.750390661868272163e-02,1.965567612900695482e-02,-1.909127205937427227e-02,5.651484302748688293e-02,7.368144673513088438e-02,-2.393540766853442456e-02,2.492585386146551479e-02,-9.441276067850822018e-02,-1.089121235110353247e-01,-2.112089517040204728e-02,-2.024159932529236497e-02,-1.691869963805426799e-02,8.123769634604781353e-03,1.709893448466123789e-02
3.586797820207255905e-01,6.515934128748314125e-01,6.157817013436338582e-01,6.170212309699643072e-01,6.076063919445640060e-01,6.168359557158840101e-01,6.230986984660675798e-01,6.103481424546545187e-01,6.592852866700632530e-01,3.298299411952241300e-01,-1.411307723316709839e-02,3.791803621959429979e-03,-3.242676623718946174e-03,9.533812577231818783e-03,1.392496512428265804e-02,4.437237795519367867e-02,-8.799307387853498585e-05,-4.251855511108981051e-02,2.995189356270476846e-02,-2.869187278514766584e-02,-4.639334772429550696e-02,1.408720501434064867e-02,-1.180492485205874957e-02,6.123732382600541313e-03,5.138818649888896029e-03,-4.446600630236410140e-02,-1.685996887853835266e-02,-3.291882148808914638e-02,2.907398167292192526e-02,-5.905415189562645412e-02,9.442045328504147794e-02,-2.915402925419205774e-02,2.887211275204255162e-02,-1.049718706496422377e-01,-1.199864525778013974e-01,-5.394844170003332273e-02,-2.592736042164066335e-02,1.305775469392190212e-02,-2.382612155695153222e-02,1.074896093467195141e-01
3.543004327448867619e-01,6.526844387981353135e-01,6.150505127339145339e-01,6.181066506371197811e-01,6.103263429084878622e-01,6.126988390413508068e-01,6.228090619208446199e-01,6.119043449974239657e-01,6.568678460316705880e-01,3.392219956760169630e-01,-1.081217943743106868e-02,2.994665034518048663e-03,-2.606136444667499219e-03,7.885941556119947446e-03,1.602451999057754803e-02,3.614010600032387110e-02,7.416770135933160174e-03,-3.908097841700988728e-02,2.956241031859963356e-02,-4.205544070818544727e-02,-2.399247258871956001e-02,8.893677950898716544e-03,-8.338324354310117092e-03,-1.305644055535487569e-03,-6.215204736483299908e-03,-8.545549494338097740e-02,-3.572025310491248190e-02,1.377230132237292591e-02,-1.381694242542512614e-02,4.290112322038917153e-02,8.295190659593357219e-02,-2.567633056751802284e-02,2.553228735594902793e-02,-9.351497110750181530e-02,-1.098906879883149723e-01,-5.538807803020014131e-02,-2.949656451989124059e-02,1.593971880305040945e-02,-1.749468632813616642e-02,5.748237919621329572e-02
3.526435104474471283e-01,6.530500811047252885e-01,6.148417134427577313e-01,6.183596288332255941e-01,6.100550955038602785e-01,6.178701612147285971e-01,6.220428944044180675e-01,6.109929766337673929e-01,6.584077036469215827e-01,3.330992464728255165e-01,-1.133023295565394051e-02,3.066525630033003699e-03,-2.629661131066760894e-03,7.575362972506501091e-03,1.027310886446690212e-02,3.133686713192505857e-02,6.220105619090256568e-03,-3.505350136479343237e-02,2.666584931248736773e-02,-3.862302212718492916e-02,-5.318743071543152040e-02,1.565170468129850265e-02,-1.283855529553516034e-02,7.983450477477421758e-03,4.646854937880256706e-03,-4.281334290309214002e-02,-2.851616088260476231e-02,-3.159921956985058816e-02,1.994403268614297620e-02,-2.461985268707689647e-03,7.979043607467274646e-02,-2.506177067073413547e-02,2.527225030735850975e-02,-9.348662495233016345e-02,-1.085817578852709270e-01,-4.443386176749118677e-02,-2.773270956687070785e-02,3.617221472988318975e-03,-8.220081138013528299e-03,4.483962252036607921e-02
3.201733494161687066e-01,6.591262360259735331e-01,6.116856408071638107e-01,6.225279981543050400e-01,6.134828992042717921e-01,6.130493212515166768e-01,6.126290083859898816e-01,6.150024384965188107e-01,6.552121050742684139e-01,3.339835903731441791e-01,2.465193834730282363e-03,-1.776848545757599845e-04,-3.249804818180020496e-04,1.474162494601236918e-03,1.111606174980518669e-02,2.370043149252365824e-02,2.264576590832028530e-02,5.190298000714440099e-03,-1.128085808070117615e-02,4.263819424440657563e-02,1.481479288884332557e-02,-7.091254674493063792e-04,-1.755114397167762547e-03,-1.079641146838105845e-02,-6.528042248278388693e-03,-8.484471044499111714e-02,-1.175694188006553287e-01,-8.984920168506769708e-03,4.393336211416729031e-03,3.404879414793472031e-02,-2.979771136444274438e-02,1.158791286086958972e-02,-1.323760131196654102e-02,4.913306449966411971e-02,9.701636932001017621e-02,4.782148613517826774e-02,2.586679917986808505e-02,3.194595517250056749e-03,-1.388685121872890865e-03,-9.522819743946406290e-03
3.569526615191676022e-01,6.520140371145877189e-01,6.155062811060553196e-01,6.174358792316839706e-01,6.082125995114724404e-01,6.172000223749078973e-01,6.206043232196768455e-01,6.112701481127049696e-01,6.583506044874105623e-01,3.324147171246516486e-01,-7.664503727592048704e-03,2.210712808121002501e-03,-1.931244810372069291e-03,6.039569588152096311e-03,5.840865129258347721e-03,2.035232729606978319e-02,4.514251100166922007e-03,-2.175099597674347990e-02,1.312991541886135947e-02,-8.551495437709426967e-04,-5.991486421114292082e-02,1.723024418835392493e-02,-1.340374784652681971e-02,9.705326407249597123e-03,6.930830657001944839e-03,-5.415521277503249076e-02,-4.420112102138389065e-02,-3.998728600941025418e-02,3.195219439084068941e-02,-4.812258485936393715e-02,8.585697984936811744e-02,-2.699270273591047875e-02,2.725954675145680212e-02,-1.010138385112368115e-01,-1.189647730267859860e-01,-5.320317082968212263e-02,-3.161478905082218405e-02,1.009811525948061880e-02,-1.258250284573445010e-02,4.832011886176920679e-02
3.413847846562135802e-01,6.557708042897790746e-01,6.130814076606216911e-01,6.208960758281346637e-01,6.138506069684270816e-01,6.150202543793708010e-01,6.226252442390773911e-01,6.107215625326294361e-01,6.590107832742092553e-01,3.299082794687360209e-01,-2.193663500553875989e-02,4.953652949209072683e-03,-2.614742519194428964e-03,-1.581422532062872139e-03,-1.425804161866549465e-02,-1.039192010336289704e-02,4.313850849457841891e-03,1.795806916927165237e-02,-9.848790493041307062e-03,-7.198666457933048518e-03,-5.553651080555714603e-02,1.594139580762267416e-02,-1.257262366496719914e-02,5.996108523642351695e-03,-5.913971150785790609e-04,-6.680081955485724088e-02,-3.544751250322601688e-02,-2.866480487526380794e-02,1.875815870575515271e-02,-5.273533227574536859e-03,-6.867835961803950284e-02,2.085171688109243443e-02,-2.019543593951169877e-02,7.053695251985446502e-02,8.464033285345844149e-02,5.570084028100675405e-02,2.312619551197909670e-02,-2.823258951515185411e-02,2.533801025401179879e-02,-5.944593383550955679e-02
3.618443576423817643e-01,6.508775850493881965e-01,6.162068726631275695e-01,6.164412566393814297e-01,6.105405500500062921e-01,6.184046840664720879e-01,6.213698389971971103e-01,6.118548284872681320e-01,6.570211349395203015e-01,3.388855882649579598e-01,3.604526207335168042e-02,-7.751712246598574906e-03,4.208064939875682565e-03,-5.667933782412286001e-03,-2.180807358042043814e-03,-3.360543130554496938e-02,-1.372049549187969592e-02,3.257809305417171120e-02,-2.956029997441920326e-02,6.952606280208310785e-02,-2.360652941258002679e-02,8.924711930741877769e-03,-8.609597101143541542e-03,1.133086091648236038e-03,-3.375252418048917125e-03,-6.640013822269300037e-02,-3.206402233464085427e-02,-7.867791111837659640e-03,2.628570175442379152e-03,1.897669240061034684e-02,7.973901081451040262e-02,-2.593172481484626313e-02,2.699983612812581479e-02,-1.019332576303434018e-01,-1.150937965341938957e-01,-1.373972772666762904e-02,-2.222229225139039921e-02,-2.716273030978803502e-02,1.453981894781072870e-02,1.577832565977210777e-02
