3.327520504171682658e-01,6.577163406384647359e-01,6.119532520219006511e-01,6.221332546943507680e-01,6.153744275295033317e-01,6.171078036463394367e-01,6.220157177735857745e-01,6.094742592565041139e-01,6.611664432017662074e-01,3.210903554435970975e-01,9.679103917158593529e-03,-5.717156122983169803e-03,8.426263742392494510e-03,-3.940044219606354120e-02,-4.774172103212117463e-02,-4.094360022873974603e-02,-3.227920318218557155e-02,-3.551973151337994156e-02,2.350489900866595261e-02,-8.388443381649707264e-03,1.051956010942772801e-02,-1.527943161593752625e-03,1.113238713239120443e-03,-2.821601251345294201e-02,-3.090873569445688751e-02,-2.822102344255957018e-02,-2.405368116350105334e-02,-2.753630056579367893e-02,1.775768638621248730e-02,-3.635551196844159783e-03,-7.193471319379356188e-03,4.456299550743734843e-03,-6.680573173175069317e-03,3.022034388236353661e-02,4.012034741942836769e-02,3.075114076813431629e-02,2.338974911696677095e-02,1.993678892070851333e-02,-1.601855686753399233e-02,2.061633415767658017e-02
3.324608694630298844e-01,6.577688190857773343e-01,6.119347098638936444e-01,6.221265864275679069e-01,6.147745942507976125e-01,6.165182551158105984e-01,6.224700900309546592e-01,6.097889533449114552e-01,6.606822626385738806e-01,3.227246991201395687e-01,-3.713024393556370317e-03,3.457029276781712485e-03,-5.612941603531277669e-03,2.472717410409403654e-02,3.600852958030673068e-02,3.080524257523588327e-02,1.534839973970400159e-02,8.868352189975574687e-03,-5.261986033244426056e-03,-2.919747508561554294e-03,8.574108325859315649e-03,-8.873084678074644877e-04,5.522161656524426226e-04,-2.713306764414297884e-02,-3.416277925158822670e-02,-2.676088396871399364e-02,-1.363895283634280337e-02,-1.066275878845401523e-02,6.465439808843056677e-03,1.579230363618046307e-03,6.262705353242040140e-03,-5.461459360459473139e-03,9.119401202924941677e-03,-4.527507061801840094e-02,-5.542181213538502349e-02,-5.057857371231393173e-02,-3.703320357486422632e-02,-4.020941767032414071e-02,2.514166670101688345e-02,-4.455976349913987056e-04
3.272479790621118934e-01,6.591167318916488771e-01,6.109578968875170046e-01,6.238861669090860484e-01,6.192037649595005799e-01,6.192681605880268059e-01,6.236201646401167142e-01,6.104057744210397152e-01,6.598219607988203839e-01,3.251689283241367967e-01,-2.533612916064869117e-03,1.776660997866134125e-03,-2.556264217435882599e-03,9.019526461875093659e-03,1.185988906473678037e-02,1.072124993011877581e-02,7.273031072153726684e-03,7.205502763043580491e-03,-4.140357798153912645e-03,-2.218537664920552238e-03,-6.134851641079859530e-03,6.577264401202847187e-03,-9.407123988397079334e-03,1.354467506527275156e-02,1.567064831249929263e-02,1.756221912273180086e-02,1.863050170879332335e-02,2.574084443785421700e-02,-1.415033154185001488e-02,-1.058960324991286422e-02,-8.366362041987386242e-04,7.549814690197803168e-04,-1.176954992878552833e-03,4.453698802211798584e-03,5.243904555557571054e-03,4.991803252870533059e-03,4.016176199675528490e-03,4.727302300216949457e-03,-2.849201840635843912e-03,-5.040182534658578517e-04
3.269529371212407387e-01,6.591689094457271469e-01,6.109472065328011015e-01,6.237964658444151711e-01,6.190137105560447051e-01,6.192984179834228886e-01,6.239294517128143314e-01,6.106919423372835221e-01,6.594909917150526546e-01,3.259379067104217764e-01,-3.654796459724784369e-03,2.252253842545804460e-03,-3.120854992847395173e-03,1.097505404168301266e-02,1.194544512554675947e-02,1.192811888183085631e-02,1.111078529803970379e-02,1.457671359206702370e-02,-8.419258127694933397e-03,-3.620338530184945280e-03,5.401815278645340224e-03,1.204315799409719917e-03,-2.615783831105065408e-03,-1.340096800069305247e-02,-1.675011723474263692e-02,-1.195643453871202827e-02,-3.821958898174381090e-03,-3.625367874777883810e-04,3.761062098385694469e-04,-3.244418562197634581e-04,2.885604010709301448e-04,8.066833596253493444e-04,-1.708109693852054994e-03,8.342252151420139969e-03,1.584984998623633831e-02,1.188720805827820151e-02,8.356723416954362459e-04,-5.865960104897576660e-03,3.252341748674518387e-03,1.587514495411904147e-03
3.284369064424832452e-01,6.587800913922308155e-01,6.112262261716518985e-01,6.233187491462776064e-01,6.180789309319025815e-01,6.186234025047450125e-01,6.234321538024875098e-01,6.104175556737275743e-01,6.598485826933104814e-01,3.249751131599478704e-01,6.273040267641541434e-03,-3.339148416782486244e-03,4.707242944076834440e-03,-2.189815979075187408e-02,-2.649240041351964142e-02,-2.434774787874313326e-02,-1.888003429216142046e-02,-2.100447045606316371e-02,1.230683468608515657e-02,4.232379980660200269e-03,8.298010332676960393e-03,5.512373237690978978e-05,-1.278837837595193407e-03,-1.775755939346068679e-02,-1.872584086688668797e-02,-1.525427158007023297e-02,-1.103238700683630349e-02,-1.281373719551683749e-02,7.151447640019323142e-03,4.738676611065778532e-03,2.506310203076685117e-03,-2.219185478367773599e-03,3.776927799470403309e-03,-1.962310168528560994e-02,-2.611056775760723508e-02,-2.233773828585008947e-02,-1.286790559902262210e-02,-1.141576637993425500e-02,7.024767325535254472e-03,7.883004395375925455e-04
3.323477358115725089e-01,6.578434658514094036e-01,6.118352403020155261e-01,6.224760445214012616e-01,6.149763484584584994e-01,6.172780876302206288e-01,6.229542309151749890e-01,6.102283025319754639e-01,6.600691085704580852e-01,3.246485662047371434e-01,9.185905173882173702e-03,-5.344325996986080962e-03,7.899680101871546858e-03,-3.751050471636269146e-02,-4.952336296533950410e-02,-3.940500305369288442e-02,-2.296198508729669838e-02,-2.075511830865626323e-02,1.203917028290727234e-02,5.529709290028606006e-03,-2.129419108571201091e-03,5.419937324111176805e-03,-8.483260675798751441e-03,1.189440333938191277e-02,2.119757091340415678e-02,1.862954581555216482e-02,8.912715679087749449e-03,6.007625531973901506e-03,-3.697165596905702470e-03,-7.573339145225538305e-04,-6.767810611215986649e-03,5.065710165743607385e-03,-8.058350172030104286e-03,3.760906963004327641e-02,4.944699439201662161e-02,3.728481772758971552e-02,2.441520194382161210e-02,2.545076820247208632e-02,-1.514942543440259484e-02,-4.562541228844377295e-03
3.312562500450542124e-01,6.580958101294592799e-01,6.116902420413365959e-01,6.225689306871953210e-01,6.159827159727865320e-01,6.172911333967106007e-01,6.227774719895590172e-01,6.098959985949359286e-01,6.605009461889568279e-01,3.233581437046324503e-01,-9.851735396875213602e-03,6.741414696559771061e-03,-1.009911094939271517e-02,4.317794229385044785e-02,5.372787159004131785e-02,4.849090381492823787e-02,3.466712758057448329e-02,3.819547435640226196e-02,-2.307365431221911414e-02,-4.407311949116018979e-03,8.366175383594173787e-03,-7.960808306807804630e-04,4.203841267299002205e-04,-2.659759872657782229e-02,-3.451611122638830603e-02,-2.819664928761932143e-02,-1.428447109704262044e-02,-1.058541936426654617e-02,6.353159727956322542e-03,2.085017641910852371e-03,-1.885812647070194900e-04,-1.202097938753628279e-04,4.100483558865490596e-04,-3.690277026103269339e-03,-7.851324426513773755e-03,-4.851385220607414873e-03,1.725900791618445972e-03,5.960887523491400185e-03,-3.610888621146914317e-03,-1.758989862622756944e-04
3.286936401051674395e-01,6.587704234247506729e-01,6.112029487230348224e-01,6.234136139451302849e-01,6.180282663415810340e-01,6.184195193847163985e-01,6.231121018594488747e-01,6.102772855658765705e-01,6.600156684327116441e-01,3.247182456609971624e-01,5.351157217246112208e-03,-2.303226257197551682e-03,2.937464769263269711e-03,-1.340321309636945818e-02,-8.386199092898560803e-03,-1.175173444818399145e-02,-2.211942770888507964e-02,-2.916012598542640222e-02,1.696206461744387273e-02,6.662737822242274441e-03,3.130886124864655767e-03,2.534245051616980295e-03,-4.482098399183059335e-03,-5.036627667430678551e-03,-4.044233273142833381e-03,-2.883780041974589453e-03,-2.079452160855479841e-03,-1.269037575179160146e-03,9.011002341866262023e-04,-5.091991688626357898e-04,-3.683591998550193869e-03,3.693030162453351042e-03,-6.276351617893170982e-03,3.002686413112616234e-02,4.139036384913404032e-02,3.799297589344642623e-02,2.501837638374115880e-02,1.281179592163513188e-02,-8.523297486516017568e-03,2.074330167455590290e-03
3.291714895425569276e-01,6.586835556925235702e-01,6.112237931262105572e-01,6.235507910715540891e-01,6.179248223032020038e-01,6.183952561915698753e-01,6.232719726225992574e-01,6.102759246464484200e-01,6.599941620269680342e-01,3.248315052015644522e-01,-1.288195332442362492e-03,8.566594880893303038e-04,-1.110012412044444636e-03,2.399130142864440516e-03,3.411097420449516436e-03,3.916727035264890890e-03,2.504739296755867893e-03,3.245909919218785238e-03,-1.849463103627960571e-03,-1.020858946913023174e-03,-1.011767091759397524e-02,9.142599081060803420e-03,-1.322220076015523729e-02,3.040891694693392822e-02,4.198349236550703162e-02,3.874565081809376588e-02,2.620072855066387513e-02,2.759447515246159569e-02,-1.624163751645590209e-02,-5.865506771041265055e-03,-2.101421680804056377e-03,1.599233149047199314e-03,-2.465263419346888033e-03,1.034021850531620552e-02,1.050956192153086090e-02,1.076200977552804403e-02,1.100450426639122160e-02,1.469742039085247982e-02,-9.028483324625715539e-03,-5.136815915416127754e-04
3.278785383777427231e-01,6.589537378723231420e-01,6.110712478624885646e-01,6.237181811889197514e-01,6.188863167139075916e-01,6.190306719363403154e-01,6.231526247185392720e-01,6.095528832538568142e-01,6.608573126472765402e-01,3.223747034067587780e-01,6.076348924885172434e-04,-8.702860421646663527e-06,3.326708815307275087e-05,-1.083099732080535210e-03,5.761994223891990334e-03,3.175921089303843786e-03,-7.699127918458319869e-03,-1.601933984233482045e-02,9.204544027650880117e-03,3.626412296992870266e-03,-1.011940700412739327e-02,8.155061210575883027e-03,-1.081534959617269295e-02,1.992059498895029299e-02,2.373353411362564766e-02,2.438074587561737949e-02,2.261458389535736871e-02,2.984432576867846604e-02,-1.654818861415405934e-02,-1.155357951197346147e-02,-4.515518129275881282e-03,2.632618979587093063e-03,-3.690332761163216818e-03,1.510027935105657734e-02,1.219712231865567945e-02,1.484190556365031118e-02,1.997616525445776101e-02,3.021660456086000535e-02,-1.794485679134601164e-02,-4.241554793601998163e-03
3.293435260436727852e-01,6.585554314663621955e-01,6.113744553498881018e-01,6.231111558386823734e-01,6.178400118355322768e-01,6.181415111871243484e-01,6.227578242451514701e-01,6.098507757634762383e-01,6.605499339130860292e-01,3.231411286726624255e-01,6.527264704038089616e-03,-3.104382787630994428e-03,4.216708010689673540e-03,-1.972354892957979902e-02,-2.232660146382598604e-02,-2.265463228616958549e-02,-1.829094886238197271e-02,-1.881815526752273968e-02,9.821962596864183132e-03,1.185954097076350605e-02,2.479178738102728527e-03,2.438682594735471117e-03,-4.056334758584768767e-03,-7.871328169639580513e-03,-1.160567507024121668e-02,-6.497140765844431481e-03,2.028871073611876377e-03,7.661803253215538831e-03,-4.128287996987056729e-03,-2.972214627391101677e-03,-7.625742005271066160e-03,4.938373733173578514e-03,-7.428580607991020109e-03,3.311049322406395268e-02,3.645994994797693844e-02,3.769735618188151116e-02,3.239586859113033346e-02,3.548732461164012114e-02,-2.098819948158915302e-02,-6.141075118594352400e-03
3.312360637218636494e-01,6.580722757814606583e-01,6.117041581799275152e-01,6.226357518783655065e-01,6.166085216144099324e-01,6.174055374488145453e-01,6.220649193763527762e-01,6.089788064532903888e-01,6.616427739157177967e-01,3.201255715050796979e-01,-3.641264166069409919e-03,2.110674477616177394e-03,-2.927598133061620322e-03,1.099266036492171396e-02,1.048740167139243853e-02,1.061211047418184061e-02,1.088062025526991168e-02,1.456696267675119602e-02,-7.879071396890674484e-03,-7.215095405718052399e-03,-4.775844460180644901e-03,6.210618391098484542e-03,-9.147969048540410125e-03,1.325820038030644903e-02,1.815879260640672344e-02,1.809739678868767937e-02,1.468269800370213332e-02,1.773050815185051726e-02,-1.014220127167345283e-02,-5.120739157585225271e-03,8.303618390126568660e-03,-6.118190613093503830e-03,9.732376594978733864e-03,-4.690612982580426998e-02,-5.374094026557198200e-02,-5.055398768484589689e-02,-4.181893555266299328e-02,-5.067438676915680951e-02,3.056911242023596653e-02,5.239577269561548900e-03
3.284891634003568317e-01,6.587831280107104837e-01,6.112054663531319987e-01,6.234327312925109776e-01,6.183484249801607380e-01,6.186869331123926452e-01,6.231770313480389234e-01,6.099849398748050655e-01,6.603710888210717611e-01,3.235907074621733326e-01,-5.545449160974002395e-03,3.299543089404726511e-03,-4.562529932119716546e-03,1.699386570734171681e-02,1.843144262654101972e-02,1.811882130942302216e-02,1.691237553967984975e-02,2.337276789334451210e-02,-1.367395038478978059e-02,-4.551397499079162107e-03,-6.662155627734159258e-04,4.153298153054364034e-03,-6.412926425488159679e-03,1.977010315496716825e-03,2.976109388025901994e-03,5.387805638453822647e-03,7.666895636695265914e-03,1.159558604073338516e-02,-6.661450048861544335e-03,-2.800955866282863523e-03,-4.711008320851736708e-03,3.768584387257736465e-03,-6.013308983478096031e-03,2.739986876581670255e-02,3.215704589686541048e-02,2.980907445329321684e-02,2.337419289839454128e-02,2.745465957780243368e-02,-1.659066320797297073e-02,-2.814251939006980063e-03
3.311287111638050451e-01,6.581072149679469963e-01,6.116709873226993111e-01,6.227332768806510543e-01,6.162730630929313946e-01,6.172517654330873516e-01,6.222845983671827508e-01,6.091498260194916359e-01,6.613848018915350346e-01,3.209985143436329125e-01,3.001878883650169888e-03,-1.773925612735781365e-03,2.779915017420452224e-03,-1.525582640746793971e-02,-2.313763027333817779e-02,-1.973614160188996713e-02,-7.270758413540233736e-03,-1.461545606284313410e-03,1.207656557612388215e-03,-6.465125958714443288e-04,-1.102846136354932588e-02,8.396042911778539217e-03,-1.140064779883152336e-02,2.035261258511632601e-02,2.093734197666203417e-02,2.578146547295743357e-02,2.866159971445865484e-02,3.939270840761494030e-02,-2.123639593603716264e-02,-1.939043376587717277e-02,-6.028996459779403794e-03,5.428687209445485010e-03,-8.979134397522622185e-03,4.234754033214856161e-02,5.264100138673367263e-02,4.676586122855368177e-02,3.263776790879150541e-02,3.489144949499265597e-02,-2.113917190318555239e-02,-3.565531727612397672e-03
3.266441517381821757e-01,6.592537259062095645e-01,6.108820534532614088e-01,6.239253748588540205e-01,6.194975483693820895e-01,6.195478595777212938e-01,6.237725736846072566e-01,6.103060626610469219e-01,6.599510383779064737e-01,3.247175409471738661e-01,-1.042217630841651282e-04,-7.021290495385973038e-05,3.567709593913508288e-04,-4.368585532960907528e-03,-8.054665399684373187e-03,-5.791329755544985525e-03,6.056111366262114694e-04,3.393009435643466395e-03,-1.425258216898645739e-03,-3.746074892642900847e-03,3.302902974271816356e-03,2.542116694591719291e-03,-4.557571954906242465e-03,-4.600311115718001310e-03,-1.936720427259759538e-03,-2.900082270691016050e-04,-7.258298872223826852e-04,-1.940919454048303881e-03,9.451834353424266519e-04,1.486595388078458535e-03,-3.745944316588969633e-03,2.024939356931024139e-03,-2.734372048386560922e-03,1.032661256864055369e-02,4.633179052234473981e-03,8.108597508786154207e-03,1.727338243445189839e-02,2.886404427366440553e-02,-1.698698775708781805e-02,-4.726560721124123399e-03
3.271698038660613150e-01,6.591294356910387675e-01,6.109568364038634458e-01,6.238576515930199795e-01,6.191495001003114451e-01,6.192543215992707406e-01,6.237380789141275805e-01,6.106144911826734134e-01,6.595873443911850487e-01,3.257190730640215914e-01,-4.232793891872088654e-03,2.777083047613248482e-03,-3.992490543224063403e-03,1.527947974671322109e-02,1.822885296393773544e-02,1.691400084661013464e-02,1.329820352871579139e-02,1.576931921286720689e-02,-9.191608084035522014e-03,-3.615923577142490103e-03,-1.591246372455366181e-03,4.749541285970074363e-03,-7.282586562995099072e-03,6.062031170562330595e-03,1.031289976057093820e-02,1.095802587837445448e-02,8.417770534867658611e-03,9.782274062095242667e-03,-5.535095055910922018e-03,-3.214837201046873497e-03,1.266901935764810222e-03,-7.566720029004265439e-04,1.188907132412533527e-03,-6.578157372689333662e-03,-7.184841471211272229e-03,-6.983027024140641033e-03,-6.293969027210984286e-03,-8.012730377934710463e-03,4.818922455940372052e-03,8.976453030485210399e-04
3.309182231503935423e-01,6.581390961716573340e-01,6.116687504488993454e-01,6.226841078977604083e-01,6.154034182173141465e-01,6.169465617205501795e-01,6.229318160257716341e-01,6.099881010090535405e-01,6.604196739804287786e-01,3.232883777423378735e-01,-8.380384886725513599e-04,1.457106128301076907e-04,2.486800034018805949e-04,-5.147260564873664193e-03,-1.269806018582892403e-02,-8.814301551573165694e-03,4.260360371764436438e-03,1.421462772414470305e-02,-6.848678393093336932e-03,-1.029682382854000752e-02,-2.965597192598350834e-03,5.450839223024745231e-03,-8.226707303122762771e-03,9.628841867220037931e-03,1.498715878537260071e-02,1.625515133255144712e-02,1.298007940365690505e-02,1.466301974738171490e-02,-8.338673835895506897e-03,-4.666471067214971596e-03,-6.223544964937127721e-03,6.158645061258126094e-03,-1.043203959105375514e-02,5.014123194795996885e-02,6.658566518887075458e-02,5.757364214223359422e-02,3.417032791756294263e-02,3.114759091037141991e-02,-1.887864317389390326e-02,-3.708057028348879514e-03
3.313429383751979040e-01,6.580991497573057680e-01,6.116564334121796787e-01,6.227758186730283363e-01,6.161638432163769608e-01,6.171821843519891271e-01,6.223106787432877152e-01,6.093774177555166816e-01,6.611719739775641091e-01,3.214220448530353824e-01,8.540687344694347649e-03,-5.917027047466159526e-03,9.108043211000078215e-03,-4.281461582337996175e-02,-5.168751604989531984e-02,-4.939649471092219524e-02,-4.108394598196343783e-02,-4.713451090876056432e-02,2.999497855984657735e-02,-4.323067828866905549e-03,-4.896645727849174845e-03,6.960616987898116809e-03,-1.065059729119408397e-02,2.105054417587956181e-02,3.336728819475617835e-02,2.869088843168283998e-02,1.325123152575245940e-02,1.057718980797041006e-02,-5.491072350241016364e-03,-7.250701709908956294e-03,5.565330990111703839e-03,-2.158144212077010762e-03,2.627778722211825384e-03,-1.177688707295128888e-02,-1.027862895254255497e-02,-6.254042559598508612e-03,-4.978836131486212915e-03,-1.101769420844420783e-02,3.636088918186544151e-03,1.923714077179603660e-02
3.311278912566065769e-01,6.581203565378090925e-01,6.116825384819181144e-01,6.225387405806761532e-01,6.161666949646436020e-01,6.173905054658467284e-01,6.227202884074825029e-01,6.098586754548904754e-01,6.605684374155097460e-01,3.230871983592533692e-01,-4.917994573179623741e-03,3.578827623939930674e-03,-5.279123597116948917e-03,2.188536522795070383e-02,2.420395225006471279e-02,2.304556767897410902e-02,2.143130283345319465e-02,2.746964244005406161e-02,-1.703201222554975164e-02,2.750123031768358928e-04,1.052625145595708495e-02,-1.638990129322778072e-03,1.327041921749675009e-03,-2.984899313911602847e-02,-3.567013664238015413e-02,-3.087540219650347639e-02,-2.057099215461565683e-02,-2.069119948006081788e-02,1.256987340253546033e-02,2.259762389779838843e-03,4.045781204614407045e-03,-3.946067055521234462e-03,6.800393386202694887e-03,-3.467766948653189241e-02,-4.545519623692060446e-02,-3.921066388359967236e-02,-2.388769247000629287e-02,-2.229143756967445419e-02,1.405799034997198826e-02,-5.742064101318250513e-04
3.270081260976505089e-01,6.592167696319303216e-01,6.108795745605318794e-01,6.239659020586519889e-01,6.194760920677921945e-01,6.195219472707349517e-01,6.239354379170367615e-01,6.107528136100268679e-01,6.593781814281747256e-01,3.265247252678464829e-01,2.655686814189268941e-03,-9.252231721611711441e-04,1.073699226036102603e-03,-5.605789955134421118e-03,-3.777972317155779171e-03,-4.730411698880184965e-03,-7.661151834992455979e-03,-1.196202166075559584e-02,7.062609517520947178e-03,1.923905348920113348e-03,9.479624482783407732e-04,3.549547332247500464e-03,-5.758314563481222240e-03,-1.775928438383625376e-04,1.663059431773891749e-03,3.706434639339564567e-03,4.645396561075600464e-03,6.594081974641573078e-03,-3.847690468767608896e-03,-1.325000006848239429e-03,3.532587294107682879e-04,-5.257066958150448215e-04,1.049189347271330466e-03,-6.646274393381676818e-03,-1.054394295308564919e-02,-8.114187584301536110e-03,-2.102141852413355258e-03,8.311379303273551053e-04,-4.011748481165485804e-04,-3.352040802057885960e-04
3.276325544342686413e-01,6.590456881755408780e-01,6.110109263727666606e-01,6.237004313924712218e-01,6.192788064038495799e-01,6.193443857422055165e-01,6.235012081935525918e-01,6.101553108254983426e-01,6.601099735056881190e-01,3.245632561583444708e-01,-3.774611215235007533e-03,2.079228021811382367e-03,-2.703679292606600906e-03,8.679915982719554890e-03,6.964681477784698434e-03,8.700897353011247809e-03,1.235745646645694702e-02,1.755666481170193097e-02,-9.696212380295450572e-03,-7.530736945073506980e-03,8.912690470453701191e-03,1.061639140592504291e-04,-1.602907444517439120e-03,-1.569375567185098824e-02,-1.188794807980371807e-02,-1.139203587556783179e-02,-1.472949136359428222e-02,-2.214429098443204680e-02,1.333110335510047893e-02,1.962651559160120268e-03,-2.304960220430737894e-03,1.819921247030717882e-03,-2.843163234278939678e-03,1.215896008270842335e-02,1.187016042951235216e-02,1.237186685223742866e-02,1.353535374752151688e-02,1.851845652089148531e-02,-1.140188351970870123e-02,-4.129199408202874344e-04
3.312086034263025391e-01,6.581043233895643718e-01,6.116863710231220663e-01,6.225792508383142243e-01,6.159202195350177433e-01,6.172253988813238834e-01,6.227855006223661505e-01,6.099080110032564228e-01,6.605122611659373089e-01,3.232049086742185828e-01,7.145017074530066181e-03,-4.064436926491873069e-03,5.858851034741892512e-03,-2.707508238575324216e-02,-3.311646959452703431e-02,-3.110254917988970400e-02,-2.379503310797888987e-02,-2.788659564373780278e-02,1.723470703982316055e-02,3.212770300918474375e-04,6.978908249390339789e-03,8.861475598237354354e-04,-2.485429204482051454e-03,-1.254075742809727424e-02,-9.435455019278886357e-03,-7.891419363990129915e-03,-9.681679565029896462e-03,-1.453449736500949177e-02,8.415237425326156998e-03,3.322571552602810591e-03,4.452448947273937585e-03,-4.645128112160855360e-03,8.103599193748338078e-03,-4.142246101557704729e-02,-5.505240580828120456e-02,-4.707943653271901008e-02,-2.744204207566881479e-02,-2.434129893929969438e-02,1.547688374316629270e-02,-1.170338751205104999e-03
3.293686557932319348e-01,6.586143068920896626e-01,6.112941198641508311e-01,6.233299428962130184e-01,6.183293815381587510e-01,6.186095490757235194e-01,6.225827455080195083e-01,6.090717241098134727e-01,6.614348620939960455e-01,3.210459188141823184e-01,-8.868356681879123460e-03,5.365170626972316781e-03,-7.585487558628884602e-03,3.060728081138704149e-02,3.227865321177755126e-02,3.222152823215237993e-02,3.116105992058879753e-02,4.204689529668220044e-02,-2.493600310115660218e-02,-6.707592709172781331e-03,-5.313160207341682817e-03,6.027259815218947991e-03,-8.536530362887692625e-03,9.634987710302368377e-03,7.909541610983634313e-03,1.219123723160816034e-02,2.018922752068911391e-02,2.943255707400111582e-02,-1.615527621710989570e-02,-1.212025373288224024e-02,2.035059478169599922e-03,-1.616814314769791233e-03,2.694438550393864987e-03,-1.405558876977300656e-02,-1.592792255485062786e-02,-1.478282122439442819e-02,-1.289973862396536115e-02,-1.586242796713278544e-02,1.010568337646448010e-02,-1.630305248224727527e-03
3.301055638595129516e-01,6.584297828075682535e-01,6.114152952925652196e-01,6.231851123779539314e-01,6.172225649263152203e-01,6.179051360427116890e-01,6.227410098588640475e-01,6.094831267372972095e-01,6.609325666551100209e-01,3.224397067110922332e-01,6.590244619850471608e-03,-4.438251983368423845e-03,6.881626019703384819e-03,-3.341166848503757808e-02,-4.552157506432674694e-02,-3.953479406808543123e-02,-2.344716568090505354e-02,-2.022456206148365992e-02,1.223227804073744734e-02,3.066977496133785341e-03,-1.004457649425123666e-02,8.435085936357063219e-03,-1.181050566081965139e-02,2.297355369298116970e-02,2.429364503104418024e-02,2.789480241924464921e-02,2.948179908438976898e-02,4.229311611130323612e-02,-2.390402429102136961e-02,-1.415848476788323512e-02,1.028065027827956618e-03,-4.395081639203249260e-05,-2.160359738606768888e-04,8.848007641094435098e-04,3.881274018533014195e-03,1.230153376314671804e-03,-3.517279376823677188e-03,-6.828716301719960080e-03,3.977565646084615242e-03,1.431131405409302899e-03
3.327362933897995978e-01,6.576961632875908403e-01,6.119911911042297259e-01,6.219810654682221829e-01,6.153792368173773841e-01,6.167546497127365246e-01,6.219695485039929972e-01,6.091438065125904799e-01,6.614635198214487977e-01,3.206738409794953615e-01,5.766248532874433674e-03,-3.690288041658675543e-03,5.618607482735566219e-03,-2.648549076851641065e-02,-3.197618717777779562e-02,-2.891734949022493895e-02,-2.207601640713989857e-02,-2.606668032570035737e-02,1.627130276718790486e-02,-7.215303177635357113e-04,1.370514522052751483e-02,-3.546698203803527044e-03,3.976844645959518726e-03,-4.173075200788937955e-02,-4.831416292366873255e-02,-4.268037949350826643e-02,-3.135120081573815332e-02,-3.502599157283343978e-02,2.090671556036722417e-02,5.341952421977158583e-03,4.432151037014796235e-03,-3.809039435173772192e-03,6.361360201707078055e-03,-3.186947060641594220e-02,-3.782694709159470370e-02,-3.489499918898120862e-02,-2.725726116683113015e-02,-3.101352477802516924e-02,1.927665201802735220e-02,2.039201350077235464e-04
3.294734477838449083e-01,6.585839589588697862e-01,6.113194541632930301e-01,6.232683481188077135e-01,6.183703629049590589e-01,6.184559567339584785e-01,6.223263984530175152e-01,6.089886302881013513e-01,6.616257005049472895e-01,3.202158631983611503e-01,1.059708909878977895e-02,-5.554491482147948245e-03,7.683884846622401725e-03,-3.409407154668152307e-02,-3.357411880256758879e-02,-3.882901349041719546e-02,-4.200077909725549730e-02,-5.357998017928321949e-02,3.453779834364952006e-02,-7.509840617881853586e-03,-1.332213487300242319e-03,4.827688385527307245e-03,-7.538784735601199508e-03,7.297603690462224450e-03,1.109218366243907780e-02,1.036517895192453319e-02,7.125467447443953328e-03,1.208758818723689420e-02,-5.322008539077673593e-03,-1.237094451787335188e-02,2.160587494072716604e-03,-1.168205603036732380e-03,1.725552082106593648e-03,-8.833038463383263705e-03,-8.794695540306535567e-03,5.003289956462698279e-05,1.746165611195239428e-04,-7.851133657586802442e-03,2.265488340440335174e-04,2.564843349481756019e-02
3.282301559745325337e-01,6.588951207406856803e-01,6.111112927990456356e-01,6.235660325231546786e-01,6.190088764787289310e-01,6.191125934453980406e-01,6.230602203245462212e-01,6.094325306787962138e-01,6.609858870519336183e-01,3.222230511584727175e-01,-7.208757129782427525e-03,4.261345829288250633e-03,-5.953372719345288375e-03,2.317074077833183518e-02,2.223591172852215636e-02,2.300712310315082554e-02,2.521625801757804500e-02,3.558971518923053495e-02,-2.046743580293812481e-02,-9.733097945681171842e-03,5.234127183877577104e-03,1.962958687875568462e-03,-4.104484351364208819e-03,-5.616586983825296205e-03,1.181508860387279385e-03,5.531411931579509464e-04,-6.333840797340394534e-03,-1.315917599504958305e-02,7.570894214738892354e-03,2.981485488726906032e-03,3.634030045537594428e-03,-2.016249362708291692e-03,2.919215008156752795e-03,-1.383166172458872092e-02,-1.062909516852248923e-02,-1.342102787758251044e-02,-1.944420558817938280e-02,-2.898306818918001959e-02,1.777430078610270012e-02,7.791236213023737534e-04
3.335727104240170382e-01,6.575275414635132210e-01,6.120581748347745377e-01,6.220851481678882910e-01,6.157709724681733610e-01,6.166414772984609716e-01,6.207481159074415000e-01,6.072983450507664083e-01,6.636473456964944173e-01,3.151185091598129873e-01,1.338263129113036187e-02,-7.786538623958848965e-03,1.127156161914336790e-02,-5.100629118235386339e-02,-5.981655437991215130e-02,-5.643495733681750531e-02,-4.809151547123425435e-02,-5.746629050891760571e-02,3.529040891037102390e-02,2.264633656430550812e-03,-6.902264023044616531e-03,6.758813730993653429e-03,-9.523937239341945249e-03,1.360320779118922782e-02,1.162888891787009285e-02,1.466319961284264124e-02,2.019641685668013831e-02,3.200848736487449386e-02,-1.613464156299430907e-02,-2.245922694627415159e-02,9.274806559993298283e-03,-4.339017643119308376e-03,5.779015685838332500e-03,-2.559611753245029028e-02,-2.261821742404429916e-02,-2.615499759618689773e-02,-2.828540627970617394e-02,-3.835000106069439557e-02,2.239367907214039055e-02,9.152454905104225047e-03
3.326524219610269562e-01,6.577192798872166790e-01,6.119742736888271750e-01,6.220047386024719627e-01,6.159786563889037003e-01,6.170278356859796309e-01,6.214702909833521582e-01,6.082581844793621961e-01,6.625315814941794557e-01,3.178309743229847939e-01,-2.855446700619402103e-03,1.613015240386296133e-03,-2.161800099121038814e-03,7.402399492930136424e-03,3.407205523329133456e-03,6.231619846327389987e-03,1.387304437737965808e-02,2.098147897561074976e-02,-1.196400738455165660e-02,-5.097055670479922959e-03,1.377557903508712378e-02,-3.611603811902570904e-03,4.207806721625570630e-03,-4.201404197771207993e-02,-4.770549446942586036e-02,-4.350679593865803413e-02,-3.396402592585778812e-02,-3.916417039223187013e-02,2.320595946951607355e-02,7.014400155698416461e-03,6.876088183559891931e-03,-5.077324777988946949e-03,8.094864030879306283e-03,-3.918997455481202513e-02,-4.191769106539493250e-02,-4.014975438691592569e-02,-3.744772426412452948e-02,-4.774383509715638546e-02,2.944689710670655297e-02,1.026613376995014204e-03
3.271785051651905363e-01,6.591632195795166238e-01,6.109250207530572130e-01,6.238763443914567830e-01,6.190163236298183991e-01,6.193042645203727936e-01,6.239020519681897081e-01,6.104663606604705528e-01,6.597345019090228302e-01,3.254790421302644621e-01,-1.243737112802421885e-03,2.032898072866834091e-03,-3.549559422636110444e-03,1.531667173612451249e-02,2.549783719065355780e-02,1.981831761684237775e-02,4.778677720565217141e-03,-2.575383807283216503e-03,5.430948994997707169e-04,5.139274538596742825e-03,4.782716978306779561e-03,2.181265952127651401e-03,-4.337144591277899280e-03,-4.537442588451331971e-03,2.773881631632408445e-03,2.209156371385719367e-03,-5.364917351549113034e-03,-1.239162972495097895e-02,6.972519117954348485e-03,3.567736333998788867e-03,2.501698832343739187e-03,-1.179469046706479009e-03,1.598368088500452377e-03,-7.634428317700692537e-03,-3.951726071197645893e-03,-6.751456987542176803e-03,-1.293378048945844488e-02,-2.059187598254467663e-02,1.251511970921771050e-02,1.121675508954343876e-03
3.309588011929490703e-01,6.581660447616338727e-01,6.116506658303799693e-01,6.225731261573403952e-01,6.167234300278303660e-01,6.176814644156760625e-01,6.225751509852597287e-01,6.096103820529942263e-01,6.608427751716638987e-01,3.224623788254825651e-01,-5.272246029112574728e-03,4.002264316491662907e-03,-6.108242720510650113e-03,2.540429323635433334e-02,3.062006876417473419e-02,2.857540999472815355e-02,2.268739425279989175e-02,2.544117606279367935e-02,-1.500210195599454947e-02,-3.519948050015646313e-03,1.251790186554496004e-02,-3.055160484649514438e-03,3.561919208028151325e-03,-3.969898965890497622e-02,-4.643796735717949792e-02,-4.026462504408258314e-02,-2.830503748156158045e-02,-3.072204641818113841e-02,1.848570855325305101e-02,4.153865665770944959e-03,3.206699542225233818e-03,-1.912400588806592756e-03,2.867910990864395732e-03,-1.397565527893832558e-02,-1.289710349996099105e-02,-1.361105983324721602e-02,-1.577014636181956267e-02,-2.214597357405074032e-02,1.358028712769212935e-02,8.079450781927101366e-04
3.280606387331916896e-01,6.589282477918706471e-01,6.111004708411759134e-01,6.235296678008952487e-01,6.187316811359844237e-01,6.190432198769773020e-01,6.235576378769003281e-01,6.103341466624627731e-01,6.599003457104710701e-01,3.250999194055741448e-01,3.418131270016458445e-03,-1.634581061490450720e-03,2.241977181500774512e-03,-1.109848372703877220e-02,-1.302556564646674409e-02,-1.276037609346844688e-02,-1.060137719951576019e-02,-1.256117638994668460e-02,7.169483928232364169e-03,3.094753647143035774e-03,1.012484436879360072e-02,-6.788351685326540069e-04,-4.439554975349171290e-04,-2.058751981736628781e-02,-1.796927966622275871e-02,-1.683172617664715001e-02,-1.850004833952142297e-02,-2.621250967728221831e-02,1.550595341374430385e-02,4.145938488574751890e-03,1.167018207965695581e-03,-1.486556134366158813e-03,2.748589363423969804e-03,-1.517882040370881896e-02,-2.210812160233327495e-02,-1.783761290887526246e-02,-7.481038083968727555e-03,-3.803751439857269712e-03,2.504423038752456518e-03,-3.513351285901328280e-04
3.324358394566092612e-01,6.577609617902544503e-01,6.119577110927453267e-01,6.220044557666373208e-01,6.146138345545796300e-01,6.165577779692192895e-01,6.226422874858453804e-01,6.097579391041990649e-01,6.606968891950557587e-01,3.227237143943213482e-01,-4.336004093378326846e-03,2.621822118740340258e-03,-3.611746360151740776e-03,1.289589865348936618e-02,1.108627976938527868e-02,1.367995626306081972e-02,1.747072710644404989e-02,2.467592310304609834e-02,-1.516834741540280980e-02,-2.104872501951880054e-03,1.452135416360966769e-02,-5.203706801188603959e-03,7.249811869087255389e-03,-5.751834619521832559e-02,-7.326975990431855434e-02,-6.216998362676963430e-02,-3.674761581289641421e-02,-3.403751116682350586e-02,2.053761604388679857e-02,4.438557681550145406e-03,5.952078527420474885e-04,6.953101521324726170e-04,-1.583941318445365731e-03,7.867721405070150428e-03,1.576606695141164610e-02,1.269745775746546242e-02,1.488089849659330471e-03,-5.333130655475682574e-03,3.109680762525625624e-03,5.568390076096212116e-04
3.280409634273075969e-01,6.589575208360343161e-01,6.110527417656318461e-01,6.237276934775796144e-01,6.187784224482972828e-01,6.190194341754509111e-01,6.235198604470677530e-01,6.103338292223348116e-01,6.598950854631590035e-01,3.251542648695311399e-01,4.148311008427874730e-03,-2.400203162948030128e-03,3.552850010107636708e-03,-1.786496331657388276e-02,-2.406409087144200515e-02,-2.067240531842568646e-02,-1.186328640623824510e-02,-1.019189361918397194e-02,6.173147098391305876e-03,1.466324780692682128e-03,-5.422731511051749609e-03,6.242353853480169315e-03,-8.894166244593743054e-03,1.172001948377814767e-02,1.249052122931342684e-02,1.526952332230926274e-02,1.865657868243518827e-02,2.664793625448490591e-02,-1.520253378197579039e-02,-7.697125543387670771e-03,1.481422476355204881e-03,-1.140719756359506384e-03,1.910553895938212239e-03,-1.032322140428106570e-02,-1.325447919218718240e-02,-1.185559232249681905e-02,-7.621208850658889658e-03,-7.345176347868673239e-03,4.607237130566775411e-03,-4.150108229944438065e-05
3.287789047540077281e-01,6.587291129310087756e-01,6.112526952080847842e-01,6.232486639422197827e-01,6.173365364062126659e-01,6.183708307562277851e-01,6.237202535424853922e-01,6.105080882546689569e-01,6.597224018799610068e-01,3.254093343715227515e-01,4.092345702686676912e-03,-2.671870166569046551e-03,4.170347630672817385e-03,-2.095265009894519206e-02,-2.909780102133389598e-02,-2.560357083746139101e-02,-1.367804012066379561e-02,-1.174503426707546733e-02,7.650847153140875531e-03,-1.609922663847553059e-03,7.822488393115972771e-03,-7.844577829188952023e-04,5.604186299080207365e-04,-2.816345080442850257e-02,-4.078091143175371219e-02,-3.082392509534075120e-02,-9.387227379613952843e-03,4.294015644056674297e-04,1.673291959047237820e-04,-1.244216996388561314e-03,-2.493291536935775266e-03,1.872002451712960654e-03,-2.883034930963747529e-03,1.223302684885690418e-02,1.129750854538127611e-02,1.192106102435206913e-02,1.410972878100835715e-02,1.977361550658934472e-02,-1.214245701885749429e-02,-5.781420590965438699e-04
3.287608846595112544e-01,6.587834138815504836e-01,6.111615084995365432e-01,6.236111642329662530e-01,6.183286117273830707e-01,6.186517571359724244e-01,6.233280009061621385e-01,6.102908679933078950e-01,6.599649048711818677e-01,3.249441025319210752e-01,-5.030904703962890689e-03,3.375141242248269093e-03,-4.937186244567066777e-03,1.971453355331589247e-02,2.464799184608493926e-02,2.246032121615604282e-02,1.597010825190595812e-02,1.758538724794137323e-02,-1.065078038439839191e-02,-1.807126355102627036e-03,-7.496462783326079959e-03,7.622814176019466689e-03,-1.105397993656737424e-02,2.106067978456947071e-02,2.807423429052662706e-02,2.750530613798938748e-02,2.156420130171351340e-02,2.529855947105434655e-02,-1.468791571991259065e-02,-6.247267854771094975e-03,3.897918919304552837e-04,-3.001478541742670821e-04,5.606323847446386364e-04,-3.898782325257976744e-03,-4.673624118036243461e-03,-4.364196907266726030e-03,-3.529503764445492825e-03,-4.071267987724209655e-03,2.585777983330434480e-03,-3.153850438220480445e-04
3.297332122540255206e-01,6.584885121520673845e-01,6.114178491451368602e-01,6.229780449927249109e-01,6.174385769012611380e-01,6.182005440230640136e-01,6.230890143486097488e-01,6.100405621340926343e-01,6.603004230177331735e-01,3.239352041481637912e-01,7.154861300949749703e-03,-3.339994272040132384e-03,4.405367328849646609e-03,-1.970255910103637861e-02,-1.980267310121932439e-02,-2.025373077877573591e-02,-2.010720888573752987e-02,-2.767181704187519561e-02,1.670064900914343051e-02,2.553751647489790888e-03,9.472722657424770265e-03,-1.263898697188540685e-03,9.742921028221083329e-04,-2.865946120625596436e-02,-3.539121898040804848e-02,-2.870380738230894624e-02,-1.667562737620509328e-02,-1.503511075085066373e-02,9.092087801178955209e-03,1.953441715016580871e-03,3.058951525341420397e-03,-2.663694067526914053e-03,4.488041037033790870e-03,-2.291176357126762514e-02,-2.862454143477432406e-02,-2.617136604228811197e-02,-1.847090895832222829e-02,-1.939038533858296331e-02,1.213693599788790226e-02,-1.707540889235442672e-04
3.266871009449318075e-01,6.592905002306584938e-01,6.108357825130800167e-01,6.240171451017160198e-01,6.193204334123945110e-01,6.195538441431471810e-01,6.240596910156621657e-01,6.105164535678181403e-01,6.596594976938346955e-01,3.257022539498373170e-01,-1.577664689396221856e-03,3.339416742793922289e-04,3.615131708051668238e-05,-3.648312195950908186e-03,-1.314346599110389341e-02,-7.627113037464892768e-03,6.932111507114474894e-03,1.854979258681653878e-02,-1.068325618771203030e-02,-3.857721995210786764e-03,3.013962928062049323e-03,2.692122631387649546e-03,-4.747878208229024816e-03,-3.782275067014687076e-03,-9.547283406342681449e-04,2.845870201881977842e-04,-5.880231720722353846e-04,-1.648115648236324771e-03,8.418404855195472589e-04,1.039774502146640928e-03,-8.578351559098817275e-04,-5.711054288105562107e-05,5.311297005637627931e-04,-4.948740499148385902e-03,-1.245860436614424846e-02,-7.857655155424483895e-03,3.729124112050235303e-03,1.180211576363317076e-02,-7.083314175949269320e-03,-7.428232033892118169e-04
3.314362725107236063e-01,6.580572264773538738e-01,6.117107248920755636e-01,6.225481528825449473e-01,6.169471289750609877e-01,6.176667429817512822e-01,6.219292316342468485e-01,6.086291625692450413e-01,6.620229135586678249e-01,3.193755476772437429e-01,-1.063692621926785875e-02,6.694422479027019660e-03,-9.854849372616263092e-03,4.036813702912539492e-02,4.335181216551971251e-02,4.285055631726007036e-02,4.071952566791359196e-02,5.275186164186877052e-02,-3.094227644267330893e-02,-1.066501432202694721e-02,6.869583108478662103e-03,1.831219331622606361e-04,-7.370658428158156916e-04,-2.031050146735386905e-02,-2.384115111978895099e-02,-1.938926063972208971e-02,-1.173476363692665426e-02,-1.107309826167506873e-02,6.690437107229574645e-03,1.668293311813694169e-03,4.101219401015383792e-03,-2.776330572027537781e-03,4.272746875946139417e-03,-2.113882510702666528e-02,-2.208678180834193483e-02,-2.140717369733918102e-02,-2.082036031316651659e-02,-2.734733389180583896e-02,1.696099792857941324e-02,-8.601217597571653162e-05
3.281159013160678262e-01,6.589194254752785973e-01,6.111011914115302979e-01,6.235483077342593994e-01,6.187451700369366314e-01,6.190308312230839993e-01,6.235647769776037075e-01,6.105011583458652691e-01,6.597110426883996404e-01,3.255818500039933117e-01,-4.570969880515404760e-03,3.161793021909849351e-03,-4.637744110855562645e-03,1.819897969342816613e-02,2.151124100524735155e-02,2.025846587038827168e-02,1.707281828024793946e-02,1.985091436425942546e-02,-1.242117312657813229e-02,6.785847146082019110e-04,8.249541495585325374e-03,-5.282936176053201760e-05,-1.036436323594132347e-03,-1.916839537134333235e-02,-2.098052710735857918e-02,-1.739248066463889436e-02,-1.211241289515042896e-02,-1.331972315143549468e-02,7.734550124133035207e-03,3.300657773774695602e-03,-8.443452431941590730e-04,9.545684411781923256e-04,-1.587833520193304530e-03,6.640708073689945146e-03,7.756852687585824059e-03,7.252686248751779099e-03,5.924272567725783444e-03,6.989761082146215762e-03,-4.366700957660651569e-03,1.417126561058610484e-04
3.284144486045913469e-01,6.588556813293240388e-01,6.111283023846306728e-01,6.236034902207233666e-01,6.185676931062835671e-01,6.188938096434809522e-01,6.230491214784239506e-01,6.094123270995661645e-01,6.610394505302288337e-01,3.219436726077937738e-01,-5.417702942848288961e-03,3.479714065274325946e-03,-4.545335413312713221e-03,2.025966051398768800e-02,2.928263873700447800e-02,2.391108055576149014e-02,1.092349502563744190e-02,7.224027789517695197e-03,-5.328567913268402942e-03,4.672565788297146361e-03,-8.855292795312739995e-03,7.212777701077123516e-03,-9.041859113876693846e-03,1.277389807914648158e-02,1.299254680574574682e-02,1.736380266694238783e-02,2.211461625746346388e-02,3.129429155003513735e-02,-1.790912005569500823e-02,-8.755023693508544660e-03,3.522287324806052528e-03,-2.127475077550516989e-03,3.427327027381407449e-03,-1.559129153930623526e-02,-1.001192312412628460e-02,-1.321286412560567641e-02,-2.267539583095288386e-02,-3.535610460533034072e-02,2.158953117640086822e-02,1.500202317748930425e-03
3.273723519692445239e-01,6.591063601426776497e-01,6.109734467918247480e-01,6.237556265739963024e-01,6.187362674448160238e-01,6.191872542087257791e-01,6.240197388652624078e-01,6.107510381454750448e-01,6.593894479992239432e-01,3.264217324197913328e-01,-4.501744446872534000e-04,1.641597667200859513e-03,-3.030156245621493626e-03,1.326425373546346806e-02,2.490585136273979622e-02,1.865977947146056637e-02,1.652548035778436848e-03,-8.181465740573008044e-03,4.599365335459456444e-03,1.853985922229954564e-03,7.284149757090314231e-03,3.828663568531251102e-04,-1.580936653145560873e-03,-1.717771778532219823e-02,-1.975086413426426629e-02,-1.567625463722238308e-02,-9.068295930085422396e-03,-8.404863544182301915e-03,4.979597182638347691e-03,1.809199093782631884e-03,-1.269975522610105809e-04,1.429655563129769106e-04,-1.682365332299631073e-04,-4.123365027698090929e-04,-1.911548436194160979e-03,-1.429912036914619995e-03,8.631837234893703073e-04,2.721322431487531446e-03,-1.649442648691309965e-03,-6.127404170786724530e-05
3.284047143945607594e-01,6.588318903385319558e-01,6.111758570852747763e-01,6.233793156222463550e-01,6.180854905389836507e-01,6.187490852665633589e-01,6.236497679337227318e-01,6.104943331094847547e-01,6.597304482571846318e-01,3.254531751746756463e-01,3.703681347557913339e-03,-1.980038301891602365e-03,2.866682956353462739e-03,-1.427617884446866908e-02,-1.754151999472370466e-02,-1.533270685230594954e-02,-1.094518927673298475e-02,-1.229786336036893177e-02,8.245438406044584140e-03,-3.521101454558802496e-03,8.538919909074245418e-03,-9.700737725165265585e-04,7.267299276050957768e-04,-2.800860805918756885e-02,-3.753280760372396108e-02,-2.993469095237715621e-02,-1.352389486555935841e-02,-8.257221261373655710e-03,5.044481759328733536e-03,1.438531724615173257e-03,2.436735952066199085e-03,-1.250705211494463828e-03,1.772728468988002404e-03,-8.663117291569320463e-03,-5.914256474764618791e-03,-7.896441414909537854e-03,-1.259674250827026547e-02,-1.931136550053961717e-02,1.190357600608719056e-02,1.494382022677737121e-04
3.283653749589182658e-01,6.588486005833880110e-01,6.111573974728877756e-01,6.234326975074337973e-01,6.185914305914491651e-01,6.189310765263498215e-01,6.233609204986120256e-01,6.101052734257913501e-01,6.602001153116450194e-01,3.242248572022758957e-01,-1.294049451842058801e-03,1.671023504138043590e-03,-2.802528912436571921e-03,1.165388969396003588e-02,1.846179401992467661e-02,1.511651022642709896e-02,4.845881952788018421e-03,1.729631528418197790e-03,-1.724057921528567190e-03,3.563854325090529129e-03,9.409269788406050133e-03,-6.231100272649147884e-04,-2.857092027438636744e-04,-2.198616544717338014e-02,-2.224074379708523841e-02,-1.908790906302126195e-02,-1.643681693059941690e-02,-2.068676966202699294e-02,1.238104163508987367e-02,2.797388689993837718e-03,3.825387321797157902e-03,-2.422732715083430327e-03,3.696414097667044454e-03,-1.789202941424538826e-02,-1.711056142661386559e-02,-1.836148634306401795e-02,-2.060353812460657963e-02,-2.825551983250883942e-02,1.735953691190195852e-02,8.540801565009581431e-04
3.268943644656546743e-01,6.592449804007003422e-01,6.108601100257755601e-01,6.240025907062890509e-01,6.194031893311602310e-01,6.195146055930988993e-01,6.240026501375046664e-01,6.107330862176627573e-01,6.594024781727316764e-01,3.264302708372426309e-01,-4.547320906613840086e-04,-1.669100048544269049e-04,6.550066591298941889e-04,-6.065913418991957483e-03,-1.376326843222049762e-02,-9.088100084623365604e-03,2.821331419221641615e-03,1.093410449634087990e-02,-6.261642810696237127e-03,-2.382906530725356631e-03,9.625715030560106494e-04,3.669146410408836989e-03,-5.999418761072482231e-03,1.162716198522332090e-03,4.884132468990968687e-03,5.826817055907838015e-03,3.877913334810675038e-03,3.848465136414323980e-03,-2.348014885458448147e-03,-3.106293446775076558e-04,-8.463725343280988772e-04,6.983079016146481830e-04,-1.051557782872982426e-03,3.715041010661461821e-03,2.799358077319135524e-03,3.445165925204296889e-03,5.080034863957185939e-03,7.713249506562725941e-03,-4.745612016746719210e-03,-1.191144733363779309e-04
3.333330164583766519e-01,6.575400403252679160e-01,6.120969532653067757e-01,6.218739980092133912e-01,6.135512135849172655e-01,6.159214478423398198e-01,6.225429171015213203e-01,6.099770388226015694e-01,6.604730962384415260e-01,3.232026980531021998e-01,-7.846353984804980974e-03,5.517581246845414469e-03,-8.289931805842599630e-03,3.489410003147465356e-02,4.520655174945968635e-02,3.933614844329409721e-02,2.717722005223208170e-02,2.770513409011251052e-02,-1.710424142287569546e-02,-1.003479232315140912e-03,9.099357853818143549e-03,-1.340744430750138300e-03,1.298165696473101843e-03,-3.087025748459902227e-02,-4.022327843659571911e-02,-3.206975902330191919e-02,-1.542735698306302999e-02,-1.108497188322164761e-02,6.647032526957193793e-03,2.280371372920933504e-03,-3.833382523053277535e-03,4.880183574422053069e-03,-8.647826112855189554e-03,4.235864671101730039e-02,5.755778197605168622e-02,4.983880356651215759e-02,2.848888465637199052e-02,2.424769290306770519e-02,-1.546531972452777279e-02,1.312901255195286776e-03
3.274858622372384120e-01,6.590821082241202777e-01,6.109864913267829545e-01,6.237476449311292193e-01,6.191340588317859606e-01,6.193122595130262642e-01,6.238367822237795846e-01,6.107486948129227100e-01,6.593907570529013995e-01,3.264897459393298895e-01,2.572252914967411430e-03,-1.552681214723535159e-03,2.456982299097861411e-03,-1.249484411533916331e-02,-1.511159822323404275e-02,-1.364096058684901441e-02,-1.008785801026716375e-02,-1.131905056009778476e-02,6.814662740220091795e-03,1.390483433261167912e-03,4.394499846654513486e-03,1.346153568330310871e-03,-1.845911221876164136e-03,-1.473555708867773512e-02,-1.596500184640530645e-02,-1.267015456304396506e-02,-8.092274836183778464e-03,-8.327787662227878127e-03,4.861929813933073795e-03,2.031172119987930541e-03,-6.353070676390331489e-04,7.481598517598345155e-04,-1.204582694827965178e-03,4.963306029245453076e-03,6.541746339895033319e-03,5.813985399681882021e-03,3.731906710168495303e-03,3.684815492081634260e-03,-2.321107020426457172e-03,1.025142433058352787e-04
3.299978908879500628e-01,6.584634623369178819e-01,6.113851524130659021e-01,6.232630237520121463e-01,6.173357815582845021e-01,6.179979965411050991e-01,6.229321320078686774e-01,6.099949124850806426e-01,6.603478897108068235e-01,3.238825736368002861e-01,5.502306737233335354e-03,-3.185416088021024439e-03,4.690056751779558483e-03,-2.249095972716094044e-02,-2.589659624868060131e-02,-2.387097681022931975e-02,-2.068284042162257808e-02,-2.406296627310278505e-02,1.423015864377236497e-02,4.498816240049469117e-03,-9.360066114892838518e-03,8.654093823125172044e-03,-1.249660465884328345e-02,2.730727152111596390e-02,3.670319279991227090e-02,3.450565229379828902e-02,2.494797654772715201e-02,2.787354734025181136e-02,-1.623399193987910480e-02,-6.761908230553483057e-03,-1.556549122449579076e-03,2.013360428817559215e-03,-3.532345895189749688e-03,1.661631825464216644e-02,2.311169187416797083e-02,2.039087796599056007e-02,1.156763774934163949e-02,9.936882092284540433e-03,-6.443869865959074919e-03,1.217815185596077265e-03
3.303696656976191637e-01,6.583202887519215007e-01,6.115395866900136257e-01,6.227679107402243064e-01,6.171443924028955363e-01,6.179329336671544048e-01,6.227447844007611977e-01,6.097394600651422358e-01,6.606766913950390396e-01,3.229303890460764048e-01,-8.372165277117094018e-04,1.298268648769303462e-03,-2.113966064905395837e-03,7.500971451172717616e-03,1.161375714471973505e-02,1.008369684318642483e-02,4.877259811732736691e-03,4.249352375150236907e-03,-3.094149881868096807e-03,3.048755613517858259e-03,1.281953311898072906e-02,-2.637093399883523939e-03,2.574508157229561493e-03,-3.433791229746588347e-02,-3.614943383593074988e-02,-3.326406282972521611e-02,-2.904431903956408711e-02,-3.591276250702211265e-02,2.118089068487276350e-02,6.671431712620433385e-03,-3.479337856712706734e-03,3.620213954720499436e-03,-6.161063285745862345e-03,2.920971344161935740e-02,3.659579336176277398e-02,3.257188850541137271e-02,2.256217215243527807e-02,2.362386877527961060e-02,-1.482770882457258924e-02,5.082699852878291846e-04
3.307354406541916925e-01,6.582773273523460089e-01,6.115112245918206124e-01,6.230645344909057082e-01,6.171220044251379822e-01,6.177619157823380780e-01,6.223428078908109784e-01,6.091366945083083184e-01,6.613570903736010198e-01,3.213437153296436755e-01,5.139815900154720563e-03,-2.689253589052603526e-03,3.577238650049833352e-03,-1.862238027249783073e-02,-2.482212800890329363e-02,-2.138659654399582138e-02,-1.272216484957950158e-02,-9.772895448914480435e-03,5.700264909591426510e-03,2.917641633468630313e-03,-9.149969294299058198e-03,8.968974885648829665e-03,-1.365736966666018792e-02,3.014491563252823247e-02,3.525716744701139216e-02,3.654147444725422411e-02,3.514211102990585922e-02,4.715943421902489552e-02,-2.649922033012884134e-02,-1.661950053706409691e-02,-3.057385698645942451e-03,3.120045044627142369e-03,-5.252958004393033960e-03,2.457548709246437993e-02,2.988501564700908608e-02,2.705133354034880422e-02,2.016789180651869240e-02,2.270970150733001014e-02,-1.433518232664059318e-02,1.199175046041070503e-03
3.284888375284340523e-01,6.588325932117132799e-01,6.111491328440850079e-01,6.235431613149211572e-01,6.183066109020514123e-01,6.187070880050373756e-01,6.234609625275342459e-01,6.103799907983984419e-01,6.598702155645261858e-01,3.251116757974157334e-01,-5.949598663455367420e-03,4.378971710379259488e-03,-6.655736888246426702e-03,2.798152470892220633e-02,3.572239897164393441e-02,3.184774286285467493e-02,2.149141358044597688e-02,2.237678747450578057e-02,-1.367453184231361488e-02,-1.710320469097179052e-03,1.949177062051127979e-03,3.449085821790945795e-03,-5.928252581308343649e-03,1.486158355603060897e-03,8.693959207662018893e-03,7.958857985440142419e-03,8.457765635559975643e-04,-3.544348043395344726e-03,1.866047687154888130e-03,1.552766284939811892e-03,2.178233107931606266e-03,-1.372419212130850368e-03,2.122979362610235773e-03,-1.079407454379565159e-02,-1.065516926608186046e-02,-1.158133379411106431e-02,-1.262829002782206791e-02,-1.699814833563470171e-02,1.048503152030232435e-02,3.130870044025443888e-04
3.287683234671552324e-01,6.587704454939233845e-01,6.111779891599715686e-01,6.235909845354861147e-01,6.174608689989444787e-01,6.182744339646200071e-01,6.236410714381930287e-01,6.104140028784733607e-01,6.598417788488586400e-01,3.250722193921407044e-01,-4.555404089817291502e-03,3.361975565914930054e-03,-5.064755889598731263e-03,2.123390398589208167e-02,3.257319039693904600e-02,2.809981559163562959e-02,1.157007731633993494e-02,5.833768609093402911e-03,-3.680078365903022980e-03,-6.088281480372687016e-04,-6.978001970160872813e-03,7.720330512247587304e-03,-1.109502970361987001e-02,2.347317920061074009e-02,3.723579981119984339e-02,3.182929413760980653e-02,1.511743393367068200e-02,1.039367890582692903e-02,-6.555226870845518028e-03,-2.194534387166199862e-04,-3.290137300057950978e-03,1.758815525159851748e-03,-2.278880486739632161e-03,8.629954650384047410e-03,4.294530318991227058e-03,7.139033484844358596e-03,1.423682823037709239e-02,2.301398995611103962e-02,-1.406648500226674592e-02,-8.192735221461532741e-04
3.275106085887792284e-01,6.590911678124928841e-01,6.109629060548804613e-01,6.238528782134740158e-01,6.191796393230413198e-01,6.192802777075048226e-01,6.237454194659911577e-01,6.106425080205829525e-01,6.595258518296822636e-01,3.261107731596271098e-01,1.323364265765887213e-03,-3.530462567863074759e-04,3.813572966338325972e-04,-3.040472000258063762e-03,-3.619637024945072251e-03,-3.400349968398253941e-03,-2.671431011548201784e-03,-3.228990137067021086e-03,2.037771377997642155e-03,2.646259980316348695e-04,-1.411553796403879762e-03,4.720716549908766761e-03,-7.313667757848688576e-03,6.081707648383418569e-03,9.450178329814812664e-03,1.055454388259535921e-02,9.454690952225213579e-03,1.192700856325476858e-02,-7.108106492390903544e-03,-1.698643140320695716e-03,2.437934043416269819e-03,-1.884609527161193801e-03,3.099346606990987640e-03,-1.594776593576672369e-02,-1.886788914558344687e-02,-1.728966745138342531e-02,-1.335756679262247414e-02,-1.525445590247113264e-02,9.501589754362525092e-03,7.831649422402470195e-05
3.273779399821012959e-01,6.591045173407562574e-01,6.109759950932460715e-01,6.237399161972323469e-01,6.188157567134102699e-01,6.192492505003239778e-01,6.239262236450938692e-01,6.105662440779604516e-01,6.596135778123062288e-01,3.258159836399754372e-01,-3.132092994970117963e-03,2.039311168484483124e-03,-2.859183539206199172e-03,1.003577310461622671e-02,9.970711060324698519e-03,1.079528778387901095e-02,1.181876277783012671e-02,1.620929841517911724e-02,-9.728796302909188676e-03,-1.832833148151951502e-03,5.313300545677572539e-03,7.447113852089501385e-04,-1.616355730175099079e-03,-1.870385220195715584e-02,-2.851041657031683565e-02,-2.026998770520501564e-02,-2.587068478506615934e-03,7.189911688998445322e-03,-3.781121486399807718e-03,-2.918750975943552872e-03,1.426744409734034217e-03,-5.301133095345880904e-04,6.560661971569267063e-04,-3.536059133734152909e-03,-7.177509398136521033e-04,-1.948805868771592712e-03,-6.290214416004516994e-03,-1.108482136952879289e-02,6.783690148593998423e-03,2.588219633534948570e-04
3.282647122836310771e-01,6.588989492692471917e-01,6.110948240361684380e-01,6.236528748353729057e-01,6.187708367828781419e-01,6.189623046958636632e-01,6.234025115613059942e-01,6.102403926070743001e-01,6.600195083929742967e-01,3.247944978168415542e-01,6.778303578081568137e-03,-3.637033919910353207e-03,5.145258115861136433e-03,-2.387610700472312872e-02,-2.584199592362941209e-02,-2.503184985791411660e-02,-2.276730403909733164e-02,-2.971146009313082106e-02,1.771917198009527461e-02,4.197036134171328037e-03,-2.335202700078118504e-03,5.277909278527689527e-03,-8.123766472266931438e-03,9.672714000586335459e-03,1.507476251630066565e-02,1.511155454473358042e-02,1.108169441156871271e-02,1.238018058816463610e-02,-7.353319209833988380e-03,-2.091975514847795731e-03,4.994871480988021667e-04,-2.388412450050796457e-04,3.971378494849884719e-04,-2.987993458139202776e-03,-3.692199737874364215e-03,-2.698631108389508253e-03,-1.135351294939205159e-03,-7.330966189712186023e-04,4.277589823086876044e-04,2.227942377693364548e-04
3.309761688375688626e-01,6.582244133967621869e-01,6.115365961033791820e-01,6.230848268041495608e-01,6.164428586955909006e-01,6.175131896712660051e-01,6.228294256113207084e-01,6.099856779683338059e-01,6.603701368160878049e-01,3.238058381146808884e-01,-5.996550884157743344e-03,3.033458196654363961e-03,-3.439493098005283207e-03,1.371804502872055014e-02,1.541993852143479227e-02,1.467804457888762307e-02,1.271165762079882501e-02,1.634273610681528238e-02,-1.020364020686856041e-02,5.461481947518984081e-04,-9.839205885363300208e-03,9.785975302181412414e-03,-1.530333715373956294e-02,3.783301199902706913e-02,5.209717609482680811e-02,4.621485646641007583e-02,3.092378448002448474e-02,3.225952186550442441e-02,-1.864721122194297823e-02,-8.997324473840967451e-03,1.874965010702445145e-03,-2.012271053584186072e-03,3.627829779297122442e-03,-1.901220357923144588e-02,-2.516782385583878415e-02,-2.234659428352255006e-02,-1.406725374624405445e-02,-1.312753269092624755e-02,8.222193234161630226e-03,5.710206856282540322e-05
3.274295612144507706e-01,6.591012339378701235e-01,6.109680527023140240e-01,6.237911680285149751e-01,6.191223397276582885e-01,6.192973377383264033e-01,6.238682288211860882e-01,6.107830152253339584e-01,6.593512214148150585e-01,3.265822517292484850e-01,-2.716785841604833773e-03,2.318161693308135735e-03,-3.597663272670362060e-03,1.437489966046644543e-02,1.974202854828119302e-02,1.719026962830573491e-02,9.867023475184628564e-03,8.640464491226016938e-03,-5.368248515911434177e-03,-3.541711484723458758e-04,5.380827877391269366e-03,1.482222639359933973e-03,-3.142858705563440682e-03,-1.046943650619101829e-02,-9.513650401799758627e-03,-7.216348637827091524e-03,-5.572659055473834500e-03,-6.717058299023827977e-03,3.889608736421466036e-03,1.730256535891091380e-03,9.561056313815447655e-04,-6.636094911355225594e-04,1.107705916570962418e-03,-6.397125956167166311e-03,-7.828418972574063134e-03,-7.191334605322388315e-03,-5.243137374932340528e-03,-5.661509132242348481e-03,3.536444887633401375e-03,-2.882430142607528278e-05
3.326711200851891759e-01,6.577091091007740697e-01,6.119827123125950452e-01,6.220168156624638067e-01,6.152603578764777037e-01,6.164224858561886400e-01,6.213592721365359672e-01,6.088054937843900838e-01,6.620353698003127452e-01,3.185794732663993489e-01,6.379442411968888615e-03,-3.762482692249051637e-03,5.573924960240950188e-03,-2.663298418190951367e-02,-2.932025096907682482e-02,-2.833692669879621720e-02,-2.590492634149761664e-02,-3.176494955142297044e-02,1.898445971713720593e-02,3.958886796994964818e-03,1.240143729091671559e-02,-2.363263341448732999e-03,2.183157667184360516e-03,-3.262793087159288064e-02,-3.615541182626397232e-02,-3.316103319183372200e-02,-2.705893504087749507e-02,-3.034904222596122511e-02,1.896372684199324962e-02,-4.141057176021839537e-04,-1.536504310754541192e-03,4.362741359510598216e-03,-8.287719062598369879e-03,4.117864763758977836e-02,5.245978622203406605e-02,4.877043146883118518e-02,3.868929940426425740e-02,3.922562713100120890e-02,-2.818583322666818464e-02,2.196141975638618571e-02
3.272123951110320617e-01,6.591673301870419888e-01,6.109103287891570755e-01,6.239337959191411098e-01,6.193913606546858075e-01,6.194782323101575283e-01,6.236590525384793082e-01,6.101609466996318343e-01,6.600847457982729205e-01,3.246534964238638743e-01,3.440118821226427828e-03,-1.557584961879748906e-03,2.102844272887901926e-03,-1.040802406391775313e-02,-1.008876177027576843e-02,-1.009326500910044493e-02,-1.083222830851626912e-02,-1.485298428726809783e-02,8.688307090740778754e-03,3.221331417695972449e-03,-4.053737463288176884e-03,5.399725752349579522e-03,-7.735272262252632439e-03,6.252781124804899712e-03,3.278396735247861987e-03,8.501904298082403610e-03,1.744827733931679850e-02,2.834887481195592918e-02,-1.612086547696392133e-02,-8.087892647050481942e-03,-5.035057231515538412e-04,-7.387412974982658295e-05,4.292361027725778233e-04,-4.052789043864988248e-03,-9.594658347882182095e-03,-6.353747715186278122e-03,2.337807396573532599e-03,8.451870579688897794e-03,-5.141209677445858842e-03,-2.700075663024034678e-05
3.331155316925042964e-01,6.576452007091032614e-01,6.119661100785405150e-01,6.223434827670761837e-01,6.144466126348289148e-01,6.161385713137061959e-01,6.217962372179337560e-01,6.088209381841496182e-01,6.619009062557918988e-01,3.192759547719947744e-01,-5.211017884407420642e-03,5.076683374612474958e-03,-8.270597136312658401e-03,3.649259371895292176e-02,5.301848743608100767e-02,4.649696716223075676e-02,2.729717940210314719e-02,2.345655785593145359e-02,-1.446308863405518230e-02,-3.850952823081232879e-04,-9.502860528011358721e-03,9.268392184812828533e-03,-1.368797987421352044e-02,3.310953240010185150e-02,4.611287786090279006e-02,4.002450422490952398e-02,2.477237714554281212e-02,2.437883623832928781e-02,-1.489810796524973155e-02,-1.815826133432896228e-03,-6.148042249217500199e-03,4.514870007766634379e-03,-7.001148912524395029e-03,3.122582165589327108e-02,3.038177442445662291e-02,3.143440702183615543e-02,3.428145455685807641e-02,4.665013161518842544e-02,-2.875414524979239689e-02,-7.434564669657126035e-04
3.267917302093135135e-01,6.592718035241513785e-01,6.108400842555408161e-01,6.240452735658319483e-01,6.194222977409911124e-01,6.195345816332119560e-01,6.239970777633201404e-01,6.106118401437876653e-01,6.595504153778035672e-01,3.260072978040788882e-01,-2.022158100624533474e-03,8.474392196904986102e-04,-8.514386972113025150e-04,5.547698971374364837e-04,-4.314650375044908059e-03,-1.416925264013301541e-03,6.340079159564242228e-03,1.325045860839031003e-02,-7.795616480900872947e-03,-2.023812630653520558e-03,1.318522494887659421e-03,3.809345690742984951e-03,-6.432663219188987196e-03,3.650906083617985569e-03,1.136158261804579364e-02,1.002255877330179845e-02,2.097397846025670504e-03,-2.185112803035720291e-03,1.038323699906325021e-03,1.420768230938958265e-03,1.445863588013383133e-03,-1.298452389580128426e-04,-1.909305757775434445e-04,1.115927875993596085e-03,7.188852045454587926e-03,3.405520685949403169e-03,-6.105241648482757910e-03,-1.361577387373018484e-02,8.232351028600700532e-03,7.273154166606912718e-04
3.322754371046623412e-01,6.578119268961523103e-01,6.119118101379148467e-01,6.221156230338134030e-01,6.153577571555182146e-01,6.168575885266344150e-01,6.221458323495365761e-01,6.090899543134363769e-01,6.615344279469348443e-01,3.203898489037744213e-01,-3.182544589662349155e-03,3.533711994868323283e-03,-5.899011347157221384e-03,2.594862742646190934e-02,3.674825304524892422e-02,3.242822722906568006e-02,1.923674420660510809e-02,1.601796730445824435e-02,-1.026392486134646530e-02,1.354819992782009541e-03,1.253767269278307367e-02,-3.429080284346517835e-03,4.313840351572230739e-03,-4.376708506780193492e-02,-5.364028056014590040e-02,-4.491314822977077875e-02,-2.772993014830474334e-02,-2.718433761050354294e-02,1.649507960564564404e-02,3.067282152764611025e-03,5.978276637893596701e-03,-3.749938075850415761e-03,5.655385745010208659e-03,-2.664664099357993976e-02,-2.466865744736926672e-02,-2.687587509345123332e-02,-3.132731067268760411e-02,-4.353731067614555195e-02,2.673584274135675995e-02,1.343609351883462422e-03
3.308511776171346730e-01,6.582625913571082954e-01,6.115072054250376699e-01,6.231297415599817979e-01,6.171980992435068814e-01,6.178628380158301958e-01,6.224559535264573285e-01,6.094065527252978676e-01,6.610172331457220274e-01,3.223145136263816379e-01,1.518710953532324652e-03,-4.696548668420843457e-04,5.524305465805187144e-04,-3.806515068063493976e-03,-3.983268470497659808e-03,-4.146935917820783815e-03,-4.525457357556770741e-03,-5.964717081326589149e-03,3.870612395667430081e-03,-1.105545994900826966e-03,-1.584010751754203611e-02,1.128472764204399223e-02,-1.558064625092771618e-02,3.868676367570766939e-02,4.802724788094811514e-02,4.537999552105501100e-02,3.792412668902694212e-02,4.581811928122330596e-02,-2.534296202232023607e-02,-1.816830204127152515e-02,2.752304690603845500e-03,-1.982994836620246247e-03,3.194346967071623120e-03,-1.624265886727245881e-02,-1.857901299857698738e-02,-1.725152929234268981e-02,-1.408682947689779072e-02,-1.663324459106777647e-02,1.042428673062770553e-02,-1.040221426046872288e-04
3.279395242591610637e-01,6.589608510044300260e-01,6.110772086125765279e-01,6.235560833901322431e-01,6.190461816362176073e-01,6.192025626287418483e-01,6.234423808062864447e-01,6.101299765200525194e-01,6.601475627302719751e-01,3.244422700821338879e-01,-2.047955544836450870e-03,1.555154285302312806e-03,-2.224049701463221354e-03,7.778747807465175371e-03,8.896489291789377862e-03,8.447197675620445045e-03,7.500277263177359752e-03,9.503821893793744716e-03,-5.916347938277762529e-03,2.351003454340444554e-04,1.252263258772742457e-02,-1.673333567504719371e-03,4.392586736354899338e-04,-2.482802414576998351e-02,-2.214527918960780203e-02,-2.137145232846006729e-02,-2.356797045622671671e-02,-3.306156626779943597e-02,1.963950008894703100e-02,4.811971632017617018e-03,-1.269560018945636165e-05,-1.000313029078752063e-04,3.030229334062837024e-04,-2.896580476403979795e-03,-5.719122595888821887e-03,-4.186225887543431126e-03,7.669343264780610972e-05,2.775149312771053173e-03,-1.624929963339187067e-03,-3.217304747082649907e-04
3.268563129519820309e-01,6.592515129215711367e-01,6.108598373009848093e-01,6.239797225544857495e-01,6.194662080727839637e-01,6.195800515004273867e-01,6.239665580243984877e-01,6.106231035224981563e-01,6.595315558005205858e-01,3.260937804248584815e-01,6.807020992813384019e-05,6.030126879722629181e-04,-1.111507874513402525e-03,3.796855478934591660e-03,8.369882665366340513e-03,6.090932456537840808e-03,-5.217184025978691131e-04,-4.745848108722557426e-03,2.655782077138488066e-03,1.314892488030780515e-03,6.389353222127219789e-04,3.236903283755397393e-03,-4.992258039067165587e-03,-4.444396101021477405e-03,-8.515098400141588725e-03,-3.152362371500337136e-03,6.665035080173398012e-03,1.465480363021823794e-02,-8.320950234208068438e-03,-3.946295670360337390e-03,1.460825637710025209e-03,-5.784232637337045815e-04,7.411291164778333312e-04,-3.955272817403050756e-03,-1.484688578231328554e-03,-2.904897915865766941e-03,-6.795555458400076576e-03,-1.122777061173074048e-02,6.874201112183252194e-03,3.042780865549770015e-04
3.291733066990053524e-01,6.586678084313876136e-01,6.112523366300273153e-01,6.234226180527107086e-01,6.182660636835117796e-01,6.185625810879059605e-01,6.229036364666629133e-01,6.096188687439983989e-01,6.608084806527085853e-01,3.225682214405258819e-01,5.101275747721231019e-03,-2.130105239784516654e-03,2.670169475544320516e-03,-1.213325151268827493e-02,-1.116704129199235992e-02,-1.274128750795759310e-02,-1.429515928846476942e-02,-2.114977290672538993e-02,1.234865684988979348e-02,4.175357022141563956e-03,-5.253130562577756901e-03,6.789891771215051178e-03,-1.015488758423449545e-02,1.805481846539907370e-02,2.643831482020034263e-02,2.497907189713468451e-02,1.702095884565525685e-02,1.758393788822636833e-02,-1.073262328621993854e-02,-1.414175011396782977e-03,5.166462701824268977e-03,-3.432987118501901191e-03,5.307424238810368872e-03,-2.555399986896185471e-02,-2.523875873147652521e-02,-2.530314239819356562e-02,-2.651132145029790749e-02,-3.573495692720808636e-02,2.201830397991617200e-02,7.365401219237149855e-04
3.294120302912393328e-01,6.586086843719118900e-01,6.112908190481389781e-01,6.233757725301719566e-01,6.179345848397224117e-01,6.183592669904920403e-01,6.230018883598145152e-01,6.099747588402352205e-01,6.603782201804546670e-01,3.237509239542875061e-01,4.296217052507309009e-04,-1.971538185684441891e-04,4.542929459020876885e-04,-4.643145619161525434e-03,-5.465757652414148654e-03,-4.354113617697115413e-03,-3.562572712069480597e-03,-2.299835984026083781e-03,1.177575836579005872e-03,1.986227275308023038e-03,-6.979065160815554891e-03,7.351061996850653986e-03,-1.068763054352044918e-02,1.940504990341200900e-02,2.514575072455986493e-02,2.527298388145227809e-02,2.119692592709177328e-02,2.589766161885495577e-02,-1.519938485045825398e-02,-5.259753184991194930e-03,-4.186764482097482531e-03,3.781938447294836900e-03,-6.229110901561032802e-03,2.894576176180227098e-02,3.453852536501714893e-02,3.200414720516785161e-02,2.485940279148360355e-02,2.852703159691567097e-02,-1.785228610030589053e-02,6.385085571760304446e-04
3.272806335873064132e-01,6.591383582864130952e-01,6.109441716924409738e-01,6.238154772792307012e-01,6.193579064678954582e-01,6.194386120535236850e-01,6.238360735070722640e-01,6.106940702838818957e-01,6.594549699111906804e-01,3.263171828164228572e-01,1.840950077701853684e-03,-6.442869387924359242e-04,7.936312779606843545e-04,-4.792333757350291171e-03,-5.267250003604690561e-03,-4.895911273449703172e-03,-4.316909893037847515e-03,-5.414903134744772188e-03,3.221099155593132399e-03,8.343177841509032827e-04,6.306125280294887225e-03,1.044313698200701954e-03,-2.583746922078797477e-03,-1.261860524567889538e-02,-1.213355309531715699e-02,-9.675286197271678115e-03,-7.480994223905361624e-03,-9.003089060820370151e-03,5.202362070035659002e-03,2.388968637694232483e-03,1.927128433817485581e-03,-1.190852494757631622e-03,1.841034955559058169e-03,-9.516693906952557874e-03,-9.363373954134144445e-03,-9.513411548193326933e-03,-1.008088246475010406e-02,-1.359240084795213660e-02,8.401688510147147654e-03,1.281186340074853824e-04
3.268789398842526506e-01,6.592467996033390953e-01,6.108623698972702742e-01,6.239763263826935136e-01,6.195585403457031237e-01,6.195856558072765363e-01,6.239999269469096443e-01,6.108292147643024084e-01,6.592835559371481580e-01,3.267810853778576607e-01,6.938121350657426925e-04,1.124626406134672432e-04,-3.382410603544363766e-04,3.485450185380427552e-04,3.818394996865166063e-03,2.079384332339484151e-03,-2.954706257031615262e-03,-7.102108158346862737e-03,4.167457461338052241e-03,1.081191033053797990e-03,3.277106020399880686e-03,2.449214453314705990e-03,-4.328155405735480132e-03,-5.708079873230234233e-03,-4.268587689824858596e-03,-2.212375025613207667e-03,-1.045091868906978215e-03,-9.014157867497013315e-04,4.951186527881454909e-04,5.251154811036738701e-04,-2.518676428436934442e-04,1.595350369382990820e-04,-1.522840802326703958e-04,-6.263708237306050020e-04,-2.323596425533545722e-03,-1.233308677079530697e-03,1.544501115752563991e-03,3.715576688450556060e-03,-2.245437448673139307e-03,-1.882372361869445211e-04
3.275944749655222976e-01,6.590521265416124930e-01,6.110102749301340452e-01,6.236852045642926612e-01,6.191443865912100719e-01,6.193094175263724743e-01,6.236681562608930030e-01,6.104458747012488917e-01,6.597712187868189915e-01,3.254068777429732773e-01,2.553055378823995865e-03,-6.305862065744789139e-04,5.020698203611350958e-04,-2.543003222132830202e-03,1.508702209186989348e-03,-6.332477606089321510e-04,-7.425688024856417005e-03,-1.323663166539716662e-02,8.403563104539877801e-03,-2.159744458180294820e-03,8.502501700934472773e-03,-8.187600294308570309e-05,-1.074429565378193490e-03,-1.869110110569526320e-02,-1.911689688583744634e-02,-1.609811772593586210e-02,-1.310937372811237650e-02,-1.582081910921081733e-02,9.536526644603211117e-03,1.751515834802475774e-03,2.259621535943109188e-03,-1.448140876871275781e-03,2.251152020685565427e-03,-1.143372263108860185e-02,-1.160818047294165899e-02,-1.189874347108863320e-02,-1.211403792773973163e-02,-1.605384237577323417e-02,9.921647338845419190e-03,1.906301094640218408e-04
3.274239879461474656e-01,6.591159501809613630e-01,6.109428801981476864e-01,6.238970260100238363e-01,6.192240081804831764e-01,6.193211165378904592e-01,6.237820249320538135e-01,6.106460008260758965e-01,6.595122840826839195e-01,3.261750044068181253e-01,2.478306541540183788e-03,-1.327601576872211326e-03,1.984027418207080697e-03,-1.064601896256721011e-02,-1.357755268400419324e-02,-1.195507538413649248e-02,-7.501293731373835649e-03,-7.706619852558448808e-03,4.394610700131101715e-03,2.755595155045996447e-03,-2.805355366567920811e-03,5.245791551268862672e-03,-7.853904635343664925e-03,7.999465488219488149e-03,1.038384626669620545e-02,1.209292680583843801e-02,1.266563095967464248e-02,1.718110473329837254e-02,-1.002722527581307449e-02,-3.571406575191933205e-03,-6.000234836516273040e-04,9.864292286584758727e-04,-1.746021666170445574e-03,7.731881156246005193e-03,1.076088131584185953e-02,9.136511395289566642e-03,5.037647311236553155e-03,4.129280305254137869e-03,-2.682806922297684658e-03,5.603561927413520938e-04
3.277574555983436833e-01,6.590161401728040769e-01,6.110284736001048156e-01,6.236874798703178069e-01,6.190826576711756513e-01,6.192306418650350697e-01,6.235703854698728676e-01,6.103207819203583240e-01,6.599116222274100663e-01,3.250920762932936192e-01,-5.184133414169563719e-03,2.686269477159580754e-03,-3.444397606948838928e-03,1.146637996610352234e-02,8.625147133008253392e-03,1.108039103784969059e-02,1.602816599803047817e-02,2.454407605597939968e-02,-1.427820651432725255e-02,-5.426523598011101512e-03,5.704501699471595938e-03,1.329211925818633844e-03,-2.951172635318689754e-03,-1.127989240582441370e-02,-1.038408165270331487e-02,-7.787283853917597101e-03,-6.017787578571997739e-03,-7.461683219936903963e-03,4.286610030834398996e-03,2.089379070784616599e-03,-2.188764299574652572e-03,2.138131774418121356e-03,-3.552273338524126155e-03,1.614213143049648969e-02,1.956626114567585825e-02,1.803491622213922521e-02,1.361530471148622579e-02,1.510475690280954977e-02,-9.439073304308907147e-03,1.536318260755356602e-04
3.324777105881882022e-01,6.577845723052997418e-01,6.119003490150707325e-01,6.222825960110132115e-01,6.156961439482157017e-01,6.168259807646748749e-01,6.215342573960005446e-01,6.082482036136751535e-01,6.625948697967808387e-01,3.174168644297747921e-01,-9.755763593679231405e-04,-2.049352404840162206e-04,8.573402137411272831e-04,-7.016210495945715206e-03,-1.817672701221758821e-02,-1.313785997740929586e-02,1.786397825333341065e-03,1.195740153731532709e-02,-6.297419246835196660e-03,-5.983626241009312036e-03,-7.443086123398480469e-04,4.826567549141797496e-03,-7.756905585924306172e-03,9.030610079407946911e-03,1.625051047349392389e-02,1.289179666458639510e-02,5.024007865142148498e-03,2.435292536656996111e-03,-1.941651193685565817e-03,2.327967960039527273e-03,8.952170196455777607e-03,-7.032599383960266848e-03,1.137732278284666991e-02,-5.508438253613847507e-02,-6.148556549120642867e-02,-5.908079575455640192e-02,-5.213043916545941070e-02,-6.401274821339636434e-02,3.976007853905355605e-02,-3.299480689189504545e-05
3.279837841157925427e-01,6.589775683413889862e-01,6.110329512742161961e-01,6.237816261262361106e-01,6.189940908064444081e-01,6.191028501547781726e-01,6.234313668874915670e-01,6.102092601512782988e-01,6.600529028677866172e-01,3.247101950929049963e-01,-3.353806969230288884e-03,1.850663246376562385e-03,-2.427780807369313374e-03,7.870082487208978489e-03,5.746258983225093972e-03,7.133110729910763573e-03,1.061316013185263640e-02,1.687692847905615870e-02,-9.952975023858504772e-03,-3.006317964099030314e-03,-5.263406449314455421e-03,6.546235584111856180e-03,-9.652303651633319451e-03,1.539178199330581975e-02,2.068285681176913055e-02,2.079550219447017650e-02,1.738791357284493952e-02,2.098529520296198506e-02,-1.209078415388222839e-02,-5.693732133925655248e-03,2.479777513632652752e-03,-1.666450725737985642e-03,2.625240020161564731e-03,-1.327469068639904395e-02,-1.368308822298998709e-02,-1.395611502206849791e-02,-1.426044639745356959e-02,-1.875989159548907548e-02,1.168203105952895539e-02,-4.023305360027693012e-04
3.271891672594202660e-01,6.591608752082565026e-01,6.109273047575578541e-01,6.238629239995011622e-01,6.189436364521806455e-01,6.193158279856409987e-01,6.239673672961991713e-01,6.105852495448149675e-01,6.595819857750426785e-01,3.259270246234597934e-01,-1.776093517165740210e-03,1.317717465072002761e-03,-1.913001373554144759e-03,6.534071879369668899e-03,7.767192410961782853e-03,7.831797837315104122e-03,6.645117309296894384e-03,7.997597099093263495e-03,-4.792040069759306853e-03,-1.056868830094355102e-03,1.283487103691700881e-04,3.346570052488101639e-03,-5.055804315322925437e-03,-4.622492358307712240e-03,-1.050856356454560325e-02,-4.377988559067783579e-03,8.118013166174260428e-03,1.834343847447486922e-02,-1.034059791039214360e-02,-5.334538612337118291e-03,7.388353138800506092e-04,-1.402060891119072741e-03,2.734543099263016946e-03,-1.549907970390905151e-02,-2.429706976240471328e-02,-1.897293248422139700e-02,-5.789747403111469154e-03,1.721214225083997004e-04,1.815612571391348601e-04,-9.747231059956673604e-04
3.274153046625343233e-01,6.590983207138655375e-01,6.109775282033577115e-01,6.237416867724159264e-01,6.192497076687208946e-01,6.194087298560977395e-01,6.236392135459397634e-01,6.102330112431207931e-01,6.600064136450777275e-01,3.248420177393100960e-01,-4.197707551712543880e-03,2.063421288165808234e-03,-2.510425651200558043e-03,7.183977054036064930e-03,8.910697101723033184e-04,4.679213227235094232e-03,1.567726553828742431e-02,2.608602007629994002e-02,-1.475018273552882939e-02,-7.909324301203961641e-03,8.363736274177867996e-03,-1.591347182466461979e-05,-1.149495919221134484e-03,-1.846792018669230276e-02,-1.922418969318617776e-02,-1.615517001729677854e-02,-1.244329908447219107e-02,-1.482292359738709986e-02,8.811058878424517238e-03,2.376246685871944569e-03,-9.433348905506051471e-04,7.212587075146778244e-04,-1.058573171837152299e-03,3.634190974884915666e-03,2.403953356193390661e-03,3.786248855012451335e-03,6.163558592778184582e-03,9.317227285267928177e-03,-5.704541289405578967e-03,-3.418894331233312059e-04
3.282372361029158858e-01,6.589039150583182458e-01,6.110890050236632565e-01,6.237064935428380252e-01,6.178353429683590692e-01,6.185621255836259991e-01,6.238595886135318569e-01,6.107229169184531514e-01,6.594512752860176574e-01,3.261763681418186067e-01,1.295424562891951681e-03,-1.569698916343107743e-03,2.897448613944811607e-03,-1.649195624695921902e-02,-2.708192830083949731e-02,-2.024116768941442573e-02,-4.947068204294640878e-03,2.977422846456667313e-03,-1.186655078071242181e-03,-3.195356553725180182e-03,-4.283633258244434749e-03,6.682874028234277869e-03,-1.028432882410793871e-02,1.960192160223619279e-02,3.282796438178811615e-02,2.884876856983455834e-02,1.334151749153883112e-02,8.264624132141710697e-03,-5.175459966382505578e-03,-6.157425120598344903e-04,-1.567733857310800449e-03,1.657675858778139694e-03,-2.786778141927374972e-03,1.255435264891191852e-02,1.562153446523331310e-02,1.412098955643381788e-02,9.963674012777350847e-03,1.069951323975608555e-02,-6.683611237070314660e-03,5.082751715740699283e-05
3.307602654183385837e-01,6.582213954072921869e-01,6.116064624558585905e-01,6.226714458083750792e-01,6.170178672149914112e-01,6.178049065943544971e-01,6.224149369247661268e-01,6.093549668630647842e-01,6.611667823013664957e-01,3.215427656567779735e-01,-3.417513452525458573e-03,2.214301936274098732e-03,-3.173165424025524255e-03,1.196390615418475335e-02,9.967612768797149900e-03,1.139297287932928768e-02,1.608912507750013751e-02,2.208339915222167632e-02,-1.234220826964727707e-02,-7.412832782169500451e-03,9.366483813857195279e-03,-8.867202247853263331e-04,2.304025201183669894e-04,-2.478904521648339632e-02,-2.860166888664280108e-02,-2.475223909984600179e-02,-1.725090075756025368e-02,-1.831685640041240404e-02,1.110815138231804194e-02,1.990957255851383279e-03,6.121122636941402073e-03,-4.843933216122683905e-03,7.891467356772499664e-03,-3.877754124649936129e-02,-4.451929887443663997e-02,-4.144955294072168173e-02,-3.423787898451837591e-02,-4.077871682463832942e-02,2.534782870078132813e-02,2.320348483970946507e-05
3.324296085522582267e-01,6.578327861213139061e-01,6.118279139218186780e-01,6.225630245616873282e-01,6.155315921095101395e-01,6.167979977855246876e-01,6.219793824528985215e-01,6.090260829577862633e-01,6.615621906358134519e-01,3.205700360004133387e-01,7.733494558489747983e-03,-5.522641169459151581e-03,8.599368417813646123e-03,-4.081623106921953431e-02,-4.942443212688351489e-02,-4.624371416780254096e-02,-3.765747339072942484e-02,-4.323948873288665368e-02,2.730163126440702387e-02,-3.464107093125765036e-03,-1.249442855036322908e-02,1.004409721339137238e-02,-1.424559053757357835e-02,3.427365024041664071e-02,4.454516970939532972e-02,4.002488375649149166e-02,2.822290930157073802e-02,3.385410056179447708e-02,-1.815441641824173946e-02,-1.814352492415555185e-02,4.625685276746085289e-03,-4.666068424948608198e-04,-5.393654789330765576e-04,4.548927031241594733e-03,1.293794045012243606e-02,9.273674951034531488e-03,1.922753904562134099e-03,-5.039222621557832432e-03,1.488261040638600829e-03,9.468554035819011505e-03
3.285118236340228703e-01,6.588106764657040149e-01,6.111835300996616427e-01,6.233966048981647301e-01,6.182500613493153718e-01,6.187506135484055481e-01,6.235115527718363415e-01,6.104129306512109387e-01,6.598250681770483350e-01,3.252474027957041880e-01,-2.762884599080882297e-03,2.649493229958821243e-03,-4.221651517956110169e-03,1.799743983647032752e-02,2.667050369202106364e-02,2.234686049182320333e-02,9.566655205390404634e-03,5.641825087305031745e-03,-2.994189718494013816e-03,-4.251043782406670191e-03,8.962826372563008348e-03,-4.300826478135831923e-04,-5.759757836323277022e-04,-2.121870702869529599e-02,-2.283699072592434987e-02,-1.895922970542853608e-02,-1.422947527399428397e-02,-1.631478033119539497e-02,9.915389912693277005e-03,1.389209984126220376e-03,3.012786200702270711e-03,-2.077090818655538511e-03,3.279966191438988404e-03,-1.635455124284670297e-02,-1.753907635763503683e-02,-1.756048012832333097e-02,-1.661992277874115367e-02,-2.113993748112855120e-02,1.308015638401689718e-02,2.034570363972955376e-04
3.308308626509740558e-01,6.582512936958136995e-01,6.115318490334079593e-01,6.230280231765114030e-01,6.169799003261551285e-01,6.176481126393793541e-01,6.225949706727230692e-01,6.096527896284491543e-01,6.607556544040502633e-01,3.228705309547976743e-01,6.212720297785342960e-03,-3.581464723190792322e-03,5.249749625846926969e-03,-2.499569644999190265e-02,-3.160655019711541835e-02,-2.884599198784982763e-02,-2.056357844648088601e-02,-2.170027388861159312e-02,1.256360523791058385e-02,6.034469355156793502e-03,-1.105148894771717377e-02,9.198460389904107581e-03,-1.302697818740913317e-02,2.900462014490992613e-02,3.772882726471164794e-02,3.665876638392401299e-02,2.642439830419196847e-02,2.975206232978394594e-02,-1.671295567656535391e-02,-1.130558885584882073e-02,4.191588064222897397e-03,-2.808911684669262998e-03,4.375746664150980542e-03,-2.139369466628804339e-02,-2.259428278313162924e-02,-2.185510752909602950e-02,-2.039250087229242669e-02,-2.574163034499895794e-02,1.570479501129197486e-02,1.644742680704178173e-03
3.304554598428861567e-01,6.583379066330308227e-01,6.114812304694640099e-01,6.230736674853899482e-01,6.170436700422479159e-01,6.176192106204962950e-01,6.227187876084254725e-01,6.098936125079249537e-01,6.604909591520663481e-01,3.234484151863612489e-01,6.586361984853426887e-03,-3.866758209363489740e-03,5.723920897935340195e-03,-2.721072198472639092e-02,-3.222000390768717248e-02,-3.056311284723959437e-02,-2.403012535457632604e-02,-2.537619000406139344e-02,1.502582023758056856e-02,4.561927683661336219e-03,-7.427716944899791229e-03,7.651466918054618434e-03,-1.116334508888737823e-02,2.163756504146392701e-02,2.865837230891290707e-02,2.786972659668807833e-02,2.138358607468777983e-02,2.539340938895825323e-02,-1.447193803002627850e-02,-8.015117971742993785e-03,-2.858048887977152064e-03,3.072586111927686284e-03,-5.248889462366574353e-03,2.478529947128862987e-02,3.192882850782273463e-02,3.089825844931116602e-02,1.997394590065928316e-02,1.842094093031073840e-02,-1.147397876497292801e-02,1.779190405602482095e-04
3.267000702095067544e-01,6.592881309455118632e-01,6.108367517742053776e-01,6.240152412140839155e-01,6.195204654042927306e-01,6.196085864230723717e-01,6.239677975950783662e-01,6.104668623617472978e-01,6.597238023049648570e-01,3.255347366518792640e-01,-1.703842588962203343e-03,5.984990351663602246e-04,-4.512901317191233717e-04,-1.208222788872428000e-03,-7.416601360789150388e-03,-3.705817639291013495e-03,6.294292540385717019e-03,1.441305690187993233e-02,-8.616745751088825123e-03,-1.252038646229825317e-03,5.907270072872383530e-03,1.846576566050799713e-03,-4.080895731933908629e-03,-4.982756504643631214e-03,4.292551731100203299e-03,1.937178694036007821e-03,-9.292152323927750646e-03,-1.920100586305128684e-02,1.137776729519606074e-02,2.474872044992047770e-03,-5.845850531450329582e-05,3.071226662013462096e-05,4.479103346658217877e-05,-1.562005810937221011e-03,-3.322200478019056609e-03,-2.139234717356888575e-03,5.530131883541950736e-04,2.420614749568240562e-03,-1.426520626956478835e-03,-2.947078379037394030e-04
3.317918467869334087e-01,6.579696354607141862e-01,6.117650400232451657e-01,6.225055283650229310e-01,6.162284770635257924e-01,6.172264093947901209e-01,6.220547483299472269e-01,6.091704602537800772e-01,6.614122018269772418e-01,3.208786018002509621e-01,-9.362512100523710801e-03,6.129767400963610779e-03,-8.980313446428057900e-03,3.722916181110842021e-02,4.492843960464661113e-02,4.154419217929242181e-02,3.386429308022220752e-02,3.938242093457102605e-02,-2.353669121628202549e-02,-5.823082706390578234e-03,3.878950987814152457e-03,2.202413699563075724e-03,-4.038078266230373317e-03,-7.020373551861885074e-03,-6.116665596568738282e-03,-4.024702129464518760e-03,-2.025529885746727571e-03,-2.024601446193370017e-03,9.051129937278920914e-04,2.229439907921047098e-03,-5.065433353053511167e-03,4.593223032667851508e-03,-7.585997809704441222e-03,3.548816836005776187e-02,4.166273480034662219e-02,3.859944792576643080e-02,3.086554923056641919e-02,3.563926722082236265e-02,-2.219063689861930366e-02,7.531376190322847108e-05
3.282684755897662399e-01,6.588896171247747846e-01,6.111067168640796909e-01,6.236393454787956259e-01,6.178957745538706803e-01,6.185933963657213042e-01,6.238470545827632385e-01,6.107857950685502413e-01,6.593731303466361382e-01,3.264119730331485059e-01,3.077160790465440290e-04,7.273594391357792940e-05,-1.336381255956675977e-04,-1.048742634712690469e-03,-2.605642042837880406e-03,-1.672341758555552288e-03,4.819548253962771924e-04,2.711988890662698787e-03,-1.842842407593421172e-03,1.263400620273246421e-03,-2.396465397982359274e-03,5.566514054642601045e-03,-8.680721563759232623e-03,1.259993035437729017e-02,2.168892385521926924e-02,1.945905937462124452e-02,9.904825251534021824e-03,7.341608617775510770e-03,-4.504890514205158597e-03,-8.530908995181760157e-04,2.045441665224967398e-03,-2.703209835475237424e-03,4.957073449644738318e-03,-2.644126123802399697e-02,-3.876084447406197286e-02,-3.174094852538806438e-02,-1.375511850708730985e-02,-7.124110133006386625e-03,4.718372908196074092e-03,-7.560216198973235269e-04
3.307220284508044506e-01,6.582672386952281851e-01,6.115290431078889144e-01,6.230303499063145622e-01,6.162872286778666719e-01,6.174115301212572682e-01,6.228189169278719461e-01,6.097308477754908029e-01,6.607258438887777530e-01,3.225974719705024807e-01,4.179755801668988413e-03,-2.615126608705291636e-03,4.047797123832646074e-03,-2.064356630883278088e-02,-2.746271612620458658e-02,-2.156828279573133611e-02,-1.040867843892764530e-02,-6.893295006781856998e-03,3.669827522887874130e-03,4.913937680543427333e-03,-7.482146799546590676e-03,8.424453229972365953e-03,-1.269876086547687410e-02,2.965508271947567276e-02,4.684780803874956379e-02,4.113463521646427978e-02,2.033678551610801702e-02,1.426680540547011281e-02,-9.059059211366550513e-03,1.832924371393956919e-04,-4.897044061362078315e-03,3.889249517603317850e-03,-6.173364519658364712e-03,2.787062929934507050e-02,2.877800299401535658e-02,2.949283468224737220e-02,3.006615416050527345e-02,3.971260372227784774e-02,-2.469293275147706190e-02,5.702055453094892479e-04
3.310983459023046915e-01,6.581794611019825547e-01,6.115839227850788928e-01,6.229448403766034703e-01,6.166561857940723312e-01,6.174304059660935540e-01,6.223955751688369231e-01,6.093044905408040446e-01,6.612083396642632893e-01,3.215249379322082657e-01,-8.981108559719480633e-03,6.080568978349198267e-03,-9.053857660755997017e-03,3.828541809099809956e-02,4.916168917189563808e-02,4.536420134203905663e-02,3.113361302099238587e-02,3.369201314237153799e-02,-2.106562418025254707e-02,1.897671185973615060e-04,-9.719870210665407240e-03,8.442425509898295391e-03,-1.196050981690181814e-02,2.426656451880054854e-02,2.967482663757952874e-02,2.966150783490620335e-02,2.508873801661983677e-02,2.968020293150247166e-02,-1.633587714315599959e-02,-1.295067954207887451e-02,-3.205752671701927667e-03,1.646253729180065803e-03,-2.146065567179954864e-03,7.612847867597625530e-03,2.377627583163181586e-03,5.902520409794114083e-03,1.389920803072949851e-02,2.311476059289785043e-02,-1.404925087711199339e-02,-1.352090418267105215e-03
3.289242231808195971e-01,6.587074649357292921e-01,6.112521628562379572e-01,6.233004757833909837e-01,6.183587591527486271e-01,6.187026410944338473e-01,6.229071200238709416e-01,6.094888660911685907e-01,6.609786115778478743e-01,3.220327034559991031e-01,2.673518336284882481e-03,-2.536151645801368489e-04,-3.189232100338415922e-04,1.772273061704268855e-03,7.870236105826588016e-03,4.724844982277586272e-03,-3.173760712721107689e-03,-1.153357558169972041e-02,6.868107571508633852e-03,6.599678857187023934e-04,3.583135340529116503e-03,2.055706816794315370e-03,-3.659855166457195302e-03,-9.262713973148564012e-03,-1.147238304847892666e-02,-6.666117363442855721e-03,2.655460056129230716e-04,3.754893971661550731e-03,-2.319418134077298049e-03,3.262602407596085219e-04,6.389175688632175998e-03,-4.436572698712623955e-03,6.937189774204986434e-03,-3.329826468937747974e-02,-3.422825118775603415e-02,-3.459254006140223547e-02,-3.470996328484487331e-02,-4.563340672791861563e-02,2.829918020487004471e-02,-7.374855095146348738e-05
3.280909426494605929e-01,6.589407844778200074e-01,6.110650183248873546e-01,6.237294440256017092e-01,6.182739115761625159e-01,6.187878993189879218e-01,6.236350582441096968e-01,6.102259261950354619e-01,6.600436643854916685e-01,3.246166722338186261e-01,5.663077841266019388e-03,-2.098490071234389211e-03,2.402419712218883951e-03,-1.011687225206905905e-02,-3.919724092374984696e-03,-7.792926301953407089e-03,-1.753343892818958263e-02,-2.979752880244862512e-02,1.765560997115767430e-02,4.311063426435651942e-03,-3.277019236719136419e-03,6.250938426318637664e-03,-9.763193008467750678e-03,1.759043032493251210e-02,3.099884514394255289e-02,2.722747922539024007e-02,1.166795977626645248e-02,5.711838721733230803e-03,-3.708231218172533192e-03,5.381841972606354885e-05,1.806538643702473163e-03,-1.842444200181072612e-03,3.258084359043772645e-03,-1.742194174015809435e-02,-2.331423357210982844e-02,-1.872956006267408047e-02,-9.466485437046230980e-03,-7.403117257760997300e-03,4.802817636867094675e-03,-8.203900615521425577e-04
3.299910533958850811e-01,6.584078186199937566e-01,6.114849583622460338e-01,6.228573209346488504e-01,6.165256841251925968e-01,6.173680258329045101e-01,6.228293400833319060e-01,6.098651016548527481e-01,6.606453855069971404e-01,3.224650816703844569e-01,6.073789917790346771e-03,-3.532152221693388681e-03,5.164386040332217577e-03,-2.417975333472845156e-02,-2.402163132867120993e-02,-2.662372049125445728e-02,-2.932578289850706552e-02,-3.740301629300737257e-02,2.402773825525967438e-02,-5.394930545065221295e-03,7.875042544228702535e-03,-7.751158655272556014e-04,5.508988745785746780e-04,-2.770054982144638453e-02,-3.998283155210495543e-02,-3.198963159325636518e-02,-1.256389321349294166e-02,-2.842180157294510456e-03,2.503217342247898713e-03,-2.906311034617997668e-03,-1.386710593251953838e-03,2.938514258857513259e-03,-5.485278690534265734e-03,2.707969628143907723e-02,3.702844636967190378e-02,3.607958051312314118e-02,2.183507066727243678e-02,1.470223970851244899e-02,-1.315357730329864971e-02,2.332945625573359938e-02
3.288379718184784029e-01,6.587472222458639060e-01,6.112040260567238592e-01,6.234749263905876582e-01,6.180061795484389497e-01,6.185196420604093248e-01,6.234007033943824716e-01,6.103928297567203787e-01,6.598528726621719631e-01,3.251867608232643647e-01,6.521764446228386913e-03,-4.141481257520824785e-03,6.292701955365728739e-03,-3.019793365723244874e-02,-3.898687088321180216e-02,-3.445945431601242503e-02,-2.248488562580333583e-02,-2.261515395650902718e-02,1.379292340361860068e-02,1.997280471222259712e-03,-3.057207465086475562e-03,5.491533297949215478e-03,-8.291106082321079984e-03,9.996667404346862296e-03,1.394468586060153108e-02,1.506264203287151562e-02,1.338457881648158487e-02,1.665132042513823435e-02,-9.668611005522517038e-03,-3.930823225565514140e-03,4.050157961306369986e-04,-4.823352947301495428e-04,9.400279865082040824e-04,-6.027515263803111083e-03,-9.796752881989202744e-03,-7.416091182986837144e-03,-1.417143616561227035e-03,1.735862941169689618e-03,-9.998415889323603555e-04,-9.856524336659955310e-05
3.284355012914261795e-01,6.588354152678532749e-01,6.111595157070894846e-01,6.234724514152721886e-01,6.181650619291424453e-01,6.186998897716922130e-01,6.236358882036597828e-01,6.106526962231206834e-01,6.595381056209569381e-01,3.260029005063045382e-01,5.839336109536609476e-04,3.890151950259418357e-04,-8.639818379134868529e-04,3.004026565750102500e-03,3.760427955018297297e-03,3.094394097579930124e-03,2.627303508781934655e-03,3.151315353936462622e-03,-2.260038698860363481e-03,2.060416428726218399e-03,4.059219058615504139e-03,2.119662982166785857e-03,-3.969337490421097694e-03,-7.145551192777531771e-03,-5.756185229009096009e-03,-3.799878413604359552e-03,-2.646709647404528985e-03,-3.070942322197822358e-03,1.694387823285792728e-03,1.384319678375730764e-03,3.442036802177486643e-03,-3.392888469377904753e-03,5.871618588789523537e-03,-3.017067805009938236e-02,-4.001070801534326038e-02,-3.460804848466545597e-02,-2.064372898706296963e-02,-1.869866564857948499e-02,1.181585962391503049e-02,-4.866904161458657230e-04
3.317239064129817727e-01,6.579781671002289389e-01,6.117710481529416988e-01,6.224260178230041074e-01,6.169869285947482407e-01,6.176745620631607370e-01,6.215867359252799096e-01,6.076437853217109275e-01,6.632215233090621442e-01,3.160852548765724634e-01,1.072172041914611768e-02,-5.734452719341646271e-03,7.991122973822898864e-03,-3.547782757896369293e-02,-3.669073177508921924e-02,-3.703403085470329675e-02,-3.922484580975064278e-02,-4.986841077563303193e-02,3.076007589838668926e-02,1.734149980237159605e-04,5.794239514619894948e-03,1.055253547328821075e-03,-2.406584587413876462e-03,-1.398798026599459149e-02,-1.688688394571288831e-02,-1.348651945776758142e-02,-8.766889894997496185e-03,-3.585488379716835622e-03,2.653077403852315518e-03,-2.550357014125408800e-03,6.237864590636986450e-03,-4.577484352724364193e-03,7.255741626016260111e-03,-3.486691945263298287e-02,-3.501613409341601535e-02,-3.362944705604178214e-02,-3.141951916775362341e-02,-5.249726556745849815e-02,3.135252042783307630e-02,7.141753889379938436e-03
3.286903334471426019e-01,6.587960975512631157e-01,6.111556372061193176e-01,6.236283776526125866e-01,6.179617773453918161e-01,6.185190969392564408e-01,6.234233408569437307e-01,6.101101103135316839e-01,6.601923239167029056e-01,3.242339196204668816e-01,5.430755586841525678e-03,-2.287625839870355282e-03,2.883941338140884759e-03,-1.296507700310601044e-02,-1.071413783945908763e-02,-1.285037758423545479e-02,-1.699833887996736459e-02,-2.587734457930092324e-02,1.506510626851930920e-02,6.433533424545985133e-03,-6.554964166103724454e-03,7.862549640109486176e-03,-1.188524681547104174e-02,2.625002937764004882e-02,4.147497981444149551e-02,3.604940557694481795e-02,1.777276267451411568e-02,1.266064916358614068e-02,-8.044633494963357445e-03,2.424643674298759821e-04,2.672513951446376171e-03,-1.327767924061149310e-03,1.855697408804910398e-03,-8.999229149758211990e-03,-5.338856053732818872e-03,-6.320711153863938642e-03,-1.156549376675004154e-02,-1.889111232043239053e-02,1.149505568557569399e-02,1.117906799696241626e-03
3.269037850202168860e-01,6.592411066335512881e-01,6.108644289070259692e-01,6.239931094574255876e-01,6.194644876629519237e-01,6.195282403756071643e-01,6.239859927128452721e-01,6.107570059965808928e-01,6.593721984155030968e-01,3.265277342522190374e-01,-2.435920058367028497e-03,8.117389077021139928e-04,-4.971611674409971357e-04,-8.522109988773260685e-04,-5.753147534082399955e-03,-2.549795563511284176e-03,5.296438844683087899e-03,1.186158542989697653e-02,-6.826278272703904457e-03,-2.651689183875287001e-03,1.045116047500225555e-03,3.485913241656457204e-03,-5.311485179654868577e-03,-5.638834712259142411e-04,4.849007503940858457e-03,4.806565016709302834e-03,1.411266419435645934e-04,-2.923045990863239532e-03,1.538792094488376739e-03,1.383180193681675212e-03,-9.058416030435709199e-04,1.012886269150470959e-03,-1.603649929921275577e-03,7.078456864361951269e-03,9.559236702671870811e-03,8.212165675632952799e-03,4.700868702129459148e-03,4.118904723398238502e-03,-2.627711238068017579e-03,2.458750773188800309e-04
3.274969041112880674e-01,6.590818358061143467e-01,6.109845413471141073e-01,6.237474613539083501e-01,6.191782851042130220e-01,6.193322033284864858e-01,6.237716076488289962e-01,6.106265143056073263e-01,6.595410211768325537e-01,3.260760928074573073e-01,-3.295461333958492334e-03,2.187571869974860080e-03,-3.117401006631898702e-03,1.129532777599569562e-02,1.174934337605903351e-02,1.198279089372270706e-02,1.211594447893305816e-02,1.619066266464423698e-02,-9.708191149181125482e-03,-1.916472632785635316e-03,6.128780893563771925e-03,9.219361794672552290e-04,-2.257846263041205989e-03,-1.448237711214700289e-02,-1.650006654495640712e-02,-1.264608598705657151e-02,-6.691933605561601467e-03,-5.557664795926555920e-03,3.335515909665905804e-03,1.085449083944152460e-03,1.530206011220362414e-03,-9.171569776421542152e-04,1.422082773691702362e-03,-7.608807809238627914e-03,-7.616181307006134570e-03,-7.566568293550707258e-03,-7.824136226411950584e-03,-1.050793571743439611e-02,6.488595245655174801e-03,1.445679094441813806e-04
3.277775406585820006e-01,6.590110745910993106e-01,6.110303284644675870e-01,6.237042012322598916e-01,6.186283831861609794e-01,6.190229212275316639e-01,6.238512105836557797e-01,6.107786062427507101e-01,6.593669425692203490e-01,3.264962967169811048e-01,3.187654003537231107e-03,-1.900481152599640261e-03,2.883444427565854881e-03,-1.482233379297778417e-02,-2.076649362243732089e-02,-1.759417004227903369e-02,-9.048220142015703932e-03,-6.755147178513743259e-03,4.216901307834908935e-03,3.423398285804235552e-04,1.529280380419683000e-03,3.185625717347441953e-03,-5.227442408219353832e-03,-2.505605494148814474e-03,-2.082077908524237932e-03,4.879919920539162398e-04,3.367318961553800345e-03,6.155248799088781572e-03,-3.578612486082499017e-03,-1.167044524494414807e-03,1.812974684867685315e-03,-1.966176507830430520e-03,3.505997849875808897e-03,-1.872912621380748432e-02,-2.616351736305299810e-02,-2.189922617848353431e-02,-1.102946342301604557e-02,-7.964835715474198954e-03,5.146688210671972880e-03,-6.057790493528836251e-04
3.275271970446260728e-01,6.590743532472184141e-01,6.109892707070905260e-01,6.237426502206161461e-01,6.192019497195468958e-01,6.193230219675852632e-01,6.237333444420166684e-01,6.106025584528329553e-01,6.595732078304924473e-01,3.259815515419390852e-01,-2.142583571275379420e-03,1.680377041985682551e-03,-2.465314714814021042e-03,8.726893910553312761e-03,1.118558499919059326e-02,1.025859730189802171e-02,7.951519093389113058e-03,7.977908299304208722e-03,-5.021425063028273940e-03,9.707257410121634955e-04,7.555519473548761092e-03,5.620194548588966152e-04,-2.053052552248191710e-03,-1.448885012659513992e-02,-1.304235995850335818e-02,-1.122404945345417161e-02,-1.071788277909435649e-02,-1.436353333959879477e-02,8.408299415395628640e-03,3.049819279598520172e-03,-1.716640734743007934e-03,1.558624213133177547e-03,-2.519653044192358710e-03,1.094200485305990567e-02,1.198315237016971124e-02,1.150952206611981742e-02,1.050142262898282573e-02,1.326344364314773448e-02,-8.230266371084857258e-03,1.800911308795852261e-05
