3.270460914886481607e-01,6.592050857748066317e-01,6.108902912069681390e-01,6.239346469797567574e-01,6.194934384955435025e-01,6.195281164082699910e-01,6.239143950135206396e-01,6.107572810801130681e-01,6.593741700392103944e-01,3.265380443885497197e-01,-1.986043407340373074e-03,1.329050534585163052e-03,-1.820836961781360439e-03,5.455646160838273015e-03,5.435929725333614286e-03,5.837939624070924600e-03,6.556813982318860680e-03,9.185500873446340517e-03,-5.409082521620366645e-03,-1.675841668073463700e-03,2.496743888916642604e-03,2.707302638045265032e-03,-4.594284567572692532e-03,-5.131301010565469944e-03,-5.330175277296869858e-03,-2.378863189243290033e-03,1.322358914034370151e-03,3.875846290595034212e-03,-2.229204993415768304e-03,-7.562490818732413300e-04,-1.182539907426982326e-03,1.050069113836801576e-03,-1.660003783127500738e-03,6.732965760343692999e-03,6.961150843955909648e-03,7.067964659025744931e-03,7.153349524619232423e-03,9.424427822457635828e-03,-5.831958529405887118e-03,-7.124991754872342375e-05
3.270004947420158681e-01,6.592133839288141228e-01,6.108841937775814079e-01,6.239740224124105117e-01,6.188743011639229463e-01,6.192674172233985086e-01,6.241173842330562938e-01,6.107328031764260867e-01,6.594102554134405603e-01,3.263334655866325651e-01,-8.643937786425581749e-04,1.768182596317361029e-03,-3.143800773279972153e-03,1.347683512474438100e-02,2.446417661609361083e-02,1.861810676961425659e-02,2.565046229088746750e-03,-6.353021021341052552e-03,3.418888345308082610e-03,2.113472921517416114e-03,1.457628309052128382e-03,3.702613016205428924e-03,-6.258439967202537868e-03,2.823780533325046579e-03,9.986894364363549381e-03,9.099137348531561448e-03,2.017370383025822531e-03,-1.875712699697848138e-03,8.277618000062116586e-04,1.589261510875631528e-03,8.311387393273687862e-04,4.040994254988061057e-04,-1.074574489518267300e-03,5.397345848881728372e-03,1.258454851879404340e-02,8.248832526965767242e-03,-2.658114546692738871e-03,-9.969357316267756647e-03,5.946482200526699742e-03,7.850770910358649546e-04
3.267806423659890269e-01,6.592675969198646957e-01,6.108513650915357029e-01,6.239873662734792825e-01,6.195799028811554976e-01,6.196119479218487047e-01,6.239123705539038056e-01,6.104601136284806273e-01,6.597302927576123022e-01,3.255426283611710936e-01,1.629812378874037626e-03,-3.650387904515726154e-04,3.058679129139295415e-04,-2.317917616855874607e-03,-3.249223181624408957e-04,-1.280066513889413071e-03,-4.372680882445707101e-03,-7.588050021763052128e-03,4.571837661154386917e-03,5.922165363002465177e-04,6.901460953646554840e-03,1.449203120662824387e-03,-3.617894548422422463e-03,-6.573971181317439863e-03,3.223970545635136947e-03,5.479741658873426083e-04,-1.140027260751760863e-02,-2.261357302285550014e-02,1.327421982921035172e-02,3.703856619758864616e-03,8.903336641381490862e-04,-2.408112540200739188e-04,2.529318427391560962e-04,-1.812382687528967754e-03,-1.136598183264948955e-04,-1.019578270033399221e-03,-3.573920661500762548e-03,-6.285427701733756721e-03,3.809099876807872653e-03,3.828294763709067005e-04
3.264988603893996810e-01,6.592930776254473102e-01,6.108530453153893092e-01,6.239760558291949089e-01,6.195785174413548368e-01,6.195831652748757801e-01,6.239863300835979398e-01,6.107982485058576216e-01,6.593545916443567245e-01,3.263412308781326043e-01,1.501351082513483620e-03,-3.701052455917776219e-04,3.649630871888318332e-04,-2.813580454110587228e-03,-2.069340946397367834e-03,-2.212794503454079773e-03,-3.198059670555326167e-03,-5.035483666385746383e-03,2.825077006673334251e-03,1.686854569516044568e-03,4.184190046298091187e-03,2.208912460424042150e-03,-4.158500518090688276e-03,-5.688124422935859209e-03,-1.837550358119754632e-03,-1.031047092858726781e-03,-3.459075330882713847e-03,-6.614492880389518693e-03,3.563977200448158796e-03,3.030537907900676328e-03,7.305080677648737291e-04,-5.149221210146452590e-05,-8.217201860726472125e-05,-1.309491984187410418e-04,2.134321097773017768e-03,9.785975019143600042e-04,-2.320984585264778376e-03,-5.202316015619665515e-03,3.030362710776142356e-03,9.407922308390724402e-04
3.304978797429471982e-01,6.582631291199643186e-01,6.115717129139671693e-01,6.228337853841870997e-01,6.171087434700222030e-01,6.178133607563787155e-01,6.223593488659957540e-01,6.091542954445670066e-01,6.613838338216451174e-01,3.209519643216682816e-01,-1.307503901440955352e-02,7.697801882231463874e-03,-1.088395053968701891e-02,4.475412026158855777e-02,5.167728164632220955e-02,4.858610040615531089e-02,4.085528978965671798e-02,5.081108384627087277e-02,-2.947294988787942799e-02,-1.207884973733686085e-02,1.799129244771844943e-03,2.968753732959443763e-03,-4.854893799503883986e-03,-4.097392122709759069e-03,-4.786782964543908128e-03,-1.956234617574347402e-03,2.289677026315589843e-03,5.907995639663056985e-03,-3.311449056032119212e-03,-1.737467641923407143e-03,-2.053586367557931613e-03,1.475303108036726124e-03,-2.220787953596086751e-03,9.047966581707218153e-03,8.862822164225080818e-03,9.187232167018995893e-03,9.650407688441969833e-03,1.309939837690813659e-02,-7.789428529573187536e-03,-1.868021815523595794e-03
3.278821343576910907e-01,6.589806902567639790e-01,6.110562432789651277e-01,6.236325131479525385e-01,6.191915289884015738e-01,6.192831273223268207e-01,6.231164389914110036e-01,6.093835331350362372e-01,6.610592567471561543e-01,3.219368659869146221e-01,6.784603314394573037e-03,-3.164221581417916030e-03,4.171577253261161272e-03,-1.869498226841149677e-02,-1.750028239238151859e-02,-1.848032363971927744e-02,-2.125476581410939286e-02,-2.959175100558849789e-02,1.717163542995974596e-02,6.999539293466354450e-03,4.725901291240534527e-03,1.861126782290339768e-03,-3.676886349168357292e-03,-8.097856137540352869e-03,-6.763590015651517288e-03,-5.211705947139016158e-03,-4.117720877629400637e-03,-5.337285991046497244e-03,2.670755484706648433e-03,3.901024234776595198e-03,4.678090192613891182e-03,-2.326131362520072066e-03,3.173511841651258190e-03,-1.428242550555210155e-02,-7.069463916428912580e-03,-1.159858176432588921e-02,-2.343997217829795268e-02,-3.778788774141264573e-02,2.311396149723415547e-02,1.248514087720529672e-03
3.269828261012255322e-01,6.592176499740203255e-01,6.108852688861738933e-01,6.239294941975865871e-01,6.193882572973810063e-01,6.195120955314825650e-01,6.240090280192568395e-01,6.108283858536178723e-01,6.592864774565269093e-01,3.267606886533618304e-01,1.545562314171178980e-03,-6.409282372842001283e-04,9.003767385823726026e-04,-5.526795840974500253e-03,-6.694338898691434836e-03,-6.045475736839356698e-03,-4.288575428300317287e-03,-4.684223743545790422e-03,2.827553335335649017e-03,5.699404961793733126e-04,2.979229098851941294e-03,2.386391911494325190e-03,-4.113403015049582959e-03,-7.223688657422105280e-03,-8.839407772067996855e-03,-5.011108112983061504e-03,8.017029717100579607e-04,4.436437521217759597e-03,-2.503476234776278418e-03,-1.039834642907810219e-03,-4.185022151404274582e-06,-3.663974801947260732e-04,8.530935517167948347e-04,-5.905272351721979271e-03,-1.081556640860131119e-02,-7.838324031091435662e-03,-2.650778417689863935e-04,4.211719519485119904e-03,-2.461500664841078170e-03,-4.541731136477669684e-04
3.329295716712685760e-01,6.576348286617000882e-01,6.120385171365310129e-01,6.219494837148554778e-01,6.133156568981821266e-01,6.158706382487577624e-01,6.228776379957015052e-01,6.102078999138350612e-01,6.601845760818458864e-01,3.239433629104417900e-01,6.849149722697463194e-03,-4.792668125902043927e-03,7.477647884838586542e-03,-3.602644732676922590e-02,-5.036435298457274390e-02,-4.207259620360324914e-02,-2.244603311958122752e-02,-1.862778116714496057e-02,1.121342508176561767e-02,3.827217085925566087e-03,7.396994762835527870e-03,-4.228034960434244593e-04,1.137124463621193293e-05,-2.531541191713208155e-02,-3.508144716882375530e-02,-2.742305233386045996e-02,-1.050648854105110802e-02,-3.882001125571395671e-03,2.351432917929142941e-03,1.428973840636726944e-03,4.556298407784153959e-03,-4.928583847589654982e-03,8.649711351403108900e-03,-4.424729375244573076e-02,-5.927309085758989543e-02,-5.128437031898520210e-02,-2.987044237476049052e-02,-2.617746261617972386e-02,1.658760337186949291e-02,-7.855198902216031787e-04
3.286046673764598802e-01,6.587836437601730655e-01,6.112069233479389130e-01,6.233383164908751217e-01,6.184416376797212678e-01,6.188406781280318958e-01,6.233613848515541234e-01,6.102328926497464501e-01,6.600389309366248014e-01,3.247095190284012833e-01,2.272335171855099922e-03,-1.553899051784420580e-03,2.982484265407237944e-03,-1.323791243266551204e-02,-1.297814029823878695e-02,-1.307837542006580825e-02,-1.418342798036650344e-02,-1.955227403085647506e-02,1.175900783476882538e-02,2.011773792680179862e-03,9.063921674265562611e-03,-1.243272123107505220e-03,1.568893554617901108e-03,-2.960746627536843534e-02,-3.368451966427150890e-02,-2.923952392753116983e-02,-2.150374080277041300e-02,-2.404419499013881606e-02,1.448460785315458001e-02,2.933285959521705899e-03,9.345134284620797149e-04,-4.217793699488879859e-04,6.553716051816704802e-04,-3.577907210247699855e-03,-1.910692544923962800e-03,-3.189171541628833990e-03,-5.966631299115728732e-03,-9.412246973320839705e-03,5.751370103301378309e-03,3.756639266465668092e-04
3.303030130370714357e-01,6.583546527169376050e-01,6.114953390786646015e-01,6.229309779675131775e-01,6.175428579760007253e-01,6.180638975567096516e-01,6.223131427109558356e-01,6.090319468641822720e-01,6.615767631582869512e-01,3.203521258097201674e-01,3.791654032081655246e-05,2.043012749542362939e-04,-1.786672695464379878e-04,-2.099009668212642107e-03,-4.455139766646227725e-03,-3.666529485349722187e-03,1.889641042467159627e-03,6.638545843255488910e-03,-4.274357194397630268e-03,5.552787335316436076e-04,8.529971248603966313e-04,3.409342232278822146e-03,-5.390093530510662624e-03,-2.272167408546181110e-03,-3.452907737916543693e-03,4.382685542133597876e-04,6.212600925098495618e-03,1.128196188705320527e-02,-6.888578668099597582e-03,-2.255955404301540623e-04,-7.119892570396191278e-03,5.810578726263938149e-03,-9.349452476050684399e-03,4.321926262907940797e-02,4.726182203790156577e-02,4.596350870001658651e-02,4.228770357188549323e-02,5.318959170600304903e-02,-3.305777641073120998e-02,8.502594103128313652e-05
3.326150985588938180e-01,6.577283703352129196e-01,6.119291586053974275e-01,6.223113161362493484e-01,6.156696147164631983e-01,6.167986929026232357e-01,6.215076005764990086e-01,6.084612959645261387e-01,6.622685242741244149e-01,3.185225385839414169e-01,-5.856650729772074071e-03,5.068494792234102750e-03,-8.851001219901774575e-03,3.478983805533239493e-02,4.201647167578607261e-02,3.855527928782864766e-02,3.217824656340213113e-02,3.897629633709912000e-02,-2.227270014765465184e-02,-1.107801372122260014e-02,3.041873422922475312e-03,4.346239125199359565e-03,-9.785944036274380614e-03,1.244650585653470434e-02,1.589108993454951824e-02,1.710436779789902342e-02,1.663311955362582750e-02,2.181658095848341972e-02,-1.256287475005380197e-02,-5.539269790801156640e-03,-6.910843242638867179e-03,5.666135706698464600e-03,-9.223258588746324066e-03,4.223462022109745334e-02,4.862741885325694291e-02,4.533944423547500019e-02,3.698176885224041532e-02,4.412714406341224083e-02,-2.639115455395455931e-02,-6.055416714188341376e-03
3.273502954716014379e-01,6.590635181132066256e-01,6.110242038163367084e-01,6.236598021679656823e-01,6.186698952874893909e-01,6.190771739627682901e-01,6.238540050193829289e-01,6.107049422498858071e-01,6.594840464782535383e-01,3.259443239987016572e-01,4.972429295634434032e-03,-2.780219069976139906e-03,4.041842707727175826e-03,-1.959325562182697225e-02,-2.507406008283933480e-02,-2.219871829276541877e-02,-1.438944237937063615e-02,-1.468350009952856458e-02,8.633036074975678625e-03,3.153380228737442947e-03,4.779896802601883016e-03,1.271295414483957116e-03,-2.499873361210023376e-03,-1.423982608942741743e-02,-2.030174705649210459e-02,-1.439901253553935515e-02,-2.367633440911114540e-03,4.192113682583131426e-03,-2.105744622497409194e-03,-2.068357795499894958e-03,6.109279809392315769e-04,-3.720407295554866833e-04,6.292581566475002539e-04,-4.116939727627926676e-03,-5.622449663728248427e-03,-4.954135354364939438e-03,-2.702962327627686859e-03,-2.086744569165807986e-03,1.285891167472566141e-03,2.006790233526570960e-04
3.284791861920872691e-01,6.588055889715380697e-01,6.111669372294263880e-01,6.236005393506036665e-01,6.181167248530322622e-01,6.185344718248856344e-01,6.234213643913865122e-01,6.103924641048086297e-01,6.598730401206426288e-01,3.249385936208155634e-01,-4.374381032786995444e-03,2.667891059996577077e-03,-3.723021455948274331e-03,1.387946734063094656e-02,1.775339242686502228e-02,1.649508275886049993e-02,1.065797959102690595e-02,1.230008770454279338e-02,-7.255369848992250861e-03,-2.272949225600569279e-03,-8.332360281523641665e-03,8.051403035522035345e-03,-1.164441576947293847e-02,2.363945002258896130e-02,3.324453410155685240e-02,3.109228625506774493e-02,2.094565125087423374e-02,2.232815939795557147e-02,-1.268906787445283832e-02,-7.306036996546874662e-03,-2.280862954805947668e-03,1.858935950751766739e-03,-2.946942318335846970e-03,1.289530931668592464e-02,1.572623952814137041e-02,1.417650876262291360e-02,1.002422340883643223e-02,1.112163862755543783e-02,-6.704998408462797647e-03,-1.308781846862967085e-03
3.265383797988228309e-01,6.592841105594211548e-01,6.108571817992666242e-01,6.239812725847113661e-01,6.195287514298516429e-01,6.196015321448331559e-01,6.237566782597627757e-01,6.101421867084679818e-01,6.601458567531479638e-01,3.241784400726779314e-01,-2.930071574978924953e-03,1.736161113034514645e-03,-2.316813538082360818e-03,7.226840865892493991e-03,6.029855404638803998e-03,6.849335603444410558e-03,1.002630771916234766e-02,1.505903901127919955e-02,-8.928920459523186776e-03,-1.587424263768916904e-03,-5.146648399348974223e-04,3.887652186470214391e-03,-5.949138546065550065e-03,-4.408231432435499603e-04,-2.684452751721251584e-03,1.175240646991104494e-03,8.132457665482994286e-03,1.519341071429034483e-02,-8.498196533824222201e-03,-4.787424438253942011e-03,-3.014825875349005577e-03,1.351804834840786198e-03,-1.602056651513574783e-03,4.784881074702217012e-03,-2.648490724079303332e-03,1.743953188110164507e-03,1.335923796770425824e-02,2.509760023085305311e-02,-1.475122260732290858e-02,-3.911082124893022760e-03
3.295842827099852990e-01,6.585113875080412793e-01,6.113827702598492175e-01,6.232107583144027574e-01,6.175633827795155018e-01,6.181098662904340735e-01,6.228298119113248044e-01,6.097598749094650383e-01,6.606651698761335512e-01,3.227827388097350703e-01,-1.722823219908195883e-03,1.257306804071493984e-03,-1.756247173449434562e-03,5.124005658241035516e-03,6.459097890585751428e-03,6.335338747393708808e-03,5.135360987260893968e-03,8.087378870374632711e-03,-5.260813000577736244e-03,1.397720591359145545e-03,-7.148672772744675552e-03,7.327924995443944704e-03,-1.058100593456631766e-02,1.880596448241319066e-02,2.460642965156921089e-02,2.454119405047310368e-02,2.015774973347323265e-02,2.465635379134979363e-02,-1.413027980984725256e-02,-6.979801771821184109e-03,-5.784928308084663628e-03,4.633233806944204655e-03,-7.415295812434138760e-03,3.408398570512196496e-02,4.027970481048942508e-02,3.719229780653931366e-02,2.887043867315310791e-02,3.384270627146832022e-02,-2.048608346471455718e-02,-3.375066413948184241e-03
3.335898418388518749e-01,6.574195178475388257e-01,6.122124998913403005e-01,6.215936049054684442e-01,6.145937675194826921e-01,6.162246684307207678e-01,6.215690520941040687e-01,6.087286955987541992e-01,6.619486618396268618e-01,3.193953805826970083e-01,3.726547226748512520e-03,-2.340315683852028754e-03,3.506628974828545058e-03,-1.702956437130934142e-02,-2.080363560016276758e-02,-1.818932442038884850e-02,-1.422554276183086996e-02,-1.696041837025661497e-02,9.543456652728737888e-03,6.270294857064522692e-03,1.482175036455980754e-02,-4.191028538477480775e-03,5.018765520930021026e-03,-4.557210832799936384e-02,-5.284690870991827494e-02,-4.681730744225877372e-02,-3.408126805671276432e-02,-3.859476546372121730e-02,2.182627177167321617e-02,1.271091126994719489e-02,7.098307562403399773e-03,-5.376405961230649663e-03,8.643273097399753122e-03,-4.209878440258526394e-02,-4.936115474741939457e-02,-4.566679982208854405e-02,-3.576625793922090513e-02,-4.176752452386666564e-02,2.499653969620231966e-02,5.674382030408736677e-03
3.266601296695392787e-01,6.592528605480305615e-01,6.108798854096090247e-01,6.239368424428807236e-01,6.194696875816187998e-01,6.195098465187400816e-01,6.239426966639451955e-01,6.108036316596753279e-01,6.593533107307147922e-01,3.263373663547379788e-01,-9.880191125812218256e-04,8.057161443338119872e-04,-1.117704614976967534e-03,2.547455845579464639e-03,3.101765343145490572e-03,3.124484201620418133e-03,2.775741936967857874e-03,3.518302735785135138e-03,-2.020765180397917846e-03,-9.574627522972497390e-04,2.646698452236757870e-03,2.685892797507299836e-03,-4.594866206934564504e-03,-4.802686302652814723e-03,-3.900768258947515978e-03,-1.592326354719159672e-03,3.998519940912376083e-04,1.621522266514314765e-03,-9.465517084518455934e-04,-1.704994516103560537e-04,-1.455446263127479004e-03,1.304732657526448507e-03,-2.092301774311237927e-03,8.891410132618260756e-03,1.047372560672027615e-02,9.728189751841493510e-03,7.679815451769577035e-03,9.070345588865439540e-03,-5.468740885262626805e-03,-1.007112760019104186e-03
3.327126141812617455e-01,6.577148783428452550e-01,6.119265242084839240e-01,6.224106394076425186e-01,6.154704845571716820e-01,6.167075221252094064e-01,6.215593027070860366e-01,6.084904065006035978e-01,6.621667559464077257e-01,3.190964398140441194e-01,-7.002442331717505242e-03,5.097898425440727799e-03,-7.674891106741355863e-03,3.181921404667142211e-02,3.850618538817931341e-02,3.562420004485990221e-02,2.980376695441364077e-02,3.692860449236345932e-02,-2.140710010567680593e-02,-9.248782397559433821e-03,-1.312216063692484697e-02,1.025433241272041135e-02,-1.439748504002397872e-02,3.413555638448197149e-02,4.316801240809364087e-02,4.055438449627282727e-02,3.311043625435124149e-02,4.095026885956191270e-02,-2.208495639907012698e-02,-2.111381979472753273e-02,-5.011789074097869334e-03,4.131691979074458496e-03,-6.641225110243341098e-03,3.041697861393814067e-02,3.558799561533735473e-02,3.236816940655673491e-02,2.518875072232424489e-02,2.924605494950837520e-02,-1.744274293609721083e-02,-4.484014698375400620e-03
3.264107887479035242e-01,6.593146096440818393e-01,6.108384914159886714e-01,6.240016984140049905e-01,6.194968070235424840e-01,6.195698885250474630e-01,6.240240834172519069e-01,6.107124350215239472e-01,6.594551114380227119e-01,3.260559197061057013e-01,1.514697153743860270e-03,7.067348567235914696e-05,-5.530732694990731857e-04,1.990477793647627263e-03,9.690664625476033689e-03,5.898765605931224724e-03,-5.057694861507433699e-03,-1.427195536743389344e-02,7.948786775545755440e-03,4.494291533496150987e-03,3.311281079179168984e-03,2.535042842000889522e-03,-4.553249614883252486e-03,-4.599293342777296956e-03,-2.035179591345522704e-03,-5.891768406125267015e-04,-1.028091357556980626e-03,-1.988866369794986457e-03,1.010657167438402861e-03,1.270115675583609067e-03,-3.373127088949351426e-05,3.672878591136316843e-04,-6.715335567178147341e-04,2.407667969115563460e-03,3.955431232992329994e-03,3.129347795270008472e-03,1.001072607569537636e-03,7.439042487722554928e-05,-8.957357524438003434e-05,1.422957078922905405e-04
3.266995283382421178e-01,6.592908411259778001e-01,6.108326624826370121e-01,6.240265924295396172e-01,6.194767345650711299e-01,6.196467779971907008e-01,6.239158331122131029e-01,6.102705041768752281e-01,6.599511297811999633e-01,3.249530231318285001e-01,-1.967454673650701619e-03,7.526401484830529511e-04,-6.758529363839493355e-04,-1.831695747543171182e-04,-4.628879198526313250e-03,-1.494915522193252921e-03,5.906330858986587155e-03,1.258028988873918785e-02,-7.320058175456554614e-03,-2.862029847860389845e-03,-1.056388879683065008e-03,3.897724838813563294e-03,-5.754111542643422506e-03,-1.886616927605142902e-03,-7.358817402084562830e-03,-1.179153527714587799e-03,1.094280631045091781e-02,2.176097283507009289e-02,-1.240143252947130056e-02,-5.807260839514242698e-03,-1.522439782153012927e-03,4.799991840695005778e-04,-3.431658101025640084e-04,-7.554919919499208112e-04,-7.399044312123181921e-03,-3.260564934730605935e-03,7.191696815445233933e-03,1.566940322808060837e-02,-9.393334791395341332e-03,-1.410224458301580566e-03
3.273956788070409019e-01,6.591180452161612413e-01,6.109471639295142031e-01,6.238645858499733965e-01,6.192386462917085499e-01,6.193319031575702516e-01,6.237997995416040276e-01,6.107027415463863740e-01,6.594512485930693613e-01,3.263101228297726752e-01,-1.778859775789187704e-05,2.878505569735518373e-04,-4.002801468710905216e-04,-5.244252623382527050e-04,1.776536473559696665e-04,1.898249467091466815e-04,-1.382936050133372254e-04,-1.062729460339591854e-03,8.556108614887704324e-04,-1.581102213122975459e-03,6.219911285350061131e-04,3.784777027971347914e-03,-6.139722048265468246e-03,1.398275683014700392e-03,4.097677902578714115e-03,5.429095799665371348e-03,5.049620841496564594e-03,6.396825238727128424e-03,-3.781050578265846007e-03,-1.148470815700218702e-03,-2.230409576271068228e-03,2.152446988134174878e-03,-3.566327462971793927e-03,1.617363330428082599e-02,1.944520866229433598e-02,1.790778124520600589e-02,1.385491612377033957e-02,1.564729313302386238e-02,-9.718190837317602221e-03,-1.688086535377372743e-04
3.316084366498510683e-01,6.580537527002489062e-01,6.116654707241084843e-01,6.228398221656514799e-01,6.165875410444273674e-01,6.174011583494796174e-01,6.220385265967189881e-01,6.089897467645720708e-01,6.615819768686761471e-01,3.206211546882704599e-01,-5.255936810170388357e-03,3.469579146693265587e-03,-5.009642539823807098e-03,1.952978226857551153e-02,2.262210768447043413e-02,2.229113394187600544e-02,1.995936765228237958e-02,2.523721057165596166e-02,-1.491801101659562256e-02,-4.712889846933618343e-03,-1.126651583429288256e-02,9.720614662670769637e-03,-1.395178890709036779e-02,3.297777103149742567e-02,4.239367177210057180e-02,3.986135921126920945e-02,3.232020857249529033e-02,3.890413810043198001e-02,-2.243121754217024255e-02,-1.135578442080485695e-02,-4.795222629885034782e-03,3.909591978579835675e-03,-6.269857737534798199e-03,2.864988848946752736e-02,3.227272949161204968e-02,3.033552166483677315e-02,2.570634137400965372e-02,3.089218626792929537e-02,-1.905445151395899692e-02,-8.723270684365055927e-04
3.278630785679100823e-01,6.589827759333868329e-01,6.110590279507475131e-01,6.236058910001920363e-01,6.188621851789212203e-01,6.191346953445824308e-01,6.237139312576969186e-01,6.106476603248603974e-01,6.595210701236179363e-01,3.261266912342997148e-01,3.540442680570174416e-03,-1.837441548566511214e-03,2.612156980548301435e-03,-1.304368986271660889e-02,-1.568430641719246663e-02,-1.432959546017168774e-02,-1.086047057588834797e-02,-1.232399094483943407e-02,7.446377950851858739e-03,1.323499134526735788e-03,8.153857554132049740e-03,-4.415305548594906926e-06,-1.117015747636568822e-03,-1.885092921034286356e-02,-2.095839145634878498e-02,-1.718200981706905286e-02,-1.144750737232706761e-02,-1.209486768037521150e-02,7.103735352448488707e-03,2.645386896052127901e-03,1.479359611883317854e-03,-1.138421326238054504e-03,1.900945310696776922e-03,-1.025548818647505078e-02,-1.234298408189913807e-02,-1.110080711860982235e-02,-8.158015215484875834e-03,-8.995450800340865083e-03,5.632220151737827446e-03,-1.565988611180423040e-04
3.276531981732305754e-01,6.590282209582652984e-01,6.110338507422337084e-01,6.236392304064982683e-01,6.183148603862789194e-01,6.189706916280282023e-01,6.240338102469997761e-01,6.107856969530813807e-01,6.593549213308738111e-01,3.264807286383668572e-01,1.563530911521185396e-03,-1.666680273001372621e-03,3.000942060556608705e-03,-1.675822314790164150e-02,-2.877554362605732122e-02,-2.232307695478510934e-02,-4.509237025977316793e-03,4.847535534677536659e-03,-2.370125773409264419e-03,-2.719753613123855607e-03,7.335188096024774368e-03,1.478882686237262267e-04,-1.105136188062454984e-03,-1.943038696481518696e-02,-2.415368845379486235e-02,-1.891384851653840973e-02,-9.120755539230376852e-03,-6.567498811283205284e-03,4.004396264442676434e-03,1.018255478272694914e-03,7.679120185274945776e-06,-3.553339880753929834e-04,8.268791236146588557e-04,-5.767715696796547192e-03,-1.006556093862792656e-02,-7.007945174789582780e-03,-3.099427187684858191e-04,3.432593298918955836e-03,-1.991850930309602228e-03,-4.606545510090521989e-04
3.268570362341278734e-01,6.592530926577025996e-01,6.108569393613372256e-01,6.239914818466737456e-01,6.195736700779410633e-01,6.195837451266208440e-01,6.240014410911540743e-01,6.108231022192790460e-01,6.592901389523863065e-01,3.267651153566779598e-01,3.954752694296194068e-04,2.513893188622450675e-04,-5.167853074991886212e-04,8.954468907214749220e-04,4.079307543964322269e-03,2.589456157680952893e-03,-1.927269415013187345e-03,-5.367120871949369008e-03,3.079412086855858998e-03,1.213481308795651137e-03,3.806413514820048815e-03,2.442792343481386616e-03,-4.507230479294171283e-03,-4.323418324022970660e-03,2.896176272050090010e-04,5.880859570824920534e-04,-3.041778809458953181e-03,-6.574457026709764305e-03,3.673958383194194429e-03,2.219554578645532850e-03,1.289426526469533534e-04,2.097788098294579785e-04,-4.022991464955913248e-04,1.071811008771528847e-03,2.064401709640252373e-03,1.540384160727907657e-03,1.688641929139076282e-04,-5.731042017187026752e-04,3.208441985949569736e-04,1.297707918495854401e-04
3.298787233894749926e-01,6.584717788793486015e-01,6.113982536276741930e-01,6.232015320637286360e-01,6.162978665974983006e-01,6.175780051484698330e-01,6.234883381846988426e-01,6.105106572586351810e-01,6.597596903619502573e-01,3.251994711752650424e-01,-7.636171652388029640e-04,1.457910041104263851e-03,-2.504598225632983458e-03,9.933820680514179186e-03,1.881654875137523525e-02,1.506806467807798172e-02,2.452397922485746035e-03,-3.241954110108464897e-03,1.383133108437969473e-03,3.349504197785256598e-03,-3.999409557139559090e-03,6.631604624070796053e-03,-1.027081356590889630e-02,1.970843594535600166e-02,3.311378882765865506e-02,2.788805165432831079e-02,1.174626906656977762e-02,6.146772962554078110e-03,-4.116436435207877775e-03,1.006157351903000374e-03,-3.865654168408588776e-03,4.343720175427371114e-03,-7.520797345436195346e-03,3.626158133182194598e-02,4.871439183648827026e-02,4.223684570133858646e-02,2.478685851796346568e-02,2.199183734853316780e-02,-1.400043891968990803e-02,1.184576583908858449e-03
3.271759118882010542e-01,6.591808291167234879e-01,6.108966759555480852e-01,6.239726459373524659e-01,6.194334952156825835e-01,6.194491013530692980e-01,6.238533311574080420e-01,6.107198345406612550e-01,6.594209908577000068e-01,3.264215610547835933e-01,-1.743801753870498697e-03,1.254210022453981343e-03,-1.761650422981986481e-03,5.413065915315704198e-03,6.468791977785395830e-03,6.436349884716436459e-03,5.563314779174277809e-03,7.044197084103454541e-03,-4.381064962681216479e-03,-5.996677167522893731e-04,-1.867742691375726127e-03,4.912205874915996640e-03,-7.532727708438753320e-03,6.869614868065352688e-03,1.025321533053454720e-02,1.138298957599003652e-02,1.029751179360073945e-02,1.311432539687644797e-02,-7.707982121640235586e-03,-2.646953319312585554e-03,-7.646363597875530105e-04,7.271731659356439267e-04,-1.145539458640271483e-03,4.319158825329158340e-03,4.572495358412045907e-03,4.545115964957335136e-03,4.398869367539878436e-03,5.800600341084602776e-03,-3.588504369445961843e-03,-1.816576491284332961e-04
3.312034475454506133e-01,6.580946005573375945e-01,6.117099045403007196e-01,6.224264653244175882e-01,6.161922126005064948e-01,6.173984805537637843e-01,6.227280041877925054e-01,6.099026295594124347e-01,6.604896376549699299e-01,3.234200812985479345e-01,2.763242971383558181e-03,-6.908271708851766463e-04,2.478491067120282840e-04,-3.025238377531920628e-03,-5.650309892314752530e-03,-4.228226122402520271e-03,9.169511977577271284e-04,4.005450858844127569e-03,-2.778050122558388142e-03,2.348761087622590164e-03,1.649933003832781270e-02,-4.583055872934036629e-03,4.598286588682874189e-03,-4.567245517542096317e-02,-5.467923775760741290e-02,-4.792308587910029671e-02,-3.282755530043265924e-02,-3.462113714289753036e-02,2.058052358394913198e-02,6.046176961340604672e-03,3.491583876342990722e-03,-2.865366989696899354e-03,4.712995019408945142e-03,-2.408608723203654878e-02,-2.957191786290323809e-02,-2.628945743102612323e-02,-1.869206542380177916e-02,-2.005178104324935318e-02,1.251548146369702540e-02,-7.219840836798774308e-05
3.279613772415437278e-01,6.589653893764236825e-01,6.110595834929727355e-01,6.236750977707781196e-01,6.184375058727831220e-01,6.188808813355199945e-01,6.238302359092454674e-01,6.107812661228663176e-01,6.593687897207543003e-01,3.264763263412715499e-01,-3.422200658532766754e-03,2.553392816396134538e-03,-3.834673917743800040e-03,1.508386559763467277e-02,2.197176177317022860e-02,1.916912359870134169e-02,9.099978370506101380e-03,6.421186887790112860e-03,-3.937781087879519207e-03,-8.863147047699013181e-04,2.169761982596965684e-03,3.091926507486874188e-03,-5.237067301211567605e-03,-1.793437780086116519e-03,1.885460688356968909e-03,2.565284716369263529e-03,3.310436171141136570e-04,-9.581109735462723254e-04,4.482217167960248286e-04,7.807712272046712920e-04,-1.997001430328639027e-03,2.510174837791053978e-03,-4.405499779889252357e-03,2.102896060435652942e-02,2.920994202723552549e-02,2.462651043369598267e-02,1.286880199847292849e-02,9.914345578300103740e-03,-6.364909378439215920e-03,6.237980087126296369e-04
3.322787420589663476e-01,6.578226795120190040e-01,6.118909400681227240e-01,6.222124199388779919e-01,6.151221668698236833e-01,6.167189755344902879e-01,6.225319701023246388e-01,6.097858412261168981e-01,6.606822142140000853e-01,3.227123271596608056e-01,9.215398568639218690e-03,-5.591598509442836581e-03,8.269629357028502811e-03,-3.848287693966231243e-02,-4.894621834743310973e-02,-4.346529337964234740e-02,-2.890068474639677018e-02,-3.116818704457118352e-02,1.928340699906927122e-02,5.447900661020577129e-04,8.220950928548288045e-03,-5.340200997412912487e-04,-5.521969319680682803e-05,-2.421061403028456835e-02,-3.023216594566735527e-02,-2.435687179595030435e-02,-1.308854531735151663e-02,-1.094737582154898387e-02,6.421062377034447016e-03,2.752632868913744424e-03,4.225429459062769733e-03,-3.926179845746830335e-03,6.684241244223102299e-03,-3.384932642125259433e-02,-4.265033884988643498e-02,-3.813350971201624057e-02,-2.595470376091025405e-02,-2.658050008950236728e-02,1.672743736985428387e-02,-7.470964165658816603e-04
3.272694079114977228e-01,6.591280757426910553e-01,6.109633949320710800e-01,6.237512644544764839e-01,6.185932058449904458e-01,6.191932821881824811e-01,6.240991074996949939e-01,6.107023689858224191e-01,6.594450634736808148e-01,3.262486083010003313e-01,1.918688363743360076e-03,-9.697006215404913726e-04,1.435215101130030233e-03,-8.102341355732428640e-03,-1.065608818403741657e-02,-8.994703355026074237e-03,-5.238174451265958584e-03,-4.813726141235498066e-03,2.939990317804930774e-03,4.921580122214906650e-04,4.570678218212668315e-03,8.861090334181132705e-04,-1.620363339261029524e-03,-1.912138709258399960e-02,-3.141603797860267194e-02,-2.184363984577375462e-02,-4.092035627771290623e-04,1.236600414167281052e-02,-6.702186166378145370e-03,-4.329332063910583395e-03,7.897638907327746149e-04,-6.743758217972887006e-04,1.191932482541994791e-03,-6.998283482325371591e-03,-9.524044074119379644e-03,-8.294233840654013229e-03,-4.634259836816016602e-03,-3.796932626485052028e-03,2.422062233156608603e-03,-1.734779752316645274e-04
3.289663028973685011e-01,6.586916626538121822e-01,6.112665312571917697e-01,6.232594396143414928e-01,6.173214740923422816e-01,6.182656363308552949e-01,6.236742999185155290e-01,6.107125051464059595e-01,6.594756334903830730e-01,3.261173282796190342e-01,6.657120169383662356e-03,-3.486223460489205894e-03,4.377996976211231094e-03,-2.272831669457836545e-02,-3.273760185589476984e-02,-2.769299620096595665e-02,-1.415100135658136846e-02,-9.182094736022541545e-03,5.670061939006267385e-03,8.637899220913028420e-04,1.049376251386884701e-02,2.683745566834424418e-05,-2.977179859336141678e-03,-1.301984593790845961e-02,-1.340514457774485274e-02,-1.040778031500727042e-02,-6.793107721834732229e-03,-7.134596092143487278e-03,4.130076822662318362e-03,1.982473853900820066e-03,2.684136907841881692e-03,-2.878268265524043523e-03,5.033841125056419917e-03,-2.667639777202236023e-02,-3.743199383549029868e-02,-3.096306442595914490e-02,-1.523432363535406203e-02,-1.059867170655301449e-02,6.856830022650200682e-03,-8.344983666640423681e-04
3.271424135720614190e-01,6.591847803562806973e-01,6.108976237226863004e-01,6.239627202552153751e-01,6.194665224061295383e-01,6.195276459716021478e-01,6.234778733051099531e-01,6.097092845134358674e-01,6.606543177735526573e-01,3.230065600156988292e-01,-1.098429803761667625e-03,7.241762755704979392e-04,-9.077289994605523046e-04,1.512131628423729829e-03,2.387150032800269654e-03,2.966689410722525219e-03,2.482029600772749436e-03,2.017210995492813366e-03,-3.401347371487678821e-04,-5.963114089507845841e-03,-3.459984485200958554e-03,5.465491968539027898e-03,-8.072399572570785123e-03,8.520898494922990452e-03,9.845909385714689266e-03,1.217551831041761151e-02,1.451372476177591360e-02,2.024918400267569293e-02,-1.170597597597306319e-02,-4.973074401038966863e-03,-4.236819053076247565e-03,2.023967334260259442e-03,-2.542049219809546217e-03,8.792378678716074661e-03,-8.070634654446995002e-04,5.430971775568077357e-03,2.114859058392230123e-02,3.697361102061578336e-02,-2.242279615104615306e-02,-2.191442682659344894e-03
3.277039147984250889e-01,6.590309610241285032e-01,6.110167041568190793e-01,6.237138975200540170e-01,6.191708113276976899e-01,6.192602186107356577e-01,6.235254554606920463e-01,6.103032498897669189e-01,6.599502979284530557e-01,3.249191355728493491e-01,2.790297790903248018e-03,-1.143336161363223786e-03,1.456905073685913149e-03,-7.420766747566708704e-03,-7.379873085625323140e-03,-7.610466601409219059e-03,-8.773997540032631853e-03,-1.120790646682382971e-02,6.840466122622556114e-03,2.744667245681876866e-04,4.300341351314881759e-03,2.193085340942195916e-03,-4.211088567944321764e-03,-5.689485867206616615e-03,-1.975738477087006940e-03,-1.178133397544748034e-03,-3.481815331098021479e-03,-6.474299940251838394e-03,3.533850362341707692e-03,2.726284835912834437e-03,3.817035675743509632e-03,-2.582996898536470652e-03,4.033972515482385328e-03,-1.976918215652101463e-02,-1.995716932907223851e-02,-2.004731564552145184e-02,-2.065304998128332514e-02,-2.745874595995356771e-02,1.698288466865373325e-02,1.795506160879173363e-04
3.335547853119684714e-01,6.575658627782239307e-01,6.119915538698995627e-01,6.223880543229576290e-01,6.148187562010692941e-01,6.163965061019853753e-01,6.220104379729383126e-01,6.093165237163129522e-01,6.612018437632066759e-01,3.216333510120747974e-01,-3.756859385394134554e-03,3.104171976150571152e-03,-4.786103018060768044e-03,1.952733877902620291e-02,2.581812609309384193e-02,2.284066167714730866e-02,1.601530834205546969e-02,1.735107529495057838e-02,-1.077277091219603668e-02,-3.617505219950037376e-04,-1.828492706877958562e-02,1.236326725876287815e-02,-1.693777498760028200e-02,4.427254430481403213e-02,5.694763289600046630e-02,5.199602037253733822e-02,3.814368730976111510e-02,4.267137662650346414e-02,-2.426431753032216865e-02,-1.414424801648513086e-02,-4.016886497279929802e-03,3.850350020326763489e-03,-6.437888741794538239e-03,3.029668018307027366e-02,3.869619991441584222e-02,3.396776648675040727e-02,2.204572406727044187e-02,2.182411146587326378e-02,-1.366855419805049730e-02,-1.979379066272823895e-04
3.315596625377189577e-01,6.580318219526208878e-01,6.117136472828711424e-01,6.226605370317817023e-01,6.152485292041303122e-01,6.168233968966227998e-01,6.228497272196964474e-01,6.101504740116610037e-01,6.602279523991722021e-01,3.239499872141526904e-01,-2.769775333063294320e-03,2.755809905025540310e-03,-4.435865932958903482e-03,1.834268264424946532e-02,2.744082520748326870e-02,2.291719748922516064e-02,1.174020773368645264e-02,8.886243309464764845e-03,-5.456840926307547288e-03,-8.776567220565023586e-04,-4.094839242600838147e-03,6.204459615199018306e-03,-9.376366907646788151e-03,1.465709423171026801e-02,2.118316423459099679e-02,2.008049021620887664e-02,1.452198276426435418e-02,1.590058125734164149e-02,-9.534884319882088247e-03,-2.194749385884396664e-03,-4.996660918631434800e-03,5.533705301852804778e-03,-9.574439052553535001e-03,4.639529666939518071e-02,6.162734708063031391e-02,5.354410292395444387e-02,3.228226372868161359e-02,2.937941954830009667e-02,-1.856930129247733388e-02,8.398720057939540462e-04
3.272256754357943942e-01,6.591488795295601388e-01,6.109394116945499054e-01,6.238192607887345087e-01,6.194880406615905777e-01,6.195221580453211807e-01,6.235195825267453307e-01,6.099191904768416217e-01,6.604066166370069491e-01,3.236609374033700970e-01,4.000892692798464247e-03,-1.503706188003523609e-03,1.750146046199697880e-03,-7.916143978723302541e-03,-3.514612795389707080e-03,-6.123516305671100265e-03,-1.421086247056314172e-02,-2.213616924233815370e-02,1.341229406886560067e-02,1.003042531166224716e-03,7.636562740091119850e-03,8.401395931131139076e-04,-2.649543426466615791e-03,-1.113618908464607954e-02,-5.028875565412316284e-03,-5.652516679066750538e-03,-1.234826426390713862e-02,-2.072377739877154929e-02,1.219329372409057310e-02,3.586557649065402753e-03,2.973821338374243312e-03,-1.555422199245344930e-03,2.205462713362606880e-03,-1.053899635062893053e-02,-6.979722957244392963e-03,-9.206580605983836693e-03,-1.508007218258225306e-02,-2.348595398645312443e-02,1.434790058321216630e-02,9.156763003130129891e-04
3.281369383653226501e-01,6.589228611268742597e-01,6.110834222242096381e-01,6.236825018229301687e-01,6.178306459422369112e-01,6.185921947284215294e-01,6.239509092348232144e-01,6.108117517892822645e-01,6.593376206575625176e-01,3.264950896707945471e-01,-2.693745951083719586e-03,2.265372564564131427e-03,-3.500829057157113684e-03,1.398053552554658421e-02,2.200820106317644478e-02,1.818824702376388783e-02,6.247596471500646044e-03,1.395891447845866093e-03,-8.522344192347826308e-04,-9.502060875039089471e-04,-1.839690342208936263e-03,5.225168526181872899e-03,-8.168820843229668630e-03,1.039225264623792715e-02,1.869215486998416359e-02,1.700067022850781928e-02,8.467141099965581896e-03,6.011890363139969252e-03,-3.694982941277603038e-03,-6.893767748127367645e-04,-1.398096406576253281e-03,2.507241928561343598e-03,-4.626365504755237945e-03,2.279078135157316248e-02,3.504005026558226765e-02,2.812430893540423041e-02,1.010192709078487280e-02,2.455317600571013323e-03,-1.837165502384264376e-03,8.124521082837066199e-04
3.269441661564362889e-01,6.592225026371794083e-01,6.108838859988521275e-01,6.239549677150000306e-01,6.189536166319509203e-01,6.193370156800239723e-01,6.241229096364395712e-01,6.107290187900985545e-01,6.594123248526968517e-01,3.263373261572957151e-01,-1.309383540270513124e-04,1.218664868633641523e-03,-2.403502580213556089e-03,9.555163686107256277e-03,1.805173255330428869e-02,1.373934400160380272e-02,1.354736648601497645e-03,-5.717740131916171364e-03,3.103114910015399106e-03,1.870023542825526019e-03,1.992299548380861880e-04,3.555178477164631576e-03,-4.789909822380603033e-03,-2.604359996810776384e-03,4.278490645827961450e-04,1.616192925213623616e-03,4.111629425579137360e-04,-4.282393220336375671e-04,1.223163908595736827e-04,8.066467295749272202e-04,7.650082434773851359e-04,8.635679229984467506e-04,-2.012583228532743157e-03,1.043093917561950350e-02,2.092505992350260358e-02,1.470419520067541008e-02,-1.137389067811479457e-03,-1.088143198110899310e-02,6.408375733370771238e-03,1.129203329788948384e-03
3.271009279236595235e-01,6.591924050110286037e-01,6.108958950463281301e-01,6.239492818993472856e-01,6.193424672941865161e-01,6.194898333996234907e-01,6.236651220843901777e-01,6.100211505727456407e-01,6.602495135345637367e-01,3.242032689630682807e-01,-2.647178474143245530e-03,7.509316417622267318e-04,-3.895854427036302831e-04,-2.585096291290603886e-03,-1.165873827757959655e-02,-6.264706999695875654e-03,7.923210733663111141e-03,1.901689518165550555e-02,-1.039042398890650115e-02,-7.728814873490787163e-03,-3.277190611384773675e-03,5.072247542375130265e-03,-7.351143196893899709e-03,4.751393837422842464e-03,2.174190406210349969e-03,7.404152418327451454e-03,1.580702800207477166e-02,2.537517619824443404e-02,-1.431897324969233325e-02,-8.053194019708128856e-03,-2.218007582124190136e-03,1.734107375768585441e-03,-2.698579970563433870e-03,1.148314870209902333e-02,1.123308671608122533e-02,1.145350465068349817e-02,1.235612501560089116e-02,1.664981180098778005e-02,-1.013717301144432051e-02,-1.110568304465237022e-03
3.301519043705907208e-01,6.583903430224906650e-01,6.114749019579278633e-01,6.229379518049957820e-01,6.176956418641212920e-01,6.181613155593004283e-01,6.224193564622952923e-01,6.091698966121708025e-01,6.614076684327772071e-01,3.207965682888735959e-01,5.477386671086433706e-03,-2.768831015579334073e-03,3.807080908429114497e-03,-1.768583941984778335e-02,-2.010596663348437896e-02,-1.932158520880893071e-02,-1.664290008555761174e-02,-2.176631237640910474e-02,1.398414940343421960e-02,-3.413012245809463052e-03,4.495710248850699579e-03,1.930968277802019156e-03,-3.741314093310900597e-03,-8.093529392576796072e-03,-7.371454370806310510e-03,-5.225880725584742918e-03,-3.253042466928882104e-03,-3.683298900435696271e-03,1.762924237279027938e-03,3.254278568386351211e-03,6.745044859374396684e-03,-4.942185186029643060e-03,7.854832602576944031e-03,-3.795328794989803051e-02,-4.050131653258783049e-02,-3.967279735870381241e-02,-3.750420333213183577e-02,-4.791743220182514973e-02,2.974640055231239991e-02,-1.248324813842294212e-04
3.282390964216529428e-01,6.588895603932106715e-01,6.111164366776945522e-01,6.235735766109449241e-01,6.180281477017339764e-01,6.186672524628109571e-01,6.238150649209053267e-01,6.107728625330127725e-01,6.593823904202900099e-01,3.264264247478987357e-01,-4.539465827621158578e-03,3.507585402735297064e-03,-5.367244134041141215e-03,2.229601972536093130e-02,3.164310188827290649e-02,2.745073688587612235e-02,1.476113854283469390e-02,1.138827710762325279e-02,-6.787094772757979594e-03,-2.597327653261996550e-03,3.091516330497194598e-03,2.597848415500052157e-03,-4.583486113078016899e-03,-4.671409449199744740e-03,-2.286752458321995342e-03,-6.632371162557026620e-04,-8.968075482246912374e-04,-1.627912427253143911e-03,9.128993137323130258e-04,5.641238123403379337e-04,-1.210177359292734234e-03,2.136763710776343889e-03,-3.920442792945158864e-03,1.908663146460139182e-02,2.859882133154317829e-02,2.301652307849897175e-02,9.060287883369684894e-03,3.561215336477891076e-03,-2.452565581998947600e-03,6.405007581081062495e-04
3.309764338163314612e-01,6.582075433510921059e-01,6.115674247814583131e-01,6.229617721037109535e-01,6.166302600371675879e-01,6.174563690557417495e-01,6.226130697111598167e-01,6.096996868641606504e-01,6.607379359979355105e-01,3.227262744559364904e-01,-7.647186733065892972e-03,5.213942142636533716e-03,-7.745708274179350684e-03,3.226658754992861589e-02,4.068037158496150274e-02,3.768803523899966201e-02,2.679645419979122950e-02,3.024069385404479227e-02,-1.815974808617262792e-02,-2.976292867825150457e-03,-7.611199676998983699e-03,7.825640172713163242e-03,-1.141509165135788997e-02,2.277715969540045418e-02,3.077072411677934591e-02,2.955927261312290069e-02,2.207527521191145897e-02,2.509366543058002066e-02,-1.458862902131702333e-02,-5.993145248894951593e-03,-3.399849985937349051e-03,3.016991723157842753e-03,-4.933337571828005398e-03,2.263697730946724607e-02,2.734279451792124074e-02,2.474502317572316312e-02,1.796385115771471919e-02,1.972016645053903047e-02,-1.225172443797316151e-02,-6.127225893653304167e-05
3.274141236700710555e-01,6.591043928644020333e-01,6.109657043822421807e-01,6.237999143917369871e-01,6.191556542523880546e-01,6.193820562368543836e-01,6.235103984498082674e-01,6.097308652540949225e-01,6.606193495743831745e-01,3.231238216841394451e-01,-5.227716546706317677e-03,2.416759090448424886e-03,-2.893728146152198342e-03,8.497195642396964538e-03,2.589217677437981140e-03,5.810934373390461150e-03,1.490914470925672371e-02,2.676968713483168436e-02,-1.577065903431356525e-02,-3.930898493438222951e-03,-6.288754554106355116e-04,3.574411305235207330e-03,-5.244310178216783636e-03,-4.342383193187080055e-03,-1.158574442676882019e-02,-4.008295234569113526e-03,1.089232126080695758e-02,2.317488138914119977e-02,-1.313648920076813074e-02,-6.326390629852816916e-03,-3.104331723168759355e-03,2.458611336004645417e-03,-3.877534533571656231e-03,1.710147714596575372e-02,1.829759696873484859e-02,1.841208253339821077e-02,1.745163927156441128e-02,2.218035948964362791e-02,-1.368314837287634006e-02,-4.725860666682096811e-04
3.272853925633896210e-01,6.591494988338104655e-01,6.109215869505644214e-01,6.239206115290184540e-01,6.194585550775406624e-01,6.194930984719726474e-01,6.234922087437473337e-01,6.099239365710876770e-01,6.603775099035813501e-01,3.238569325754578898e-01,-3.636401442235599746e-03,2.145765808088679304e-03,-2.906038594217434917e-03,9.804323297319608374e-03,9.154138007675468799e-03,1.002574812052898362e-02,1.264015019982425193e-02,1.734226002606251843e-02,-9.538650416469278415e-03,-7.418094338514355512e-03,-3.171753472179825867e-03,5.178006878495583325e-03,-7.612044651693705179e-03,6.178589641686197190e-03,5.048704702943412892e-03,8.720746607761630659e-03,1.473376006736903249e-02,2.279969228994162614e-02,-1.302471156941577800e-02,-6.292711801276069244e-03,-2.954029270753691545e-03,1.563870838374396138e-03,-2.063476302366479796e-03,7.314703069630411336e-03,1.357417298855191547e-03,5.239059586316028617e-03,1.512490648452562494e-02,2.548846035878557167e-02,-1.541899141958121000e-02,-1.798510910469681111e-03
3.269266700243125268e-01,6.592309043373268951e-01,6.108765296075656659e-01,6.239463593276817210e-01,6.193194179772523178e-01,6.194961669918505054e-01,6.240310699447753073e-01,6.107568814920159017e-01,6.593725193199035939e-01,3.265103240007471985e-01,-6.899442951280882613e-04,1.457029182896411000e-04,8.736638840137612820e-05,-3.213787855930814140e-03,-9.926772746002072989e-03,-5.937896499431254832e-03,4.349978757885938907e-03,1.221236244053210476e-02,-7.076016455620136314e-03,-2.318913434904468912e-03,3.186101470586837937e-03,2.452882188048509035e-03,-4.340024659759376090e-03,-5.929955100280182370e-03,-5.693400382978730696e-03,-3.142964542152120767e-03,-1.963239942438614865e-04,1.404868769298567212e-03,-7.896376129952799045e-04,-2.201692394281466736e-04,3.722440087758904781e-04,-7.062275777134463355e-04,1.417971434514153032e-03,-8.646065312264746699e-03,-1.390828628196899910e-02,-1.068786001545676823e-02,-2.750261273127433369e-03,1.043382199891660766e-03,-4.789972454210715894e-04,-5.596510762278239515e-04
3.268854818677847662e-01,6.592484023631870471e-01,6.108576556468754415e-01,6.239880224723370894e-01,6.195443738362886865e-01,6.195903252103140968e-01,6.239579989460082299e-01,6.107041730636471044e-01,6.594338271688642283e-01,3.263731073883731071e-01,-3.799443380753685963e-04,3.827856283285360805e-04,-7.355900804653689017e-04,-5.405617064561923230e-04,-5.015277700234699494e-03,-2.121665408775871668e-03,5.188190902094732757e-03,1.134009062479138935e-02,-6.534610331276288243e-03,-2.536022562920118260e-03,3.581041397670913212e-03,2.669854540822159342e-03,-5.402105957358734750e-03,-3.008027914521376085e-03,-3.529645151816564186e-03,-2.160441025513670094e-04,4.239623396672896442e-03,8.243463183186128945e-03,-4.729608854924155503e-03,-1.951750038718275473e-03,-6.402752719192311009e-04,6.831581130767824285e-04,-1.153365142798323025e-03,4.138315873374844717e-03,3.590802583720521281e-03,4.089391393959427960e-03,5.223624848381644079e-03,7.532008969875077578e-03,-4.636616762459348784e-03,-1.405285388654652773e-04
3.276255384447371855e-01,6.590382979480151615e-01,6.110230468512176660e-01,6.236785812706600041e-01,6.183979524316173260e-01,6.190170032460673433e-01,6.239417157715853035e-01,6.105890083145750769e-01,6.595923214829246817e-01,3.258412846774993987e-01,2.712639734356862842e-03,-2.190211389117196865e-03,4.035163737429750541e-03,-1.907105371149122111e-02,-2.458807050153299228e-02,-2.196924505312626563e-02,-1.442072571571876433e-02,-1.432479902182932571e-02,8.778374038100252366e-03,1.089376098364784606e-03,2.254164194888733097e-03,2.023218270130886648e-03,-2.815643742306841047e-03,-1.313812974867503702e-02,-2.084258246235636686e-02,-1.334830631067474710e-02,1.526816510485942864e-03,1.078921229485989113e-02,-5.906610532813869920e-03,-3.692102579128331286e-03,-4.781042407054521270e-04,-6.185005937077965935e-04,1.593109431366328613e-03,-1.005505971058970327e-02,-1.914745916127155376e-02,-1.411889191517313145e-02,-3.463837551748259053e-04,7.988598142762801113e-03,-4.684601784342368874e-03,-7.805218464439558912e-04
3.311788880932164947e-01,6.581072179015312607e-01,6.116935941664133347e-01,6.224886681050083581e-01,6.160466714953154455e-01,6.173289698719836016e-01,6.228868646911187579e-01,6.100802197328893950e-01,6.602907745687889296e-01,3.238595319707764375e-01,9.195444226948110145e-03,-4.603940300845986953e-03,5.796512858611764345e-03,-2.815944645061699281e-02,-3.605353871725970605e-02,-3.218449968745128870e-02,-2.025767408249581208e-02,-2.107916706860327172e-02,1.323609830925960226e-02,-6.825442921874133595e-04,1.421534234736133301e-02,-2.976400549474664259e-03,2.157405852196808173e-03,-3.484652914296773596e-02,-4.205751873620419690e-02,-3.577947852977444998e-02,-2.286981955446735701e-02,-2.281128139383637593e-02,1.379049973144611668e-02,2.830385860265169362e-03,3.204572255853355145e-03,-2.872915451339752221e-03,4.837155086539781518e-03,-2.500850506045501284e-02,-3.175261575195123531e-02,-2.801494462085943674e-02,-1.859718792911182333e-02,-1.875560933986005277e-02,1.178074687870052373e-02,-3.589133127309962479e-04
3.277359950667956268e-01,6.590333785421468304e-01,6.110027599051676139e-01,6.237933300438091022e-01,6.190116569815842240e-01,6.191600740293918825e-01,6.236728290663879903e-01,6.105999381643407720e-01,6.595786664886161832e-01,3.259794460072371614e-01,-2.558301550197901800e-03,1.711533074634217751e-03,-2.405571014402763282e-03,8.149286858214843318e-03,1.036671297231065575e-02,9.780431541639557011e-03,7.162955466595221157e-03,7.526725264224282813e-03,-4.045179089876461617e-03,-4.177732340066873939e-03,-1.137258194431235367e-03,4.584157171891095270e-03,-7.108468686769777931e-03,5.290474821233142125e-03,8.742194571764509009e-03,9.738238353089585103e-03,8.463824766214930045e-03,1.030789681739151080e-02,-6.005953248960838563e-03,-2.368860224864148545e-03,-2.615701492510863480e-03,2.407488971171788984e-03,-3.955914305650109000e-03,1.799149146807823077e-02,2.157873701794277982e-02,1.986615865303172773e-02,1.526233139610205444e-02,1.719080209646824814e-02,-1.065103616784359754e-02,-3.694364779422282252e-04
3.272347741173540214e-01,6.591468983349688671e-01,6.109412627341188617e-01,6.238095880644901614e-01,6.194434123946668258e-01,6.194993576575343885e-01,6.236826727191358000e-01,6.102655030103089073e-01,6.599814389421035932e-01,3.248560794012980146e-01,2.725892359299182579e-03,-7.274042056980133814e-04,6.364690061965987567e-04,-3.225764088614980259e-03,6.411727993985351804e-04,-1.446817510723255769e-03,-7.730187755829464463e-03,-1.394517664281817032e-02,9.081359272163346333e-03,-2.981731818086315756e-03,8.431284886325302041e-03,2.907616821375934302e-04,-1.813644099145251577e-03,-1.496461100304597412e-02,-1.177098998196290242e-02,-1.087433708380702684e-02,-1.310753107696836957e-02,-1.935671497337691782e-02,1.164948369433502565e-02,3.486341672500278127e-03,2.473610553854827671e-03,-1.144262922202879873e-03,1.536649008419658808e-03,-7.355766158396951498e-03,-3.661047744331448646e-03,-6.094618535228021189e-03,-1.204031573493767951e-02,-1.953277234804848619e-02,1.195429965403606125e-02,9.046573483526181361e-04
3.323807866631841579e-01,6.577880291587774320e-01,6.119234720999062738e-01,6.221348559605398565e-01,6.143708240907967966e-01,6.164307273497664497e-01,6.229225902464309295e-01,6.102511870387070658e-01,6.601030932998186440e-01,3.242923254914784614e-01,9.454162221494769036e-03,-5.960991787130737879e-03,8.994745101391331266e-03,-4.244972121343651428e-02,-5.717177042061274972e-02,-4.928474031036744751e-02,-2.793611129803089815e-02,-2.441089552247421857e-02,1.502283231938842875e-02,1.925240715382109391e-03,1.013062986130714577e-02,-1.969756264618854197e-03,2.231520675016683032e-03,-3.467294010375264468e-02,-4.552057000860708358e-02,-3.726457081681401606e-02,-1.910825552247230955e-02,-1.410403849779781789e-02,8.621313465437763224e-03,1.820936171479076160e-03,2.240197278022555694e-03,-2.249624769181631130e-03,3.932538507679429057e-03,-2.059968204018788884e-02,-2.649619712194004745e-02,-2.338980776073119189e-02,-1.510948852662299252e-02,-1.483753862219702041e-02,9.353096388549768728e-03,-4.098791139360916103e-04
3.317277656438303302e-01,6.579901402784504860e-01,6.117455709152429533e-01,6.225625939045875690e-01,6.163498850259625517e-01,6.172614769676227908e-01,6.220075223370636897e-01,6.091001402428171119e-01,6.615133856858760319e-01,3.205396950960059943e-01,-2.391327608694496232e-03,1.708820544014169650e-03,-2.408087408875929369e-03,7.872497121275598073e-03,9.066007831762364771e-03,8.610244470983640513e-03,9.479487383285134516e-03,1.172492658562514396e-02,-6.224042759925335275e-03,-6.446670383924555173e-03,-1.862426533075490359e-03,4.940447542458111137e-03,-7.563226063280231899e-03,6.924651504946366387e-03,9.978787278235264069e-03,1.119720724632364967e-02,1.103822261531452013e-02,1.385850719814939354e-02,-8.361064561759111100e-03,-1.369070438707622323e-03,-7.290709350400312316e-03,6.460341702991609023e-03,-1.064152639825252482e-02,5.011664585776243880e-02,5.878627606049718901e-02,5.466786865552226288e-02,4.407124561598008139e-02,5.106878068796946030e-02,-3.167748475920470486e-02,-5.974963950518413780e-04
3.284318263077294908e-01,6.588241601002778891e-01,6.111819152999568017e-01,6.233685198623234447e-01,6.179333905845620922e-01,6.186845147223456465e-01,6.237778218505145578e-01,6.107288033125956028e-01,6.594363112991784570e-01,3.262837081389211580e-01,3.647645269190046696e-03,-1.910853560712391132e-03,2.731433111079954821e-03,-1.357890401622739371e-02,-1.663209033233011003e-02,-1.510061577136332170e-02,-1.109650040610861421e-02,-1.223988871023506432e-02,7.388632296912488531e-03,1.407562363334766142e-03,8.668119046116778970e-03,-1.057452281688716147e-03,8.472181405998879117e-04,-2.863908380856521746e-02,-3.824457884524913587e-02,-3.015241747136864978e-02,-1.353421315031349062e-02,-8.141682761086014436e-03,5.033074636676350758e-03,1.088244261870666141e-03,7.031188374288267762e-04,-8.719837513626615445e-04,1.636599576238636751e-03,-9.510353322813993454e-03,-1.420069680169900109e-02,-1.168722049830279650e-02,-4.765848187274974654e-03,-2.019279122785403065e-03,1.397075811723900995e-03,-4.485000226976398885e-04
3.295647488402704273e-01,6.585450812075117621e-01,6.113618177194640735e-01,6.231520058542823204e-01,6.173706856024736567e-01,6.181556720133739580e-01,6.232312210146082609e-01,6.102712438594040112e-01,6.600167022706048270e-01,3.247060516150253040e-01,8.921421470003597365e-03,-5.177307160250057064e-03,7.551551588646770313e-03,-3.499318742980529751e-02,-4.333788414477126455e-02,-3.936399476353494298e-02,-2.867789183910086914e-02,-3.099377482071728751e-02,1.860205570877966272e-02,4.264069100514356059e-03,3.127223847613088813e-03,2.467265833870732616e-03,-4.325772552083814726e-03,-5.955190797105068545e-03,-5.573040536215510821e-03,-2.382708704122534459e-03,4.481252337918298183e-04,2.115891173659918863e-03,-1.257799753980385271e-03,-1.051874056057933854e-04,1.623403592492259073e-03,-1.793430861889411775e-03,3.224673731055790939e-03,-1.743878096942446526e-02,-2.526345416065867155e-02,-2.056523913419825572e-02,-8.190389833792372995e-03,-4.752346915505064294e-03,3.297445310377676228e-03,-1.390123807587254068e-03
3.285332673574249407e-01,6.588217684620106818e-01,6.111554620206678390e-01,6.235430355403738245e-01,6.180974197777304724e-01,6.186047354936617948e-01,6.235960495158555661e-01,6.106066538503611696e-01,6.596017026332562372e-01,3.257996550800488222e-01,-3.317943139124868157e-03,2.544082586524421506e-03,-3.823810134132079545e-03,1.505721896841986755e-02,2.166759659475650523e-02,1.909325911481342397e-02,9.835996307505260466e-03,8.017650499036552830e-03,-5.154424917331965061e-03,8.494081188919547221e-04,-8.316278980000785248e-05,4.271743726643667700e-03,-6.863641283179224180e-03,4.790196967465898230e-03,1.022244937096857334e-02,9.835769181158636118e-03,5.272805599811154070e-03,4.347876877369736409e-03,-2.763939427624598905e-03,2.719266766534091107e-04,-3.151133595588745395e-03,3.266260567115099669e-03,-5.547100465579946245e-03,2.618991717760768556e-02,3.383351721633325038e-02,2.975891510113017752e-02,1.912200581041800102e-02,1.879160896014701876e-02,-1.187557809261109709e-02,7.686073496266793148e-04
3.281119125525905345e-01,6.589278102815241400e-01,6.110826138056760781e-01,6.236649146059176640e-01,6.179893140272170182e-01,6.186705790512168068e-01,6.238842870750994640e-01,6.107522395442708252e-01,6.594059907241244245e-01,3.263402654576108564e-01,-2.762913366066488408e-03,2.696435511559844463e-03,-4.362661238632793530e-03,1.841945209622198806e-02,2.955082881381341370e-02,2.390108395046710785e-02,7.814827260978542481e-03,3.384866721263795480e-04,-1.732854894067933221e-04,-1.417822062427777363e-03,-1.274424372015562149e-03,4.643895914702520639e-03,-7.201094599020103383e-03,5.586246192438234191e-03,8.887037901055433800e-03,9.769333946503113569e-03,8.688421417503873478e-03,1.081220211098944325e-02,-6.271599447495519904e-03,-2.605302675838394241e-03,-1.627644553796998850e-03,2.381290307084617600e-03,-4.275614417463357783e-03,2.063674361163872484e-02,3.031553553069243553e-02,2.510618673128092032e-02,1.113398640642998018e-02,6.132859783463960428e-03,-4.006465347433530583e-03,3.543171055528301916e-04
3.279585459619256405e-01,6.589893151088376255e-01,6.110193573303344117e-01,6.238237386113838490e-01,6.190427974645225095e-01,6.191233875383999052e-01,6.234559207836301020e-01,6.102564004212933657e-01,6.599885773793676691e-01,3.249138226929515483e-01,-3.336591984555967866e-03,1.872624142144010354e-03,-2.461976850198902434e-03,7.826774449443608950e-03,6.857603884757933026e-03,8.226512327901225330e-03,1.043906353094688211e-02,1.531238350748963944e-02,-9.267924470732718731e-03,-1.115798903946819617e-03,-6.939670822553572344e-03,7.236280781106513987e-03,-1.048365479877018218e-02,1.833404389793258024e-02,2.302205220305025141e-02,2.377236139235176793e-02,2.137202183750208997e-02,2.696609826164559146e-02,-1.555407296349326646e-02,-7.123189745086605518e-03,-9.396630577239812807e-04,7.512548368292947974e-04,-1.132214674918315123e-03,4.110090924781250113e-03,3.726560852748321898e-03,3.876774554128078424e-03,4.538193373918704421e-03,6.443845740094841443e-03,-4.000599833506876014e-03,1.285530614645669437e-04
3.279356349284259231e-01,6.589818787375771869e-01,6.110389774555733400e-01,6.237326216581167149e-01,6.189289833643836225e-01,6.190948763640086172e-01,6.235489836791413554e-01,6.104621362512823168e-01,6.597474000034593278e-01,3.255311176205453183e-01,-4.783157871777771186e-03,3.156038061757327449e-03,-4.559766009337089081e-03,1.764536497878817223e-02,2.072401515922495802e-02,1.969191987788457970e-02,1.666803255596775724e-02,1.941189173184005440e-02,-1.131716004878839492e-02,-4.530424335812584247e-03,-8.400188333218157333e-04,4.388729958442844255e-03,-6.845482282408170589e-03,3.965146391316508832e-03,6.305021115591295279e-03,7.961886091323649647e-03,8.460562037154485682e-03,1.128337331219843309e-02,-6.545793601816546521e-03,-2.632654577217515002e-03,-1.999161499956717686e-03,1.881320130477341299e-03,-3.087301700489718508e-03,1.378254866196360409e-02,1.637690872619135957e-02,1.506340012681506822e-02,1.175427723481311040e-02,1.331877272257276854e-02,-8.248822980249273518e-03,-2.417558724801677217e-04
3.271423189066823278e-01,6.591694717046374663e-01,6.109261315216629740e-01,6.238353808015544288e-01,6.194627285206271150e-01,6.195384439020232836e-01,6.236354605824813158e-01,6.100308798542097843e-01,6.602587146055778344e-01,3.241017051980670249e-01,4.466721156421916104e-03,-1.685783306986978532e-03,1.968269941760746565e-03,-8.831447965015670754e-03,-3.933236955414920466e-03,-6.479615949653280693e-03,-1.444333079741042490e-02,-2.387740890969211952e-02,1.419316280824168240e-02,3.146908246153093044e-03,8.033581603663013382e-03,5.095120947333038261e-04,-2.117406958046826396e-03,-1.361457100964796885e-02,-9.758186309264723496e-03,-9.437275100304313644e-03,-1.287657097327402772e-02,-1.940900086033287703e-02,1.156219948804915014e-02,2.548124605532412976e-03,2.131084577290299868e-03,-6.077644509289953194e-04,5.454776773782524972e-04,-2.248945621047778332e-03,4.088869412710864799e-03,2.447257059763213467e-04,-9.553788794532469889e-03,-1.851440078505360923e-02,1.121984218874301324e-02,9.820995308446123576e-04
3.293634554707446371e-01,6.586120877983255850e-01,6.112988831452363936e-01,6.233116091397062908e-01,6.184279085004820153e-01,6.186267158753204765e-01,6.224086451927530739e-01,6.087672075550328854e-01,6.618669328499111604e-01,3.196164952219924249e-01,-5.829391026735884079e-03,3.659915131128973695e-03,-5.191251475234115974e-03,2.007523254100238713e-02,2.277534408095342050e-02,2.240632364306910373e-02,2.018054192940842151e-02,2.633289933797821128e-02,-1.582478463264309215e-02,-2.659768991223304679e-03,-3.081963269330384447e-03,5.374522434800257931e-03,-8.021476988899763766e-03,8.517958386392091019e-03,1.043621973179684886e-02,1.194117036223199882e-02,1.300552053187914447e-02,1.785154899545352003e-02,-1.080757509708494754e-02,-1.358225481053486339e-03,-6.202221282296666027e-03,4.222121218190928553e-03,-6.381004594286990295e-03,2.788150826763282145e-02,2.456337750983644819e-02,2.728329138546729815e-02,3.403638834853723455e-02,4.860649358755368687e-02,-2.994201578851540119e-02,-7.566870669439978991e-04
3.323011330666401086e-01,6.578173745990117949e-01,6.118955527871677846e-01,6.221907001653644853e-01,6.154209406162990392e-01,6.168468617157156775e-01,6.223236743645328417e-01,6.095313316716892693e-01,6.610014191623316826e-01,3.218328190335635330e-01,9.176862777422981066e-03,-5.453856910253782053e-03,7.993182350768950062e-03,-3.698089228781577253e-02,-4.548267610781971115e-02,-4.104501323821393988e-02,-2.969683513635286431e-02,-3.395505766242609691e-02,2.128038352978608300e-02,-1.322058013023638678e-03,9.647877772630902848e-03,-1.312212408753623064e-03,1.016314648545447313e-03,-2.872540622595223109e-02,-3.488598160276026872e-02,-2.901077706223966282e-02,-1.812724262173556755e-02,-1.749490375115128962e-02,1.071104363959839330e-02,1.394422359693003877e-03,4.153779171073547494e-03,-3.700398499515582251e-03,6.237660881254299475e-03,-3.145520394037285700e-02,-3.847047634917410974e-02,-3.502338657070946937e-02,-2.554143485038715480e-02,-2.771607196847905227e-02,1.732173752653484028e-02,-2.459501027418653507e-04
3.279789604174931927e-01,6.589524292507404901e-01,6.110810565692945673e-01,6.235538767432146079e-01,6.187412547510553473e-01,6.190590247472071983e-01,6.236878311536228070e-01,6.106345485617570290e-01,6.595390499989302047e-01,3.260784088842907380e-01,4.599442331759632380e-03,-1.991535576674270842e-03,2.228406161710332675e-03,-1.207796409979374971e-02,-1.549668163737188270e-02,-1.381644786547859931e-02,-9.084071334299047631e-03,-9.414395942533862471e-03,5.808765593575973551e-03,1.323805974304145122e-03,1.110176531759902996e-02,-8.766259848668814247e-04,-9.445292091167581394e-04,-2.063831935181788951e-02,-2.302076269364356637e-02,-1.915869678658616015e-02,-1.311115654475028189e-02,-1.405624698072810777e-02,8.280150490842410130e-03,3.012001629120686363e-03,2.015299393305379494e-03,-1.432395689670373264e-03,2.249408724356431223e-03,-1.206021720131171884e-02,-1.445860346133303991e-02,-1.300352703294200586e-02,-9.628686967040762587e-03,-1.075593229879145962e-02,6.688494999070085031e-03,1.731315303424053875e-04
3.298376270222752593e-01,6.584787148362423181e-01,6.114049455129572097e-01,6.230838878861915120e-01,6.180753078010985391e-01,6.184460746740114701e-01,6.222343013076203633e-01,6.084095491792395061e-01,6.622830219976711952e-01,3.185592974258362187e-01,-1.152315664773302661e-02,6.276772045332924821e-03,-8.497639506862523714e-03,3.296836915590976858e-02,2.979475571809729259e-02,3.249775157734775821e-02,3.994595351207394507e-02,5.874581316307420781e-02,-3.525570461849165949e-02,-5.872095580952411964e-03,2.500542738160465607e-03,2.521054008337141744e-03,-4.176532169631813098e-03,-7.286024266913902758e-03,-9.504878189697356372e-03,-4.649126922739994609e-03,2.171338760026307602e-03,6.846573780851997540e-03,-3.936112002312541075e-03,-1.376339208067770339e-03,-3.049298095426047905e-03,2.830251509578765243e-03,-4.665699781919972061e-03,2.139808098263165995e-02,2.565354681547877061e-02,2.414130077583986206e-02,1.870954791694690728e-02,2.085169964485803981e-02,-1.303769749538660240e-02,3.176408568240710051e-04
3.320239849051545011e-01,6.578725384968284740e-01,6.118685803716340521e-01,6.222287515709612471e-01,6.142782557423629441e-01,6.164413794593114337e-01,6.229852231815256047e-01,6.101657076450354156e-01,6.602296629712129938e-01,3.238067947919702760e-01,3.861919558969854893e-03,-2.204228568112029125e-03,3.202343021215752535e-03,-1.547915116836134572e-02,-1.846185900447934458e-02,-1.574849222345418506e-02,-1.275754646067990550e-02,-1.563399687405240754e-02,9.975854340472274651e-03,-2.056643977657819644e-03,6.252087128364929719e-03,1.517555892288531549e-04,-7.322261621679603677e-04,-2.243405556708783291e-02,-3.277009003620850319e-02,-2.402652420866535979e-02,-5.587472592595714264e-03,3.281145567676935042e-03,-1.657259488095095060e-03,-1.067491680668081200e-03,5.233034107558667825e-03,-5.698667310457873961e-03,1.000030042556570437e-02,-5.098751140994024766e-02,-6.889277654206757417e-02,-5.960238943272468809e-02,-3.420282301130228575e-02,-2.927302354239991189e-02,1.866657440219824174e-02,-1.595836612397510956e-03
3.310242762058354105e-01,6.581523839218901273e-01,6.116561552609972585e-01,6.225868415102796538e-01,6.164211212953190078e-01,6.175064034358577203e-01,6.227060477238504088e-01,6.099065841103985530e-01,6.605144494551886680e-01,3.232246502980571368e-01,8.724073097588304349e-03,-5.310721457481687099e-03,7.892307819823411730e-03,-3.685529510167026568e-02,-4.576969149485200089e-02,-4.156234654459790151e-02,-3.024414162095595549e-02,-3.159476044140914486e-02,1.976390757263224440e-02,-8.895456749124230900e-04,1.064093780556995411e-02,-1.795895615927314837e-03,1.646563961984011740e-03,-3.120456054150288344e-02,-3.721710070199005932e-02,-3.189336329901865802e-02,-2.163902846946457945e-02,-2.137901094203262242e-02,1.326429601499005441e-02,3.108724209550800532e-04,1.150331546840173066e-03,-1.126440345333898883e-03,1.982851601529956372e-03,-1.080501277826176158e-02,-1.243142518848484694e-02,-9.802961409148505667e-03,-7.986414010059009888e-03,-1.291846995032148483e-02,8.081963382473120183e-03,1.507531167578429754e-04
3.318655297054268205e-01,6.579328235874501996e-01,6.118120993678053399e-01,6.223009182679056783e-01,6.157476048589995976e-01,6.170583844896719850e-01,6.224582375735738804e-01,6.096399743890628109e-01,6.608562139376144007e-01,3.222596321279418419e-01,1.040361040040682639e-02,-5.400598368257938410e-03,6.999975861852623417e-03,-3.320945613874054514e-02,-4.049123932388222491e-02,-3.690460252653270101e-02,-2.711016053802951103e-02,-3.153060705785237783e-02,1.975520296425620909e-02,-1.249431148678453729e-03,1.536719269936976523e-02,-2.625688772176244974e-03,4.330288692142320733e-04,-2.827037061893452122e-02,-3.305806281038944916e-02,-2.767604791053656504e-02,-1.848709624771885732e-02,-1.915383524765928991e-02,1.162512191890265924e-02,2.073247413455242549e-03,4.347727301661295785e-03,-3.834348422910260207e-03,6.410088021678042591e-03,-3.258480780654311043e-02,-4.078041178329591676e-02,-3.651792582523184783e-02,-2.521787951849478737e-02,-2.620670833824258888e-02,1.642698716812291543e-02,-3.924862139436935404e-04
3.340393380177266724e-01,6.573676437648688919e-01,6.122115202455422622e-01,6.216828238720795152e-01,6.141366206614938816e-01,6.159765299318959997e-01,6.218010599361094570e-01,6.091241310615519433e-01,6.615042277293055051e-01,3.205252349275280466e-01,9.429486958959065745e-03,-6.628845213968812683e-03,1.026817926853365245e-02,-4.837336801660289953e-02,-6.180438691283633712e-02,-5.457124073189432295e-02,-3.876461654827291492e-02,-4.163436194625148856e-02,2.645065320932283096e-02,-5.706989786096863804e-03,8.285706099855280615e-03,-9.243911213562879675e-04,6.844847520286589243e-04,-2.765213359909710414e-02,-3.379267302773837633e-02,-2.834319857562155737e-02,-1.938851417402587263e-02,-1.869942154310268168e-02,1.274242003904877546e-02,-7.028249908396552725e-03,9.693683079004956904e-03,-4.911721796261977330e-03,6.893166900239283343e-03,-3.192193885218649885e-02,-3.557467316549306480e-02,-3.395250900502504166e-02,-2.378237867975128983e-02,-2.854548648602631133e-02,1.471579494974888276e-02,1.996041249663507711e-02
3.296620253294376690e-01,6.585110950477864877e-01,6.113952062511669450e-01,6.230450242638474467e-01,6.169853427414840885e-01,6.179949151555403919e-01,6.233433850742747806e-01,6.103918984171110562e-01,6.598722695559581242e-01,3.250741385824187368e-01,8.509712392392045077e-03,-4.519585034620756357e-03,5.959960895493658650e-03,-2.920078769069839320e-02,-3.928750869402392043e-02,-3.374978524070407215e-02,-1.943461861666104934e-02,-1.686266659222469821e-02,9.837995297847457188e-03,4.827798320387780007e-03,7.971267566744171321e-03,4.607129598115317429e-04,-2.625236657950505686e-03,-1.499836792719494438e-02,-2.124597283387243130e-02,-1.535299875287685599e-02,-2.979345546361628679e-03,3.434535087253827272e-03,-1.929361014936029073e-03,-3.365388800094515354e-04,3.709867815514897305e-03,-3.075979536347864945e-03,5.091843468899605318e-03,-2.584541025624935429e-02,-3.190539323345816664e-02,-2.895908426355293941e-02,-2.073801423051018986e-02,-2.206009440050011108e-02,1.376089931487582511e-02,5.180714604182540262e-05
3.333702385572220317e-01,6.575693514749513247e-01,6.120400863559684046e-01,6.220673170885959724e-01,6.158823834005215936e-01,6.168197650299271917e-01,6.208210057244345492e-01,6.072376686883275143e-01,6.637917294178656835e-01,3.143823729231860487e-01,-1.658418817858064997e-02,9.445716008068370459e-03,-1.321307343927271248e-02,5.426334749216584624e-02,5.771664396577122491e-02,5.713716434880784095e-02,5.579392531118410048e-02,7.354435514357170189e-02,-4.461622168187211190e-02,-5.811186961967529374e-03,1.344201460275373967e-03,2.841936639996545111e-03,-4.457706925071691639e-03,-6.814273777356802224e-03,-1.072933508108860588e-02,-4.924712941217808913e-03,4.315874082501093556e-03,1.155268926545354943e-02,-6.160958518524347824e-03,-5.462354140547943937e-03,-2.855191302631142347e-03,2.708078491782754324e-03,-4.482074208143485040e-03,2.055991084065546953e-02,2.544573721183621129e-02,2.403449090113202527e-02,1.765633082963011594e-02,1.857974618617504875e-02,-1.160829548602704091e-02,5.985119439535363517e-05
3.340293408659006369e-01,6.573475827602814903e-01,6.122475669597883252e-01,6.215501617473768725e-01,6.135220732034931679e-01,6.157209910106007378e-01,6.219635681098534263e-01,6.093485421782005584e-01,6.612712420417438119e-01,3.209794780069701314e-01,2.472014427719278207e-03,-2.030510118315082685e-03,3.334010119515779750e-03,-1.718993107305908166e-02,-2.424536151355800861e-02,-1.857399722768159761e-02,-9.768658455874049823e-03,-7.402152390826016032e-03,5.681179791015351921e-03,-6.716529614665137093e-03,1.112203022721659773e-02,-2.765400309866340375e-03,3.468140052039497476e-03,-4.047799857698611975e-02,-5.342282838031557624e-02,-4.490889683710453523e-02,-2.383888196484876959e-02,-1.873362181999865816e-02,1.158185795119993922e-02,1.537179257675977406e-03,6.795619161775193207e-03,-5.963382008224573511e-03,9.966986884806860320e-03,-4.940385121564750542e-02,-5.935567058661942591e-02,-5.432468850206417788e-02,-4.113366034692415851e-02,-4.597205080491936768e-02,2.864174697414222787e-02,-6.421988439174464158e-05
3.293024450324256724e-01,6.586234098981282870e-01,6.112903232354437444e-01,6.233715905299085369e-01,6.169299901840533673e-01,6.179354502564260443e-01,6.236286285567056442e-01,6.106567184633624468e-01,6.595620245746767196e-01,3.258045367702253614e-01,-9.327159429463022233e-03,4.568053207981348160e-03,-4.547276030755109666e-03,2.116513501581710269e-02,3.104467643469285137e-02,2.668344967431295414e-02,1.213499525435914050e-02,8.493389122138289560e-03,-5.645214004143497138e-03,1.753532633490560710e-03,-7.122675769494699050e-03,7.310447361895521662e-03,-9.927791172076833731e-03,1.881855093303096138e-02,3.011222250212676477e-02,2.665831909499868924e-02,1.369313815929686269e-02,1.058572499491410718e-02,-6.558817226301969991e-03,-6.721017702897430501e-04,-3.590419058905086613e-03,3.272160356359921259e-03,-5.129248439777454351e-03,2.508350028935778589e-02,3.491734349121056874e-02,2.939457756853580683e-02,1.504183787912667658e-02,1.127058998790798211e-02,-7.286007235068441001e-03,9.902422326927978746e-04
3.289189044403191264e-01,6.587042361034850524e-01,6.112611271161669801e-01,6.232481331780445055e-01,6.184051832084455080e-01,6.187374180760465414e-01,6.230907014050338644e-01,6.098887361538662955e-01,6.604658537753795855e-01,3.235484405055637502e-01,3.909832591992552439e-03,-1.355150939676919887e-03,1.506711555311034990e-03,-7.024493554033601692e-03,-6.398248802594569407e-03,-7.512300192897258463e-03,-7.915876519845724268e-03,-1.110740848420815365e-02,6.400188725661946562e-03,3.086438849969532633e-03,1.087391015315930520e-02,-1.276483467730593971e-03,4.813822663802614157e-04,-2.485285214621700545e-02,-2.384198404240300828e-02,-2.194433051525032652e-02,-2.159860782763901518e-02,-2.896617800293659062e-02,1.726552544824835889e-02,4.020930277411551013e-03,3.757903821217309370e-03,-2.890037587778281590e-03,4.698987404836766496e-03,-2.345839317642291200e-02,-2.679068652562906563e-02,-2.522980365775580325e-02,-2.119254536424019023e-02,-2.539571516372696874e-02,1.576303703117121202e-02,1.423546013641710517e-04
3.274194089592837864e-01,6.590955311934265648e-01,6.109805624993445150e-01,6.237404759637636964e-01,6.188057097821408892e-01,6.192078627474251196e-01,6.240008037247489758e-01,6.108389084753160780e-01,6.592842409884738242e-01,3.267222717979567648e-01,2.065836240306991034e-03,-1.435934527688093564e-03,2.333328521344677896e-03,-1.277556064169535488e-02,-1.917487288691147387e-02,-1.560528233058980363e-02,-6.165414837289710792e-03,-2.568891458672309565e-03,1.710580740506287972e-03,-1.384324052886645728e-04,5.191148014720838727e-03,1.016392512353059795e-03,-2.076075531682632092e-03,-1.595341609881437139e-02,-2.221972169043079717e-02,-1.614628408139539423e-02,-3.814684911777702428e-03,2.284295818040352893e-03,-1.114417315603852439e-03,-9.887953917908989809e-04,7.993103885489544203e-04,-6.169125158076726751e-04,1.071248214346319245e-03,-6.338402249381702713e-03,-8.195591153621357289e-03,-7.098629363219110568e-03,-4.389500310560715338e-03,-4.135413524246097164e-03,2.611319812310454978e-03,-1.206004017244091675e-04
3.278430377466541312e-01,6.590136133009034669e-01,6.110083700502443316e-01,6.238191106368020655e-01,6.191407704467455364e-01,6.191985345679618113e-01,6.234343773923740617e-01,6.101640465382214273e-01,6.600960996946010351e-01,3.246354454624302832e-01,-2.410737112487861076e-03,8.286458595360365626e-04,-5.352195763459449002e-04,-6.010603778723003394e-04,-3.259084872430840444e-03,-9.472701847019152771e-04,2.776121267208622300e-03,6.416249120561431235e-03,-3.268619656863184023e-03,-4.208733099401687494e-03,-7.226032035897774625e-03,6.981706514098471109e-03,-9.588632195554912252e-03,1.480821877077432083e-02,1.706882339493904360e-02,1.932687782408560456e-02,2.048924498879602443e-02,2.772478811854919498e-02,-1.588160606916746986e-02,-7.782110334449580946e-03,-2.673041200833267683e-03,1.978751898602010891e-03,-3.031598740233822521e-03,1.304602921410879385e-02,1.324769228160617429e-02,1.344538917244704479e-02,1.371852702974270949e-02,1.821556203752159112e-02,-1.117690805834821791e-02,-7.312533522642016004e-04
3.290081342138270193e-01,6.586785372962427054e-01,6.112800821969248677e-01,6.232292546171118719e-01,6.176626692769700000e-01,6.184146124038116810e-01,6.235164799043144690e-01,6.105782762898556149e-01,6.596315204471581151e-01,3.257645254092107479e-01,3.758332600609176621e-03,-1.984747307786243788e-03,2.845478592110197054e-03,-1.417040025744214192e-02,-1.932536040397065877e-02,-1.665276774572213569e-02,-9.337377386474249308e-03,-7.303621309927780213e-03,3.887828770978034310e-03,4.699026817601696659e-03,7.769081605446408884e-03,-6.210295986683583153e-05,-8.711361147460240997e-04,-2.049421855431955361e-02,-2.541080520816159372e-02,-2.025848787704953580e-02,-1.037700346593809810e-02,-8.069370217052928770e-03,4.737631617092138633e-03,2.187302982430860965e-03,3.317933956179748567e-03,-3.094507361266134876e-03,5.293574015605548647e-03,-2.711951441533990564e-02,-3.483305667982480175e-02,-3.054364823642084087e-02,-1.973993407509033043e-02,-1.938393507577127958e-02,1.216736640438918597e-02,-2.319672056699667584e-04
3.273156807846749894e-01,6.591287748145446823e-01,6.109506976144422064e-01,6.238107643792857315e-01,6.193390077229008472e-01,6.194191511215385582e-01,6.237344328484377698e-01,6.104491265904830044e-01,6.597605250502047713e-01,3.254472590045551783e-01,2.459220046212035309e-03,-4.684428766879759161e-04,2.079790646511642596e-04,-1.067863109003491405e-03,3.511634531451755456e-03,8.177151062666947710e-04,-6.454767102545260621e-03,-1.303248720732212533e-02,8.367840520927944531e-03,-2.350725978524505471e-03,5.947510720163686967e-03,1.383636913820305604e-03,-3.122325879759893855e-03,-9.909149831323777954e-03,-6.444761472653715018e-03,-5.243494910872757014e-03,-7.260975864480742441e-03,-1.160619389762229843e-02,6.630612382551696188e-03,3.127443932977643642e-03,2.704244104857561615e-03,-1.821953092697374803e-03,2.867137949082688812e-03,-1.439351949715885794e-02,-1.495194431770754083e-02,-1.492305011525022970e-02,-1.465347972506282626e-02,-1.910175472999824792e-02,1.185337460567554430e-02,-6.789591395527094786e-05
3.289889315556303595e-01,6.586812130928743070e-01,6.112808180685818105e-01,6.232170464707055269e-01,6.176034223991156979e-01,6.184165778355326104e-01,6.235275285925582223e-01,6.105508977386239211e-01,6.596654865695990022e-01,3.256554025440425715e-01,5.381945340900251562e-03,-3.067039380123589426e-03,4.479116250757698460e-03,-2.132510810196153878e-02,-2.609582574880858069e-02,-2.349325130699021769e-02,-1.783994527857987733e-02,-1.906455174579765530e-02,1.130461232903293492e-02,3.364988134650720442e-03,7.760285273885794699e-03,-4.556436663897146105e-04,-3.408929284683288874e-05,-2.464788778748887299e-02,-3.289614471779187671e-02,-2.565362248052778862e-02,-1.080635800472511121e-02,-5.598854581999853156e-03,3.394211209911382823e-03,1.336335331773082225e-03,1.970787083203928008e-03,-1.918372665789833641e-03,3.343441388426012656e-03,-1.764034687006044849e-02,-2.334390545624460966e-02,-2.049484563257886888e-02,-1.251172191014231216e-02,-1.138826834488023895e-02,7.178890683793036354e-03,-2.310813132826092242e-04
3.266672317062266906e-01,6.592971190555765304e-01,6.108294274035060978e-01,6.240349320566694891e-01,6.194530966173079634e-01,6.195843318378475573e-01,6.240198888167275415e-01,6.105148873581422997e-01,6.596646522300990689e-01,3.256883396816696585e-01,3.424030029468448297e-04,2.836321099648648212e-04,-5.470696509366570776e-04,1.034522915981238734e-03,4.180923318230974142e-03,2.782159317107481093e-03,-1.720135967026855534e-03,-5.061664225889235709e-03,2.945566173250491800e-03,8.649672528811521224e-04,4.879850253544300819e-03,2.269107740793818891e-03,-4.561784307502268591e-03,-3.221807170227615567e-03,5.656155479026192361e-03,3.658530434858990946e-03,-6.645893678932238494e-03,-1.542550858275511770e-02,8.938065505304368039e-03,3.017171280424314761e-03,1.553436132590603480e-03,1.439302965314075144e-07,-5.035440350308963446e-04,2.939383561378718958e-03,1.093044380183732373e-02,6.179196139337594929e-03,-6.069266824627387452e-03,-1.531886816001249221e-02,9.229700239932546457e-03,9.077188567952129694e-04
3.278670883284662274e-01,6.589851428402649924e-01,6.110526434007861329e-01,6.236410080251402199e-01,6.191195593834133426e-01,6.192214071060475611e-01,6.233404968008957603e-01,6.099094356052938704e-01,6.604403919488228691e-01,3.235392715221139248e-01,6.454135121433092481e-03,-3.207097090541584546e-03,4.371748957139429299e-03,-1.990598081424564680e-02,-1.984980524089596104e-02,-2.055257752887205969e-02,-2.226052512642553993e-02,-3.006053629137183519e-02,1.883193176178910716e-02,-1.553590832393626775e-03,7.285287815218578072e-03,1.033633203121869315e-03,-2.902653091286458258e-03,-9.964536358618375847e-03,-3.247306446719615443e-03,-4.301287108645527463e-03,-1.195321261045562133e-02,-2.076004441393710168e-02,1.245445851399427060e-02,1.941547552867720419e-03,2.018165126168654233e-03,-1.280917217164227045e-03,1.997915183997636419e-03,-1.030391295524083276e-02,-1.003680939344820527e-02,-9.718376711581700605e-03,-1.012825986594473662e-02,-1.395531884013234171e-02,8.634518817547877367e-03,3.958512407212233519e-06
3.298241414898847035e-01,6.584644547558888839e-01,6.114362391842802502e-01,6.229358025675381105e-01,6.175664633316468866e-01,6.182402666677890846e-01,6.229655530144930786e-01,6.099539304232627357e-01,6.604032481900136142e-01,3.236938306731977910e-01,6.089445568728459046e-03,-3.429895672536266774e-03,4.971364956386631166e-03,-2.345980098197342212e-02,-2.724395415293988376e-02,-2.511699669995396539e-02,-2.041778267458474808e-02,-2.430545375025050872e-02,1.482531263065352267e-02,1.616318378881660689e-03,1.203655986053887850e-02,-2.470504926591130315e-03,2.528048959244390270e-03,-3.462394362840289647e-02,-3.944825822661916781e-02,-3.477023220240701290e-02,-2.605637466140153791e-02,-2.931119337144871481e-02,1.760455210152478411e-02,3.861363151412139372e-03,1.026356680972944670e-03,-4.515098816349695683e-04,6.374245527974663726e-04,-3.752539051982312600e-03,-2.388558617655793526e-03,-3.223496932661063137e-03,-5.473324388093205040e-03,-8.516707283744680626e-03,5.204345335097565126e-03,3.657468182815884483e-04
3.317670322308188258e-01,6.580008721553579631e-01,6.117143611703330652e-01,6.227204407029648392e-01,6.161278626407877823e-01,6.171024323486453689e-01,6.222167672686015338e-01,6.092134249094480758e-01,6.613611996377308788e-01,3.209688445153491276e-01,-8.793509257757410602e-03,6.174198477903914892e-03,-9.271920799683903633e-03,3.921708687428393514e-02,4.855447775829856150e-02,4.493173740196589050e-02,3.364439025467449995e-02,4.059755458580372595e-02,-2.537422840336066993e-02,6.677488508428364167e-04,-7.637667474974144111e-03,7.830934363284669172e-03,-1.140207706399489623e-02,2.268292242456174113e-02,3.011691232867010071e-02,2.925650863847924568e-02,2.263502260350971212e-02,2.663869245801590152e-02,-1.557711921909187350e-02,-6.018666843300379821e-03,-3.173330283291933562e-03,2.847704400731300954e-03,-4.658116066322373280e-03,2.128088598211393470e-02,2.529165741017073629e-02,2.288764132048352190e-02,1.702032101392036631e-02,1.941024053041721931e-02,-1.217127071961784934e-02,5.212983445759475365e-04
3.276506230106207562e-01,6.590339324663376797e-01,6.110226145322606994e-01,6.236989812888416029e-01,6.181653029423679335e-01,6.188844652557645709e-01,6.240375519478617017e-01,6.107170545035776055e-01,6.594438312396138091e-01,3.262011137736939848e-01,3.608116478757618373e-03,-2.705781721598531780e-03,4.377399810203599223e-03,-2.244218251603444236e-02,-3.353672893568798025e-02,-2.776915306908791028e-02,-1.163259198640386599e-02,-5.544762337713651269e-03,3.701072330265592347e-03,-5.946583295885210507e-04,3.108409190037821762e-03,2.467752919826891010e-03,-4.337501983504215251e-03,-5.978029195427809507e-03,-5.504594056863718401e-03,-2.495535192320065803e-03,3.303827467196665101e-04,1.758182934358679464e-03,-1.009838518911592179e-03,-2.688722012454299037e-04,-5.117060628477033968e-04,-7.555501923666441133e-04,1.856489682427597083e-03,-1.185733683041908550e-02,-2.305670736649809149e-02,-1.617905311715454181e-02,1.008549241059831895e-03,1.157233973007374891e-02,-6.825874652047327594e-03,-1.102424422516332103e-03
3.282754146889645952e-01,6.589127279758388855e-01,6.110682120946031581e-01,6.237595616626874229e-01,6.190067932780477511e-01,6.190153132164315508e-01,6.231966025851713997e-01,6.099087040301702789e-01,6.603901481526772699e-01,3.239495849735434252e-01,-1.815942416024338320e-03,1.031098478417004621e-03,-1.290584681044879565e-03,2.940932686010035938e-03,2.667597114972939873e-03,3.786310384110437230e-03,4.531123049452046372e-03,6.489846913960773886e-03,-3.559310549007291442e-03,-2.754830394419126478e-03,-1.056507854339822777e-02,8.434511458102537246e-03,-1.166309160938687126e-02,2.203976497817254632e-02,2.442467508803664381e-02,2.778696320949385068e-02,2.789528917076172440e-02,3.657804058361885380e-02,-2.055008399667019453e-02,-1.321798765728030359e-02,-1.692995416235618979e-03,1.064307852198605317e-03,-1.501502920388679812e-03,5.441734053202662916e-03,3.301553181091361564e-03,4.826936203035724071e-03,8.492496134104339164e-03,1.320334860852465965e-02,-7.979649392172367614e-03,-1.065561481594761058e-03
3.279509828176376818e-01,6.589661639170312224e-01,6.110625665039404186e-01,6.236406355017813929e-01,6.191034602499574380e-01,6.191950050893043622e-01,6.232063812423382920e-01,6.096955241765180666e-01,6.606807566409653720e-01,3.229775729305111032e-01,6.729227307283380116e-03,-3.288370315688199201e-03,4.427545619183625124e-03,-2.000047358261481875e-02,-1.942534633735727018e-02,-2.045358733024406350e-02,-2.307928948007094416e-02,-3.103688881256385160e-02,1.824685259515148456e-02,5.863209667682552778e-03,4.957270182087894841e-03,2.170026371605078552e-03,-4.443613983055641134e-03,-4.114399300847036874e-03,2.654378916187137213e-03,1.548485205098428094e-03,-5.561300730152557263e-03,-1.213532008594641817e-02,6.680305392198379773e-03,4.510516793033318705e-03,3.614744611964964410e-03,-2.067887288247622843e-03,3.036381679747309544e-03,-1.452640678406902017e-02,-1.130615301409522606e-02,-1.288940151729395765e-02,-1.827228344058964143e-02,-2.737461645912957903e-02,1.680889638988789653e-02,6.581915671597694806e-04
3.321931155953090631e-01,6.578734418987549626e-01,6.118239000286539442e-01,6.224498046228571502e-01,6.160561510284882081e-01,6.170402271083150758e-01,6.218552757552031629e-01,6.089783970462663287e-01,6.616567981874823534e-01,3.202034849381354409e-01,-6.728424486847690844e-03,4.088214300280396639e-03,-5.758387920356299212e-03,2.248102715505700608e-02,2.690421476653696159e-02,2.536806695309387974e-02,2.125673910079253770e-02,2.489360389978712354e-02,-1.422059288950294070e-02,-7.671051765033437553e-03,-2.146102390284898576e-03,5.059563827064865807e-03,-7.707389476134772488e-03,7.467752987904330633e-03,1.043048862747266402e-02,1.170924488188911788e-02,1.143971870757506774e-02,1.443267505860054527e-02,-8.731410165812868857e-03,-1.307580153213337010e-03,-7.067444398278374673e-03,6.186232306560322108e-03,-1.015752669549653195e-02,4.772406129471645775e-02,5.599431775372223918e-02,5.203345105978916807e-02,4.164504082322263712e-02,4.810768884587914018e-02,-2.984215000098531037e-02,-6.034840903517552091e-04
3.281435383013820983e-01,6.589269641598549665e-01,6.110768825369445878e-01,6.236885798167119965e-01,6.184444331449138188e-01,6.188208167272937210e-01,6.236681554707659281e-01,6.106149482346182600e-01,6.595743965492827376e-01,3.259288075428061759e-01,-5.579425777808358355e-03,4.040452592225023294e-03,-6.096086995567341800e-03,2.524942692513296172e-02,3.252712183421482828e-02,2.923099128527923210e-02,1.968209495279678312e-02,2.042373352501422254e-02,-1.240810458100404662e-02,-2.019684842913066491e-03,-3.884868567012589313e-07,4.465079047843839403e-03,-7.297420259370314063e-03,7.180943443715003503e-03,1.610259814623390615e-02,1.406025414459953840e-02,4.434965498020204851e-03,-6.534799264959261986e-05,-2.380003940048716279e-04,1.110618642571850612e-03,-8.486681584680879492e-05,2.449504248192108059e-04,-3.980244710033347191e-04,8.851272830292586510e-04,1.018016899454560371e-03,3.201431703684308981e-04,-1.663888415747623588e-04,-2.593758380592811000e-04,1.405503237401625001e-04,1.267211324119431673e-04
3.269615047215622683e-01,6.592230584452271058e-01,6.108811391638799826e-01,6.239390343022775953e-01,6.194480322770042902e-01,6.195706960775271277e-01,6.238140172331106958e-01,6.103181052272022011e-01,6.599032883431847907e-01,3.250779437851920584e-01,-3.033630036975855371e-03,1.549635738284809968e-03,-1.888644334703828542e-03,4.852790715548822506e-03,5.185117038867407060e-04,3.112903818930635308e-03,1.079751456696699530e-02,1.906514295422232635e-02,-1.119968560327479733e-02,-3.316464583020927413e-03,8.290776112787247992e-04,3.093247406235471834e-03,-4.781176485972571041e-03,-5.526287342975702913e-03,-1.055525900640030303e-02,-4.650014459881882632e-03,6.577842257560738773e-03,1.533861135277148763e-02,-8.661612153704952369e-03,-4.389467951914159671e-03,-1.832676461552898428e-03,1.324946531710477970e-03,-1.985857087585987668e-03,7.896948549283870980e-03,6.471144485703250911e-03,7.765970112907088704e-03,1.058860828415082028e-02,1.539830250143358822e-02,-9.462096819259219194e-03,-3.326654757931299389e-04
3.289718758811125410e-01,6.586703728618164000e-01,6.113028974862859677e-01,6.231371368382476739e-01,6.168045262504705528e-01,6.181586264923897289e-01,6.239148126656822724e-01,6.107733282152918441e-01,6.593983054893378659e-01,3.262718112308271579e-01,2.292976218196719762e-03,-9.366677516259721507e-04,1.221160592804550454e-03,-6.688724678490154743e-03,-7.963098566408163478e-03,-7.128910458809763206e-03,-5.413587607056190992e-03,-6.137156166374443250e-03,3.645077622836550603e-03,1.589514280518761202e-03,9.052150562264424383e-03,-1.879378549272156529e-03,2.420126186789521225e-03,-3.662265440310888409e-02,-5.281422785546572435e-02,-4.111267794117211272e-02,-1.460193409391181626e-02,-3.335134255491914099e-03,2.487545579034824289e-03,-7.941017379960862987e-04,1.376769747489740153e-03,-1.503526828512857100e-03,2.701842670137640998e-03,-1.470862292696214352e-02,-2.075625139951794290e-02,-1.755413861806034981e-02,-8.759871779582741047e-03,-6.171899005870781080e-03,3.978260128227750422e-03,-3.082165389557134372e-04
3.303133408518459380e-01,6.583430221592999620e-01,6.115130728936565285e-01,6.228687377854914553e-01,6.167275008142643067e-01,6.177511866061655699e-01,6.230913826338396744e-01,6.102069068769051530e-01,6.601109841928209931e-01,3.244181251594444593e-01,8.459412815645904471e-03,-4.682771495590017444e-03,6.712679005487009326e-03,-3.092309956356514150e-02,-3.825577213445065239e-02,-3.482649959205984941e-02,-2.451378737173885713e-02,-2.714769530637330813e-02,1.630655671703955256e-02,3.692109582039936055e-03,5.734670842868079890e-03,1.016239179791396559e-03,-2.290456295501418649e-03,-1.454236943017792744e-02,-1.777072388418987625e-02,-1.302806698953579319e-02,-5.095257656092260987e-03,-2.475926893846889555e-03,1.399320483344460714e-03,1.305827161018100618e-03,3.427574386148081464e-03,-3.338385263453366031e-03,5.762646415291759056e-03,-2.956919193649943170e-02,-3.886210983684708353e-02,-3.386149844495607575e-02,-2.061260544520466392e-02,-1.900461149386832582e-02,1.202460072860887796e-02,-6.549811753445433649e-04
3.305715586402550032e-01,6.583202416475840701e-01,6.114801001971522654e-01,6.231114278716607391e-01,6.174631497238227684e-01,6.179498953826534358e-01,6.223011805100687743e-01,6.089693867222997214e-01,6.615833202801775226e-01,3.206160197948069168e-01,3.913340806247361803e-04,1.484692351577423554e-03,-3.826497375406886885e-03,1.283718095295720979e-02,1.407306628507496750e-02,1.304760008202673210e-02,1.336448136242720727e-02,1.938917022128460593e-02,-1.162024580747458846e-02,-1.444621602475881783e-03,-7.282216052034842790e-03,8.201961872576615797e-03,-1.292040962881539634e-02,2.664299152806407639e-02,3.096577751854194885e-02,3.306517165854266221e-02,3.163121618210572999e-02,4.307210629997963725e-02,-2.475019835406403607e-02,-1.221629515518657394e-02,-3.767606178538510098e-03,3.731629604834385029e-03,-6.388822873997552013e-03,2.937477273391875254e-02,3.444346413684098995e-02,3.174779704805173741e-02,2.532524982061351571e-02,2.953180981545866154e-02,-1.832830787607241801e-02,-7.605177159685644339e-05
3.311257637832719647e-01,6.581248105833991113e-01,6.116689388558681495e-01,6.226543608414131237e-01,6.153593505083543302e-01,6.169836647734097124e-01,6.230182912929993488e-01,6.102089054250399158e-01,6.601507631658504183e-01,3.241393094395987884e-01,-4.062860158011306899e-03,3.505175213309222847e-03,-5.362427801257040223e-03,2.319833441215655989e-02,3.691349562254671313e-02,3.043349946653054958e-02,1.339075648010430372e-02,5.742523211483349307e-03,-4.058454690880546750e-03,2.073943028644699427e-03,2.852669582550520361e-03,2.652481396805090891e-03,-4.122568644537505898e-03,-4.928397292011165408e-03,-2.813543213477305875e-04,-1.365889511999609065e-03,-5.494749423382754364e-03,-9.983384444998041549e-03,5.546409211546012019e-03,3.676883092249260895e-03,-5.293902989478349586e-03,5.545150756802747632e-03,-9.403110605295431079e-03,4.566429548440881225e-02,5.948298602788927580e-02,5.157806209705861900e-02,3.223100557381561315e-02,3.073093308897359432e-02,-1.941584218349769533e-02,1.080882552502507310e-03
3.272970778239433498e-01,6.591392821771625554e-01,6.109367896916138019e-01,6.238625637906769494e-01,6.192481623281481662e-01,6.194080621584892032e-01,6.237095254530633515e-01,6.103310549683753639e-01,6.598972084312781927e-01,3.250864860419717672e-01,-2.776172166908780561e-03,1.912569654423594773e-03,-2.728178615856332884e-03,9.595822706426098553e-03,1.100340302452340255e-02,1.030116589166832700e-02,9.647500125385618380e-03,1.165103084060443127e-02,-7.113999748838699573e-03,-3.501791299603887464e-04,-7.696117550049722932e-04,3.766966751060972160e-03,-5.565290395042731680e-03,-2.601967348185594241e-03,-8.175151714022057051e-03,-2.030758516495012687e-03,1.027787475830272898e-02,2.083477395652353834e-02,-1.185817114890418654e-02,-5.432961310297234128e-03,-2.176081702465450241e-03,1.836886198242364179e-03,-2.924388835872745139e-03,1.272033114517474861e-02,1.382903585576494843e-02,1.377443070070856479e-02,1.298572776823446462e-02,1.629764418160355513e-02,-1.008252054356278266e-02,-1.485933149195615977e-04
3.279579047979297446e-01,6.589596473010777000e-01,6.110718722117692847e-01,6.236127634993678948e-01,6.184716763632054359e-01,6.189244574988813641e-01,6.238183718407950273e-01,6.107775855504185003e-01,6.593716890510510353e-01,3.264785156844927094e-01,4.030162649874970138e-03,-2.618482394470030526e-03,4.043400882128768414e-03,-2.030317207780613781e-02,-2.856969297894183801e-02,-2.440462399676369964e-02,-1.261514539723346956e-02,-9.599663961450002544e-03,5.929493491505755456e-03,8.124130715837299399e-04,4.556521439685103439e-03,1.791391106329994973e-03,-3.491616535212229040e-03,-9.303166696867206167e-03,-9.544329509204441467e-03,-6.709372017472329912e-03,-3.209880388707773025e-03,-2.398100687929693910e-03,1.378683408058869585e-03,8.845462509709262761e-04,1.542058216565160567e-03,-1.541448850014234297e-03,2.720758101931613528e-03,-1.469444685947291981e-02,-1.991968365814048361e-02,-1.672848203128933509e-02,-9.036674820214828097e-03,-7.337122817896561851e-03,4.697585514642412668e-03,-4.498079267604357390e-04
3.299110175487645069e-01,6.584436255238373947e-01,6.114480515582536579e-01,6.229352189435344300e-01,6.174681261864554127e-01,6.181463686125965307e-01,6.229392656214223223e-01,6.099551055839421698e-01,6.604183466692593596e-01,3.235902964643402324e-01,4.536315403410488140e-03,-2.012969297915139042e-03,2.638863566059978377e-03,-1.237803435385833283e-02,-1.439597959570348452e-02,-1.383419499670280987e-02,-1.018081816827138067e-02,-1.280362365755701934e-02,7.986802920239871595e-03,-3.932047914262104538e-04,9.672638886636806405e-03,-1.039740572978333985e-03,4.504541772114819057e-04,-2.560245273646376968e-02,-2.871196258512619809e-02,-2.463084357868846122e-02,-1.811838190486216721e-02,-2.037827867746305061e-02,1.227897127064047321e-02,2.534881723342603810e-03,4.674904025225162796e-03,-3.829040274444415679e-03,6.315859981440309287e-03,-3.145083097188801358e-02,-3.716939022794121111e-02,-3.429787916924808416e-02,-2.685806302241925195e-02,-3.077069018891250007e-02,1.916161647057729872e-02,-5.885571897017161103e-05
3.271745698722396956e-01,6.591757008371470494e-01,6.109053743205321574e-01,6.239499001041235449e-01,6.193077555015571445e-01,6.193904829493996900e-01,6.239270214257842673e-01,6.108275448782509720e-01,6.592936661029340506e-01,3.267411584599093644e-01,-3.297017936808546712e-03,2.150123805467302543e-03,-2.876057665766973241e-03,1.106784306920099298e-02,1.475881812783679491e-02,1.310837454663436701e-02,8.352433079814846825e-03,8.173462488945196225e-03,-4.934931488094381792e-03,-1.063291964384125571e-03,-1.584519426693752758e-03,4.574206332507759973e-03,-6.394755722095188562e-03,3.902016979126834637e-03,9.515215217639313300e-03,9.276474969882580329e-03,4.488727293931933995e-03,2.951746199559080082e-03,-1.876828744405418473e-03,3.124173493583570771e-05,-3.420017196647199414e-04,4.791311687333215221e-04,-7.548834128750824598e-04,2.795451903782762183e-03,4.023137402747309875e-03,3.231387165342797674e-03,1.432812080950951776e-03,8.804557251616496267e-04,-5.803664775884823449e-04,1.130324128229250394e-04
3.267819638686770833e-01,6.592587809333263493e-01,6.108653588532051426e-01,6.239505742813536981e-01,6.190953477811431682e-01,6.194854293891680630e-01,6.240871291704882529e-01,6.105104618531723704e-01,6.596707349447382684e-01,3.256432440499479330e-01,-3.872795121567101928e-05,-4.392007249214026875e-04,1.165658336805190914e-03,-7.522797680830166020e-03,-1.347809589785797964e-02,-1.008775935462033480e-02,-1.128097916492712231e-03,4.089798960107306550e-03,-2.165977227439942233e-03,-1.643764937884036742e-03,-6.244036475164613936e-04,3.110949195000438112e-03,-3.567071106059451369e-03,-9.262466962326403042e-03,-1.588759269930493240e-02,-9.222214232121439537e-03,4.124837899762522422e-03,1.334204005546825444e-02,-7.504368076517184058e-03,-3.736195613607006666e-03,-1.586375387933923811e-03,2.238898955382001392e-04,2.436703665663216521e-04,-3.825211744266185376e-03,-1.275530422205043563e-02,-7.372673497827024990e-03,6.522947937732130955e-03,1.686846218562706654e-02,-1.016649388777116601e-02,-9.565897603615765299e-04
3.282527625480083922e-01,6.588746580424491572e-01,6.111415243011462106e-01,6.234559705619083791e-01,6.181890022037520582e-01,6.187925530081311853e-01,6.237418018849962831e-01,6.106525439273766676e-01,6.595282087424150230e-01,3.260371401228885357e-01,3.802921844203999147e-03,-2.489761988315086078e-03,3.865278125032090353e-03,-1.950461511924108521e-02,-2.768538417328610460e-02,-2.367575901770636176e-02,-1.223160904546223907e-02,-9.071000087591353511e-03,5.759285297595945555e-03,-1.787028702046611350e-04,8.891396188726835570e-03,-5.469493999232235767e-04,-2.857168637461771077e-04,-2.252681061896411388e-02,-2.554770304313699197e-02,-2.112447946717512653e-02,-1.433611700886006438e-02,-1.515184489013179057e-02,9.144453840735517966e-03,1.787015640054949450e-03,-1.024924814048422395e-04,-5.401198492586576846e-04,1.252713051289507063e-03,-8.193358820620822575e-03,-1.475545752560824403e-02,-1.045214950201462864e-02,-3.099390835306489386e-04,5.532806696008810837e-03,-3.220993861447732712e-03,-6.801228277733134542e-04
