8.419410612361691304e-03,2.070733903381874463e-04,-2.009580200135956812e-03,-1.535779538752271231e-02,-4.382880941323290952e-02,-7.272639848308798394e-02,-7.874194337023844581e-02,-5.013944396373239132e-02,2.449215978025922127e-02,4.006920327396397419e-02,1.616318549093717638e-02,5.447368826348816806e-03,-1.217348453586251239e-02,-3.703281234628134910e-02,-7.223681030863918218e-02,-1.011515813286845422e-01,-1.005313510670338140e-01,-6.075882653723248955e-02,2.983099582658427576e-02,4.872692629407211762e-02
-2.746555811726780760e-03,8.399446826682629985e-03,-1.322083104105826676e-02,-8.477529840057923538e-03,3.139712692456905763e-02,8.346499709936333611e-02,1.054381552877946965e-01,7.282003164511464954e-02,-3.522813005725079771e-02,-5.805692878524645190e-02,1.775567408847675277e-02,3.982125167611830219e-03,-1.008762286730082933e-02,-3.748298413933157103e-02,-8.345245812859496126e-02,-1.253098680047748936e-01,-1.293526892637892334e-01,-8.034934966876325357e-02,3.918566287003981408e-02,6.501335234934829677e-02
7.605634653148146684e-03,7.714326662517992372e-04,-2.769310543689852341e-03,-1.482390689672383015e-02,-3.853186826648760666e-02,-6.178164529027568158e-02,-6.580722004321822027e-02,-4.163449091790387413e-02,2.035974119042905164e-02,3.326365170497876805e-02,1.974717293262004403e-02,2.888715130599524283e-03,-8.690091637595154239e-03,-3.932021060678320828e-02,-9.610846511284155957e-02,-1.505114551656952515e-01,-1.586452343981497037e-01,-9.944129937332440994e-02,4.869049137749413558e-02,7.924927710154200389e-02
7.303963385325171198e-03,8.474374181755145452e-04,-2.835702822686867255e-03,-1.439790903481555882e-02,-3.677569744768401788e-02,-5.863704818659115636e-02,-6.236531895082201432e-02,-3.951153537892346940e-02,1.926911552098685768e-02,3.181066248338541846e-02,1.883650994870994522e-02,3.195876320809580562e-03,-9.012348898271588943e-03,-3.818708377306613555e-02,-9.079379821715753696e-02,-1.406595384310303232e-01,-1.476234617627791290e-01,-9.254788696320138952e-02,4.518949978672060636e-02,7.438538118245384412e-02
-2.658508991833286039e-03,8.114738811639925220e-03,-1.277459178466103240e-02,-8.103764019572669286e-03,3.055763082077075921e-02,8.097131913046373697e-02,1.021578674111272983e-01,7.020503204254270602e-02,-3.416702414548382361e-02,-5.493872682324166257e-02,2.094118647981885184e-02,2.006270180143432391e-03,-7.481446482923932717e-03,-3.997895631482385054e-02,-1.039707995791245010e-01,-1.667185122073051584e-01,-1.775437443434859652e-01,-1.120468343859929855e-01,5.473737240283732541e-02,8.963709631735204686e-02
-1.651624720018812775e-03,7.396336909565065509e-03,-1.179658763221359298e-02,-8.773960655763204941e-03,2.376907839757320257e-02,6.690471454646160221e-02,8.563706676440117904e-02,5.916820129837509212e-02,-2.874470829596870863e-02,-4.648347612034966353e-02,1.981375995604703344e-02,2.818415511064563395e-03,-8.587687792050442692e-03,-3.928151080600226358e-02,-9.648368095777212772e-02,-1.512468682958096333e-01,-1.593732107481362903e-01,-9.995512068813391937e-02,4.883427613724050653e-02,8.016227878178813770e-02
8.397797595449466024e-03,2.179137179218817999e-04,-2.020126658134398234e-03,-1.534131914648540103e-02,-4.374134429985347683e-02,-7.253959217996919229e-02,-7.851141980929668418e-02,-5.003698725647300061e-02,2.445213703701714855e-02,3.992627362385185730e-02,1.813530544852010040e-02,4.044302434663624157e-03,-1.026154818233908014e-02,-3.829101487524997488e-02,-8.535010119121999583e-02,-1.282647876076632443e-01,-1.324593828591135725e-01,-8.200298677269923786e-02,4.019343013990350766e-02,6.546348159697437663e-02
9.918142670092611191e-03,-8.832891333633435815e-04,-5.147502821457317079e-04,-1.634525107207333502e-02,-5.416130278415832999e-02,-9.404571068590869554e-02,-1.038188550755124590e-01,-6.687532800468817817e-02,3.263929763221082997e-02,5.331120353438901366e-02,1.857154780619615919e-02,3.733732862767825955e-03,-9.839782728620082713e-03,-3.857628300800761828e-02,-8.826572471603279235e-02,-1.342975702199188659e-01,-1.395668840467644833e-01,-8.672851859642449757e-02,4.253167499713905730e-02,6.900470849323984968e-02
8.615883369833668426e-03,6.058925237125908914e-05,-1.804918977182445178e-03,-1.548393994803159979e-02,-4.522607953025515465e-02,-7.560585834913885472e-02,-8.211853928259457702e-02,-5.243721100426675108e-02,2.561353578872236497e-02,4.186038814344340137e-02,1.825306560345341111e-02,3.959017571051874629e-03,-1.014587555272348021e-02,-3.836792385021280810e-02,-8.614585761874844760e-02,-1.299104289018999658e-01,-1.343986562164341536e-01,-8.329097071346103220e-02,4.082553286518574021e-02,6.644965622333749711e-02
8.643130793752062946e-03,3.501297235023945187e-05,-1.768537320179144195e-03,-1.550104086702194101e-02,-4.546615411422964825e-02,-7.609858132773920925e-02,-8.268102592469703249e-02,-5.284712081713487802e-02,2.581559760715826726e-02,4.217669401776858590e-02,1.918197584533853917e-02,3.296831348119637350e-03,-9.244689968339464547e-03,-3.896243442818804470e-02,-9.232901789463898723e-02,-1.426976898155256634e-01,-1.494540816819605045e-01,-9.331684201959675184e-02,4.572311848780352683e-02,7.431649503014396696e-02
-2.248173347954462997e-03,7.812831055391922935e-03,-1.236056222150665705e-02,-8.378895299022012799e-03,2.768666381576063290e-02,7.505103721341602196e-02,9.519686407617869439e-02,6.555962401756053326e-02,-3.193777638119107976e-02,-5.099516087708836493e-02,2.102353472841134163e-02,1.946596776500303383e-03,-7.399841292865201592e-03,-4.003487294560830606e-02,-1.045384489273991635e-01,-1.678969374086916044e-01,-1.789390481094655649e-01,-1.129689731772422490e-01,5.520453284489973411e-02,9.021291378805565420e-02
-2.766504659057339444e-03,8.191372753355876529e-03,-1.287833098326211789e-02,-8.053950252199779114e-03,3.120165268444698159e-02,8.229363091224438376e-02,1.036695702690420551e-01,7.123379748318209304e-02,-3.463196933582513015e-02,-5.596958240409940361e-02,2.006063390759951770e-02,2.638516057999959474e-03,-8.342347688499639202e-03,-3.942283768423384543e-02,-9.809879387239624215e-02,-1.545803989879022677e-01,-1.632688991138265822e-01,-1.025480724220042134e-01,5.010137464080969411e-02,8.218035924211451737e-02
8.521496501688680114e-03,1.270968035683613107e-04,-1.895639459959234940e-03,-1.542188435107432441e-02,-4.459705645513042938e-02,-7.430568400063371215e-02,-8.058440507328962221e-02,-5.142771609877325872e-02,2.512702448711775366e-02,4.104065124393205255e-02,1.850384558516290912e-02,3.781065480859102657e-03,-9.903414653819862107e-03,-3.852754760519287031e-02,-8.780847350300190202e-02,-1.333485577618359896e-01,-1.384459515467652280e-01,-8.598736131935064142e-02,4.214065001575342112e-02,6.858196047639487924e-02
-3.266727307144945414e-03,8.574383465289246026e-03,-1.340857239323999667e-02,-7.693978196637051015e-03,3.492921917601940485e-02,8.998989264680301581e-02,1.127770990924072680e-01,7.726452953996577888e-02,-3.763065662471384853e-02,-6.032868687914979405e-02,2.095291915762476087e-02,1.991583947711164648e-03,-7.460054084833418753e-03,-3.997683663302432910e-02,-1.040675197121279649e-01,-1.669149792419480638e-01,-1.777648338154738106e-01,-1.121824416798221369e-01,5.482959979325782024e-02,8.955028948904765473e-02
-1.775138833994771570e-03,7.493961993942820782e-03,-1.193239140616504483e-02,-8.698348895723274909e-03,2.467008018568902367e-02,6.875418662977746120e-02,8.780055426908958682e-02,6.060437642560036892e-02,-2.942170153691623519e-02,-4.771154148973185544e-02,1.927495592951058989e-02,3.202380289171850858e-03,-9.109695697500117678e-03,-3.894018290103448687e-02,-9.291277786173762765e-02,-1.438645763486670615e-01,-1.506927317466149607e-01,-9.417054271724636938e-02,4.601457747290847028e-02,7.556308661894597933e-02
7.224155048960387293e-03,1.054160835097895516e-03,-3.158144239004961537e-03,-1.457714246450475537e-02,-3.587108752305950832e-02,-5.629018269729113566e-02,-5.937311017778384298e-02,-3.730736657266489620e-02,1.826379879207969820e-02,2.976828015953568440e-02,1.836561770863726073e-02,3.877352582816441517e-03,-1.003467852415209152e-02,-3.843380782133967721e-02,-8.688406384795184512e-02,-1.314357257443903026e-01,-1.361849663470452720e-01,-8.449218934428109895e-02,4.138619220519319103e-02,6.754835978814040243e-02
7.766893359356333293e-03,6.644986961096069344e-04,-2.626944499765034025e-03,-1.492919789540718932e-02,-3.953420848183745312e-02,-6.385168914735950274e-02,-6.826848591176490344e-02,-4.324075074597757973e-02,2.114664760627676249e-02,3.451169079075785268e-02,1.883932358273748831e-02,3.539964490663655150e-03,-9.575288562863930319e-03,-3.873898590290401206e-02,-9.004402686765074215e-02,-1.379704614297173892e-01,-1.438828994536859307e-01,-8.961137557966707134e-02,4.389481493076510116e-02,7.150981944106518662e-02
-2.313123383049675574e-03,7.855149668987777140e-03,-1.241601210576210451e-02,-8.345746020195873860e-03,2.804774296570706343e-02,7.579320670165971829e-02,9.604745782827284195e-02,6.614724277536461472e-02,-3.218702893628815065e-02,-5.173717632507094516e-02,2.063367000501697968e-02,2.227578680978579972e-03,-7.783811103176434265e-03,-3.979026529211052154e-02,-1.019283380833656966e-01,-1.624999375870063156e-01,-1.725895621257539370e-01,-1.087519249916378966e-01,5.312908220530540571e-02,8.704906915370635989e-02
-3.069214695535782411e-03,8.422276572123181537e-03,-1.319754059226053468e-02,-7.850778577226436017e-03,3.339620145515304062e-02,8.681679278818321688e-02,1.089982539066511186e-01,7.476682333364935429e-02,-3.637094947832486547e-02,-5.858400221131818825e-02,2.004581583223694063e-02,2.644714392126802649e-03,-8.349540126132551365e-03,-3.940870317859521826e-02,-9.802199403777739350e-02,-1.544200830286672488e-01,-1.630774870420333422e-01,-1.024096967229285449e-01,5.005227440794623311e-02,8.190478069446410769e-02
7.993866565780660682e-03,4.939290227733948713e-04,-2.392064052960624770e-03,-1.507549593302083719e-02,-4.113648677546098698e-02,-6.715905083949325061e-02,-7.213541576314196069e-02,-4.585224974914405005e-02,2.241014187114355807e-02,3.662366843143701617e-02,1.988252882909430364e-02,2.795026657105043055e-03,-8.561749779664389048e-03,-3.940762678349316039e-02,-9.699847759102914191e-02,-1.523532839194745858e-01,-1.608169153557006403e-01,-1.008858066995125397e-01,4.940528722997691857e-02,8.032930405002325358e-02
-2.467206704237973058e-03,7.992730198442012796e-03,-1.261240156945633156e-02,-8.260026408664546821e-03,2.930663025087703460e-02,7.833115595197537306e-02,9.902674571234326706e-02,6.810785417178109868e-02,-3.306945168191376822e-02,-5.370656132556368700e-02,1.874618436973352065e-02,3.579986939077468844e-03,-9.623697487004832796e-03,-3.859857012050819242e-02,-8.937459903873005984e-02,-1.365484087869934804e-01,-1.420772119113586640e-01,-8.843780349323504542e-02,4.322682511580084458e-02,7.100604488555926908e-02
9.529340488809240339e-03,-5.910417208792734245e-04,-9.181767006298489908e-04,-1.608399635729184513e-02,-5.137201826319293119e-02,-8.829116351369663274e-02,-9.706620549511545126e-02,-6.232559118465842707e-02,3.041542538898744236e-02,4.976710088514265523e-02,1.680734829095351102e-02,4.993437085846971768e-03,-1.155299616999653362e-02,-3.744350482651384593e-02,-7.650409572228258903e-02,-1.099743799231842623e-01,-1.109208306155834711e-01,-6.766064897383934629e-02,3.321072722226098978e-02,5.408708816710454392e-02
-3.193067738568255987e-03,8.510560739929787927e-03,-1.331716963429482696e-02,-7.773719069399259024e-03,3.421405472186773988e-02,8.849713880182594195e-02,1.109581940184702908e-01,7.609023600748543448e-02,-3.697964188970478960e-02,-5.993006979100209963e-02,1.972226504097893129e-02,2.878477605736458333e-03,-8.669024001538606916e-03,-3.920500877899107256e-02,-9.584927327607041525e-02,-1.499272092684793001e-01,-1.577902014300102684e-01,-9.890031701583179569e-02,4.832558036463944356e-02,7.929101637583312046e-02
-1.860187006883853855e-03,7.555425986346245293e-03,-1.201621282352328263e-02,-8.643967537658038547e-03,2.524387661627510576e-02,6.993859127289875355e-02,8.918996459353334405e-02,6.153236993006299532e-02,-2.987417260962016777e-02,-4.844487051308161291e-02,1.922415831000834352e-02,3.238525695313881902e-03,-9.158917986508620379e-03,-3.890718275485566952e-02,-9.257303485884522953e-02,-1.431618891152587059e-01,-1.498648959011820159e-01,-9.361967838596199631e-02,4.574661442735452471e-02,7.512555362500754341e-02
7.403082900527102606e-03,9.314331056749156068e-04,-2.992660772267908761e-03,-1.469421816922593035e-02,-3.702774083718332609e-02,-5.867916388640719016e-02,-6.219962530607446582e-02,-3.916654404513865428e-02,1.916698215104161579e-02,3.125162511807211968e-02,1.755197585673870520e-02,4.459872725784325143e-03,-1.082705216950705443e-02,-3.791411203446330702e-02,-8.145642484126652816e-02,-1.202133281640605234e-01,-1.229742000394407619e-01,-7.569793270037296351e-02,3.709800500343072432e-02,6.060935892340309217e-02
-1.456714772719802653e-03,7.253131677295566321e-03,-1.160029142722714124e-02,-8.894256516526623246e-03,2.244197800235338269e-02,6.417841759747910935e-02,8.245337150747801547e-02,5.702880819442576743e-02,-2.774580382798608885e-02,-4.445076169409636208e-02,2.046184708394555019e-02,2.351305422323646255e-03,-7.951231539266863380e-03,-3.969214247750714464e-02,-1.008244500013344425e-01,-1.602219030156557533e-01,-1.699332214603116453e-01,-1.069740222170314503e-01,5.226937850355799914e-02,8.555732286579438572e-02
-2.520523615634373549e-03,8.035530063945639512e-03,-1.267201457565526879e-02,-8.234037907887147012e-03,2.968000606033378147e-02,7.908417363588080007e-02,9.989325789913321152e-02,6.869806143805319565e-02,-3.333036883942216283e-02,-5.440805115575855777e-02,1.793851836662913035e-02,4.160858989626287086e-03,-1.041498577173159690e-02,-3.808891115224673912e-02,-8.398078584437183858e-02,-1.254003082298227878e-01,-1.289666938377848349e-01,-7.971907179423121104e-02,3.898042747809757347e-02,6.415480957169550358e-02
8.800371489158340110e-03,-6.525497021435053280e-05,-1.635784522657252049e-03,-1.560555289616022585e-02,-4.641172260017462775e-02,-7.805570976857773013e-02,-8.501618463652670099e-02,-5.431603623271084869e-02,2.651760675249320576e-02,4.342344787118827820e-02,1.665223965203968537e-02,5.104234900557592935e-03,-1.170386019628314941e-02,-3.734271404538848371e-02,-7.546332993878887563e-02,-1.078221890351827861e-01,-1.083870634424826257e-01,-6.598093210672294207e-02,3.238155916179494276e-02,5.282145291264921105e-02
9.027743388899861499e-03,-2.391025977566269001e-04,-1.395433087736121930e-03,-1.575390354813113736e-02,-4.805232806495588621e-02,-8.144047205999396799e-02,-8.897430902060966817e-02,-5.701905837552609380e-02,2.783903658377650386e-02,4.552839212197842128e-02,1.883544306502338284e-02,3.544864990719320819e-03,-9.582204687978750773e-03,-3.874203738291449872e-02,-9.002049051600975738e-02,-1.379240985350708992e-01,-1.438357442519231366e-01,-8.957370207084193459e-02,4.390344692842417657e-02,7.133231551364112299e-02
8.367809131211892404e-03,2.157266518423850421e-04,-2.009639848063939083e-03,-1.531712640400401983e-02,-4.375518453561484666e-02,-7.256650646244455771e-02,-7.846005075222745040e-02,-5.011785276955152413e-02,2.447303519668015195e-02,4.008435528218066285e-02,2.100871756092148601e-02,1.991784393915757567e-03,-7.469219752872915952e-03,-4.013075798730852267e-02,-1.045005900096527551e-01,-1.678728240564352769e-01,-1.790879832692076068e-01,-1.130573230517725736e-01,5.536149552438589250e-02,8.981984064769445164e-02
-3.466115185667778542e-03,8.721044596603919757e-03,-1.360952354070246034e-02,-7.575697090156447572e-03,3.626866528242295856e-02,9.274264310103624842e-02,1.159873330977100464e-01,7.941388404491005193e-02,-3.864268296438452821e-02,-6.222452439838628557e-02,2.032962959841386197e-02,2.438657681637576569e-03,-8.068502833191069923e-03,-3.958217231569914618e-02,-9.991338866167968902e-02,-1.583261443421882242e-01,-1.676629914128899279e-01,-1.054588565464515265e-01,5.154469471811274489e-02,8.427880032634452179e-02
9.171082409345665543e-03,-3.641063477205809529e-04,-1.218143048352642727e-03,-1.584399963252462046e-02,-4.923030225952319122e-02,-8.387180727364206001e-02,-9.176379369436908628e-02,-5.898623235346425048e-02,2.879422420255011578e-02,4.707501527516304990e-02,2.113024841540583898e-02,1.907101518897780235e-03,-7.354230424252053422e-03,-4.021265367948728686e-02,-1.053059611024277364e-01,-1.695454901292967609e-01,-1.810612286668996651e-01,-1.143744013895487133e-01,5.603573267906486466e-02,9.067589717763732682e-02
7.950198392681753767e-03,5.171013875904864610e-04,-2.421296733774835896e-03,-1.504590545063958992e-02,-4.091595157389853882e-02,-6.670405132097387280e-02,-7.157328770919921257e-02,-4.551128499562753782e-02,2.223736990516574780e-02,3.638914437747450825e-02,2.063777069580058354e-02,2.255757012594152011e-03,-7.827875914226546661e-03,-3.989041261389806442e-02,-1.020294864555081338e-01,-1.627589888095607729e-01,-1.730655169853504149e-01,-1.090439802797715796e-01,5.339063588647435105e-02,8.672246508869030368e-02
-2.393693763825255338e-03,7.939367006142197120e-03,-1.253956901341411224e-02,-8.306775231616145283e-03,2.880978792454139820e-02,7.730560027547303537e-02,9.782470725314794391e-02,6.730472013567709300e-02,-3.267820113553726591e-02,-5.307132966675683766e-02,1.880313529512989135e-02,3.539449548597764506e-03,-9.568487584473251567e-03,-3.863525739666573422e-02,-8.975458483457046666e-02,-1.373341465656159888e-01,-1.430024518903857955e-01,-8.905351121005117276e-02,4.352609832210497381e-02,7.149636604096153147e-02
8.046708869344013082e-03,4.506162451313883155e-04,-2.331073472275967812e-03,-1.510919639004651253e-02,-4.154530991481478197e-02,-6.800322825550986217e-02,-7.310995695512811920e-02,-4.652611277688935287e-02,2.273306238703396223e-02,3.718612740907972780e-02,2.044888047507670281e-02,2.389893303998004426e-03,-8.010859315825659410e-03,-3.977066717160800124e-02,-1.007764248789937700e-01,-1.601677173961790768e-01,-1.700160627763925569e-01,-1.070127557305908667e-01,5.240168254769476952e-02,8.511151403249277159e-02
-2.314263492953605450e-03,7.856212407391975627e-03,-1.241779476641917228e-02,-8.361403855286622666e-03,2.800251721036499386e-02,7.568970272337652294e-02,9.589704318079970979e-02,6.605820314723528930e-02,-3.211322563550150083e-02,-5.185336517888040897e-02,1.983986489191330582e-02,2.798902546905693289e-03,-8.561229677981077590e-03,-3.928907724179283439e-02,-9.662966237898487631e-02,-1.515474624571038764e-01,-1.597109550444449910e-01,-1.001819499641777439e-01,4.894775841779815811e-02,8.031737702390442935e-02
8.112446246810012251e-03,4.050400571255843851e-04,-2.269483621845671401e-03,-1.515205932412841405e-02,-4.197404251551436344e-02,-6.888837859322337331e-02,-7.415619473556710195e-02,-4.721784889971255422e-02,2.307077902242479078e-02,3.772991138346478562e-02,2.033733775967030977e-02,2.469858599715567260e-03,-8.119618468508331410e-03,-3.969955934751752402e-02,-1.000321954603565350e-01,-1.586286760098151449e-01,-1.682049213927277465e-01,-1.058063526232764090e-01,5.181442775199644746e-02,8.415422043317090373e-02
8.203136936264787682e-03,3.552380135482084700e-04,-2.206597030234819234e-03,-1.521425585285467348e-02,-4.244885905377396990e-02,-6.986928265558262074e-02,-7.536319639292356209e-02,-4.795095169351674264e-02,2.343893460459143055e-02,3.825688667094646195e-02,1.844035134980215318e-02,3.826214227560791048e-03,-9.964818998092463131e-03,-3.848549716212387728e-02,-8.738195700867787408e-02,-1.324662385933361164e-01,-1.374051130293272860e-01,-8.529701769458639116e-02,4.179751423630786306e-02,6.807647166899655211e-02
8.387384410144541058e-03,2.129421721300608916e-04,-2.009197523737729293e-03,-1.533277555949799295e-02,-4.378811595774415033e-02,-7.263296327310507505e-02,-7.858266308994349414e-02,-5.014344144734478315e-02,2.449810714326079719e-02,4.003339183553032005e-02,1.983239300361766544e-02,2.831413603712237825e-03,-8.611524424923015786e-03,-3.937775368946483390e-02,-9.666558513322538737e-02,-1.516662947457392829e-01,-1.600110701229532639e-01,-1.003482598680646987e-01,4.915383836514827104e-02,7.984586224475756500e-02
7.675368206258068038e-03,7.389496872484691004e-04,-2.731242540172996655e-03,-1.487151658868416867e-02,-3.883970817522963692e-02,-6.242064239495163924e-02,-6.661044462511259145e-02,-4.209227576871292509e-02,2.058947324020541855e-02,3.358684134796006276e-02,1.715538027601209992e-02,4.744089322101067985e-03,-1.121376028649942111e-02,-3.766139947737651844e-02,-7.881029127503723364e-02,-1.147423662473445738e-01,-1.165338282805697123e-01,-7.141065625441869735e-02,3.501222785879727628e-02,5.720231715191709254e-02
-2.977710858066334731e-03,8.349332789652039177e-03,-1.309541349949763442e-02,-7.915997144198938518e-03,3.268956888441786751e-02,8.535724432810457007e-02,1.072676265460801581e-01,7.363301658939433447e-02,-3.579258831752725467e-02,-5.792060461064933719e-02,1.986844627873809999e-02,2.774989611122984090e-03,-8.528140553111754341e-03,-3.929939641893468588e-02,-9.682080934286452223e-02,-1.519371420772474002e-01,-1.601571829167771632e-01,-1.004764485530488527e-01,4.909316445486566066e-02,8.053675161739483335e-02
8.507948889705074791e-03,1.432502287536802088e-04,-1.919037986247363464e-03,-1.541325869622103828e-02,-4.444708180883841231e-02,-7.399988334342044727e-02,-8.023630036500058182e-02,-5.116388811254318769e-02,2.499518357462455348e-02,4.085764363107508707e-02,1.745981199939972139e-02,4.526263639276863204e-03,-1.091782696195032348e-02,-3.785942115386926182e-02,-8.085041451769707510e-02,-1.189606846439665577e-01,-1.215038111148193795e-01,-7.471106215720664523e-02,3.663687590227314439e-02,5.971851126984624447e-02
7.486311983161478278e-03,8.610022268215437868e-04,-2.893282460239373147e-03,-1.474671767500408508e-02,-3.768559959616480520e-02,-6.003486261476097263e-02,-6.376601692626847340e-02,-4.025409979725112081e-02,1.969142623479822399e-02,3.214320057465475805e-02,1.918817798706706768e-02,3.289383155618892662e-03,-9.234143129085336382e-03,-3.896082780922690419e-02,-9.237552388273397030e-02,-1.427911817450289167e-01,-1.495567030200630199e-01,-9.338799123540721114e-02,4.573214534427207795e-02,7.449818622568896154e-02
-1.248278845624437028e-03,7.112238344004751661e-03,-1.141114038602157772e-02,-9.032276159930241466e-03,2.111850496486696038e-02,6.142218829995206575e-02,7.920605002589525823e-02,5.485973504669997003e-02,-2.664320941735868684e-02,-4.303291282218429242e-02,1.983749450795466163e-02,2.799967548500557901e-03,-8.562065144354029378e-03,-3.930123476216478701e-02,-9.667175056669706501e-02,-1.516375291386546920e-01,-1.598428472213228868e-01,-1.002590248036959869e-01,4.898460822500723399e-02,8.034372189138788700e-02
7.503246591600426507e-03,8.361460942331554180e-04,-2.855608787233860496e-03,-1.475495717312825736e-02,-3.791505570121746910e-02,-6.050830347503420581e-02,-6.428087172236209013e-02,-4.065206623175707940e-02,1.987428892996347118e-02,3.252605992331544099e-02,2.055427833997025555e-02,2.314028561561744246e-03,-7.907132485434599511e-03,-3.983446350410422415e-02,-1.014746964178911276e-01,-1.616093350460880429e-01,-1.717079997928910307e-01,-1.081406070492890586e-01,5.293688730395954695e-02,8.608440366111858033e-02
7.650622612189239558e-03,7.519359517272269922e-04,-2.747290233678012158e-03,-1.485454121009877407e-02,-3.871489591210466180e-02,-6.216114371356187829e-02,-6.629128548439039426e-02,-4.190456020775924079e-02,2.049972371847554389e-02,3.343115046570366289e-02,1.813718817711201803e-02,4.041806531157370042e-03,-1.025830588365821833e-02,-3.828935892687779924e-02,-8.535951228221812237e-02,-1.282837616295051941e-01,-1.324771990581206094e-01,-8.202109607370373923e-02,4.018841253045115497e-02,6.555918535011061310e-02
9.078909825589037697e-03,-2.833245412953294684e-04,-1.332713121957998514e-03,-1.578588605613827009e-02,-4.846894335928718378e-02,-8.229988033609345055e-02,-8.996059159606908939e-02,-5.771995756298288482e-02,2.817972700860228025e-02,4.608155599665565705e-02,1.984270516777889015e-02,2.825762180798462031e-03,-8.604041043711145587e-03,-3.938775660398221440e-02,-9.673207954255803875e-02,-1.518064753196204930e-01,-1.601800316505561372e-01,-1.004604530280119035e-01,4.922593058820048939e-02,7.984203253354285601e-02
-2.912705364901096994e-03,8.303708869371057705e-03,-1.303446815921813912e-02,-7.929498051502021500e-03,3.237003599073939170e-02,8.470815006029205896e-02,1.065597072061137823e-01,7.313791962414786796e-02,-3.558480147949807937e-02,-5.735019045361895718e-02,2.102103613663325321e-02,1.948430768580949879e-03,-7.402619014672526254e-03,-4.002644962068444695e-02,-1.044976720062465170e-01,-1.678045332935322875e-01,-1.788156019158582410e-01,-1.128941959492438252e-01,5.514403547280452567e-02,9.035732583185120126e-02
7.374983519401967502e-03,9.526007714171502716e-04,-3.022048293833188085e-03,-1.467586390179152767e-02,-3.682744167699061877e-02,-5.826607090224261709e-02,-6.171535664492373841e-02,-3.884052552779516942e-02,1.900945406665440970e-02,3.098644325945421746e-02,1.735810435761617199e-02,4.598987274803865988e-03,-1.101621744352293888e-02,-3.778981864656425632e-02,-8.015976185925446917e-02,-1.175324457490966035e-01,-1.198174882469483643e-01,-7.359813227385540724e-02,3.607385073391518315e-02,5.895672677899642389e-02
9.766023642287485762e-03,-7.776495936913860318e-04,-6.582320751545300830e-04,-1.624438642714532560e-02,-5.315927443664639901e-02,-9.197976218626818801e-02,-1.013720759985552722e-01,-6.527558660508203658e-02,3.185829642350758439e-02,5.205569584268516375e-02,1.915983937785031843e-02,3.314573187239051866e-03,-9.269250219220863396e-03,-3.895275971505010593e-02,-9.218011552656220353e-02,-1.423934459237711780e-01,-1.490998884303787464e-01,-9.307880623013613242e-02,4.563278211858475680e-02,7.398862809785675121e-02
8.225441024296981096e-03,3.271910846819221785e-04,-2.164292596058547957e-03,-1.522624741692833739e-02,-4.270910248249427943e-02,-7.040571285775368282e-02,-7.595283260382723611e-02,-4.840144654913171307e-02,2.364891223905059986e-02,3.865764861395312724e-02,2.005011694799332944e-02,2.675340898837690051e-03,-8.399209685255204505e-03,-3.951642471890966929e-02,-9.811804149591525637e-02,-1.546698082204722158e-01,-1.635456786333511769e-01,-1.027027329553956980e-01,5.029937546409000287e-02,8.171709048989130031e-02
8.949752985485004420e-03,-1.853849828746950701e-04,-1.467960806186940914e-03,-1.570171445129020515e-02,-4.754353476734361067e-02,-8.038952848494392012e-02,-8.772879497573403407e-02,-5.620766953038101865e-02,2.744579234698433373e-02,4.487304041465558363e-02,1.923765134759719553e-02,3.257511432059150003e-03,-9.191254239731490999e-03,-3.899946757940368769e-02,-9.270120142034701805e-02,-1.434682608397010173e-01,-1.503630376818568815e-01,-9.392101715280323782e-02,4.602599021670083362e-02,7.474544999114758614e-02
-2.426887556377238520e-03,7.964465600250582311e-03,-1.257391528962740514e-02,-8.290081464202510991e-03,2.902805105322575630e-02,7.774939774245046009e-02,9.833452680025808745e-02,6.765293914191822244e-02,-3.283910401087957592e-02,-5.342460506922147578e-02,1.845041467831717852e-02,3.792701909739876198e-03,-9.913572425208950351e-03,-3.841272680773795412e-02,-8.740146735584723714e-02,-1.324705054861803899e-01,-1.372824274648909437e-01,-8.524916644668951993e-02,4.167262555691605974e-02,6.850648609243391307e-02
-2.699374069641713447e-03,8.161614906820088833e-03,-1.284314502029309038e-02,-8.118499454664213771e-03,3.085868466642056884e-02,8.152627595099050384e-02,1.027608695676067302e-01,7.061143756343238320e-02,-3.426886834952357075e-02,-5.586737620912116120e-02,1.810372383999497847e-02,4.041684861660989336e-03,-1.025252797213513367e-02,-3.819096399895727245e-02,-8.507955993607382861e-02,-1.276704410436407255e-01,-1.316332899965007575e-01,-8.149179693368678590e-02,3.984351143828831349e-02,6.554719903440152373e-02
9.524459427055625982e-03,-6.116677643100421058e-04,-8.823732321520359745e-04,-1.607890434729334489e-02,-5.157404561917287161e-02,-8.871271346132461599e-02,-9.748174627141353854e-02,-6.276053029531496186e-02,3.062441561324870040e-02,5.012399714335945278e-02,2.053214123588065210e-02,2.335212383134790959e-03,-7.937010219814882861e-03,-3.983169527002106136e-02,-1.013186362559771875e-01,-1.612975329055055251e-01,-1.713539866321496796e-01,-1.079083302246138798e-01,5.287856492829635935e-02,8.560884218213508923e-02
8.063739994875779304e-03,4.493332709920097590e-04,-2.333093017009431683e-03,-1.512192738163830805e-02,-4.155836336056087377e-02,-6.802986528339935446e-02,-7.317883360205668097e-02,-4.652317524561358497e-02,2.274061519144368951e-02,3.713662941428386849e-02,1.926152607065009792e-02,3.239032332960981031e-03,-9.165746455613188459e-03,-3.901040167240973910e-02,-9.285817707965800250e-02,-1.437907256105495912e-01,-1.507373006436411866e-01,-9.417327569623969163e-02,4.612947268208656554e-02,7.504877224060926832e-02
9.403310519530805323e-03,-5.294628936520148765e-04,-9.929314441040268391e-04,-1.599705981774272867e-02,-5.079417798820153040e-02,-8.710256002120661534e-02,-9.556578474713718629e-02,-6.151730264308036267e-02,3.001557152405669865e-02,4.916154876632466281e-02,2.107617742501805003e-02,1.946746220548814521e-03,-7.408643831711782257e-03,-4.017986762347784679e-02,-1.049415023117020174e-01,-1.687926435315051099e-01,-1.801754615880667709e-01,-1.137879174552810096e-01,5.575003215757947522e-02,9.022682820774460821e-02
-3.334164702631203792e-03,8.613664853963868412e-03,-1.345793019580833125e-02,-7.696389938718010970e-03,3.512637374737799523e-02,9.037655810338030005e-02,1.131444759979183673e-01,7.754921079082498225e-02,-3.767659211674487946e-02,-6.112606662002181140e-02,1.912110414492285138e-02,3.308208950565050266e-03,-9.253441527029931252e-03,-3.882409485521130799e-02,-9.185368481003917951e-02,-1.416686731567363411e-01,-1.480795694975044485e-01,-9.243127997272351792e-02,4.517815837864520151e-02,7.411790244897747959e-02
-2.841298341652059856e-03,8.254245351838499639e-03,-1.296691167101656633e-02,-7.990705814025802350e-03,3.184401638611056989e-02,8.362308420952446752e-02,1.052643616646771751e-01,7.227098490992867053e-02,-3.518612294703243881e-02,-5.642638810304844571e-02,2.060715910608795776e-02,2.241941107835411506e-03,-7.801489807055327075e-03,-3.976494400763781051e-02,-1.017661806591425994e-01,-1.621617735806779592e-01,-1.721840695079722150e-01,-1.084705497745968722e-01,5.301429726051586078e-02,8.664249496812426177e-02
8.568364709707260163e-03,1.042681958844868251e-04,-1.867888907887478578e-03,-1.545284125632234370e-02,-4.481082888839629796e-02,-7.475296581978743693e-02,-8.112730533100781516e-02,-5.172147197798173529e-02,2.526125740884854753e-02,4.133053278320280438e-02,1.600631972322030805e-02,5.565820812982548438e-03,-1.233196499525232581e-02,-3.692891808923470104e-02,-7.115446541955822157e-02,-9.891357267317098245e-02,-9.789574950802608366e-02,-5.900419496338511760e-02,2.897710084412277384e-02,4.733219756644463372e-02
-3.017914134364862999e-03,8.387086814904593651e-03,-1.314985085130751692e-02,-7.873542032924573525e-03,3.310239357577979269e-02,8.621585847209350950e-02,1.083126006682586101e-01,7.430043156780925806e-02,-3.616771474321418822e-02,-5.807386104670660132e-02,2.050103608087489038e-02,2.315330544413775338e-03,-7.901952012347460141e-03,-3.969696790485034710e-02,-1.010708213475700612e-01,-1.607228733681483057e-01,-1.704890098121643882e-01,-1.073414756478993926e-01,5.246412608329988070e-02,8.574992618463871119e-02
8.308159095213013545e-03,2.710810159455429025e-04,-2.089211860424327813e-03,-1.528092859235364621e-02,-4.323743349134216013e-02,-7.149604030424783208e-02,-7.724894157504991199e-02,-4.924858522757454005e-02,2.406345457832446272e-02,3.931836310527054429e-02,1.967400585140757774e-02,2.944964616460224449e-03,-8.765717405532003070e-03,-3.927566897158046855e-02,-9.560698226230077146e-02,-1.494763791947655573e-01,-1.574325521487708879e-01,-9.863102406153373414e-02,4.831164186011021461e-02,7.851951449964492125e-02
-3.461295454860846554e-03,8.718893028656141825e-03,-1.360683579645719302e-02,-7.576900263256233781e-03,3.625526124392434296e-02,9.271422884411156806e-02,1.159549302079505850e-01,7.939244468332790072e-02,-3.863225376713258497e-02,-6.220862322610758860e-02,2.035349045682138813e-02,2.421321329210503193e-03,-8.045034483574714512e-03,-3.959748171754491619e-02,-1.000738799949475455e-01,-1.586577751026400085e-01,-1.680528894626419079e-01,-1.057186465363228467e-01,5.167043085141091729e-02,8.449081894663924841e-02
9.314645050613745703e-03,-4.421434505482296773e-04,-1.119477704291736708e-03,-1.594547963981858898e-02,-4.997774143781848893e-02,-8.541260725812557797e-02,-9.367153387677761012e-02,-6.009396545394441597e-02,2.933128312733936441e-02,4.797809086893611158e-02,1.769250313252970774e-02,4.361282646142626562e-03,-1.069292100112000099e-02,-3.801028787067769338e-02,-8.240306037056362165e-02,-1.221717989105254448e-01,-1.252871815708697656e-01,-7.722213802536678773e-02,3.787546441681996501e-02,6.161385272095429300e-02
9.523307701639061040e-03,-6.016203802645253562e-04,-8.984177660858218284e-04,-1.608278354285305745e-02,-5.149103620064853643e-02,-8.853756271329019101e-02,-9.732250397989809787e-02,-6.257742136366012398e-02,3.054599671314678702e-02,4.989361606446249264e-02,1.911914641357009836e-02,3.342108095468997175e-03,-9.306763494130211589e-03,-3.892611590769274460e-02,-9.191716330791355194e-02,-1.418486411517099199e-01,-1.484585196072522595e-01,-9.265016825954591750e-02,4.541925845178081123e-02,7.366449479890856133e-02
9.521284930900542065e-03,-5.932057206515517489e-04,-9.122193209003294501e-04,-1.608227007409874371e-02,-5.141020845213094964e-02,-8.836879907766742592e-02,-9.714690098131983920e-02,-6.241480713420791138e-02,3.046207701944678506e-02,4.980582105251281366e-02,1.800855044452373543e-02,4.135094191171723166e-03,-1.038552131949695145e-02,-3.821388269015776190e-02,-8.451456579301705463e-02,-1.265385712157344744e-01,-1.304299983468058532e-01,-8.064447687876219462e-02,3.955057601671347484e-02,6.427855535993906577e-02
-2.190665018522053309e-03,7.764568243496881850e-03,-1.229214588766341931e-02,-8.419285352902913799e-03,2.722250560001499703e-02,7.409130397108482091e-02,9.405842934804009570e-02,6.481890379565678761e-02,-3.154449437380590915e-02,-5.068007254590913002e-02,2.093373665036285525e-02,2.014003502926665912e-03,-7.493007845809245004e-03,-3.998102898569740743e-02,-1.039211253426200743e-01,-1.666194831916891772e-01,-1.774357624137535283e-01,-1.119791478902636694e-01,5.469697589238904645e-02,8.963939175273549775e-02
9.277876027300097084e-03,-4.383136616641150618e-04,-1.117253179713832700e-03,-1.591539813570912870e-02,-4.993812188970358362e-02,-8.533292173097603572e-02,-9.348815588693558387e-02,-6.013059711263156470e-02,2.934150893868607210e-02,4.805925555973122182e-02,2.100055800313616050e-02,2.000042480715419346e-03,-7.481233611658304195e-03,-4.013106924354327421e-02,-1.044410963007354198e-01,-1.677560853645355676e-01,-1.789551592351482923e-01,-1.129735307081476681e-01,5.534586538164372460e-02,8.962214112823316259e-02
8.155481596657951360e-03,3.916720697977535415e-04,-2.256879448695247453e-03,-1.518374671356179616e-02,-4.210759323461889941e-02,-6.916552582070702171e-02,-7.454210091538185368e-02,-4.739180301806628082e-02,2.316790399383120841e-02,3.780582860812068541e-02,1.800575181216595988e-02,4.136570033690230297e-03,-1.038713443598717964e-02,-3.820718572851138084e-02,-8.448492122207980348e-02,-1.264756310197657219e-01,-1.303514281141981423e-01,-8.060183621424034384e-02,3.950500612252582505e-02,6.438855417846067741e-02
-3.373929538425995966e-03,8.645025577399160360e-03,-1.350179096710455579e-02,-7.671052921741437769e-03,3.542206726839915165e-02,9.098194364121348077e-02,1.138527098104957780e-01,7.802308168782606801e-02,-3.790651778824560836e-02,-6.150261057656843111e-02,1.898579067367175965e-02,3.405259088202723661e-03,-9.385347005589139008e-03,-3.873818428310751155e-02,-9.095217165737641551e-02,-1.398051433018195344e-01,-1.458879163072412388e-01,-9.097237208292471844e-02,4.446939121947025841e-02,7.295079270555120121e-02
-2.295089818635603907e-03,7.845258556271880040e-03,-1.240450966858733933e-02,-8.345184265790259875e-03,2.800528819384646290e-02,7.570741381815007665e-02,9.596677992902581666e-02,6.608109433821179879e-02,-3.217168324384638706e-02,-5.159008443482454576e-02,2.103447450240625294e-02,1.941120981558533409e-03,-7.393042208285016681e-03,-4.004220170267786677e-02,-1.045928485725114987e-01,-1.680077302883784540e-01,-1.790664794497314471e-01,-1.130616859559430143e-01,5.523408523171545459e-02,9.042613336678223535e-02
-3.418597892189234599e-03,8.683639175157704254e-03,-1.355746805694570123e-02,-7.599508181938285228e-03,3.594492084725961489e-02,9.207568691218839807e-02,1.152095048215834305e-01,7.890207251527277255e-02,-3.837510299084240240e-02,-6.199565885318818886e-02,2.054410815889096131e-02,2.287283176047504030e-03,-7.863374638319195475e-03,-3.971931329227824936e-02,-1.013257144383285374e-01,-1.612440783388423005e-01,-1.710927481470584655e-01,-1.077500536930568742e-01,5.264239733979335367e-02,8.625053161427216619e-02
-2.211608203953857599e-03,7.787320577592956455e-03,-1.232543044006587964e-02,-8.428390721542229624e-03,2.735946792424187590e-02,7.434716980664593522e-02,9.432791735608563044e-02,6.500335581429082799e-02,-3.158868911747025193e-02,-5.109348492877569675e-02,1.954958037545831417e-02,3.007352595821133345e-03,-8.845041090575669895e-03,-3.910754541712577886e-02,-9.470051703505305563e-02,-1.475598988492564378e-01,-1.550249613819439098e-01,-9.706339282189557771e-02,4.742655616561711890e-02,7.787049822437895619e-02
7.116811414931534241e-03,1.141193682437889600e-03,-3.280189240846956289e-03,-1.450906235990978566e-02,-3.505869444586451333e-02,-5.461670808678804889e-02,-5.742640803944658312e-02,-3.596822444391398199e-02,1.761299915305865327e-02,2.869078894087753739e-02,1.627719204739361269e-02,5.372316187053138847e-03,-1.206876201487148623e-02,-3.709831274511161958e-02,-7.294412936009200821e-02,-1.026146566550453221e-01,-1.022519683441253657e-01,-6.191719991074966234e-02,3.038201875421228312e-02,4.972585558022610264e-02
-2.231616168062888761e-03,7.805952288833718777e-03,-1.235191427222064216e-02,-8.416267474360378947e-03,2.752998145499077620e-02,7.469529367588750857e-02,9.474143868798393098e-02,6.526868030966145873e-02,-3.171762626471658769e-02,-5.124782649603132345e-02,1.944209754974790538e-02,3.081792299907938626e-03,-8.945895277737418716e-03,-3.903968100613167819e-02,-9.400617388381962702e-02,-1.461243362080859587e-01,-1.533393459227267719e-01,-9.593369698236128840e-02,4.687815801712121033e-02,7.692203206346545641e-02
7.734752636234465406e-03,6.907912467833086934e-04,-2.664013835891286541e-03,-1.490875723112672704e-02,-3.928706543699321541e-02,-6.334200607451331844e-02,-6.767860494528621373e-02,-4.283294464417621711e-02,2.095029634620651851e-02,3.417597190629923648e-02,1.833148278562016231e-02,3.903474369648142484e-03,-1.006977635977989588e-02,-3.841370257003640099e-02,-8.665367540464556650e-02,-1.309597503445081301e-01,-1.356285647987020559e-01,-8.411743240753603856e-02,4.121242543002910652e-02,6.720008594569717997e-02
7.981678319558566104e-03,5.069016251639871240e-04,-2.410750403683045023e-03,-1.506855341050144549e-02,-4.101863435318598566e-02,-6.691567939365036799e-02,-7.186336637839643715e-02,-4.565195719872319757e-02,2.231609265034490558e-02,3.644682021127641086e-02,1.938752479075475654e-02,3.147686371012904660e-03,-9.041955485287370142e-03,-3.909133182329112971e-02,-9.370479053523726731e-02,-1.455414155017505373e-01,-1.527977118192860584e-01,-9.554560873345460670e-02,4.679737759772827771e-02,7.613859710166084871e-02
8.355897185549937545e-03,2.411319539426040603e-04,-2.049527017870504328e-03,-1.531332904295155950e-02,-4.352362729077681458e-02,-7.208715546913999073e-02,-7.796045360050118944e-02,-4.970109906924913973e-02,2.428681231463604775e-02,3.966242880560691408e-02,1.911397066369446840e-02,3.344762009915742962e-03,-9.309799085372359034e-03,-3.891752150694913898e-02,-9.187627968215678065e-02,-1.417607440864239732e-01,-1.483493669787425140e-01,-9.258198309601371745e-02,4.535872378292654661e-02,7.376628253415860870e-02
9.602963054661822762e-03,-6.508873524678215894e-04,-8.341173530232968980e-04,-1.613564514209773343e-02,-5.195225514676283379e-02,-8.948813274060274381e-02,-9.846283779502995603e-02,-6.329291829687196114e-02,3.089255621452548228e-02,5.050073443460516981e-02,1.797016096011402886e-02,4.163185286140069774e-03,-1.042365811626159988e-02,-3.818924431593530983e-02,-8.425448227615452146e-02,-1.260009202590050559e-01,-1.297964814802782252e-01,-8.022336120681836102e-02,3.934680621189761557e-02,6.394284068265015941e-02
7.916433469290912184e-03,5.469247654295468497e-04,-2.463323842180878756e-03,-1.502491811932804566e-02,-4.063875898304637746e-02,-6.613139062629781739e-02,-7.091806642140761896e-02,-4.505119271289143024e-02,2.201868769312200630e-02,3.599685165761068451e-02,2.010768962056774800e-02,2.633612986184433180e-03,-8.342237358619317145e-03,-3.955138336390245923e-02,-9.850114377923860354e-02,-1.554610508775088329e-01,-1.644746179487636129e-01,-1.033219449436512116e-01,5.059502919074288646e-02,8.223769563023172746e-02
9.901003892342857826e-03,-8.891261741994921364e-04,-5.014472964656145615e-04,-1.632953082299351544e-02,-5.420984005126782551e-02,-9.415538771160952836e-02,-1.038718057660550920e-01,-6.703039485966437450e-02,3.270024796449901017e-02,5.351557007320725812e-02,2.084742477959306006e-02,2.111190578738132706e-03,-7.632816566927429214e-03,-4.003590788209050733e-02,-1.034144960676907227e-01,-1.656371058480392566e-01,-1.764621706496246056e-01,-1.113169633946974463e-01,5.455531957461372955e-02,8.822433435177591543e-02
-3.147444527434067885e-03,8.476110242863266198e-03,-1.327013531633408627e-02,-7.801449095779389858e-03,3.389920963986622210e-02,8.785027309652373995e-02,1.102010301610082815e-01,7.558550746042869140e-02,-3.673670485470563463e-02,-5.952057918730286473e-02,1.984467712807647111e-02,2.791982091159939117e-03,-8.550999702130059055e-03,-3.928226060669059994e-02,-9.665760233554870906e-02,-1.515981586104382384e-01,-1.597554071041341062e-01,-1.002092330893888800e-01,4.896150028973426244e-02,8.034183157380321572e-02
8.991779349273115729e-03,-2.091155240944060634e-04,-1.437116514198699679e-03,-1.573130185668178416e-02,-4.777395022047342676e-02,-8.086625356171889267e-02,-8.831033028490122005e-02,-5.655201231528275002e-02,2.761171581885164469e-02,4.516385104794511107e-02,1.815653213941242905e-02,4.028987885260959523e-03,-1.024119916600788049e-02,-3.830721530146076470e-02,-8.549834829055139029e-02,-1.285720696413815423e-01,-1.328235326665622995e-01,-8.224168871900312816e-02,4.032110051532224876e-02,6.558958715618598556e-02
-3.275434705387075818e-03,8.565571909949200313e-03,-1.339003673055303226e-02,-7.752353739850816050e-03,3.460713025681587396e-02,8.930024982674816814e-02,1.118494632674023742e-01,7.670423537957400673e-02,-3.724506508847649777e-02,-6.061405595567823101e-02,1.843768600310297101e-02,3.800102965718046844e-03,-9.923732207878573075e-03,-3.839449588157272525e-02,-8.729114137582279220e-02,-1.322399692638746849e-01,-1.369937557410143003e-01,-8.505784134175051192e-02,4.158265391247729231e-02,6.833601158953631072e-02
8.547393696754751469e-03,1.146244864988522905e-04,-1.880323727895250735e-03,-1.543897149069249977e-02,-4.471413247060572471e-02,-7.455117010978437597e-02,-8.088479979613506787e-02,-5.159579812056611786e-02,2.520473588825755326e-02,4.120445769618475557e-02,1.748870825842152588e-02,4.506264845066602909e-03,-1.089035112636265248e-02,-3.787768818205181076e-02,-8.103970005982434610e-02,-1.193520677565706178e-01,-1.219648012152960148e-01,-7.501756301892381629e-02,3.678694406357025520e-02,5.995732301572223588e-02
9.358660429202386721e-03,-4.823100049358916563e-04,-1.061588104910030778e-03,-1.597252614400874321e-02,-5.035734769118381526e-02,-8.619868223663001983e-02,-9.456184054881427992e-02,-6.075702415489287606e-02,2.965557605219205917e-02,4.850200308655044923e-02,1.936248730315823230e-02,3.168597227354831569e-03,-9.070749447558285050e-03,-3.908152150668095515e-02,-9.353519194371676115e-02,-1.451947256993103286e-01,-1.523972723894637948e-01,-9.527553216150967674e-02,4.669771840633137744e-02,7.575341319782524785e-02
7.649522773233524697e-03,7.401947337080348743e-04,-2.727749004079875125e-03,-1.485184763900772656e-02,-3.881854469244402916e-02,-6.237343581104519419e-02,-6.650429247351942463e-02,-4.209824775447895684e-02,2.058544575685490596e-02,3.363200136525661132e-02,1.974771015767490256e-02,2.891120012995886113e-03,-8.692243429251914066e-03,-3.931921364018224618e-02,-9.609613679899847716e-02,-1.504859920610988611e-01,-1.586156389742536810e-01,-9.942153350828547564e-02,4.868175096277956720e-02,7.922961748554900596e-02
8.130279505815102281e-03,4.129255092544872885e-04,-2.286790349342879627e-03,-1.516739923595082987e-02,-4.190695524114897152e-02,-6.875377441791852284e-02,-7.406477723601885554e-02,-4.705569333152670453e-02,2.299980909583467306e-02,3.756138870641241578e-02,1.736420706636995770e-02,4.594845300838680535e-03,-1.101074190556736512e-02,-3.779664824420981423e-02,-8.020831251886627322e-02,-1.176328327175166222e-01,-1.199392748159525957e-01,-7.367208870301268642e-02,3.612223706984115518e-02,5.894188295981442338e-02
-2.552950778372919949e-03,8.034623535918859055e-03,-1.266370909223213728e-02,-8.184955421979108608e-03,2.975760953023882938e-02,7.931830302333738036e-02,1.001914051974671233e-01,6.890680976666803403e-02,-3.352172542004508426e-02,-5.398324062524750139e-02,2.053958076420392409e-02,2.295290672752081651e-03,-7.875166246235562606e-03,-3.972727011334018649e-02,-1.012936155108541542e-01,-1.611857291406434689e-01,-1.710397552112994657e-01,-1.077195676973530664e-01,5.262507708077701629e-02,8.623956856438116936e-02
8.822888995889510699e-03,-1.123563319585171860e-04,-1.561813617953024258e-03,-1.561500853049870019e-02,-4.685242810556401044e-02,-7.896153115638557263e-02,-8.598276012091164711e-02,-5.513650433734322565e-02,2.691371917530502658e-02,4.407183883083838627e-02,2.114206309941712991e-02,1.897910658443663356e-03,-7.341794390996747577e-03,-4.021884238963751440e-02,-1.053859693979504186e-01,-1.697076782069338319e-01,-1.812504369267581572e-01,-1.145000391965571435e-01,5.608030107463483210e-02,9.087589413279587025e-02
-2.520865282362533266e-03,8.033315789038819599e-03,-1.266792354452609369e-02,-8.230374814144264528e-03,2.966795482340659623e-02,7.906907547306363249e-02,9.988371296991177539e-02,6.868580370257935941e-02,-3.333766625862578936e-02,-5.427460985097605495e-02,1.834243464684631730e-02,3.869192796745898888e-03,-1.001798056102257140e-02,-3.834400828345478629e-02,-8.668483303797784589e-02,-1.309889094645202146e-01,-1.355388581094081890e-01,-8.408880495376827580e-02,4.110861866701179951e-02,6.758289612681325775e-02
-3.095645488845083504e-03,8.432635257281235336e-03,-1.320783145181258014e-02,-7.874534425941694116e-03,3.333916535942181569e-02,8.668395810878601337e-02,1.087720915992615028e-01,7.465237723940683356e-02,-3.625071664536233529e-02,-5.894694852265252444e-02,1.831369672508875723e-02,3.890151647876038954e-03,-1.004613176113482512e-02,-3.831787624068134362e-02,-8.646437066780672531e-02,-1.305327210691622219e-01,-1.349898595796053258e-01,-8.372389349162631667e-02,4.093526423953413457e-02,6.725951362098321618e-02
8.408684638846419812e-03,2.147532099703690356e-04,-2.017257798809747246e-03,-1.534842000780843596e-02,-4.376932814834150198e-02,-7.260096191368267671e-02,-7.859244974268730921e-02,-5.006254069539388396e-02,2.445638348242549012e-02,3.999285319004797917e-02,1.721705138722320894e-02,4.700470284571316160e-03,-1.115440192687492879e-02,-3.770321926617800634e-02,-7.922708627331309650e-02,-1.156040543134841253e-01,-1.175510906760262875e-01,-7.208088822398414641e-02,3.535074802560651819e-02,5.766238480101605612e-02
-2.854923947809118179e-03,8.259721132857156950e-03,-1.297171084015520670e-02,-8.030028517499801510e-03,3.171957371199939785e-02,8.333259087908151397e-02,1.048464168400441571e-01,7.202911511703351255e-02,-3.497043781925492090e-02,-5.689952722774045679e-02,1.826539748915781414e-02,3.925186633151403481e-03,-1.009435157883906489e-02,-3.829078263234991786e-02,-8.614843100690321165e-02,-1.298805997987448890e-01,-1.342275277506405351e-01,-8.321824387239298848e-02,4.068563343860136239e-02,6.689197638521990341e-02
-2.212051357961403175e-03,7.787916003284312688e-03,-1.232578608336796708e-02,-8.429135067598073766e-03,2.735816779238199603e-02,7.434307003796658542e-02,9.432549054616232165e-02,6.500067923720834195e-02,-3.158802080737417584e-02,-5.108695703604253235e-02,1.950558083826270384e-02,3.037972014569005619e-03,-8.887140654379711846e-03,-3.908033186702796619e-02,-9.441290368207121142e-02,-1.469654183352253063e-01,-1.543261202942453059e-01,-9.659837113656161156e-02,4.720074907949226711e-02,7.749884658180619668e-02
-2.801366378592573536e-03,8.216790548253614240e-03,-1.291198967194030073e-02,-8.051284173238880404e-03,3.136108076225369717e-02,8.261723175345178638e-02,1.040207044240866324e-01,7.147118622596013160e-02,-3.473799200074051408e-02,-5.615486856719602293e-02,1.929378361436806522e-02,3.185753805744921674e-03,-9.087389947280324898e-03,-3.893915326061955784e-02,-9.301023255072404794e-02,-1.440636628171909073e-01,-1.509046596649181449e-01,-9.431252965359390728e-02,4.609622754874524025e-02,7.558504656618297846e-02
8.767658762299138098e-03,-4.535965244237272209e-05,-1.661854217790702942e-03,-1.558412564045707702e-02,-4.622422615859343026e-02,-7.766761889416660958e-02,-8.455407719905431996e-02,-5.403285353053716156e-02,2.638380326805110643e-02,4.316944270567956571e-02,1.754627152065224571e-02,4.465415061346476866e-03,-1.083455092259006519e-02,-3.791505804345318004e-02,-8.142507526167175325e-02,-1.201489257974984737e-01,-1.229041414323808895e-01,-7.563989356713124446e-02,3.709315592713183229e-02,6.042821338113363305e-02
7.994789083875311619e-03,5.071270588976918570e-04,-2.414433711121722823e-03,-1.507885164098458214e-02,-4.101926980040462162e-02,-6.691876550730330164e-02,-7.189748881874515052e-02,-4.562969495502062350e-02,2.231122515317252031e-02,3.640077853313948564e-02,1.792956925948524516e-02,4.191097081346309428e-03,-1.046128579076474260e-02,-3.815769622578800424e-02,-8.397406171491136884e-02,-1.254192500594175086e-01,-1.291065868976239983e-01,-7.977500923988342652e-02,3.909869118699586810e-02,6.375653513424207885e-02
9.173094218841132408e-03,-3.458981468605071274e-04,-1.248700547318799814e-03,-1.585014562131844412e-02,-4.906507981497999077e-02,-8.353103311611878579e-02,-9.143335362849770720e-02,-5.865521616436022295e-02,2.863501656581947385e-02,4.680658108112765309e-02,1.894787659172617045e-02,3.463858860894834801e-03,-9.472179946167075953e-03,-3.881496407896134482e-02,-9.077646231790455211e-02,-1.394880365736815009e-01,-1.456781877572338735e-01,-9.079879455036968250e-02,4.450611397699547750e-02,7.226016407365089267e-02
-2.514093115943499823e-03,8.008967664112867646e-03,-1.262941002367579980e-02,-8.196886299593194453e-03,2.956422739226019503e-02,7.892218817154353361e-02,9.975026383444474121e-02,6.860207407992367779e-02,-3.339104520225146672e-02,-5.364351883561709056e-02,2.103586174347538140e-02,1.938478138028276732e-03,-7.389481528994990001e-03,-4.004080907735622918e-02,-1.046055960372955507e-01,-1.680318517142727619e-01,-1.790907367676412010e-01,-1.130770728074553255e-01,5.523933928254499970e-02,9.045196842030313322e-02
8.936739780901870045e-03,-1.804486907472577228e-04,-1.473120659678247429e-03,-1.569288689655755006e-02,-4.749959722561476749e-02,-8.029750394695578386e-02,-8.760738845349577697e-02,-5.614996273596992160e-02,2.741724459998548871e-02,4.482706224813298029e-02,1.975548506490740208e-02,2.887547294606662707e-03,-8.688123133502839712e-03,-3.933137889508434709e-02,-9.615259244056728605e-02,-1.506071047712207733e-01,-1.587674596457664122e-01,-9.951932839889993110e-02,4.876095191389134137e-02,7.913387618953161839e-02
-1.353137645145219281e-03,7.182130589786037828e-03,-1.150469457929236862e-02,-8.963334734014560823e-03,2.177648062134225973e-02,6.278751544725252876e-02,8.080709316843981416e-02,5.594166775788542850e-02,-2.717470141396889638e-02,-4.392317029129938488e-02,1.999793541702041266e-02,2.686990579181938732e-03,-8.408949896672540669e-03,-3.940144676652074934e-02,-9.771749155870923520e-02,-1.537987808238679421e-01,-1.623796479589627861e-01,-1.019558357784175612e-01,4.980826000848095902e-02,8.174962571238965359e-02
9.173667162289483867e-03,-3.485396637997878466e-04,-1.244765051581310511e-03,-1.584924271546601232e-02,-4.908590932259934009e-02,-8.357411391875141371e-02,-9.147147407157334154e-02,-5.870522126883720437e-02,2.865824175182508232e-02,4.687012586391145486e-02,1.942794594987673484e-02,3.122169781431330393e-03,-9.007198848826294957e-03,-3.912231141107301580e-02,-9.396812146299832191e-02,-1.460895053780090214e-01,-1.534500684626605715e-01,-9.597695430229137570e-02,4.703642786745871468e-02,7.632379254293915338e-02
-2.244235055973820003e-03,7.805764634246578626e-03,-1.234931195133532299e-02,-8.389170778434585501e-03,2.759253700902285916e-02,7.485347689448630659e-02,9.494288028066519280e-02,6.541181853806277147e-02,-3.183426526014847963e-02,-5.111933008315262816e-02,2.066826018858664016e-02,2.204148504863577551e-03,-7.751411357177079298e-03,-3.981225007740064187e-02,-1.021533484937329622e-01,-1.629655003464177687e-01,-1.731382541658624818e-01,-1.091172502063126881e-01,5.330748907941202513e-02,8.733479695024704004e-02
-3.481965696950028999e-03,8.719466539658521365e-03,-1.360142924029443708e-02,-7.618022451675487278e-03,3.605428403953073874e-02,9.227924163606651686e-02,1.153484971779202284e-01,7.903562939452223046e-02,-3.837410850774567589e-02,-6.250902041256375941e-02,1.823171114932409242e-02,3.947090429575916826e-03,-1.012374050061167624e-02,-3.826248243038497115e-02,-8.591804724750276567e-02,-1.294007721793427323e-01,-1.336522692565449699e-01,-8.283363728263980208e-02,4.050167918804881140e-02,6.656601133522030422e-02
9.383276764335729547e-03,-5.066277376442537839e-04,-1.026763247946420321e-03,-1.598630981154645220e-02,-5.058095218382555047e-02,-8.666122098416091657e-02,-9.508013615177141054e-02,-6.114511156767769851e-02,2.984136671918938971e-02,4.882572027590791758e-02,2.021693590716619471e-02,2.559652472468511297e-03,-8.242177401215154686e-03,-3.962898133685591878e-02,-9.922158772983113995e-02,-1.569579989929839881e-01,-1.662455437940810465e-01,-1.045027909427115875e-01,5.120931318957755440e-02,8.296679104983892272e-02
-2.426032068631150951e-03,8.147993109824488989e-03,-1.287311422306195233e-02,-8.629109249581812940e-03,2.925831928902510731e-02,7.904358012716729276e-02,1.002753274329035577e-01,6.935020978064090902e-02,-3.360143623395011464e-02,-5.494940729366004639e-02,1.985597891489188083e-02,2.402659245413163447e-03,-7.917038281615683404e-03,-3.868390838800578324e-02,-9.758335762590507334e-02,-1.547847708904212249e-01,-1.641553077482528766e-01,-1.036355480224280257e-01,5.048623228456553674e-02,8.362819047488441460e-02
-2.241505538778471029e-03,8.003538064501693194e-03,-1.267276239466183507e-02,-8.741252330599701831e-03,2.793604420818412981e-02,7.629390555285041342e-02,9.702850855149876275e-02,6.717514120203685324e-02,-3.255454236213085883e-02,-5.314046183428754178e-02,1.990381743840696771e-02,2.367280373800538518e-03,-7.868334897173076548e-03,-3.871312837103948329e-02,-9.790774382032589596e-02,-1.554632140672556895e-01,-1.649602256108103904e-01,-1.041731950082997182e-01,5.074964107601707269e-02,8.403237708835990805e-02
-2.937614644855701673e-03,8.541225581397367261e-03,-1.341489249821698621e-02,-8.363538799092195414e-03,3.267770742489477936e-02,8.614572552570433361e-02,1.085950024669145725e-01,7.493837832457439507e-02,-3.626007713427473883e-02,-5.971213270951183233e-02,1.804084607753903002e-02,3.763774579560438815e-03,-9.788507806165469560e-03,-3.764450248892732553e-02,-8.538571947789636019e-02,-1.293414071022146450e-01,-1.341085639185435330e-01,-8.352908718849413883e-02,4.072970807276662247e-02,6.753655832639454681e-02
9.502728982797581381e-03,-8.157513209411729194e-04,-5.447404971439043231e-04,-1.570700114607546244e-02,-5.188416397197014723e-02,-9.011492394117945337e-02,-9.955981978824139655e-02,-6.441091955686334414e-02,3.133091057633424770e-02,5.181346701565264778e-02,1.928608951833529761e-02,2.863857786746637490e-03,-8.557270094574243036e-03,-3.845854441971317816e-02,-9.381403561212735276e-02,-1.469702697225437338e-01,-1.550962482943230580e-01,-9.754699092090819701e-02,4.767511171593562247e-02,7.805953703595167048e-02
7.337466586501570354e-03,8.161906194871330900e-04,-2.791160243530104931e-03,-1.441614372638425762e-02,-3.705523516235067344e-02,-5.921948744444370527e-02,-6.303585277737133730e-02,-3.998314400764285681e-02,1.949209660709604400e-02,3.222006453275967630e-02,1.946419573235910749e-02,2.725268176597156478e-03,-8.365819657239009777e-03,-3.855078856559138872e-02,-9.502050320644239711e-02,-1.494803253844327051e-01,-1.580504929686818438e-01,-9.952644432366072880e-02,4.858590714826260815e-02,7.990653414392012710e-02
7.110230939627718016e-03,1.000423550264559897e-03,-3.048552595156179060e-03,-1.428517427231613436e-02,-3.539159798449715427e-02,-5.575494367334522805e-02,-5.897854225283073043e-02,-3.721621876940707507e-02,1.816299413066349913e-02,2.992739355306398702e-02,1.781739486049166432e-02,3.960876710400275391e-03,-1.006309691425790950e-02,-3.759563892212258729e-02,-8.392278184651046080e-02,-1.263218468770086478e-01,-1.306725345894232948e-01,-8.120774208903541735e-02,3.967158985860833736e-02,6.540934019798448629e-02
7.439778190067913854e-03,7.394611450150211096e-04,-2.685287891593909557e-03,-1.447658971214655504e-02,-3.775216920945607957e-02,-6.067149790765551109e-02,-6.475136935373035363e-02,-4.113282393652679947e-02,2.004835673441814764e-02,3.314835699239301881e-02,1.950779442997685464e-02,2.692123823156609974e-03,-8.320525648657081663e-03,-3.857681408143900925e-02,-9.531798402057858888e-02,-1.501016517302580788e-01,-1.587859530310442024e-01,-1.000180427474801764e-01,4.882967530099693171e-02,8.026598610930993360e-02
8.253141519789300440e-03,1.508863893500758668e-04,-1.882761453170182092e-03,-1.496186470273814205e-02,-4.308912677855158968e-02,-7.179656082923462079e-02,-7.795736760479823890e-02,-4.986534079933682695e-02,2.428071755650278510e-02,4.017147131407421828e-02,1.616429113221926062e-02,5.202423358422372801e-03,-1.176863241292025464e-02,-3.664180339319153545e-02,-7.279072050774633429e-02,-1.030951904106708339e-01,-1.032157999341609816e-01,-6.283258936255201044e-02,3.075908696704455353e-02,5.069057993643857896e-02
-2.953484083407703631e-03,8.553817404492420479e-03,-1.343271527863284034e-02,-8.359135943485366399e-03,3.277756240176032954e-02,8.634562001384837870e-02,1.088222079661809588e-01,7.509610476692965553e-02,-3.632688733816307608e-02,-5.992077279118056959e-02,1.769713355717272840e-02,4.026044586857922825e-03,-1.014800259504161986e-02,-3.744718389296513433e-02,-8.305087606098815467e-02,-1.244716686561112007e-01,-1.283587047627093025e-01,-7.968483444557071527e-02,3.886336975126627319e-02,6.448616803171998424e-02
-2.536116613950589738e-03,8.242828627633255051e-03,-1.300658165165291535e-02,-8.593511533328837548e-03,3.001704262532902540e-02,8.058545002434416848e-02,1.020615406759691757e-01,7.054553119735076927e-02,-3.412892562862556572e-02,-5.620075078853159489e-02,1.801890556506105523e-02,3.784782457810623169e-03,-9.816024009000400702e-03,-3.763526831839723169e-02,-8.522861812115513358e-02,-1.290145597859458371e-01,-1.337309714728325827e-01,-8.327763498898949068e-02,4.060373270796421158e-02,6.736704504676269134e-02
9.278805875162665640e-03,-6.422287949421415232e-04,-7.847715731603560618e-04,-1.557331966978166282e-02,-5.030381208089151207e-02,-8.682202582800153945e-02,-9.568522481537801438e-02,-6.179165046576253623e-02,3.006605390684669032e-02,4.966896421969911601e-02,1.876427909144764983e-02,3.253134045871325375e-03,-9.091724639659164858e-03,-3.815448253998703076e-02,-9.031132080978437893e-02,-1.396576725377869088e-01,-1.464512777657938081e-01,-9.175521182922521946e-02,4.485083901510737714e-02,7.349120798407289545e-02
8.847612538785826208e-03,-3.260981924690549427e-04,-1.217239860479991248e-03,-1.531040463443485156e-02,-4.742250185393327017e-02,-8.081910922058520297e-02,-8.854668719844382974e-02,-5.709346597785817240e-02,2.777946862235396164e-02,4.597796781208318695e-02,2.019466529613511696e-02,2.181248575227411057e-03,-7.619863012167785166e-03,-3.898347185200631143e-02,-9.993328180154678608e-02,-1.597417794643486433e-01,-1.701904204771378104e-01,-1.076559813760521317e-01,5.258250414686624352e-02,8.613146972967300474e-02
-2.124041311605984195e-03,7.915743962173642234e-03,-1.255119248947399353e-02,-8.825674077134672280e-03,2.708707112772604231e-02,7.450871292675462221e-02,9.490687225471959587e-02,6.575563319732760648e-02,-3.184224144937213008e-02,-5.214841113115861043e-02,1.912115625849283851e-02,2.956112869085175676e-03,-8.678391728732068322e-03,-3.826915271221720261e-02,-9.264685062701587259e-02,-1.444902839272341200e-01,-1.520074523435312464e-01,-9.550920001875595755e-02,4.653976092706587492e-02,7.714922369067540864e-02
7.941504057178291887e-03,3.610356747270025701e-04,-2.164720077466843889e-03,-1.477149249012428382e-02,-4.117570988968041051e-02,-6.780402413648065063e-02,-7.317343269861470434e-02,-4.678320979755705433e-02,2.278457360983948687e-02,3.769331475279349281e-02,1.985300135151812917e-02,2.435180868282933730e-03,-7.967640982692342222e-03,-3.877969947120709499e-02,-9.763779160579902361e-02,-1.549451475438815007e-01,-1.645153905873843470e-01,-1.038531107355070149e-01,5.070700243707827737e-02,8.324739439428757715e-02
9.338988285945620804e-03,-6.980925411746441434e-04,-7.047022240242485636e-04,-1.560454594932153029e-02,-5.080580396521520992e-02,-8.787202331836939384e-02,-9.687801948282494247e-02,-6.266615379305819078e-02,3.047660377772119095e-02,5.047194589341132825e-02,2.017028952803739950e-02,2.200860622404661460e-03,-7.647238869374343995e-03,-3.897195298235430622e-02,-9.976484255938176948e-02,-1.593934108638641045e-01,-1.697802324723750589e-01,-1.073843400071174958e-01,5.246447440048632171e-02,8.584397622686809615e-02
8.433979297100588357e-03,-1.427598568201279838e-05,-1.646580643141996175e-03,-1.506221968688366969e-02,-4.458284864106241974e-02,-7.490326201365973824e-02,-8.154703229096155193e-02,-5.241325360679067319e-02,2.550860728771660660e-02,4.223647932575278624e-02,2.034319943601292646e-02,2.068899702326522372e-03,-7.465158413952281691e-03,-3.906713488554953984e-02,-1.009351580267771747e-01,-1.618308592140557389e-01,-1.726574304090363887e-01,-1.093067577741271834e-01,5.337604652185114207e-02,8.748988173793526002e-02
9.489537098504835511e-03,-8.187854313075268453e-04,-5.367785692450555146e-04,-1.569285715603200432e-02,-5.190162372435942056e-02,-9.015702227711366867e-02,-9.955427271397168654e-02,-6.448823595129851705e-02,3.135264240787299928e-02,5.197349631105210865e-02,2.070769402900929368e-02,1.800005716065741779e-03,-7.096744976564095531e-03,-3.928467484725285674e-02,-1.033707525078017692e-01,-1.669240011053071682e-01,-1.786804260810931910e-01,-1.133504268483186417e-01,5.537415590249785552e-02,9.054306478034607197e-02
8.280722081058997097e-03,1.235799737440632096e-04,-1.842909817773588643e-03,-1.497763269505971578e-02,-4.333925437225182725e-02,-7.231388925359816255e-02,-7.855915033759564015e-02,-5.030856028922592316e-02,2.450287585244298461e-02,4.048401118935612136e-02,1.765104579675619290e-02,4.086548980077611692e-03,-1.023612983080258304e-02,-3.750444061486862130e-02,-8.281127489897451011e-02,-1.240031971273069383e-01,-1.279384420698123359e-01,-7.936924715478779757e-02,3.879875154566291007e-02,6.382906893526414660e-02
7.542040958165824316e-03,6.634918999340669310e-04,-2.581448524826607596e-03,-1.453692842351813307e-02,-3.843773482123343660e-02,-6.209937304835193295e-02,-6.644183042491058622e-02,-4.226128751138735068e-02,2.059629833963057266e-02,3.404723535596018702e-02,1.945995672921771447e-02,2.728893442973480410e-03,-8.370794057767388940e-03,-3.854937609588761360e-02,-9.499214697523361561e-02,-1.494219233199959307e-01,-1.579834078001035313e-01,-9.948058927362636583e-02,4.857040783384775073e-02,7.982860542090894351e-02
7.921067675788748264e-03,3.713161862019843940e-04,-2.177366650449494637e-03,-1.475840097742363473e-02,-4.108155462741671510e-02,-6.760857933914196649e-02,-7.292595095269860384e-02,-4.663732349313112063e-02,2.270892850824610815e-02,3.760285828405218744e-02,2.027743329579023701e-02,2.116968057662829694e-03,-7.530636365187449999e-03,-3.902568526089457424e-02,-1.004945397831637777e-01,-1.609080845164048701e-01,-1.715632144488469513e-01,-1.085724834994852422e-01,5.300430853694820116e-02,8.698246728438506492e-02
9.116244910557791403e-03,-5.214555993059283301e-04,-9.501455389792114181e-04,-1.547312592620819424e-02,-4.920047587064891453e-02,-8.452521788388211998e-02,-9.295531535411144519e-02,-5.999411751075287014e-02,2.919211273477332474e-02,4.825044774089456978e-02,1.932249813481656808e-02,2.834216340639815479e-03,-8.516568832695262103e-03,-3.847829733806687469e-02,-9.407091303980402719e-02,-1.475049008383469418e-01,-1.557277307384322407e-01,-9.796751828682145891e-02,4.787389012944331945e-02,7.841066124649684332e-02
9.349251394513952151e-03,-7.018543898996004726e-04,-7.006681292705714548e-04,-1.561286931747571209e-02,-5.084248417011781596e-02,-8.794709377097711944e-02,-9.698961131131696167e-02,-6.270421442930318445e-02,3.050759540450928217e-02,5.040668404513196088e-02,1.957323211744319003e-02,2.647106691877676443e-03,-8.259800685102271223e-03,-3.862490670750103050e-02,-9.575489493425816401e-02,-1.510217147288863415e-01,-1.598855001788908603e-01,-1.007532238812053060e-01,4.923782392345884412e-02,8.057419314010745570e-02
-2.516120630280588299e-03,8.221302611431339363e-03,-1.297539726322218326e-02,-8.567094330183804701e-03,2.995210230315488442e-02,8.049061895145148693e-02,1.019992112430712361e-01,7.049521104843949060e-02,-3.416902108629345236e-02,-5.578607805399710129e-02,2.013320971126536518e-02,2.191944784623381381e-03,-7.627362067489248942e-03,-3.884076690301629942e-02,-9.945876741319797931e-02,-1.586960980598330906e-01,-1.687721165543065172e-01,-1.067214519265012179e-01,5.199052092856643742e-02,8.604473811228854907e-02
8.637482572584342932e-03,-1.413762284457470431e-04,-1.479415480711468445e-03,-1.519139141814109320e-02,-4.574762886759684705e-02,-7.733163092099815117e-02,-8.450143932661594026e-02,-5.423828100062005886e-02,2.639610309822119916e-02,4.370046952553587050e-02,1.635533031538810578e-02,5.058774838181838429e-03,-1.157148406757938300e-02,-3.675360275576504410e-02,-7.408295796713673664e-02,-1.057913039197558025e-01,-1.064039019111539253e-01,-6.496111442965209204e-02,3.179844481164664782e-02,5.235459667850857202e-02
-3.228384168778325458e-03,8.773763454874541207e-03,-1.373966674325398721e-02,-8.178895467030097149e-03,3.483736844568407348e-02,9.063804423354970830e-02,1.139096146370180002e-01,7.849188120645687883e-02,-3.798714836205493300e-02,-6.253084749619883254e-02,1.826682935617759962e-02,3.594734113432807021e-03,-9.554420833938349900e-03,-3.776832606596722264e-02,-8.689418971404880288e-02,-1.324847906515519425e-01,-1.378148905093203591e-01,-8.600608940743466324e-02,4.193438562640895012e-02,6.949402258020126455e-02
9.294715554584609407e-03,-6.476341591424294997e-04,-7.795255425571863406e-04,-1.558512726695287197e-02,-5.035603575957139921e-02,-8.692655766451685972e-02,-9.583471700317057473e-02,-6.184344437126326754e-02,3.008832112015081064e-02,4.973657597973092648e-02,1.762172910396728187e-02,4.109813313394640455e-03,-1.026799024635175611e-02,-3.749034867330451604e-02,-8.261589831209416313e-02,-1.235967989410371726e-01,-1.274605413394094833e-01,-7.904239820553482510e-02,3.865886682690915926e-02,6.345643559904735886e-02
8.504435488292036438e-03,-4.634786561155679330e-05,-1.608400598464079789e-03,-1.511128849354597542e-02,-4.488452083100806511e-02,-7.553337175158969519e-02,-8.236281238719228570e-02,-5.285326423807085866e-02,2.573263483714309866e-02,4.254730529107497022e-02,1.774041443147239550e-02,4.017917253117626875e-03,-1.014264877906420267e-02,-3.755806448667318304e-02,-8.342504921748393476e-02,-1.252842043028794539e-01,-1.294540391169702598e-01,-8.038169835576999822e-02,3.929558647920397552e-02,6.460620000818242947e-02
8.341480134428147508e-03,6.690465819794016999e-05,-1.761550678476216797e-03,-1.501201370557252168e-02,-4.385517833150704564e-02,-7.338506585685081185e-02,-7.979820194475149842e-02,-5.118487072282310729e-02,2.492526836669953574e-02,4.118779953216292200e-02,1.906180321541217637e-02,3.028201632591827341e-03,-8.782719493637992925e-03,-3.832345669469295474e-02,-9.231625590960187977e-02,-1.438394497349610446e-01,-1.513904596054115870e-01,-9.506499764865672386e-02,4.643937502729145184e-02,7.623893376635476615e-02
7.548629824411248745e-03,6.458627588165066769e-04,-2.553419211250610235e-03,-1.453748015417706367e-02,-3.859410272184603252e-02,-6.242707739019751068e-02,-6.678766179329666264e-02,-4.254236929998889832e-02,2.071812383497120130e-02,3.435400585848714244e-02,2.057051731006132034e-02,1.896005092517680235e-03,-7.226939844496897691e-03,-3.919298009724217491e-02,-1.024691461217728944e-01,-1.650281422550446686e-01,-1.764293229063658153e-01,-1.118305524584616711e-01,5.458419013545142556e-02,8.959093964301427515e-02
8.972686923135991810e-03,-4.255615041930047027e-04,-1.078794974883841296e-03,-1.538364356221754575e-02,-4.832559685974828489e-02,-8.270206438101455892e-02,-9.075357722736024368e-02,-5.859415355257118624e-02,2.850139141499757195e-02,4.721209553898755851e-02,2.061678412095308000e-02,1.865513082330919059e-03,-7.186513510156804230e-03,-3.922935263793171645e-02,-1.027710078091575441e-01,-1.656673769509349747e-01,-1.771942840425388965e-01,-1.123492920035434883e-01,5.487166548405613548e-02,8.982571710442989465e-02
9.233114345385734500e-03,-6.223223535772245962e-04,-8.077994943466795807e-04,-1.553805983362664504e-02,-5.010928257059739377e-02,-8.642210552866501361e-02,-9.514968010058985626e-02,-6.153065954451159697e-02,2.993149952745617626e-02,4.952125826631074285e-02,2.056729839060794651e-02,1.902978166727728460e-03,-7.237889879909968627e-03,-3.920136848441259370e-02,-1.024372071512584803e-01,-1.649732553364197107e-01,-1.763748473154747587e-01,-1.118007487588151549e-01,5.461988408622279328e-02,8.930135335468121494e-02
9.299407026551187450e-03,-6.581259505517092490e-04,-7.626336225643737254e-04,-1.558610056235675868e-02,-5.045113913362447161e-02,-8.712827199062166128e-02,-9.604818441211425417e-02,-6.203338242461785973e-02,3.018410493809545528e-02,4.985679978589700051e-02,1.874729583247383702e-02,3.265610565884556615e-03,-9.108996796172885713e-03,-3.814484448949404666e-02,-9.019850982394911343e-02,-1.394223041664434670e-01,-1.461730326760990184e-01,-9.156888805759583194e-02,4.476052439665149929e-02,7.334186311012873272e-02
7.189014727406739524e-03,9.267686896346945258e-04,-2.943122014465109071e-03,-1.432628909723196280e-02,-3.604972479236782934e-02,-5.712437728056246611e-02,-6.055405329951223797e-02,-3.832795679957304302e-02,1.868834141516469149e-02,3.089977335199366182e-02,1.961322212100291562e-02,2.613028527493663211e-03,-8.211436222823623177e-03,-3.863605172009376698e-02,-9.602503577385126943e-02,-1.515764734080372600e-01,-1.605267395620985360e-01,-1.011839848746458881e-01,4.939135623942502579e-02,8.121894321628209124e-02
-2.921073963660064665e-03,8.533004858737140708e-03,-1.340596826977481434e-02,-8.348495739259213788e-03,3.270205252845958394e-02,8.620206972407473689e-02,1.086965499427114540e-01,7.499959049708872227e-02,-3.631029898528827932e-02,-5.966217712132985962e-02,1.901206188828186150e-02,3.035572057545475599e-03,-8.786739615022153005e-03,-3.819707197960452855e-02,-9.190340227692947450e-02,-1.429340509050642249e-01,-1.501548892182899830e-01,-9.426740410885256494e-02,4.593928607467886310e-02,7.614554885763619163e-02
8.459779419837568093e-03,-1.580174225852132297e-05,-1.650019500434127262e-03,-1.508297128442146091e-02,-4.460173507404852772e-02,-7.494276057656916457e-02,-8.165572717400332303e-02,-5.240114880892992461e-02,2.551557628298446734e-02,4.216736770403886614e-02,1.833030626453371892e-02,3.577699268131347143e-03,-9.537006321689581873e-03,-3.789908224383502222e-02,-8.738621490044931606e-02,-1.335503354375326412e-01,-1.392273005252235851e-01,-8.692235271187788437e-02,4.247784502494368619e-02,6.978663613944167954e-02
8.814317002730970296e-03,-2.835001567643644083e-04,-1.281240311658524839e-03,-1.529556172348567333e-02,-4.703724554993594931e-02,-8.001732032906108683e-02,-8.765866379409641140e-02,-5.639893355138383968e-02,2.744767391009382551e-02,4.539112232123325430e-02,1.804742406380321906e-02,3.789732425045641562e-03,-9.828368208018054691e-03,-3.773634235025034173e-02,-8.548542018876523207e-02,-1.295841284693030615e-01,-1.345398147240388642e-01,-8.378212860556852326e-02,4.095661062480664832e-02,6.725601534345578003e-02
7.388255815017522043e-03,7.749932974551072828e-04,-2.733652954506194180e-03,-1.444522274345006602e-02,-3.742696976111692386e-02,-5.999441770643609839e-02,-6.394214451175320169e-02,-4.060159165395289815e-02,1.978854479112407763e-02,3.273387678565832515e-02,1.976886476904898826e-02,2.496905629785675651e-03,-8.052109344630006826e-03,-3.872754849119013770e-02,-9.707212989341335030e-02,-1.537623094061383033e-01,-1.631123899729308435e-01,-1.029145002531128839e-01,5.023629661491624959e-02,8.257841599250949349e-02
8.262562213872851058e-03,1.382065084551582779e-04,-1.863199201536318295e-03,-1.496681560946384014e-02,-4.320707285409090825e-02,-7.203881054795188699e-02,-7.823758431940089353e-02,-5.008440267936814516e-02,2.439110851458941784e-02,4.031218178565033200e-02,1.743448570636157990e-02,4.248631487740760215e-03,-1.045864304310439516e-02,-3.737874659591718107e-02,-8.135535372825519751e-02,-1.209650978610455063e-01,-1.243466742167496086e-01,-7.696485028197549982e-02,3.762833026152891808e-02,6.192020682188409397e-02
-3.074840088746089162e-03,8.663965407065075258e-03,-1.359158906772150663e-02,-8.233586252746682294e-03,3.397967796672954344e-02,8.887242375493403790e-02,1.118989938449455185e-01,7.711046918862121680e-02,-3.740122726942345099e-02,-6.088590791180392703e-02,1.993585899167693576e-02,2.335567031683923045e-03,-7.822993447501730424e-03,-3.871852538535379418e-02,-9.814250498077202456e-02,-1.559482524302144846e-01,-1.655188110068036011e-01,-1.045335853142873306e-01,5.095679929373320149e-02,8.409068170972615330e-02
7.503745132588016120e-03,7.103360429760348371e-04,-2.650561728831277511e-03,-1.451905154954488686e-02,-3.802756991967780331e-02,-6.124686363241456377e-02,-6.548490059435548016e-02,-4.154836374643740282e-02,2.026429672529705961e-02,3.340124812612470934e-02,1.700706449592340186e-02,4.568964698251971879e-03,-1.089882482988374646e-02,-3.712826647480198944e-02,-7.846701232363181844e-02,-1.149386632208961312e-01,-1.172173605632391424e-01,-7.220381700976907791e-02,3.530235024016586953e-02,5.821073905918620894e-02
8.414148278400368497e-03,-2.237877419153377900e-06,-1.662282834557743394e-03,-1.504920470004612008e-02,-4.447032939508628602e-02,-7.467002444484115153e-02,-8.126212759983914014e-02,-5.223208709327414184e-02,2.542245279878134478e-02,4.207238190867165772e-02,2.055867126150490165e-02,1.906688916883642060e-03,-7.242219241374588112e-03,-3.919154141041537170e-02,-1.023890658875602488e-01,-1.648666757409265049e-01,-1.762456486247371279e-01,-1.117082738865787517e-01,5.455197085418865555e-02,8.934124315617671119e-02
8.322598644212170216e-03,8.110371786576586750e-05,-1.781455776977570321e-03,-1.500041699366952246e-02,-4.372283647408618107e-02,-7.310939571683333638e-02,-7.947458360452125392e-02,-5.096381043963212065e-02,2.481958389808636492e-02,4.098859497588230871e-02,1.900694530163848928e-02,3.069713778535793081e-03,-8.839155201434571729e-03,-3.829095737033118285e-02,-9.194591084553406513e-02,-1.430664347716468776e-01,-1.504771094876355686e-01,-9.445178929297863568e-02,4.614147350491912963e-02,7.573930314297286359e-02
-2.308366224618052520e-03,8.053786047267360443e-03,-1.274170339616514241e-02,-8.709486823048187554e-03,2.836348759777995027e-02,7.717985574365686385e-02,9.805767886160111912e-02,6.787247456817921409e-02,-3.287491753167195302e-02,-5.382269405816444280e-02,1.951730619240510389e-02,2.658989278027802661e-03,-8.269436936293235452e-03,-3.849211599450541588e-02,-9.529870127619924358e-02,-1.500205736618938912e-01,-1.585322556792740367e-01,-9.987516573973675982e-02,4.865867347334537629e-02,8.064244787518924651e-02
7.778262986616185648e-03,4.800776898845338092e-04,-2.327413612698480891e-03,-1.467456834686294356e-02,-4.009665867641585418e-02,-6.555628394172763329e-02,-7.050633308273757116e-02,-4.500959623225405520e-02,2.192185291293011901e-02,3.628805634206062197e-02,2.010900751811051101e-02,2.242829976255335256e-03,-7.703363220517969734e-03,-3.892697570799076578e-02,-9.936100219771336339e-02,-1.585414835039474224e-01,-1.687647100060354344e-01,-1.066984650421448078e-01,5.209025251025072023e-02,8.550676437249586648e-02
-1.801733950473269341e-03,7.690935714331416373e-03,-1.224782760070206207e-02,-9.003033539173904004e-03,2.512279136640213628e-02,7.037785976087294892e-02,9.007720259439966348e-02,6.248322898224216437e-02,-3.023588749370979128e-02,-4.965611612774017969e-02,1.891727877718996087e-02,3.108215500620757632e-03,-8.887659660542744644e-03,-3.815802149416801237e-02,-9.130204832626727385e-02,-1.416847061328736224e-01,-1.487034251893249448e-01,-9.329757241298494708e-02,4.546380632857920795e-02,7.540479082783646536e-02
-1.542404713325493115e-03,7.500169131211122803e-03,-1.198701310125906659e-02,-9.152582743393401776e-03,2.341344680507211756e-02,6.681105448430191274e-02,8.587848300818469449e-02,5.965311815656175465e-02,-2.886337372466039192e-02,-4.732695104060420654e-02,1.897141138923566506e-02,3.067665646833368787e-03,-8.830521869488940079e-03,-3.819068030678472725e-02,-9.168104606305309268e-02,-1.424762626669002774e-01,-1.496455405769499536e-01,-9.391966378730878806e-02,4.576665229852332900e-02,7.585045779273347222e-02
8.885594186927137095e-03,-3.337210904101814424e-04,-1.213347618161060570e-03,-1.533925102645251545e-02,-4.749450915773117260e-02,-8.096936495176920712e-02,-8.879500199498541191e-02,-5.713105777278467551e-02,2.779976440014023456e-02,4.599903995190052913e-02,1.728684305762701046e-02,4.360550910837986127e-03,-1.061226535830273737e-02,-3.729467751277591031e-02,-8.035898131318044979e-02,-1.188865361130576059e-01,-1.218902299795041611e-01,-7.531742440232370994e-02,3.683838524079183913e-02,6.055066780643963975e-02
9.553341319266550613e-03,-8.538240820682371779e-04,-4.920787229498561899e-04,-1.573856239831416398e-02,-5.223425075659778039e-02,-9.084287001805467499e-02,-1.004308027148053256e-01,-6.497415127199307472e-02,3.161442789049255520e-02,5.217760556204729949e-02,1.898261128563039080e-02,3.090273820520572645e-03,-8.868242258897304775e-03,-3.828234374536652884e-02,-9.177794003762257402e-02,-1.427203514131840656e-01,-1.500724565462359661e-01,-9.418059454270888420e-02,4.603917864119618647e-02,7.537008137022535581e-02
7.460697456064965816e-03,7.324835832733592178e-04,-2.678207183934419935e-03,-1.449080198980921483e-02,-3.781789747655634609e-02,-6.080849919848049789e-02,-6.493845731002792498e-02,-4.122557645028766121e-02,2.010124566514870023e-02,3.317897884048498502e-02,1.861202743690715256e-02,3.363803458825101456e-03,-9.243301023752106826e-03,-3.805818158250194594e-02,-8.928692697470430595e-02,-1.375152966869224169e-01,-1.439081092027827413e-01,-9.006018871748888710e-02,4.398317072741266681e-02,7.238923128840984988e-02
8.572751394942124126e-03,-1.220484740212697539e-04,-1.497510010770333050e-03,-1.514412519761413820e-02,-4.556007685656490724e-02,-7.694006901365946227e-02,-8.394392303142612921e-02,-5.403137210113712063e-02,2.629019269616139631e-02,4.355043011772324196e-02,2.058751747427201018e-02,1.886575076259250361e-03,-7.214829283278247074e-03,-3.920956855557464898e-02,-1.025755906856740673e-01,-1.652565903582953744e-01,-1.767069736955542147e-01,-1.120201942471397843e-01,5.470223041329670688e-02,8.961216478830373589e-02
9.724472197447875388e-03,-9.781879302741269822e-04,-3.225614897273305914e-04,-1.584353698064800212e-02,-5.336937583035230442e-02,-9.320060002578781089e-02,-1.032456912193419896e-01,-6.681056847752862848e-02,3.250762779678981196e-02,5.363237249366413495e-02,1.804388703949888484e-02,3.794016592891781559e-03,-9.834427897244882311e-03,-3.773695692875934232e-02,-8.545816944077540278e-02,-1.295296522114219862e-01,-1.344759906181307307e-01,-8.373689588395917538e-02,4.095335040475523575e-02,6.712049228287901570e-02
8.156007094439310379e-03,2.079147347680034008e-04,-1.956005770489738227e-03,-1.490204558631159915e-02,-4.257517955173788227e-02,-7.071828528663755276e-02,-7.664933436367193931e-02,-4.907151308371647536e-02,2.390145138961962540e-02,3.948952461321122293e-02,1.891311636919362771e-02,3.139340742047483368e-03,-8.935254265685664554e-03,-3.823628224076242726e-02,-9.131521286514868163e-02,-1.417496097930485144e-01,-1.489188189249505689e-01,-9.341083321237136916e-02,4.562910052349291451e-02,7.495841210074455363e-02
-2.348908963175411202e-03,8.089180672820890650e-03,-1.279214234126053312e-02,-8.670175387323158372e-03,2.874085029522070039e-02,7.796998295623830399e-02,9.902050811231195848e-02,6.850185458534316374e-02,-3.320775312167058985e-02,-5.414945730792281725e-02,2.012549531591550922e-02,2.199324877551700474e-03,-7.637365427870697332e-03,-3.883798498037260155e-02,-9.940223405764556097e-02,-1.585798575484831385e-01,-1.686379818395157271e-01,-1.066325708438491671e-01,5.194904976912868150e-02,8.596317294122790553e-02
8.189956154656966025e-03,1.715170556322552498e-04,-1.903232870320504394e-03,-1.491785699390708528e-02,-4.289388024786282283e-02,-7.138403305685778188e-02,-7.739514767103708448e-02,-4.962284715311150729e-02,2.415803328098250352e-02,3.998739685680688383e-02,2.013728226363314944e-02,2.222876773567319941e-03,-7.676221009556373487e-03,-3.894602733199567512e-02,-9.954936277375360520e-02,-1.589364801793181625e-01,-1.692349218564154212e-01,-1.070137239126642131e-01,5.225225168241907220e-02,8.571381540518727138e-02
8.289165481791149759e-03,9.973624824700585978e-05,-1.804619179519423994e-03,-1.497819400361074735e-02,-4.355296412571726256e-02,-7.275636656842782157e-02,-7.902844950045095906e-02,-5.070335806182135752e-02,2.468536549163351940e-02,4.083574100217221559e-02,1.985451259478471231e-02,2.433767511787469917e-03,-7.966457053366002294e-03,-3.878313909366929574e-02,-9.765272805779270926e-02,-1.549780826540936296e-01,-1.645567389876917141e-01,-1.038810479596838365e-01,5.073103481358712946e-02,8.321385096403841053e-02
7.411720783823003145e-03,7.688404567334668205e-04,-2.727981354463648520e-03,-1.446170254735751858e-02,-3.748890074507889303e-02,-6.012309363614849744e-02,-6.412686327060235225e-02,-4.068405993388148068e-02,1.983841003023679300e-02,3.274605954820625220e-02,1.866054395457772408e-02,3.327303304917830773e-03,-9.193153933454434323e-03,-3.808604788322373508e-02,-8.961370577013012817e-02,-1.381971282054566819e-01,-1.447137119384839243e-01,-9.059958666221246126e-02,4.424439412254715931e-02,7.282340465366707316e-02
7.811798146022799760e-03,4.605938916951574091e-04,-2.301901143545323492e-03,-1.469586527580794832e-02,-4.027741883282721924e-02,-6.593229146135028140e-02,-7.096838906190351681e-02,-4.529775690239595115e-02,2.206672111337558417e-02,3.649377472792725979e-02,1.961830979393108798e-02,2.610094456127649842e-03,-8.208217330069378370e-03,-3.864335180298948680e-02,-9.606190400099232085e-02,-1.516553881929985637e-01,-1.606256404671899674e-01,-1.012494050704388082e-01,4.943554885482241701e-02,8.121242470011100223e-02
8.231637069087471836e-03,1.353374912549699938e-04,-1.851977942346150208e-03,-1.494103635493105632e-02,-4.322012434930772723e-02,-7.206487046600139335e-02,-7.818154609563209012e-02,-5.017147178208401781e-02,2.441795363512581571e-02,4.046101472496146240e-02,2.057534989629572486e-02,1.894712455865851797e-03,-7.225651314002955183e-03,-3.920046323405473876e-02,-1.024969307052738116e-01,-1.650898412031763796e-01,-1.765079801032527484e-01,-1.118851290084605654e-01,5.462522589536721040e-02,8.956300170902585511e-02
7.435728134074684470e-03,7.618616754736379226e-04,-2.722112550669187822e-03,-1.447907490766486491e-02,-3.755812270513537304e-02,-6.026927827402921850e-02,-6.433151401050342388e-02,-4.077126707317287047e-02,1.988539755854474775e-02,3.278667543967804521e-02,1.679376995265383088e-02,4.729586064801095946e-03,-1.111910737233048896e-02,-3.700415267849108819e-02,-7.702654990939258872e-02,-1.119331646126926205e-01,-1.136639067714889928e-01,-6.982709542362713906e-02,3.414491246816893366e-02,5.633283775579969732e-02
-1.946360931920923520e-03,7.774140643504109938e-03,-1.235454528426457171e-02,-8.918365088491961301e-03,2.584800887290824439e-02,7.194492090570932252e-02,9.189901319628714094e-02,6.373718350814475131e-02,-3.089621306629874303e-02,-5.032489587963855093e-02,1.999836368084528804e-02,2.295573488979886501e-03,-7.770796737238086505e-03,-3.877154302706065786e-02,-9.855581479159898628e-02,-1.568174739930983663e-01,-1.665649769446194695e-01,-1.052476224354765566e-01,5.127265492876176972e-02,8.488053761633748695e-02
-1.780361769426558327e-03,7.675057081210780174e-03,-1.222628481448775201e-02,-9.015751790265896792e-03,2.497703449814846210e-02,7.008035538404600029e-02,8.973024363895125421e-02,6.224040662536317603e-02,-3.013269531945977214e-02,-4.929933469856281197e-02,1.907207546183459224e-02,2.990970402185634536e-03,-8.725120766247949911e-03,-3.824493966620564483e-02,-9.235322437689509611e-02,-1.438779830019050743e-01,-1.512958636865313344e-01,-9.502320067088465549e-02,4.630908623695363657e-02,7.668139631878773121e-02
8.872364008858268924e-03,-3.299284805653515673e-04,-1.216127663894190497e-03,-1.533010563142619964e-02,-4.746241550625613509e-02,-8.090314749512433901e-02,-8.869597127354614252e-02,-5.711262313108307620e-02,2.779378358771403615e-02,4.597405057094294117e-02,1.849162423467251570e-02,3.454762238811560915e-03,-9.369499806346683751e-03,-3.799588347446980485e-02,-8.848775879577773507e-02,-1.358502021301689067e-01,-1.419481612018705652e-01,-8.874224447831480234e-02,4.337239335430550374e-02,7.118057401708048626e-02
7.962939577545388725e-03,3.456571823711659941e-04,-2.143408677093377318e-03,-1.478474051640782556e-02,-4.131858920184926232e-02,-6.810156103281587991e-02,-7.352789788624566891e-02,-4.701725850431785758e-02,2.289890028814418541e-02,3.787679328747195484e-02,1.977662336249941255e-02,2.491725864976160332e-03,-8.045644240334805242e-03,-3.873590307315615683e-02,-9.712780457382454158e-02,-1.538808249375452908e-01,-1.632574986776505754e-01,-1.030108706259683371e-01,5.029798862399207510e-02,8.257530153597397726e-02
8.189962119296706478e-03,1.891795208380404880e-04,-1.932742168231440377e-03,-1.492362700520885078e-02,-4.274362852703871701e-02,-7.107082006099527116e-02,-7.708614046896432315e-02,-4.933386081199592210e-02,2.403255080240460431e-02,3.968508628460204468e-02,1.799203216376329961e-02,3.831152572997521821e-03,-9.885041691468986896e-03,-3.770164556347362778e-02,-8.510583866810084164e-02,-1.287912006255003405e-01,-1.335991316357041103e-01,-8.315736060089125303e-02,4.063956252375990758e-02,6.684164838589053137e-02
8.162250673395141098e-03,2.025833867586659953e-04,-1.948531516882713588e-03,-1.490553316342638560e-02,-4.262293145817445950e-02,-7.081774776251040238e-02,-7.676482781306111225e-02,-4.915161778595839026e-02,2.393961702058084937e-02,3.955705595242862277e-02,1.899062337573678705e-02,3.081515358852038311e-03,-8.855737426092330500e-03,-3.828115893341860199e-02,-9.183554092887889764e-02,-1.428355431787371177e-01,-1.502026115563922792e-01,-9.427021689226508516e-02,4.604705557544201688e-02,7.564103063327204390e-02
6.888724844081234311e-03,1.167086425943993089e-03,-3.277864438550147710e-03,-1.415371091428898470e-02,-3.388279852059047914e-02,-5.261148667893357500e-02,-5.526301728217097864e-02,-3.472913328573007385e-02,1.695753389751888246e-02,2.792654471183300680e-02,1.772108007083186831e-02,4.032268096409052927e-03,-1.016097961147883338e-02,-3.753896175710726146e-02,-8.327824565612569618e-02,-1.249766619733353179e-01,-1.290814538982031634e-01,-8.014282972960400098e-02,3.914753623724715609e-02,6.459077149927405781e-02
7.461597740668610146e-03,7.284644309806243001e-04,-2.672052979100473721e-03,-1.449040569748447603e-02,-3.785071092878145721e-02,-6.087658343827727359e-02,-6.500977030440080462e-02,-4.128544377271473748e-02,2.012738170412281882e-02,3.324246373962375795e-02,1.898456483988300580e-02,3.085158655617467605e-03,-8.860180167751453839e-03,-3.827361091290790857e-02,-9.179165381492201958e-02,-1.427422319801821826e-01,-1.500869591444383977e-01,-9.419533147117958860e-02,4.599481369399491953e-02,7.566607021737044303e-02
-1.698494899362024135e-03,7.614302177846397207e-03,-1.214317309466834624e-02,-9.061664003704891085e-03,2.443748313212511930e-02,6.895543745523612100e-02,8.840689780424512700e-02,6.135040402436790774e-02,-2.970290511615324147e-02,-4.856975238767967384e-02,1.913691366877351419e-02,2.942790364179714846e-03,-8.658682655061103461e-03,-3.828269253736467370e-02,-9.278943092676271431e-02,-1.447881722853306963e-01,-1.523721582523287488e-01,-9.574309495940939996e-02,4.665825967409322622e-02,7.725698041771934810e-02
7.917437708721386525e-03,3.670800367270160569e-04,-2.169412382102036546e-03,-1.475446751627476974e-02,-4.111767802041294689e-02,-6.768567741644773705e-02,-7.299449552668677010e-02,-4.670876977237357203e-02,2.273895138316237713e-02,3.767858253966571702e-02,2.079994559710679480e-02,1.724429664389820482e-03,-6.991408125275724861e-03,-3.932807302584606646e-02,-1.040157898437678030e-01,-1.682594527763675296e-01,-1.802520229221201142e-01,-1.143894092321478123e-01,5.584531251236321547e-02,9.152320074396562422e-02
7.952315682165089772e-03,3.494785320769452919e-04,-2.147370914631165084e-03,-1.477762129688275222e-02,-4.128343555939886084e-02,-6.802885885378567865e-02,-7.342832381700251099e-02,-4.696720078580400581e-02,2.287064695205061338e-02,3.785828320533995289e-02,2.013957671831978491e-02,2.219087170810020437e-03,-7.671447408765866283e-03,-3.894655334557126786e-02,-9.957376394311470702e-02,-1.589863718348522303e-01,-1.692920379895764826e-01,-1.070516638574451895e-01,5.226562222790576140e-02,8.576937801684703100e-02
7.695872984998589073e-03,5.543391982607594193e-04,-2.432854377161633441e-03,-1.462921592994725038e-02,-3.943067510993774477e-02,-6.416795496599439486e-02,-6.890510307941734303e-02,-4.388747542176746341e-02,2.138958057454366790e-02,3.532614697774144608e-02,1.885387341263372596e-02,3.183176857675433513e-03,-8.995123672356258177e-03,-3.819939043860109962e-02,-9.091438950259853047e-02,-1.409119960257030346e-01,-1.479253576202207709e-01,-9.274755471965756559e-02,4.529560495633572215e-02,7.449117421004748663e-02
7.708744378451481971e-03,5.328456297171470235e-04,-2.399684247239942947e-03,-1.463412482010474636e-02,-3.962275025808116580e-02,-6.456878368387680700e-02,-6.934141992172940250e-02,-4.422690624652923785e-02,2.154313318048304421e-02,3.565861988116109799e-02,2.003657180333157095e-02,2.296270107953558848e-03,-7.777148489085485006e-03,-3.888516868807336685e-02,-9.887759270272815371e-02,-1.575319418799105420e-01,-1.675708339811769476e-01,-1.058994864963987148e-01,5.169676401722181347e-02,8.490374435567842049e-02
9.274200721426401062e-03,-6.411805837061718139e-04,-7.854135458655840674e-04,-1.556916170637437369e-02,-5.029285344125727919e-02,-8.680069807275404836e-02,-9.564367688428554448e-02,-6.179289076490562110e-02,3.006037390637279066e-02,4.972978967240865300e-02,1.928473519634252287e-02,2.863184258858196551e-03,-8.556673024335277600e-03,-3.845733371828095881e-02,-9.381310468046497042e-02,-1.469672758394771628e-01,-1.550922199679425906e-01,-9.754375243398333284e-02,4.766886497451054694e-02,7.808050447253353510e-02
8.775018863000139113e-03,-2.742288358137945359e-04,-1.287918406081396683e-03,-1.526553835728830869e-02,-4.694718883199515413e-02,-7.982966752798237309e-02,-8.736365827807955620e-02,-5.631720720463763430e-02,2.739973254920267248e-02,4.537560302182853944e-02,2.050090748925803563e-02,1.951864093669916644e-03,-7.304776437671682554e-03,-3.916066150239835147e-02,-1.019922226295170292e-01,-1.640400639855219833e-01,-1.752701618332417610e-01,-1.110588319422789877e-01,5.423925018183980984e-02,8.882524850051133625e-02
9.514015421103333425e-03,-8.220752645113696411e-04,-5.362933259448129930e-04,-1.571582308838684328e-02,-5.194850075081462737e-02,-9.024692489667981987e-02,-9.972734719244316648e-02,-6.450527337710433573e-02,3.137988660776717953e-02,5.187338990015231965e-02,1.891574751785396469e-02,3.139788919300182113e-03,-8.936751754590605001e-03,-3.824405533041159294e-02,-9.133047336923341697e-02,-1.417858531905335506e-01,-1.489672361865972960e-01,-9.344179090908856511e-02,4.567495167071237983e-02,7.482160072560309350e-02
8.983474737583874159e-03,-4.128230769455468185e-04,-1.102307414123617629e-03,-1.539650017896367767e-02,-4.821593786829084238e-02,-8.247286432093202391e-02,-9.055385556406510272e-02,-5.834800739556975785e-02,2.839243055769068505e-02,4.696469501241457012e-02,1.834286908194157628e-02,3.568188468342690933e-03,-9.524588125566422342e-03,-3.790894614158976661e-02,-8.747567351756219134e-02,-1.337381543298955255e-01,-1.394514259531018097e-01,-8.707050561616902495e-02,4.256114967603616406e-02,6.984409311007626353e-02
-2.266900008802613664e-03,8.047643486024234905e-03,-1.274017780750831205e-02,-8.740259997930297647e-03,2.830485957507202638e-02,7.700304377438461911e-02,9.787067951202298166e-02,6.771173710064011531e-02,-3.275219561307602528e-02,-5.394174174889163065e-02,1.824786804237440996e-02,3.609544551739979346e-03,-9.576159739254578446e-03,-3.777070675914509512e-02,-8.679995602066736815e-02,-1.322919429610815156e-01,-1.376067609776244205e-01,-8.586893800000015842e-02,4.185862832693587610e-02,6.944975031326330872e-02
7.471420100389786212e-03,7.300015193444746309e-04,-2.676856447867588529e-03,-1.449841874799433911e-02,-3.784126718599475220e-02,-6.085753491094691298e-02,-6.501276084673450473e-02,-4.125217410141364394e-02,2.011805165768731224e-02,3.317800135566061764e-02,1.782697566452037807e-02,3.954146313972929649e-03,-1.005383579328219049e-02,-3.760280316052971861e-02,-8.398981352259235478e-02,-1.264618925342066713e-01,-1.308408855177423391e-01,-8.131701369864688389e-02,3.973080974982803187e-02,6.545922493955397270e-02
9.598547444116312111e-03,-8.792029320875693887e-04,-4.598005886274729448e-04,-1.576728438064262106e-02,-5.246567987119557519e-02,-9.132040674359198640e-02,-1.010211933282175595e-01,-6.532483908974849596e-02,3.178043793328645672e-02,5.251309497310616137e-02,1.793044727546891370e-02,3.878783057646287280e-03,-9.951036878513407763e-03,-3.767088077713193900e-02,-8.469419590751350868e-02,-1.279347413685439361e-01,-1.325898570020358214e-01,-8.247555913698266516e-02,4.033568571374849393e-02,6.614929589021001366e-02
8.915821095046599920e-03,-3.671945789825124817e-04,-1.163769192181342282e-03,-1.535346337446956248e-02,-4.779496874892569941e-02,-8.159661227836784159e-02,-8.949765138848921053e-02,-5.767968337022845449e-02,2.806710081675428334e-02,4.643523011014330515e-02,1.918915923976907689e-02,2.934357941232625111e-03,-8.653977443692638383e-03,-3.840001355838421754e-02,-9.317011876870269493e-02,-1.456234385785413754e-01,-1.535024598374941929e-01,-9.647852788240758592e-02,4.714088858586668734e-02,7.728692940674670997e-02
7.764101193197633921e-03,5.098151409850051885e-04,-2.373918681555330437e-03,-1.467145027185305824e-02,-3.983701668784146027e-02,-6.501480531740279345e-02,-6.992757024651766184e-02,-4.454195258095081100e-02,2.171162861045536699e-02,3.582683140437523117e-02,1.790691249408599139e-02,3.894504301007128966e-03,-9.971959004567324675e-03,-3.765043185148295862e-02,-8.453017911245833127e-02,-1.275896327163956179e-01,-1.321760883900929273e-01,-8.220806600511201823e-02,4.016972064883410354e-02,6.613388488388009800e-02
9.455205346027673041e-03,-7.770833780836941540e-04,-5.985234490457035095e-04,-1.567974940962732489e-02,-5.153613995935146103e-02,-8.938834548053795070e-02,-9.871165019647694383e-02,-6.382812109386692967e-02,3.105002206473991833e-02,5.134173065580790313e-02,1.895952918126264652e-02,3.107852447913415916e-03,-8.892450814186513008e-03,-3.826877051909412936e-02,-9.161986034576544147e-02,-1.423896224079426731e-01,-1.496809870379426921e-01,-9.391974573294191442e-02,4.590646121575758104e-02,7.520571927130695333e-02
7.091003428847900136e-03,1.010507477985544272e-03,-3.060664319396074959e-03,-1.427274786081464061e-02,-3.530173845196312582e-02,-5.556685362840797782e-02,-5.874509629514795134e-02,-3.707577992686470619e-02,1.809117971593258989e-02,2.983525473826506569e-02,1.839124092498758967e-02,3.528564426558557232e-03,-9.469279636988611748e-03,-3.792827630014902751e-02,-8.780150870232818205e-02,-1.344149448205694819e-01,-1.402406927482463539e-01,-8.760638642297738365e-02,4.278091010507818065e-02,7.048307873325024286e-02
8.848093671025014650e-03,-3.088654437021567944e-04,-1.246491225026066102e-03,-1.531558906000095137e-02,-4.726696094358616429e-02,-8.049590625154595669e-02,-8.822152373126530833e-02,-5.678183348668196934e-02,2.763375989063228746e-02,4.571124779681677575e-02,1.814215098823163119e-02,3.719335668992886090e-03,-9.731708925123851162e-03,-3.779139359701335493e-02,-8.611908937200218883e-02,-1.309066285739348412e-01,-1.361031712913822189e-01,-8.482966347614162572e-02,4.146707189072570965e-02,6.808927908665385331e-02
7.250826558909434505e-03,8.779521026541746431e-04,-2.875121462638501740e-03,-1.436268119921621685e-02,-3.649281687168869082e-02,-5.804771902650514986e-02,-6.163880096503096540e-02,-3.906215835066857711e-02,1.904218405568059228e-02,3.149924612746758668e-02,1.982291668126007211e-02,2.455771764743236441e-03,-7.995594005663846093e-03,-3.875810910660298925e-02,-9.743786585213784490e-02,-1.545251560526251233e-01,-1.640126903808237224e-01,-1.035173971503241808e-01,5.052647380422581325e-02,8.307220275085777650e-02
8.622638959321193841e-03,-1.454941335419478177e-04,-1.469353551780724909e-03,-1.517887682091827173e-02,-4.578103764637228568e-02,-7.739840119837815280e-02,-8.453932786952324252e-02,-5.436251198253758826e-02,2.646320480408343237e-02,4.375502322034934000e-02,1.914999390981195204e-02,2.963570112900423825e-03,-8.693806754766372769e-03,-3.837573462877962721e-02,-9.290444606755800250e-02,-1.450678239403906944e-01,-1.528441195494289473e-01,-9.603812231088673657e-02,4.691829369969621744e-02,7.698509536366555939e-02
-2.622545365317641153e-03,8.300614027861804439e-03,-1.308411427718507436e-02,-8.534045672860420678e-03,3.056078880062668840e-02,8.174955499242018975e-02,1.034347751532811860e-01,7.146984474248685437e-02,-3.461767580345702366e-02,-5.664311317429367165e-02,1.893803939302596273e-02,3.091296803361696932e-03,-8.862533339815993616e-03,-3.815700073782495039e-02,-9.141731043847135807e-02,-1.419235866083208286e-01,-1.489692861902869314e-01,-9.346775426111686436e-02,4.556108895073932019e-02,7.539704777121712664e-02
-2.391920005087339041e-03,8.126868581130871488e-03,-1.284565811268845517e-02,-8.647118017254821348e-03,2.907332607348249442e-02,7.866282086117930283e-02,9.983759724530034962e-02,6.903944890407814894e-02,-3.348533245922544199e-02,-5.441566051198420267e-02,2.003020971299507291e-02,2.268522394702786327e-03,-7.731571624056597647e-03,-3.878171571435511111e-02,-9.877732994247985510e-02,-1.572773548750998340e-01,-1.671011550080685470e-01,-1.055963274826492715e-01,5.146136401640692692e-02,8.499864680781790693e-02
-1.906180857340858403e-03,7.768780938276594744e-03,-1.235493052957373737e-02,-8.941790972775157109e-03,2.582388758590915823e-02,7.184241867950053040e-02,9.180242881075767469e-02,6.364284831786337637e-02,-3.079960878950572384e-02,-5.058138681874012332e-02,1.893869194762079489e-02,3.094127921810990722e-03,-8.867431656915981952e-03,-3.816791361292416057e-02,-9.143007169528451217e-02,-1.419511868549565847e-01,-1.490159460996360041e-01,-9.350698511091617982e-02,4.556482753719411777e-02,7.557818256329237872e-02
